//Numpy array shape [3, 3, 1, 32]
//Min -1.000000000000
//Max 0.984375000000
//Number of zeros 4

#ifndef W2_H_
#define W2_H_

#ifndef __SYNTHESIS__
weight2_t w2[288];
#else
weight2_t w2[288] = {0.234375, 0.468750, -0.312500, -0.750000, 0.015625, 0.953125, -0.406250, -0.515625, 0.453125, 0.000000, -0.203125, 0.140625, -0.203125, 0.265625, 0.171875, 0.171875, 0.171875, -0.062500, -0.187500, 0.421875, -0.359375, 0.390625, -0.453125, 0.140625, 0.312500, 0.156250, -0.140625, -0.281250, 0.312500, -0.093750, -0.421875, 0.296875, 0.390625, -0.343750, 0.328125, 0.281250, -0.187500, -0.218750, 0.656250, -0.046875, 0.203125, -0.250000, -0.046875, 0.187500, -0.031250, -0.109375, 0.046875, -0.531250, 0.562500, 0.437500, 0.546875, 0.062500, -0.593750, -0.578125, -0.437500, 0.781250, -0.109375, 0.265625, -0.218750, -0.640625, 0.140625, 0.078125, -0.593750, 0.250000, 0.234375, -0.375000, -0.234375, 0.109375, -0.062500, 0.203125, 0.062500, -0.109375, -0.078125, -0.296875, -0.015625, -0.281250, -0.046875, 0.531250, -0.203125, 0.312500, 0.265625, 0.515625, -0.640625, -0.687500, 0.937500, 0.984375, -0.390625, 0.015625, 0.265625, -0.437500, -0.984375, 0.187500, -0.468750, 0.968750, 0.484375, 0.234375, 0.812500, 0.328125, 0.281250, -0.265625, -0.062500, 0.562500, -0.140625, -0.015625, 0.156250, 0.625000, -0.796875, 0.328125, -0.062500, -0.656250, 0.546875, -0.890625, -0.156250, -0.046875, 0.156250, 0.484375, 0.562500, 0.515625, 0.406250, -0.203125, 0.171875, -0.640625, -0.078125, 0.187500, 0.140625, -0.625000, -0.265625, 0.234375, -0.171875, -0.125000, 0.203125, -0.125000, 0.375000, 0.093750, -0.125000, -0.062500, -0.265625, -0.281250, 0.968750, -0.656250, -0.812500, -0.890625, -0.234375, 0.703125, -0.796875, -0.796875, -0.265625, -0.468750, -0.125000, 0.546875, 0.546875, 0.078125, -0.875000, 0.156250, -0.375000, 0.375000, -0.718750, 0.359375, 0.625000, 0.171875, -0.578125, 0.140625, -0.109375, 0.484375, -0.281250, 0.640625, 0.562500, 0.984375, -0.406250, -0.578125, 0.281250, 0.265625, -0.406250, 0.000000, -0.703125, -0.140625, 0.671875, -0.671875, 0.828125, -0.796875, 0.062500, -0.390625, 0.687500, -0.343750, 0.093750, 0.093750, -0.109375, 0.015625, 0.046875, 0.156250, -0.125000, -0.578125, -0.437500, 0.468750, -0.156250, 0.406250, 0.171875, -0.156250, -0.468750, -0.328125, -0.281250, -0.250000, 0.515625, -0.234375, -0.093750, -0.859375, -0.093750, -0.687500, 0.468750, -0.265625, 0.125000, 0.234375, -0.078125, -0.062500, -0.281250, -0.093750, -0.640625, -0.078125, 0.437500, 0.453125, -0.187500, -0.390625, -0.484375, -0.484375, -0.562500, 0.062500, 0.296875, -0.296875, -0.281250, 0.562500, -0.187500, -0.031250, -0.328125, 0.656250, 0.359375, 0.359375, -0.484375, 0.046875, -0.234375, -0.031250, -0.062500, 0.218750, -0.437500, 0.171875, 0.062500, 0.000000, 0.250000, 0.203125, -0.546875, 0.328125, 0.093750, -0.203125, 0.703125, -0.703125, -0.484375, -0.109375, 0.718750, -0.640625, -0.453125, 0.203125, 0.062500, -0.015625, 0.609375, -0.859375, -0.484375, 0.343750, 0.078125, 0.171875, -1.000000, 0.000000, 0.437500, 0.171875, -0.437500, 0.312500, -0.031250, -0.281250, 0.609375, -0.156250, -0.171875, -0.046875, -0.750000, 0.203125, 0.250000, 0.375000, -0.812500, -0.031250, 0.140625, 0.156250};
#endif

#endif
