//Numpy array shape [3, 3, 32, 64]
//Min -0.122443296015
//Max 0.124413304031
//Number of zeros 0

#ifndef W6_H_
#define W6_H_

#ifndef __SYNTHESIS__
conv2d_1_weight_t w6[18432];
#else
conv2d_1_weight_t w6[18432] = {-0.043543, 0.018468, -0.077496, 0.055400, -0.053550, -0.020702, -0.005454, -0.080130, 0.050497, -0.039545, -0.032215, 0.063713, -0.031203, -0.062817, 0.027048, -0.066211, -0.019345, 0.017366, -0.074690, -0.074152, 0.074658, 0.053089, 0.039857, -0.013319, -0.049413, -0.061656, 0.049991, -0.002421, -0.051075, -0.020187, 0.007298, 0.004427, 0.096689, 0.051298, -0.026537, -0.063859, -0.036105, -0.065070, -0.062032, 0.019041, 0.044796, -0.094758, 0.085689, -0.008698, -0.028728, -0.088528, -0.067342, -0.094645, -0.023427, -0.037345, -0.046020, 0.061374, 0.092726, -0.060448, 0.037941, -0.022821, 0.006660, -0.082283, -0.017046, -0.043929, -0.024615, -0.051307, -0.001217, -0.049267, -0.032151, -0.075841, -0.048843, 0.022166, 0.020999, 0.074620, -0.001802, -0.039705, -0.002580, 0.047592, 0.042340, -0.068213, -0.037502, 0.004502, -0.024075, -0.052633, 0.019496, 0.006394, -0.008752, -0.070469, -0.003919, 0.097204, 0.021435, 0.024914, 0.055089, -0.062367, -0.050206, 0.003885, -0.036334, 0.045510, 0.041450, -0.079871, -0.035636, 0.064888, -0.057618, 0.046105, -0.085093, 0.036558, -0.056491, 0.036354, -0.055664, 0.008089, -0.022002, 0.015605, -0.032582, 0.082604, -0.026485, -0.058806, 0.073273, 0.020780, 0.082797, 0.061225, 0.079040, -0.012913, 0.039002, 0.048421, 0.011503, -0.074618, -0.004256, -0.037325, 0.048605, 0.060465, -0.093650, -0.062710, -0.021700, -0.059212, -0.060111, -0.011410, 0.046746, -0.019313, -0.055622, 0.006789, -0.040277, -0.088333, -0.040508, -0.001642, 0.012319, 0.013395, 0.008238, -0.062905, 0.033519, 0.047174, -0.015478, -0.017849, 0.019343, -0.005719, -0.005626, 0.046441, -0.011944, -0.020882, 0.024543, 0.055786, -0.042406, -0.018744, -0.087038, -0.014569, 0.099705, -0.027586, -0.082568, -0.019664, -0.002702, -0.058274, 0.046898, -0.074444, 0.066977, -0.017969, -0.065645, 0.054263, -0.054065, 0.046407, -0.001583, -0.027964, 0.012444, 0.072867, 0.068190, 0.051209, 0.083637, 0.051764, -0.000909, -0.062295, 0.077723, -0.097900, -0.068242, 0.006179, -0.044604, 0.018790, 0.026036, -0.009686, 0.071114, -0.060387, -0.040252, -0.082272, 0.048257, -0.020947, -0.074101, -0.017169, -0.007226, -0.083328, -0.044272, 0.023821, -0.018391, -0.012227, -0.057144, -0.057265, -0.037393, 0.060318, -0.085755, 0.036107, -0.057467, -0.020954, -0.049301, -0.017013, 0.041675, -0.102493, -0.060736, 0.048155, 0.049247, -0.060368, -0.072207, -0.033910, 0.083673, 0.063056, 0.077982, -0.012936, 0.032410, -0.028386, 0.053280, 0.001076, 0.060383, 0.029310, 0.025926, -0.070409, 0.072102, -0.002721, 0.052268, 0.016203, 0.038112, -0.016323, -0.072839, 0.037335, 0.060125, 0.009949, 0.012608, 0.006485, -0.087030, -0.077030, -0.059207, -0.047281, -0.024610, 0.013963, 0.022858, -0.106561, -0.035365, -0.030003, 0.040127, -0.011060, -0.011888, -0.017031, -0.091761, -0.029357, -0.082359, 0.003346, 0.033097, -0.077517, 0.001326, -0.008745, 0.016282, -0.066705, 0.007440, 0.068031, -0.032123, 0.055438, -0.050824, 0.079490, -0.010212, -0.064345, -0.034487, -0.052038, 0.039427, -0.047439, 0.015029, 0.069822, 0.001302, -0.020532, -0.066348, -0.007733, 0.015876, -0.011693, -0.076932, 0.060130, -0.057160, 0.045037, -0.056495, -0.042705, 0.026000, -0.023533, -0.055334, -0.019665, 0.077431, -0.057045, -0.041244, 0.024355, 0.072510, -0.020341, -0.006099, 0.077822, -0.020595, 0.053345, -0.007737, 0.063124, -0.015745, -0.066697, -0.035676, -0.012349, -0.081370, 0.043378, 0.053037, -0.013781, -0.025100, -0.069681, -0.013567, 0.014707, -0.033892, -0.049230, -0.005404, -0.039516, 0.001077, 0.004765, 0.048548, -0.026876, 0.026668, -0.112733, -0.008434, 0.081215, 0.042254, -0.034954, -0.036337, 0.018110, 0.061524, 0.018659, 0.070041, -0.041690, 0.076816, -0.066107, 0.027029, 0.055775, -0.012904, -0.018222, 0.068635, -0.007772, -0.030525, -0.084072, -0.091095, 0.067281, 0.032418, -0.042198, -0.093474, -0.074935, -0.045410, 0.091790, 0.002570, -0.099474, 0.037313, 0.026267, 0.033060, 0.090508, -0.041589, 0.064435, -0.005742, 0.011331, 0.000727, 0.041441, 0.006745, 0.029915, -0.041921, 0.009952, 0.014441, -0.013206, -0.005123, -0.036036, 0.033502, 0.019333, -0.009789, 0.005630, 0.035714, -0.023641, -0.039660, -0.030583, -0.069930, 0.046768, -0.062437, 0.044782, -0.043683, -0.042136, -0.082397, -0.038267, 0.088902, -0.049218, 0.000113, 0.046715, 0.056835, -0.021640, 0.041364, -0.066218, -0.031153, -0.074914, -0.060241, -0.044532, -0.005747, -0.033336, 0.066046, -0.095595, 0.093308, 0.035572, -0.065614, 0.023180, 0.022197, -0.046998, -0.120716, 0.053695, -0.096770, -0.002150, 0.029907, 0.080333, 0.006753, -0.068906, -0.108637, 0.006669, 0.077667, 0.108758, -0.003620, 0.065000, 0.031442, 0.003803, -0.011226, 0.016636, 0.045615, -0.075638, -0.089550, -0.062194, 0.020779, -0.052887, -0.108199, 0.014354, 0.076002, -0.089562, -0.013260, 0.007450, -0.066867, 0.027293, -0.090290, -0.025088, -0.079433, -0.050464, 0.049662, -0.017679, -0.010306, -0.081905, 0.016672, -0.107791, 0.027612, 0.051585, -0.081116, 0.015271, 0.015377, 0.119733, 0.009602, -0.053148, -0.075004, -0.018858, 0.031262, -0.090918, -0.072556, 0.023697, 0.026071, 0.013176, -0.055535, -0.031650, -0.068599, 0.046124, 0.012056, 0.055628, 0.048347, 0.057117, -0.016377, -0.043851, -0.043299, -0.060391, -0.040015, -0.005775, 0.046821, -0.027025, 0.104501, -0.006692, -0.046910, 0.054451, 0.051250, -0.051460, 0.057340, 0.022448, 0.030674, 0.021662, -0.012370, 0.032530, -0.061414, 0.078374, -0.094404, -0.082775, -0.021263, -0.100245, 0.057890, 0.069911, 0.028026, 0.054546, -0.092944, 0.069810, 0.011135, -0.066622, -0.014227, 0.028270, -0.000601, 0.015656, 0.008895, -0.030589, -0.019309, 0.056456, -0.059957, -0.015748, -0.071989, 0.067504, 0.086785, -0.013065, 0.039512, -0.016196, -0.012865, 0.047890, 0.050442, 0.045427, -0.063534, 0.044387, 0.062545, 0.013180, 0.025704, -0.007217, -0.053812, -0.042787, -0.043673, 0.069738, 0.039820, 0.029963, 0.008300, 0.051937, 0.050539, -0.038641, 0.045357, 0.049463, -0.048438, 0.003749, 0.060910, 0.028111, -0.003131, 0.111871, 0.057479, -0.022170, -0.003525, -0.072003, -0.049781, -0.060027, 0.006349, 0.005212, -0.012364, -0.065748, -0.063221, 0.029730, -0.031177, -0.013278, -0.032535, 0.042634, 0.002145, 0.059240, -0.018564, 0.030907, -0.072074, 0.077120, -0.057236, 0.035061, 0.028342, -0.055744, 0.046056, -0.025737, 0.040725, 0.044345, 0.041880, 0.069013, -0.051281, -0.064190, 0.078423, -0.074902, 0.046523, -0.041306, -0.038778, 0.038844, -0.044924, -0.052803, -0.047790, 0.087958, -0.049988, -0.022370, -0.025563, 0.052143, -0.039885, -0.049114, 0.022635, 0.043417, 0.044155, 0.050651, -0.078395, 0.059191, -0.015767, -0.008210, 0.072696, 0.035157, 0.007086, -0.081698, -0.062693, -0.078760, -0.063254, 0.002371, -0.053871, 0.019198, 0.070250, 0.048539, 0.048868, -0.072331, 0.031050, -0.012772, 0.068620, -0.083080, 0.057534, 0.044698, -0.041739, 0.026319, 0.037049, 0.002695, 0.069005, 0.046893, -0.054735, 0.003956, 0.080173, 0.059201, -0.075230, 0.029885, -0.014749, -0.062987, -0.072411, 0.067024, -0.069156, -0.067081, -0.063022, -0.003223, 0.083610, 0.065270, 0.049661, -0.020423, 0.044861, -0.024807, 0.054281, 0.058538, -0.030907, -0.036834, -0.015502, 0.074996, 0.054937, 0.021291, 0.005549, 0.054129, 0.018101, 0.005270, 0.001462, -0.036255, 0.037606, 0.062048, 0.062301, 0.025699, 0.042662, 0.023491, 0.018767, -0.041088, -0.005924, -0.033345, 0.030999, -0.055098, 0.025779, 0.032311, -0.014762, -0.016705, 0.068329, -0.060426, 0.073882, -0.013278, -0.018234, 0.014143, 0.016997, 0.003893, -0.033160, 0.014074, -0.035939, -0.010996, 0.015629, 0.018124, 0.058754, 0.066518, 0.002559, 0.065882, -0.025905, -0.063898, -0.015373, -0.073754, -0.058775, 0.033329, -0.062501, 0.052174, 0.004353, 0.023172, -0.009516, -0.011331, 0.016882, -0.070874, 0.061871, -0.022440, 0.049505, 0.036040, 0.000525, -0.067991, -0.002381, -0.021175, 0.024285, 0.033944, 0.044237, 0.018611, 0.055361, 0.026796, -0.074180, 0.019101, 0.037438, -0.004743, 0.002159, -0.056292, 0.008171, 0.065242, -0.078215, 0.027554, -0.064671, -0.033628, 0.077748, -0.039814, 0.041112, -0.057124, 0.034311, -0.036308, 0.046826, -0.021963, -0.008505, -0.029082, -0.000249, -0.073439, -0.061884, 0.010529, -0.030812, -0.038132, -0.092433, -0.096173, 0.003601, -0.072844, 0.076014, -0.045033, -0.031672, -0.088693, -0.040311, -0.062767, -0.043117, 0.007569, -0.073790, -0.006184, -0.014301, 0.039919, 0.018018, -0.026232, 0.069583, 0.010736, -0.057265, -0.069815, 0.017988, 0.022771, 0.019908, 0.048806, 0.052670, -0.022765, -0.070109, 0.061402, -0.061610, -0.038609, -0.061547, 0.038456, 0.040929, 0.004103, 0.055694, -0.007876, -0.058203, -0.091949, 0.004174, -0.092679, 0.060757, 0.023340, 0.046849, 0.017641, -0.009951, 0.023875, -0.046585, -0.055530, -0.001496, -0.006768, 0.003642, -0.096255, 0.046904, 0.089141, 0.056876, -0.020321, 0.047791, 0.019702, -0.010976, -0.085369, 0.033596, 0.080129, 0.031290, 0.012980, -0.062963, 0.015415, -0.068350, -0.029218, -0.054226, -0.030285, 0.035782, -0.113844, -0.035645, 0.085715, -0.051674, -0.056756, -0.042546, 0.021877, -0.010176, -0.050856, -0.071191, -0.053186, -0.015606, -0.073449, -0.047376, 0.033179, -0.069293, -0.011342, -0.018470, -0.040678, -0.060293, 0.000943, -0.048207, 0.034381, -0.067366, 0.014493, -0.089693, 0.008092, 0.079421, -0.028507, -0.027012, 0.033818, 0.022934, -0.108188, -0.039067, 0.096282, -0.004810, 0.026162, -0.061700, 0.000790, -0.047775, 0.005506, 0.031301, 0.040344, -0.025976, -0.014450, 0.006623, -0.069953, -0.091964, -0.098178, -0.030438, -0.100366, -0.030481, -0.051393, -0.060449, 0.062271, -0.029045, 0.057502, 0.034350, 0.002188, -0.035089, 0.066732, 0.078953, -0.048230, -0.036333, 0.030263, 0.036737, -0.058863, 0.044299, 0.051118, -0.003521, 0.073126, 0.062157, 0.034342, 0.036096, 0.010538, -0.014072, -0.063123, 0.092989, -0.011509, 0.002367, 0.039387, 0.102085, -0.071100, -0.038872, -0.026665, 0.028373, 0.020869, 0.020694, -0.038171, -0.015315, 0.000675, 0.016792, 0.043818, -0.044872, -0.051063, -0.004307, 0.049071, 0.000681, -0.008119, -0.056707, 0.058350, 0.026381, 0.078266, -0.027105, 0.035975, -0.014005, -0.060507, 0.016133, -0.114847, 0.026717, -0.071696, -0.002680, -0.059992, 0.113358, 0.004335, -0.005274, -0.062017, -0.084687, 0.054004, 0.011142, -0.058097, 0.009611, -0.014822, -0.005135, 0.070314, -0.010438, -0.097449, -0.041760, -0.010226, -0.005940, 0.074648, -0.000650, -0.014449, 0.000960, -0.030761, -0.011859, 0.022719, -0.041716, 0.018756, -0.042434, 0.020637, -0.046317, 0.046328, -0.070990, -0.090765, -0.037924, -0.083182, -0.083355, -0.036574, 0.004142, -0.012710, 0.042239, -0.023294, -0.091229, -0.100616, -0.019650, 0.006495, 0.053155, -0.003699, 0.046711, -0.047254, 0.098526, -0.010951, 0.000560, 0.067354, 0.066992, 0.076407, -0.038747, -0.076471, -0.000686, 0.014693, 0.008828, -0.062859, -0.062476, -0.045508, 0.012014, -0.000094, 0.014853, 0.034551, 0.016715, 0.038994, -0.034953, -0.058193, -0.010743, 0.010393, 0.026641, -0.083320, -0.090327, 0.017658, -0.027462, -0.048466, -0.015790, 0.001268, 0.057666, 0.026216, 0.076330, -0.037166, -0.014092, -0.034373, 0.054588, 0.027077, 0.069002, -0.092157, 0.007878, 0.017951, -0.048803, 0.038665, 0.052495, -0.048204, -0.030150, 0.037666, 0.014791, 0.040706, -0.029772, -0.061766, 0.033718, -0.027293, -0.005831, 0.032428, -0.062311, 0.058645, 0.057073, -0.019623, -0.065446, -0.064586, 0.098413, -0.048699, 0.034240, 0.023990, 0.042715, -0.007958, -0.015259, 0.059055, 0.037061, 0.035716, -0.016360, -0.084141, -0.026154, 0.049032, -0.082738, -0.064163, -0.041732, 0.029003, -0.067143, -0.060904, -0.038748, -0.041561, -0.046336, -0.044975, -0.031287, -0.100688, -0.035186, -0.060487, 0.073591, 0.055030, -0.023072, -0.093629, 0.000228, -0.006680, 0.068280, 0.091037, 0.055247, -0.045462, 0.079614, 0.013767, 0.044872, -0.038995, 0.004431, -0.071405, -0.059479, 0.045356, -0.033083, 0.041665, -0.072652, -0.074428, -0.011000, -0.071549, 0.021410, 0.011093, -0.075424, -0.016851, 0.045488, -0.021107, 0.034543, 0.047494, 0.028233, -0.037064, 0.062636, 0.002534, -0.011777, -0.000870, -0.072671, -0.038934, -0.074354, -0.016370, -0.009196, -0.007892, -0.000931, 0.012067, 0.051858, -0.040031, -0.006540, -0.060950, 0.009799, -0.024506, 0.011129, -0.079041, -0.010196, -0.003914, -0.009868, -0.000007, -0.075323, 0.024230, -0.050241, -0.064293, 0.086299, 0.060623, -0.035257, 0.068561, 0.023275, -0.062930, -0.001364, 0.025230, 0.030107, -0.023365, 0.083217, 0.050415, 0.004191, -0.085247, 0.030789, -0.070258, 0.068013, 0.024185, 0.006617, 0.076890, 0.055842, -0.078790, -0.062741, -0.019400, -0.060640, -0.059350, -0.051214, 0.037126, 0.017849, -0.015744, 0.009470, 0.024008, 0.057326, -0.057596, 0.046296, 0.035813, 0.023992, 0.050334, -0.017917, 0.050032, -0.047341, -0.062432, -0.058673, -0.032181, -0.030441, 0.039575, -0.042951, -0.042237, -0.021991, -0.022598, 0.058001, -0.061125, -0.087351, -0.080913, -0.008234, 0.030894, -0.009731, 0.004272, -0.005696, 0.019789, 0.014777, -0.031840, -0.048906, -0.039327, 0.018513, 0.078800, -0.004522, -0.034190, -0.090017, 0.043606, 0.022269, 0.013083, 0.031987, -0.049360, 0.071908, 0.005781, -0.001567, -0.001461, 0.016410, 0.005608, -0.052741, 0.055041, 0.009295, -0.059660, 0.050764, 0.057929, -0.027661, 0.007957, -0.059687, 0.003945, -0.057173, -0.026546, 0.017305, -0.064153, -0.086021, -0.082667, 0.045984, -0.070303, 0.081050, -0.091135, -0.043816, 0.025014, 0.032208, 0.031864, 0.065673, 0.018756, -0.026115, -0.072338, 0.075178, -0.047786, -0.033293, 0.004633, 0.001634, 0.046223, -0.029937, 0.045642, -0.061395, 0.058641, -0.039593, -0.033232, -0.051763, -0.042933, 0.015227, -0.038484, -0.002146, 0.068414, -0.068619, -0.084591, 0.049127, -0.067669, 0.036791, -0.070939, -0.084817, 0.045272, 0.023122, 0.005264, 0.011277, 0.043153, 0.068521, -0.041893, 0.005900, -0.047473, 0.081770, -0.076611, -0.048111, 0.076331, -0.031640, 0.038113, -0.083902, 0.062602, -0.012580, -0.049542, 0.035287, 0.046926, -0.081913, -0.062077, -0.080822, 0.016498, -0.003292, -0.082129, -0.035777, 0.025285, 0.037066, -0.037051, 0.051446, 0.048079, 0.090091, -0.028942, -0.041530, 0.062799, -0.053272, -0.004706, 0.061999, 0.058341, 0.023633, -0.040348, 0.002221, 0.017433, 0.068999, 0.034412, -0.015619, -0.059429, 0.080581, -0.009594, -0.047607, 0.024574, -0.029502, -0.050455, -0.048830, -0.044601, -0.041917, 0.012489, 0.045298, -0.057527, 0.089698, -0.086714, -0.074873, 0.011491, 0.093933, -0.005936, 0.061453, 0.058703, -0.065216, -0.046722, 0.069669, -0.082193, 0.012987, 0.000215, 0.006735, 0.025558, 0.077627, 0.016373, 0.010245, -0.020420, -0.029188, 0.030623, 0.086966, 0.053284, -0.083176, 0.066189, -0.070633, 0.002346, -0.070320, -0.004360, 0.011629, -0.030397, -0.054369, -0.041423, -0.005561, 0.054665, -0.039197, 0.067687, -0.071031, 0.007689, -0.048406, -0.038023, 0.072704, 0.009309, -0.002178, 0.036617, -0.051821, 0.000597, 0.026725, -0.033764, -0.008267, -0.072995, -0.061568, -0.003901, 0.014564, -0.090399, -0.072886, 0.055906, 0.018119, -0.089664, -0.037842, -0.024334, 0.033151, 0.076229, 0.068157, -0.076362, 0.024926, 0.005837, 0.070605, -0.061891, 0.027059, -0.034768, 0.031880, 0.048911, 0.091246, -0.066265, -0.039184, 0.066555, -0.058345, 0.069585, 0.071478, 0.020060, -0.085055, -0.057073, -0.049271, -0.059050, 0.006279, -0.005298, 0.076990, 0.042010, -0.072295, 0.026820, -0.077341, 0.003689, -0.043197, -0.088893, -0.006380, -0.069612, -0.026777, -0.012763, -0.030701, -0.009170, 0.050563, -0.065421, 0.031486, -0.058668, -0.072431, 0.034388, -0.068510, 0.009592, 0.004981, -0.047486, -0.049582, -0.004795, 0.039304, 0.069340, -0.020811, -0.065706, -0.011358, -0.052401, 0.045229, 0.057707, 0.019508, 0.018815, -0.007194, -0.054101, -0.080201, 0.013545, -0.034989, 0.039427, 0.029511, -0.044193, 0.050795, -0.057190, -0.009939, -0.028844, 0.070467, -0.020476, 0.059835, -0.043691, 0.019386, -0.017449, -0.051677, -0.054764, -0.044176, 0.077348, -0.019009, -0.006749, 0.058244, 0.015328, 0.083510, 0.018561, 0.022256, 0.024829, -0.018112, -0.073916, -0.013289, -0.008188, 0.073242, -0.059650, -0.047997, 0.056766, -0.007223, -0.005912, 0.031681, 0.040093, 0.058683, -0.001456, -0.026857, 0.011153, -0.054487, 0.026557, -0.067942, -0.043950, -0.071978, -0.074799, 0.061385, 0.062485, 0.016428, 0.016700, 0.021911, -0.010298, -0.058001, 0.023098, -0.007808, -0.028756, -0.051194, -0.038135, 0.035951, -0.061183, 0.074755, 0.040063, 0.081806, -0.031392, 0.044269, -0.000127, 0.017425, 0.043082, 0.069065, -0.018916, 0.031791, 0.055114, -0.015346, 0.070466, -0.030291, 0.009897, -0.068991, 0.021575, -0.017950, 0.018869, -0.065582, 0.028300, 0.030286, 0.009764, 0.027164, 0.019921, 0.039511, 0.046507, 0.022501, -0.061383, 0.028851, -0.053174, 0.006444, 0.008394, 0.052502, 0.045662, -0.002289, -0.029732, 0.009823, -0.031759, -0.045626, -0.037276, -0.064302, -0.073524, -0.040589, 0.048174, -0.068437, -0.045153, 0.053422, -0.035605, 0.050696, -0.040968, -0.054032, 0.038956, 0.070204, -0.077782, -0.038842, -0.085334, -0.066817, 0.036425, 0.037819, 0.031796, 0.007157, -0.006198, 0.039347, -0.021045, 0.043891, 0.026804, -0.003440, 0.046579, 0.006467, 0.093053, -0.036735, 0.058777, 0.093595, -0.017921, -0.029615, -0.048458, 0.074100, -0.016621, 0.071565, 0.044171, -0.069092, -0.010608, -0.068651, 0.046451, 0.064082, -0.053237, -0.058289, -0.011496, -0.034752, -0.046340, 0.022093, 0.010607, -0.044095, 0.056171, 0.000592, -0.063755, 0.081112, 0.041633, -0.086110, 0.008662, 0.003232, 0.029698, -0.046851, -0.054804, -0.040138, 0.024371, -0.034797, -0.076411, -0.028729, 0.030468, 0.050217, 0.019907, -0.044878, 0.016453, -0.012617, -0.098011, 0.099413, 0.019673, 0.080436, -0.017658, -0.010401, 0.049275, -0.008344, -0.015241, -0.028983, -0.066397, -0.065095, 0.032490, -0.042900, 0.015816, -0.054318, -0.020530, 0.089814, 0.006573, -0.024006, -0.018665, -0.027754, -0.042619, -0.024430, -0.019244, 0.018672, 0.011082, -0.064045, -0.013754, 0.052390, 0.054491, -0.008670, 0.046492, 0.017861, -0.080192, 0.015783, -0.005575, -0.097267, 0.050357, 0.035841, -0.036865, 0.049787, -0.104230, -0.018273, -0.005667, 0.097403, 0.010952, 0.029479, -0.040997, 0.023533, 0.081187, 0.050325, 0.046630, -0.049047, 0.011094, -0.042952, 0.052965, -0.058492, -0.053921, 0.010284, -0.104679, 0.066725, -0.022883, -0.018092, 0.035502, -0.049940, 0.064857, 0.078142, 0.033709, -0.038823, -0.061505, -0.070761, -0.035469, 0.063010, -0.015143, 0.034937, -0.065583, -0.085864, 0.011632, -0.021907, 0.071578, 0.012856, 0.060024, -0.048541, 0.001162, 0.053071, -0.035574, 0.047779, -0.037151, -0.009095, -0.003063, 0.046640, 0.005211, -0.047306, -0.022856, 0.047265, -0.028047, -0.035219, -0.053631, 0.049515, -0.073043, 0.030243, -0.025633, -0.025836, -0.049467, 0.001820, 0.025496, 0.001998, -0.006501, 0.052401, 0.070943, -0.045356, 0.069535, -0.053235, -0.072827, -0.048078, 0.040962, -0.018420, -0.001855, 0.022521, -0.053359, -0.016958, 0.064460, 0.015728, 0.054337, 0.005828, 0.012035, -0.035690, -0.048227, -0.097827, -0.029152, 0.001483, -0.065258, 0.094501, -0.079305, -0.032722, 0.003356, -0.050092, 0.032669, 0.025008, -0.028344, 0.026656, 0.073834, -0.035602, 0.002884, -0.070617, -0.058374, 0.050404, 0.043917, -0.090716, -0.036781, -0.055946, 0.053711, 0.054708, 0.055230, -0.013410, 0.093260, -0.079806, -0.004698, 0.102414, 0.098464, -0.015942, -0.073271, 0.066809, -0.016912, 0.018787, 0.053519, 0.038137, -0.060247, 0.025282, -0.010637, 0.038945, 0.061552, -0.020156, -0.043311, 0.041580, -0.056918, 0.002319, 0.014001, -0.032449, 0.028870, 0.081847, 0.013215, 0.085572, 0.016463, 0.052802, -0.031518, 0.072508, -0.060093, -0.067627, -0.089600, -0.068800, 0.078778, 0.036181, 0.080284, -0.060188, 0.094546, -0.071677, 0.019033, 0.048506, 0.030165, 0.063746, 0.038227, 0.068397, -0.098678, 0.014141, 0.091795, -0.002130, 0.003505, 0.033654, 0.011817, 0.008140, -0.046889, 0.052674, 0.000578, 0.055074, 0.011664, -0.060885, 0.029465, -0.052628, 0.066586, 0.044451, -0.054325, -0.023889, 0.008365, 0.022479, -0.011174, 0.056129, -0.002229, -0.047759, 0.025627, 0.028852, -0.074860, -0.017790, -0.058518, -0.046151, -0.071220, -0.048003, 0.008016, -0.038459, 0.067017, 0.031220, -0.013730, -0.035952, 0.023406, -0.013417, -0.060065, -0.067649, -0.024964, 0.066965, -0.047231, -0.052906, -0.004582, -0.089143, -0.079344, -0.031729, -0.043773, -0.056881, -0.014791, -0.001239, -0.024903, 0.034861, -0.060898, 0.001278, -0.023603, -0.007838, 0.011047, -0.046312, -0.004856, -0.012662, -0.050472, -0.061708, 0.095394, -0.014807, -0.044313, -0.081953, -0.046609, 0.019448, -0.009585, 0.061066, 0.043640, -0.029338, 0.093885, -0.037912, 0.057900, -0.038056, -0.045501, -0.048459, 0.076480, 0.019684, -0.054077, -0.049141, 0.012484, 0.048656, -0.005298, 0.100770, 0.028772, -0.043375, 0.036006, -0.083059, -0.060800, 0.011378, -0.015970, 0.064104, -0.057958, 0.016081, 0.027449, 0.061023, -0.016403, -0.028926, -0.067094, -0.081595, 0.035307, 0.051883, 0.061412, -0.030134, 0.092789, 0.049073, 0.067767, 0.057662, 0.051057, 0.032297, 0.111179, 0.030077, 0.037062, 0.069554, -0.110487, -0.049002, 0.061191, 0.065446, 0.026895, 0.045363, 0.047138, -0.039186, 0.000665, 0.052292, 0.111898, 0.053598, -0.087967, -0.045887, -0.046390, -0.053137, 0.004324, -0.082612, 0.007046, -0.050779, 0.101592, -0.015929, 0.106904, -0.096087, 0.003855, -0.055109, -0.017633, 0.062475, -0.057113, 0.022918, 0.077422, 0.026331, 0.015972, -0.021151, -0.002109, -0.081616, -0.045083, -0.080301, 0.044267, -0.007218, 0.018447, -0.062754, 0.023635, 0.043326, 0.057987, -0.052250, -0.075073, -0.045685, 0.056313, 0.028346, -0.039367, -0.031983, 0.030946, -0.040133, -0.036072, -0.087578, -0.080483, -0.059114, 0.015809, 0.058281, 0.023912, -0.056167, -0.006905, 0.059042, 0.047569, -0.041947, -0.012338, -0.045261, 0.068049, -0.013995, -0.018361, -0.031435, 0.014408, 0.010588, -0.027390, 0.045163, 0.038015, -0.009305, -0.071202, 0.011718, -0.031419, 0.041102, 0.014023, -0.039094, -0.045929, -0.010962, 0.066416, -0.011102, -0.077956, 0.069330, 0.053598, -0.059154, 0.013401, -0.077609, 0.117109, -0.024943, -0.083132, -0.041427, -0.037361, 0.045304, 0.034659, 0.011432, 0.024798, 0.026081, -0.010684, 0.085906, 0.018747, -0.039854, -0.054292, 0.094543, -0.062116, 0.071670, 0.019776, -0.050454, 0.041735, -0.017659, 0.009918, -0.002338, 0.041566, 0.016124, 0.079068, 0.054259, 0.099327, -0.056128, -0.010917, 0.062399, -0.039041, -0.032956, -0.015548, -0.024802, -0.017738, 0.017097, -0.022138, -0.007349, -0.077381, -0.092176, -0.054899, -0.022092, -0.032211, 0.019457, -0.011609, 0.041322, 0.002360, -0.012047, -0.075604, 0.053212, -0.028827, -0.076656, -0.019893, 0.060784, -0.010617, -0.009442, 0.053678, 0.098498, 0.018959, 0.025225, 0.054386, -0.071935, -0.026898, 0.097117, -0.061839, 0.040936, 0.075786, -0.035887, 0.051598, 0.057329, -0.076928, -0.090113, 0.058012, 0.049256, 0.056041, -0.013867, 0.000806, -0.009875, -0.066134, 0.036630, 0.011880, 0.020034, -0.043448, -0.002797, 0.109560, -0.004445, 0.065449, 0.062613, -0.056294, 0.054744, 0.014363, -0.044412, 0.031938, 0.006236, 0.089353, -0.008550, 0.064648, -0.018293, 0.055905, -0.006985, -0.016096, 0.044460, 0.072059, -0.002659, 0.012783, 0.015546, -0.059087, -0.076968, -0.053477, 0.001357, 0.012937, -0.048609, -0.049810, 0.029794, -0.060166, 0.022221, 0.103992, -0.053308, 0.065691, 0.019729, -0.013203, -0.027315, -0.031752, -0.054746, -0.034195, -0.032285, 0.067738, -0.061850, 0.048095, 0.000022, 0.081609, 0.026639, -0.044201, -0.020983, 0.015040, -0.006081, -0.061502, 0.026056, 0.046181, 0.060669, 0.014158, 0.064267, -0.069004, -0.068621, -0.041719, 0.032429, 0.021813, -0.007520, -0.043556, 0.042974, -0.075886, -0.074475, -0.076543, 0.024730, 0.057990, -0.072515, -0.039409, -0.057448, -0.048778, -0.054303, -0.044077, 0.054279, -0.005677, 0.023327, 0.083547, -0.020200, -0.024706, 0.057688, -0.030922, -0.071729, 0.039453, 0.019414, 0.011774, -0.016509, 0.063997, 0.056180, 0.014366, -0.012832, -0.059985, -0.069590, -0.040072, -0.015059, -0.016098, 0.030773, -0.032963, 0.064914, -0.005808, -0.072189, 0.065102, 0.084053, 0.035368, 0.045028, -0.089643, 0.059439, 0.042890, 0.066966, 0.044605, 0.032214, 0.018201, 0.047178, -0.001726, 0.028249, 0.048463, 0.051770, 0.050530, 0.089988, 0.065594, -0.008832, 0.061843, 0.032698, -0.073675, 0.010587, -0.043228, -0.058731, 0.032682, 0.031489, 0.058787, -0.028781, 0.056151, -0.018022, 0.048558, -0.078485, 0.060847, -0.012804, -0.053918, 0.032439, 0.059391, 0.020724, 0.028942, -0.024452, -0.051447, 0.070394, -0.042947, -0.012044, -0.096732, 0.078124, 0.043319, 0.084828, 0.096901, -0.001519, 0.088897, -0.059185, -0.003803, -0.022595, -0.029343, -0.055718, -0.017568, 0.064900, 0.041082, -0.050063, -0.068322, -0.067513, 0.078032, 0.013717, 0.034991, -0.010858, 0.007460, -0.023789, 0.036004, 0.036535, -0.019523, -0.039075, -0.070365, -0.024545, 0.051788, 0.034592, -0.028579, 0.056350, -0.023049, -0.038214, -0.003766, 0.046044, 0.080072, 0.003395, -0.017124, -0.026554, -0.076453, 0.030518, 0.046475, -0.067976, 0.009643, 0.025187, 0.062245, -0.027490, -0.043001, -0.003114, 0.026578, 0.011704, 0.043953, 0.010107, 0.016962, -0.029675, 0.073607, -0.075984, 0.016641, -0.090229, -0.052049, 0.061137, 0.069602, 0.058738, 0.042304, -0.033332, -0.079639, -0.070931, -0.036661, -0.066961, -0.059110, 0.025339, -0.022587, 0.086125, 0.095169, -0.079463, -0.039632, -0.004173, -0.000902, 0.014443, 0.053179, -0.053918, -0.004121, 0.002387, 0.071955, -0.061607, -0.049761, -0.068455, 0.026533, 0.058216, -0.019297, -0.070796, 0.028120, -0.064166, 0.036600, 0.004541, -0.020073, 0.074199, 0.088926, 0.076629, 0.059063, 0.080362, 0.062429, 0.033412, -0.059422, 0.070460, 0.041068, -0.000825, 0.036275, 0.013955, -0.060641, -0.034854, -0.060475, -0.049901, -0.015755, 0.021230, -0.056595, -0.026959, 0.062307, -0.011973, -0.041382, 0.048176, 0.024889, -0.078012, 0.055904, -0.062173, -0.055619, -0.014393, 0.026237, -0.056894, 0.028288, 0.007053, -0.076660, 0.051613, -0.038894, -0.009332, 0.013212, -0.006475, -0.023258, -0.076075, 0.043688, 0.062498, 0.081270, 0.067244, 0.008763, -0.064702, 0.058718, 0.063917, -0.080808, 0.008055, -0.010723, 0.034512, -0.032891, -0.007857, 0.010857, -0.060438, -0.017403, -0.012399, -0.016338, -0.022233, -0.023652, -0.008355, -0.014806, -0.042057, -0.044777, 0.014335, -0.032894, -0.073539, 0.022429, -0.006839, -0.006492, -0.042983, -0.038501, -0.027211, 0.031683, -0.061547, -0.043900, -0.095946, 0.002457, -0.010765, 0.049726, -0.078216, -0.051685, 0.047343, -0.059167, -0.033148, 0.059761, 0.075894, 0.039665, 0.001813, -0.039999, 0.033297, 0.084082, 0.043500, 0.049017, 0.058922, -0.053546, -0.045674, -0.030366, 0.047428, 0.044526, 0.049831, -0.015213, 0.047469, 0.000205, -0.085123, 0.063814, 0.029311, 0.061569, 0.027665, -0.054219, -0.040849, 0.048017, 0.040485, 0.006126, -0.065400, -0.055435, 0.050322, -0.063547, 0.045624, -0.031779, 0.074068, 0.058859, 0.079740, -0.024300, -0.041912, -0.037541, 0.046534, -0.037343, 0.077888, -0.026731, 0.034263, 0.071219, -0.058383, 0.028784, 0.087882, -0.024736, 0.045733, -0.070516, 0.016000, 0.012931, 0.028937, 0.020596, -0.052236, -0.043900, 0.035612, 0.043874, 0.032947, 0.075014, 0.047606, -0.045349, -0.006297, -0.002072, -0.069397, -0.017585, -0.080276, -0.041716, 0.025191, 0.026835, -0.017980, -0.024694, 0.028961, -0.067797, 0.032112, -0.075469, -0.007327, -0.049090, 0.070061, -0.092452, 0.033879, -0.070051, 0.026876, -0.007706, -0.030251, 0.055824, -0.041112, -0.011104, 0.019518, 0.032163, 0.041054, -0.024027, 0.055951, -0.043022, -0.061557, 0.064308, -0.035501, -0.047507, 0.025791, -0.081172, -0.070869, -0.044333, -0.053685, 0.015224, 0.054415, -0.040542, -0.077385, 0.083052, 0.014357, 0.067674, -0.030858, 0.054558, 0.045682, -0.031523, -0.040276, -0.083724, -0.034283, -0.030331, -0.039386, 0.011067, -0.036800, 0.000216, -0.030552, -0.051322, 0.034836, -0.070751, -0.030332, -0.053158, 0.022333, 0.069983, 0.051665, 0.003034, 0.026347, -0.059113, 0.035637, 0.024935, 0.054749, -0.043667, -0.068762, -0.059522, -0.027009, -0.066141, 0.064640, 0.018500, 0.023484, -0.085235, -0.002035, -0.004826, 0.011013, -0.049298, -0.047894, 0.039743, -0.011666, -0.000328, -0.034176, 0.021889, -0.071754, 0.010536, 0.069769, -0.027247, 0.045492, -0.084987, -0.036224, -0.048760, -0.019170, 0.052640, -0.066941, 0.034131, 0.045265, 0.056791, -0.007496, -0.070530, -0.067874, 0.020129, -0.032843, -0.044737, 0.063945, 0.012408, -0.000220, 0.046942, -0.013707, -0.017291, -0.079160, 0.048965, -0.075035, -0.082718, -0.039845, 0.010595, -0.057112, 0.065375, 0.086590, -0.085878, 0.052617, 0.011174, -0.048958, -0.037479, 0.010646, 0.007518, -0.018237, 0.014578, 0.084117, 0.042882, -0.040403, 0.046488, -0.079032, -0.088731, 0.044975, 0.102565, 0.033874, -0.008851, 0.016813, -0.052741, -0.092044, -0.057995, -0.028280, 0.094218, -0.071421, -0.036278, -0.057149, -0.028426, -0.023271, -0.017373, -0.020371, -0.046126, 0.047108, 0.027750, 0.032126, 0.065942, -0.048724, 0.073107, 0.060288, 0.052475, -0.003039, -0.035040, 0.045646, -0.068529, 0.069862, 0.038023, 0.063908, -0.005276, -0.099663, -0.079142, -0.024932, 0.032191, -0.043900, -0.038414, -0.006551, 0.007833, 0.054055, -0.068579, -0.001409, -0.062491, 0.031749, 0.016763, 0.080275, 0.039053, -0.027021, 0.040488, -0.034086, -0.012871, 0.051449, 0.085921, -0.060972, 0.056431, 0.096402, 0.074426, 0.059579, -0.092510, -0.023955, -0.097076, -0.070212, 0.081771, -0.032896, 0.031452, -0.023303, -0.097468, 0.035511, 0.040516, 0.055260, -0.000725, 0.006968, 0.053125, -0.090680, -0.087532, 0.006163, 0.058788, 0.022242, -0.051779, 0.025392, 0.048908, -0.042749, -0.009324, 0.006819, -0.044925, -0.055750, 0.044652, 0.058133, -0.075037, -0.088224, -0.074264, 0.062900, -0.049416, 0.025340, -0.020625, -0.037489, -0.073611, 0.095189, 0.041121, -0.100916, 0.041477, -0.029126, 0.001475, -0.095095, 0.009344, -0.085291, -0.020245, 0.018605, 0.019544, 0.027063, -0.032897, 0.037749, -0.084059, 0.006034, 0.081264, -0.017415, 0.101832, 0.064494, 0.026467, 0.089105, -0.054647, -0.009632, -0.050991, 0.031362, -0.060428, -0.016718, 0.045792, -0.007028, -0.014037, 0.071281, -0.072343, -0.070452, 0.004767, -0.074827, -0.027337, 0.017801, 0.045646, 0.012353, -0.080688, -0.094397, 0.002146, -0.053022, -0.013508, 0.009682, 0.021162, 0.002907, 0.004796, -0.026938, 0.047022, 0.055644, 0.089870, 0.028465, -0.072831, 0.015767, 0.036939, -0.072821, -0.072723, -0.016761, -0.070854, -0.081673, 0.010833, -0.083079, 0.044093, -0.051752, 0.081620, 0.079735, -0.080898, 0.052079, -0.012389, 0.085395, 0.033619, -0.058901, -0.011674, -0.010647, -0.036927, 0.085177, -0.045629, 0.029523, 0.046394, -0.065824, 0.045843, 0.057498, -0.062533, -0.019588, 0.048517, 0.077460, 0.076969, -0.049496, 0.026622, 0.034055, 0.019558, 0.048676, 0.024691, 0.033622, 0.046004, 0.080935, 0.066408, -0.005929, -0.064815, -0.040448, -0.013368, 0.079533, -0.044627, 0.025755, -0.062772, 0.050956, -0.072743, -0.033388, 0.065667, 0.049117, -0.071330, -0.003080, 0.029684, 0.071686, 0.018934, 0.069721, -0.070925, 0.028259, -0.041833, 0.074113, -0.050603, 0.071493, 0.047184, 0.008207, 0.091895, 0.084178, 0.062788, -0.083421, 0.076807, -0.069833, 0.078876, 0.061991, -0.056537, 0.042304, -0.062051, -0.074945, 0.059065, -0.057932, -0.084294, -0.035993, 0.082141, 0.013910, -0.065840, -0.034767, 0.038111, 0.052755, -0.037082, 0.072050, 0.044715, -0.017800, -0.074220, 0.046451, -0.083570, -0.034479, -0.028010, 0.008947, -0.033742, -0.015000, -0.052658, 0.064100, -0.083618, -0.013348, -0.076946, 0.024620, 0.008858, 0.101656, -0.025404, -0.002410, 0.000972, -0.012856, 0.060408, 0.028470, 0.015531, 0.028517, -0.068667, 0.065573, 0.033734, -0.045820, -0.058490, -0.007408, -0.002277, 0.082190, 0.083305, -0.014249, 0.047309, 0.022709, -0.010172, 0.101693, -0.032371, -0.031976, 0.033550, -0.006981, 0.008250, 0.086475, 0.006088, 0.015205, 0.081528, 0.081163, 0.070402, 0.037608, 0.071724, -0.073102, -0.002497, 0.076824, 0.068896, -0.102170, -0.026797, 0.077722, 0.066431, 0.046612, 0.009832, -0.015372, -0.024411, -0.033175, 0.001168, -0.071407, 0.022034, 0.015359, 0.047899, -0.012765, 0.033373, -0.012427, 0.035084, 0.041343, -0.073921, -0.056078, -0.007938, -0.056215, 0.002169, -0.005229, 0.061563, 0.036577, -0.053559, -0.029511, -0.073558, 0.029841, 0.035997, -0.018233, -0.001329, 0.008843, 0.059367, -0.086383, 0.019392, 0.031215, 0.023404, 0.043566, -0.035273, -0.015943, 0.025104, 0.038080, 0.008788, -0.034619, 0.004605, 0.047144, -0.003876, -0.063758, -0.015524, -0.055303, 0.028942, 0.040091, 0.035647, -0.042805, 0.077554, 0.051341, 0.021870, -0.020966, -0.049764, 0.069366, -0.053747, -0.005576, 0.048857, -0.032757, 0.042994, 0.021585, 0.004304, -0.073689, -0.034011, -0.046772, 0.098436, 0.047529, -0.026670, 0.056467, -0.074110, 0.058671, 0.034993, -0.091604, 0.015284, 0.058547, -0.062681, 0.044116, 0.027943, 0.006043, 0.084979, -0.050069, 0.042199, 0.004506, 0.010804, -0.052603, -0.050944, -0.007282, 0.032490, 0.009309, 0.051814, 0.037635, 0.053270, 0.068644, -0.068749, 0.033582, -0.037301, 0.015950, -0.061558, -0.064450, -0.017225, 0.055398, -0.065697, 0.000726, 0.097155, 0.019651, 0.036939, -0.066132, 0.063748, 0.052616, 0.001664, 0.057553, 0.043529, 0.028477, -0.010601, 0.057335, -0.049282, -0.007142, -0.039859, 0.097970, -0.038637, 0.041830, -0.038552, 0.051422, 0.014500, 0.047648, 0.030701, -0.080698, 0.063762, 0.073518, 0.012988, 0.078415, -0.031081, -0.085640, -0.075967, 0.015100, 0.039004, -0.080530, 0.055287, -0.082190, -0.014451, -0.058210, 0.072451, 0.065561, 0.085126, 0.025634, 0.020099, -0.048730, -0.078530, 0.016957, -0.051129, -0.009471, 0.002040, 0.013274, -0.068933, -0.022665, -0.080365, 0.001490, 0.048029, -0.071486, 0.050988, 0.032134, -0.065143, 0.042748, 0.005300, -0.013994, 0.073556, -0.000057, -0.074957, -0.045491, -0.004707, -0.041615, -0.002214, -0.064803, -0.066382, -0.047216, 0.073339, 0.077037, 0.030163, -0.027293, 0.006481, -0.027460, 0.001192, -0.011251, -0.059091, -0.060378, -0.045159, 0.084341, 0.066291, 0.038744, 0.004735, 0.049922, -0.061907, 0.025917, 0.029770, 0.002878, -0.022787, 0.036991, 0.002597, -0.048251, -0.044258, -0.060224, -0.034494, -0.072152, 0.093803, 0.032630, 0.039578, -0.038186, 0.038633, -0.050315, 0.065189, 0.010788, -0.032130, -0.036605, -0.022359, 0.023060, 0.054746, -0.080541, 0.035780, -0.073590, 0.025532, -0.054266, 0.001552, -0.061430, -0.024906, 0.051830, -0.009356, 0.041761, -0.010840, 0.057592, -0.045079, -0.072279, 0.024230, 0.009943, -0.022151, 0.068947, 0.058504, 0.036450, 0.036472, 0.010375, -0.052859, 0.006603, 0.024464, -0.045300, 0.039979, -0.000666, -0.003933, 0.012872, -0.015209, -0.033293, -0.049260, -0.041250, -0.012816, 0.024838, -0.044021, -0.013330, -0.074215, 0.029347, 0.042466, -0.005545, 0.048700, 0.024972, -0.047766, -0.002075, 0.042374, -0.093504, -0.058071, 0.045300, 0.043930, 0.059718, -0.040532, -0.041920, -0.072742, -0.038397, -0.010718, -0.067657, -0.069899, -0.003436, -0.024161, -0.069171, 0.067309, 0.061406, -0.032228, -0.057808, 0.020246, 0.065130, -0.001661, 0.029466, -0.016537, -0.023362, -0.001983, -0.036304, -0.021970, 0.079055, -0.063201, 0.010049, 0.017954, -0.074622, 0.087175, -0.054919, -0.037375, -0.061294, -0.060919, 0.014399, 0.074967, 0.091379, 0.094044, -0.014794, -0.008169, -0.027150, 0.046385, 0.008277, 0.017513, -0.002221, -0.046646, -0.091351, -0.075152, -0.041054, -0.029838, -0.016047, -0.064876, -0.047141, -0.017770, 0.033998, 0.067864, 0.012959, -0.014977, 0.002031, 0.092415, -0.081326, -0.007111, 0.011591, 0.037081, -0.010805, -0.069109, 0.061186, -0.064438, 0.002350, 0.063985, 0.080076, -0.076399, 0.026459, 0.003919, -0.020987, 0.026139, -0.022332, -0.010187, 0.064539, -0.043317, -0.023880, 0.003801, -0.048549, -0.031275, 0.037697, -0.039873, 0.012983, -0.018469, -0.064074, -0.030155, -0.012219, -0.013250, -0.044747, 0.096392, 0.052110, 0.013603, 0.049088, -0.035506, 0.082182, -0.010167, 0.055812, 0.086071, -0.059328, 0.008534, 0.066793, -0.038520, -0.009733, 0.066500, 0.045482, -0.074951, 0.042466, 0.006693, 0.007762, -0.068415, -0.003631, 0.035362, -0.008712, 0.007715, 0.039495, 0.086586, 0.061000, -0.037617, 0.028451, 0.105016, -0.038264, 0.069373, 0.039519, 0.066902, -0.042260, -0.059240, 0.089271, -0.018798, -0.054643, 0.010741, -0.014600, -0.096898, -0.053238, -0.039652, -0.039310, 0.090169, -0.045961, -0.075415, 0.005036, 0.031652, -0.051941, 0.015381, 0.018954, 0.049499, 0.033885, -0.023297, 0.086227, -0.047033, -0.008718, -0.035021, -0.044507, 0.106032, 0.072593, 0.072141, -0.012619, 0.017407, 0.001889, -0.085843, 0.018200, 0.050281, 0.037547, -0.072955, 0.041231, -0.084438, 0.056780, -0.046321, -0.034071, 0.008926, 0.088688, 0.023681, 0.025591, -0.059206, -0.002842, -0.028233, 0.030200, 0.067534, 0.021049, -0.077277, 0.030936, 0.015929, 0.011378, 0.027238, -0.018672, -0.035527, 0.020505, -0.020741, 0.026021, 0.069968, 0.052335, -0.071699, -0.046004, 0.001048, 0.064652, -0.012567, 0.054328, -0.074490, 0.056462, 0.032152, -0.074684, 0.060619, -0.037208, -0.007009, -0.034709, 0.008098, -0.013599, -0.000185, -0.015877, -0.046148, -0.077815, -0.027886, -0.025180, -0.001344, -0.005941, -0.087270, 0.045167, -0.014088, -0.018401, 0.035730, -0.062157, -0.084886, 0.024376, -0.057644, -0.028228, 0.069369, -0.062173, -0.062132, 0.048170, 0.050666, -0.077959, -0.043203, -0.040068, 0.035704, -0.035099, 0.061608, 0.061308, 0.023927, 0.048379, -0.015779, 0.009139, -0.016352, -0.071121, 0.056023, 0.086237, 0.079632, -0.026032, 0.038340, 0.050182, -0.071704, 0.040659, 0.030394, 0.034747, 0.062961, 0.029374, 0.012931, 0.041625, -0.033889, -0.075482, -0.005358, -0.014905, 0.025801, -0.014890, -0.010356, -0.097056, 0.042096, -0.003350, -0.035455, 0.004812, -0.001168, -0.040558, 0.075272, 0.000809, -0.026821, 0.049013, -0.110498, -0.021353, -0.070255, -0.040027, 0.015535, 0.016350, -0.094257, -0.024038, -0.004910, 0.079793, -0.102571, 0.011517, 0.077214, -0.028196, 0.054823, -0.025815, 0.003054, -0.083430, 0.036191, 0.097134, -0.051961, -0.001020, 0.052971, 0.075294, 0.014233, -0.082466, 0.065204, -0.008384, 0.100127, 0.069282, -0.038467, 0.008979, 0.028528, 0.069863, 0.019730, -0.002422, 0.021790, -0.104555, -0.103660, 0.074294, -0.078229, 0.076881, -0.083260, -0.004026, -0.000003, -0.035474, 0.051409, -0.063349, -0.052675, -0.088506, -0.001021, 0.007554, 0.008047, 0.038996, -0.095137, 0.082781, 0.026507, -0.009085, -0.019911, -0.047739, -0.011673, -0.016221, -0.053336, -0.088048, -0.098847, -0.004847, -0.056733, 0.067615, 0.006677, 0.004987, -0.055052, -0.011572, -0.009221, -0.013774, -0.091983, 0.030504, -0.003409, -0.020899, 0.054647, -0.089496, 0.033461, 0.047551, 0.076896, 0.024945, -0.078894, 0.027404, -0.041874, -0.044530, -0.032447, -0.062992, -0.050674, -0.041933, 0.007750, 0.086571, -0.008524, -0.050656, -0.063507, -0.009183, -0.063728, -0.074854, -0.013561, -0.047859, -0.052536, 0.008555, 0.006185, 0.041203, -0.086062, 0.024414, -0.000251, -0.019445, -0.077567, -0.033651, -0.021097, -0.026600, 0.084436, 0.058913, -0.050173, -0.053441, -0.061833, 0.107238, -0.015399, -0.008296, -0.047598, -0.024607, -0.028068, 0.109654, -0.008756, 0.010182, 0.005297, -0.039744, -0.014561, -0.050021, 0.034251, -0.074690, -0.106911, 0.086493, 0.061504, -0.013469, -0.029350, -0.096382, 0.068073, -0.061984, 0.015953, 0.017955, 0.041138, 0.013471, -0.036130, 0.087531, -0.061644, -0.045172, 0.010620, -0.040410, -0.045001, 0.005895, -0.007182, -0.091359, 0.054413, 0.009627, -0.005033, 0.053890, -0.071384, -0.047969, -0.065084, -0.068091, 0.072057, -0.088347, -0.082323, -0.093187, 0.063713, 0.002841, -0.039526, 0.085751, -0.045751, -0.023155, 0.018226, -0.006941, 0.056127, -0.038745, 0.000605, -0.019127, -0.029664, 0.068768, -0.060752, -0.016641, -0.090237, -0.084600, -0.085007, -0.077966, -0.031626, -0.020235, 0.050751, 0.076460, 0.009754, 0.055948, 0.041459, 0.036750, 0.066978, -0.044298, 0.006590, 0.054862, 0.080051, 0.002987, -0.056232, -0.036811, -0.065859, 0.013866, -0.027441, 0.020850, 0.057836, 0.023716, 0.021965, 0.041581, 0.041686, -0.057190, 0.056873, 0.026884, -0.072501, -0.031009, -0.071378, -0.056311, -0.029565, -0.016497, 0.007541, 0.076495, -0.011660, 0.004047, -0.027875, -0.074500, -0.027830, -0.002407, 0.048737, -0.052102, -0.013797, -0.031865, 0.035481, -0.023219, 0.000174, 0.068339, -0.074668, -0.000286, 0.019188, -0.021239, -0.019338, 0.036641, 0.057241, -0.036344, 0.026660, 0.051643, 0.057128, 0.008841, 0.025947, 0.011226, -0.029052, -0.024261, 0.031704, -0.077126, -0.056034, -0.066382, 0.063616, -0.058659, 0.007405, 0.002847, 0.001387, -0.083456, -0.070471, -0.006935, 0.022253, 0.053447, 0.002067, -0.048825, -0.063022, 0.001987, 0.010751, -0.026802, 0.065112, -0.077604, -0.043533, 0.047351, 0.079596, -0.080604, -0.035077, 0.014035, 0.000054, -0.041873, -0.006101, -0.053118, -0.055193, 0.024130, -0.025995, 0.015145, 0.034380, 0.017768, -0.020174, -0.052509, -0.068548, -0.018029, 0.047088, -0.060776, -0.001037, 0.018981, 0.029977, -0.009540, 0.035352, 0.032304, 0.032295, 0.005346, 0.029963, -0.005923, 0.031268, -0.069971, -0.035482, 0.012424, 0.052825, 0.045984, 0.018474, -0.018164, -0.054845, -0.061427, 0.070740, 0.037455, -0.054727, 0.001126, -0.000055, -0.017222, 0.027388, -0.065353, -0.041626, -0.050888, -0.045039, -0.044265, -0.035325, 0.023431, 0.060254, 0.069984, 0.059608, -0.006511, -0.040768, 0.020516, 0.017913, -0.026212, -0.064155, 0.015209, 0.009734, -0.045199, 0.007283, -0.000354, -0.049666, 0.071157, 0.034063, 0.002295, -0.053486, -0.066582, -0.058121, 0.031934, -0.046390, 0.062821, 0.066305, 0.004777, -0.012005, 0.017258, -0.052785, -0.018831, 0.107027, -0.038935, 0.042740, -0.043619, -0.023521, 0.072447, 0.024281, -0.035047, 0.040741, 0.032997, 0.077360, -0.008077, 0.057379, -0.072711, -0.040886, -0.040733, -0.063962, -0.044047, -0.098357, 0.048838, -0.000383, -0.063446, 0.092483, 0.092195, 0.067437, 0.093217, -0.081872, 0.069025, -0.001008, -0.082055, 0.067925, -0.037551, -0.054469, 0.054006, 0.009099, 0.019591, -0.026961, -0.002589, 0.092655, -0.067534, -0.095929, 0.014688, 0.052444, 0.083430, 0.032535, -0.085929, 0.052488, -0.020477, 0.001150, 0.074856, 0.058420, -0.094690, -0.025771, 0.036800, -0.028500, -0.046278, -0.032771, 0.092280, 0.042205, -0.037087, -0.067646, -0.017742, 0.022101, 0.082225, 0.094975, 0.063657, 0.009720, 0.084714, -0.015698, 0.054863, -0.055931, -0.055747, 0.031988, 0.050869, 0.008687, 0.053297, -0.014982, -0.052117, -0.040978, 0.054917, -0.060277, 0.057827, -0.048667, 0.048397, 0.050698, 0.039859, 0.007653, 0.010926, -0.025116, -0.029202, 0.029039, 0.017604, -0.047859, -0.078053, -0.014803, 0.005266, -0.000768, -0.053273, -0.074851, 0.073750, -0.010264, -0.058061, -0.019139, -0.058093, 0.058893, 0.017112, 0.028824, 0.067535, -0.018057, 0.079181, -0.051720, 0.007293, 0.043358, 0.066622, 0.056808, -0.065358, 0.001502, 0.054185, 0.039516, 0.044837, 0.035666, 0.043876, -0.018341, 0.077176, -0.068805, -0.041918, 0.035854, 0.009611, 0.000617, -0.055068, 0.069000, 0.033475, -0.082096, -0.015425, 0.035469, -0.023345, 0.020976, -0.060068, -0.025382, -0.022415, -0.044671, -0.021851, -0.061347, -0.071217, 0.077382, 0.072939, 0.005550, -0.040937, -0.073700, -0.064534, -0.076459, -0.001400, -0.053603, 0.019934, -0.050270, -0.017229, 0.004273, -0.082721, -0.031368, 0.004138, -0.090070, 0.045698, -0.074244, 0.056314, -0.039727, 0.017993, 0.049123, 0.003334, -0.031445, 0.037996, 0.039507, -0.065974, -0.019531, -0.024943, -0.017377, 0.019417, -0.050787, -0.085090, -0.031959, 0.065362, 0.046703, 0.034645, 0.079791, -0.036140, -0.071628, -0.096954, -0.082494, -0.078715, -0.025569, -0.046206, -0.026204, -0.040273, -0.044699, 0.068207, 0.042979, -0.035588, 0.056846, 0.014115, -0.002715, 0.013369, -0.019850, 0.082759, -0.021713, 0.064750, 0.034875, 0.025073, -0.034378, -0.032627, 0.050172, -0.060921, -0.049644, 0.054297, 0.061318, -0.008813, -0.058270, 0.003886, -0.051006, -0.060719, 0.057902, 0.013656, -0.096160, -0.039529, -0.030501, -0.023296, 0.040817, -0.056698, 0.058503, -0.064807, 0.049294, -0.021595, 0.037414, -0.020039, 0.047957, 0.002108, 0.050743, 0.058950, 0.007095, -0.024413, 0.088488, -0.057360, -0.027422, 0.085681, -0.019832, -0.057201, -0.046142, 0.080647, 0.012738, -0.014045, -0.014964, -0.054751, 0.078577, -0.061709, -0.087937, 0.085317, -0.058655, -0.028354, 0.018602, -0.065370, 0.040212, -0.014058, -0.033386, -0.003974, -0.015908, -0.024981, -0.047179, 0.054658, -0.058510, 0.064033, 0.054265, 0.086986, 0.059187, -0.023488, 0.070208, -0.016380, 0.030428, 0.032610, 0.063463, 0.028011, -0.007962, 0.031692, 0.000360, -0.020483, 0.014296, -0.064114, -0.004372, 0.049247, -0.072838, -0.011892, 0.025043, -0.003736, 0.030202, -0.089647, 0.043716, -0.062822, -0.049172, -0.010379, 0.003841, -0.016119, -0.015299, -0.081484, -0.064236, 0.014699, 0.085602, 0.060417, 0.080733, -0.010667, -0.073095, -0.043627, -0.016197, -0.017586, -0.054772, 0.066731, -0.094586, -0.050737, 0.010995, 0.014258, 0.024509, -0.015703, 0.042832, -0.100105, -0.099453, 0.046139, -0.058529, 0.026355, 0.083852, -0.067615, -0.037931, 0.048404, 0.085021, 0.063433, 0.023948, -0.081619, -0.057597, 0.037822, -0.035009, 0.034079, -0.023349, -0.033619, -0.039017, 0.028373, 0.064239, -0.042408, 0.004608, 0.030503, 0.037837, 0.012635, -0.049641, -0.016258, 0.009324, -0.038235, -0.040143, -0.083325, 0.019297, 0.035297, -0.023619, -0.081685, 0.062973, -0.086811, -0.053471, 0.033163, 0.060751, -0.038425, -0.012373, 0.039681, -0.075356, 0.063666, -0.023690, 0.048117, 0.062529, 0.073203, -0.029386, 0.086097, -0.083934, -0.063856, -0.008270, -0.013035, -0.054993, 0.035178, -0.015474, -0.018691, -0.004322, -0.015437, 0.022659, 0.008486, -0.020183, 0.067984, -0.068987, -0.005244, 0.023412, -0.018213, 0.024742, 0.005261, 0.040798, 0.021925, 0.057847, 0.054991, 0.052738, 0.038878, -0.089150, 0.059520, 0.046495, 0.008245, -0.020934, 0.053337, 0.014994, -0.027139, 0.044228, -0.073578, 0.029447, 0.068768, 0.056354, 0.022218, -0.038347, -0.041233, 0.089539, 0.074300, 0.042533, -0.019583, 0.045312, 0.065549, 0.037395, -0.009147, -0.052523, -0.031074, 0.063623, 0.009312, -0.019828, 0.089457, 0.043849, -0.024872, -0.072980, -0.026181, -0.071432, -0.078723, -0.017123, 0.039110, -0.009051, 0.045148, 0.007877, -0.046626, 0.034846, -0.043153, 0.065254, 0.046595, 0.043601, -0.014820, -0.026128, 0.069449, 0.079724, -0.033105, 0.021425, 0.106488, 0.026828, -0.019867, 0.032299, -0.002469, 0.001228, 0.025205, 0.052286, 0.057144, 0.005798, 0.002551, -0.080549, 0.006974, -0.010736, 0.059481, 0.018297, -0.070554, -0.020128, -0.035819, 0.040229, 0.022853, 0.010290, -0.007042, -0.012018, 0.105900, 0.096051, -0.076177, 0.049291, -0.080202, -0.074929, 0.071850, -0.104261, 0.119267, -0.040561, -0.017904, 0.073380, -0.080410, -0.008082, -0.001826, 0.047180, -0.010337, 0.120175, -0.028282, 0.028132, 0.056627, -0.038099, 0.041988, -0.010998, -0.011695, 0.073728, 0.008962, 0.078380, 0.072100, -0.024227, -0.021400, 0.045900, 0.124413, -0.034425, -0.090225, -0.046058, 0.024878, 0.001177, 0.095281, 0.051541, 0.059561, 0.005995, 0.027633, 0.084285, -0.013001, -0.074281, 0.013100, -0.060537, -0.022363, 0.087686, -0.087947, -0.030785, -0.020294, -0.031737, -0.046698, 0.037207, -0.117356, 0.086762, 0.080104, -0.011026, -0.022849, 0.007059, -0.043624, 0.007657, 0.016405, 0.002730, 0.000195, 0.079626, 0.047557, 0.056253, 0.028209, 0.017408, 0.095477, -0.061693, 0.056281, 0.110354, -0.072242, 0.004598, -0.066003, 0.066739, 0.030953, 0.041521, 0.019391, -0.000759, 0.084498, 0.009608, 0.046220, 0.018211, 0.034246, 0.062871, -0.000919, 0.018327, 0.046764, -0.020515, 0.026910, 0.062494, 0.005925, 0.039680, 0.034988, -0.033353, -0.072902, 0.016209, 0.061624, -0.024819, 0.104590, -0.030187, -0.054715, 0.045184, -0.026253, -0.045199, -0.097514, 0.016460, 0.107776, 0.072343, -0.035501, 0.003154, -0.072135, -0.018610, 0.052254, -0.026448, -0.038574, 0.064126, -0.042348, -0.028906, 0.009724, 0.017648, -0.088047, -0.014618, -0.026044, 0.009895, -0.069302, 0.082302, -0.023787, 0.020247, 0.084571, -0.031957, 0.059856, -0.043680, -0.039164, -0.009056, -0.032614, -0.030957, -0.016714, -0.018405, 0.099023, -0.002262, -0.018292, 0.046121, -0.032657, -0.100054, 0.030815, 0.014570, -0.087611, -0.066120, -0.036519, 0.021443, 0.027137, 0.072987, -0.099729, -0.062147, 0.096380, 0.095618, -0.102509, 0.088493, 0.040816, 0.007318, 0.006478, -0.042523, 0.041133, -0.040666, 0.084962, 0.084681, 0.041934, 0.044237, -0.091717, 0.024192, 0.007952, 0.091887, -0.076934, -0.081720, -0.000016, -0.048632, -0.010553, -0.049348, 0.022694, 0.038356, -0.018394, 0.022324, -0.045616, -0.036949, 0.051864, -0.032018, 0.004112, -0.042361, 0.060431, 0.033700, -0.030415, 0.004403, -0.049485, -0.037132, 0.065779, 0.067514, 0.039116, -0.030870, -0.030892, -0.014597, 0.082911, -0.069916, -0.003842, -0.007894, 0.047802, -0.031589, -0.005303, 0.052303, -0.071091, 0.024663, 0.017138, -0.069276, 0.050134, -0.080172, -0.064867, 0.044895, 0.010320, -0.072520, -0.091234, -0.052655, 0.072771, -0.018456, -0.012023, -0.015096, -0.061485, -0.056778, -0.087055, 0.060184, 0.008539, -0.091067, -0.017970, 0.034021, 0.083745, 0.045969, -0.083524, -0.005972, -0.058894, 0.078591, 0.030049, -0.038259, -0.064736, 0.079383, -0.067254, -0.047830, -0.004778, -0.085910, -0.019380, 0.067516, 0.038445, 0.011185, -0.055998, -0.054116, 0.011038, -0.067396, -0.046075, -0.082365, -0.030144, -0.027800, -0.049398, -0.001350, 0.009176, -0.036813, -0.001435, -0.002760, 0.075768, 0.061454, -0.023506, 0.010927, -0.070080, -0.049929, 0.032492, -0.013035, -0.031894, 0.050642, 0.085921, -0.005333, 0.002950, 0.066569, -0.031558, -0.083067, 0.025875, -0.034547, -0.010352, -0.013201, -0.025259, 0.068528, 0.016214, 0.079934, -0.015020, -0.043490, -0.104650, 0.046728, 0.039471, -0.075186, -0.077804, 0.061282, 0.045086, 0.020638, 0.011502, -0.040821, -0.022537, 0.070900, -0.044466, 0.047012, 0.078076, 0.088101, 0.052223, -0.013044, -0.054488, -0.015684, -0.008253, 0.075580, 0.070988, 0.013882, 0.039301, -0.020128, 0.011786, 0.031540, -0.051145, -0.075005, -0.092503, 0.025729, -0.015579, 0.064253, -0.040988, -0.078847, -0.045421, 0.071579, -0.060639, -0.053600, -0.014127, -0.062816, 0.027573, 0.085681, 0.045764, 0.018578, -0.034116, 0.040780, -0.031539, 0.005551, -0.040171, -0.003700, -0.023915, -0.000904, 0.005225, -0.042384, 0.051088, -0.011707, 0.005300, -0.045807, -0.076894, -0.085839, -0.070742, -0.030154, 0.006492, -0.091661, -0.065754, -0.011490, -0.085197, 0.061749, 0.060021, 0.011345, -0.070297, 0.017561, 0.011609, 0.040137, -0.051201, -0.061438, -0.023743, 0.073935, -0.044120, -0.082145, -0.026729, -0.070002, -0.045366, -0.093867, 0.071353, -0.009975, -0.086468, -0.009233, 0.081723, -0.092593, 0.044369, 0.057462, -0.061329, 0.031177, -0.029289, 0.058684, 0.021484, -0.016699, -0.061082, -0.055169, 0.053196, -0.046381, -0.103770, -0.112456, 0.065914, 0.099194, 0.018949, 0.027946, -0.045567, -0.022854, 0.103184, -0.060987, -0.088614, -0.077225, 0.020312, 0.017863, 0.080378, -0.069557, 0.042198, -0.106856, 0.030540, 0.010987, 0.049572, -0.004887, 0.021156, 0.011838, -0.049205, -0.001428, -0.068540, -0.008636, -0.009559, 0.018233, 0.073064, 0.000876, 0.004226, 0.010948, 0.006825, 0.009071, -0.032040, -0.003699, 0.076854, -0.026163, -0.031929, 0.051324, -0.056210, -0.087528, 0.028030, -0.016107, 0.070693, -0.007446, 0.014419, -0.002862, 0.109473, 0.036564, -0.036110, -0.027231, -0.034390, 0.049386, 0.017647, 0.050242, -0.034845, -0.028111, -0.078963, -0.026220, 0.035650, 0.043508, -0.067071, -0.088537, 0.005145, 0.039751, -0.056133, 0.037179, 0.067261, 0.042077, 0.018420, -0.026483, 0.050283, -0.081714, -0.040921, -0.057345, -0.060134, -0.051704, 0.012454, 0.022845, -0.039527, -0.073628, 0.015906, -0.032712, -0.018054, -0.075918, 0.047228, 0.068206, -0.070101, -0.041109, 0.077988, 0.025556, -0.042801, 0.032115, -0.039981, -0.039914, 0.037114, -0.052150, -0.053130, 0.008695, 0.096632, 0.002349, -0.057598, -0.017696, 0.029053, -0.044131, 0.052597, 0.020327, -0.050921, 0.059762, -0.021328, -0.050465, 0.034414, -0.003334, -0.001340, 0.058870, 0.060365, 0.039057, -0.054121, -0.015060, -0.032145, 0.062280, 0.045007, 0.080530, -0.072994, -0.062866, -0.002865, 0.053637, -0.020327, 0.004171, -0.001210, 0.005130, 0.058088, -0.027013, 0.038300, 0.065338, 0.013916, -0.083941, 0.000400, -0.090570, -0.084782, 0.003480, 0.001915, 0.062827, 0.017634, -0.074772, 0.060136, -0.027057, -0.066002, 0.011476, -0.070255, 0.036263, 0.037436, -0.085994, -0.021622, 0.091563, 0.063560, 0.048614, 0.008090, 0.065677, -0.030559, -0.038255, -0.070780, 0.061212, -0.006811, 0.031953, 0.071108, -0.020924, -0.039002, -0.072565, 0.033286, -0.048857, -0.052640, 0.052389, -0.069709, -0.032973, -0.071753, -0.047520, 0.073788, -0.040117, -0.039128, -0.076006, -0.065282, 0.029829, -0.012453, -0.017883, -0.030146, 0.006752, 0.060946, -0.005508, 0.055394, 0.046736, 0.068591, 0.030485, -0.015091, -0.070638, 0.082166, -0.071691, 0.073501, 0.051286, -0.028229, 0.039905, 0.072755, 0.073465, -0.049018, -0.036482, -0.027704, -0.072179, -0.007271, 0.038830, -0.042844, -0.025901, 0.062297, -0.071944, -0.009561, -0.004625, -0.025604, -0.058809, -0.036718, 0.042945, 0.023195, -0.097038, 0.037417, -0.096095, 0.080853, 0.020398, -0.032807, 0.061850, -0.008691, -0.045785, 0.007279, 0.071016, -0.034070, 0.023883, -0.027277, 0.005458, 0.039850, -0.058082, 0.036263, -0.038687, 0.008319, -0.080306, -0.003313, -0.024068, -0.026343, -0.060999, 0.052069, 0.013059, -0.049303, -0.020330, -0.009558, -0.072929, -0.043322, 0.052813, -0.042516, -0.074875, 0.086691, 0.060954, -0.066290, -0.018128, -0.017086, 0.063991, 0.037495, 0.049506, 0.037049, -0.008383, -0.067343, -0.009438, -0.015982, -0.030721, 0.070275, 0.010196, 0.028107, 0.006901, 0.008058, -0.074159, -0.043707, -0.068558, -0.004446, 0.080605, 0.069039, 0.008678, -0.001296, 0.006601, -0.063787, -0.051455, -0.054891, -0.068024, 0.061583, 0.009171, 0.064313, 0.060533, 0.065915, -0.012330, 0.023677, 0.021065, 0.026801, -0.042976, -0.001937, 0.045505, -0.072835, 0.026954, 0.023974, -0.015761, 0.054443, -0.014795, 0.031410, -0.063486, 0.048790, -0.048432, 0.061679, -0.008357, 0.060537, -0.089144, -0.006555, -0.050134, 0.035390, -0.047483, -0.065206, -0.064711, 0.033590, -0.057240, 0.054954, 0.053491, -0.021529, -0.025976, 0.062220, -0.017585, -0.009078, -0.029643, -0.065379, -0.008022, 0.087579, -0.013013, 0.014175, -0.063521, 0.071036, -0.023054, -0.039138, -0.004844, 0.076106, 0.047968, -0.085694, -0.000493, 0.038044, -0.003715, 0.027133, 0.079170, 0.037132, -0.020603, -0.003019, 0.010413, -0.000659, 0.037395, 0.075218, -0.069089, 0.081592, -0.035372, 0.067713, 0.019181, 0.089692, -0.046651, 0.048077, 0.021059, 0.017258, -0.070336, -0.047827, -0.002373, 0.068455, 0.054932, -0.031214, -0.014053, 0.073386, 0.040399, 0.019439, -0.087374, -0.043036, -0.035716, -0.031292, -0.049052, 0.076841, 0.016832, -0.091655, 0.052360, 0.065269, 0.087182, -0.068288, 0.017081, -0.015698, 0.048856, -0.063492, -0.022048, 0.068559, 0.013168, 0.005707, -0.033452, -0.029937, -0.055736, -0.007559, -0.079605, 0.025111, -0.010539, -0.048958, -0.020481, -0.030373, -0.007105, -0.038701, 0.056895, 0.068220, 0.006166, -0.081339, 0.076984, 0.046417, 0.063069, -0.088695, -0.067077, 0.083788, 0.076623, 0.005902, -0.033990, -0.075601, 0.008731, -0.035774, -0.068598, -0.058098, 0.020734, 0.003855, 0.039168, 0.065483, -0.022941, 0.007227, -0.021424, 0.027809, -0.028423, -0.070723, 0.009186, 0.052331, -0.069575, 0.032909, 0.036837, 0.048454, 0.045120, -0.031085, 0.033351, 0.099026, 0.021502, 0.047595, -0.084351, 0.085875, 0.065579, -0.001527, 0.043621, -0.081055, -0.047604, 0.043274, 0.027756, -0.006922, 0.002363, 0.057115, -0.013155, 0.006893, 0.050868, -0.025253, -0.051353, 0.084905, 0.021299, -0.032394, 0.020567, 0.053106, -0.004026, -0.072058, 0.018995, -0.108103, -0.001898, 0.064119, 0.052870, -0.008854, -0.024281, 0.043581, -0.022245, -0.032478, -0.013763, 0.066305, 0.088079, 0.088987, 0.009762, 0.072546, -0.048746, 0.063196, -0.094582, 0.034793, 0.020251, 0.012401, -0.027470, 0.050993, -0.094355, 0.009664, -0.121773, -0.033178, -0.015633, -0.041049, 0.024963, -0.015135, 0.045995, -0.021944, -0.000300, -0.065429, -0.021306, 0.050524, 0.057904, -0.078046, -0.061960, 0.041509, 0.024322, 0.043946, 0.054757, -0.028948, -0.015368, 0.024760, 0.019261, -0.059769, -0.076404, 0.018881, -0.013405, 0.052211, -0.035170, -0.094264, -0.117604, 0.003136, -0.086540, 0.092621, 0.050588, 0.003670, 0.080450, -0.015998, 0.003052, -0.038380, 0.026327, -0.004182, 0.023793, 0.030857, -0.019670, 0.016489, 0.024426, 0.091082, 0.055522, -0.068849, 0.008745, -0.056936, -0.006534, 0.041527, 0.001497, -0.023467, -0.086773, -0.070203, -0.072606, 0.004815, 0.019336, -0.107195, 0.037325, 0.079014, -0.114993, 0.029545, -0.032760, 0.006115, -0.059009, -0.111586, -0.092727, -0.105389, -0.028682, -0.012458, 0.037725, 0.078799, -0.089806, -0.122443, -0.113396, 0.088106, 0.063284, -0.037904, 0.043007, -0.031971, 0.018522, -0.015465, 0.046571, 0.066019, -0.009309, -0.061352, -0.010952, -0.038737, 0.071132, 0.015592, 0.018021, -0.028333, -0.087361, 0.034701, -0.002470, -0.064408, -0.072766, -0.053795, 0.050654, -0.010160, -0.114109, -0.084278, 0.003183, 0.012726, -0.051090, 0.016779, 0.022495, 0.035420, 0.005063, 0.076040, -0.034075, 0.030317, 0.048644, 0.111709, 0.028428, -0.070185, -0.046674, -0.019477, 0.011106, -0.058832, -0.043427, 0.028416, -0.049039, 0.028710, -0.014146, 0.083702, -0.006863, 0.037534, -0.019849, -0.072917, 0.068613, -0.032680, -0.012809, -0.027398, -0.005859, -0.062912, 0.061525, -0.045647, -0.048064, 0.028288, 0.045751, 0.046908, -0.044195, -0.070486, 0.002579, -0.003149, -0.031070, 0.070910, 0.024829, 0.047402, 0.046377, 0.017985, -0.066702, 0.033298, -0.032002, 0.014876, 0.015711, 0.062845, 0.031401, -0.058157, 0.006225, -0.049659, -0.013604, 0.076723, -0.010669, -0.042105, 0.065876, -0.036835, 0.043877, -0.004572, 0.046097, 0.003551, -0.085310, 0.075965, 0.023431, -0.015066, 0.062982, -0.009173, 0.055266, -0.031122, 0.021603, -0.038796, -0.017635, -0.048134, -0.022307, -0.000469, -0.047920, 0.001954, 0.006986, 0.021267, -0.056529, 0.036754, -0.074927, -0.047729, -0.057636, 0.035636, -0.050531, 0.011852, -0.024805, -0.015329, 0.021765, -0.005767, -0.047582, 0.013283, -0.087939, -0.017797, -0.071272, 0.083949, -0.034123, 0.005996, 0.082884, -0.032246, 0.038365, -0.030966, 0.060509, -0.007774, -0.088068, 0.027240, -0.063415, 0.071448, -0.022789, -0.025662, -0.021274, 0.022626, -0.068398, -0.005237, 0.015815, -0.016888, 0.084021, 0.004344, -0.010760, 0.014776, -0.038359, 0.018222, -0.042208, 0.031456, -0.019278, -0.023699, 0.015003, 0.016039, -0.035199, 0.003079, -0.018732, 0.011220, -0.023842, 0.031411, 0.024969, 0.061927, -0.030748, -0.068639, -0.029203, -0.078160, 0.081903, -0.056329, 0.032369, 0.047645, -0.056715, -0.033666, -0.044101, 0.034093, -0.008403, -0.015051, -0.055473, 0.062615, 0.089781, -0.015238, -0.015567, 0.042998, -0.024361, -0.075909, -0.030820, -0.041870, -0.078232, 0.069846, 0.053971, 0.074607, 0.028332, 0.058299, 0.069511, -0.030085, -0.012863, 0.013989, -0.037220, -0.035461, -0.032981, 0.019949, 0.081358, -0.055574, 0.043977, 0.030775, 0.087130, -0.032212, -0.070691, 0.045612, 0.053273, 0.054987, -0.029534, -0.065733, -0.051204, 0.029686, -0.020729, -0.053154, -0.015771, -0.064809, -0.017050, -0.008440, 0.024238, -0.002116, 0.040228, 0.079495, -0.044759, -0.043765, -0.069448, 0.069113, 0.020219, 0.034288, 0.085321, -0.068325, 0.086786, -0.014246, 0.010857, 0.022473, 0.022111, 0.008672, -0.074156, 0.074556, 0.013396, -0.090654, 0.002699, -0.037753, 0.000898, 0.068129, 0.005128, -0.063124, -0.033947, -0.059941, 0.052040, 0.067562, -0.007460, -0.072559, -0.014789, 0.031794, 0.066043, -0.067492, 0.026911, -0.026772, 0.064215, 0.041274, 0.079955, 0.000797, 0.024790, -0.062620, -0.072128, 0.053387, 0.059020, -0.072625, -0.064237, -0.010372, -0.026373, 0.070858, -0.056338, 0.030962, 0.020481, 0.003911, -0.091249, -0.058708, -0.084226, 0.053795, -0.064392, 0.015374, -0.035992, 0.064286, 0.024862, 0.084739, 0.025780, -0.047137, 0.070021, 0.058778, 0.051816, -0.049947, -0.070563, -0.000452, -0.016885, -0.064697, -0.013148, 0.022711, -0.007853, 0.078683, -0.002898, 0.026207, -0.033541, -0.016868, 0.011126, 0.061351, 0.037459, 0.070950, -0.035886, 0.043974, -0.056407, -0.050459, -0.077803, -0.056751, -0.064813, -0.037847, 0.034748, -0.011890, 0.001310, -0.030610, 0.040522, 0.049940, 0.049629, 0.077297, 0.079510, 0.021969, -0.041021, -0.056385, 0.044325, -0.013621, -0.019282, 0.061531, -0.015079, 0.015354, 0.024937, 0.004325, -0.053344, 0.069785, -0.033529, -0.000578, -0.047704, 0.007049, -0.069371, 0.034419, 0.034189, -0.016313, 0.022222, 0.027155, 0.038794, -0.014335, 0.067092, 0.042475, -0.076063, -0.015852, -0.030757, 0.023174, 0.017502, 0.021758, 0.058706, -0.048800, 0.083839, -0.018929, 0.027091, 0.067043, 0.036325, -0.024277, -0.076315, -0.028343, -0.013566, -0.064063, -0.023305, 0.074799, 0.003018, 0.009707, -0.060126, 0.008336, 0.098035, 0.045528, 0.044785, 0.055674, 0.006340, 0.049337, 0.085342, 0.040136, 0.000132, -0.053817, -0.055286, 0.081038, -0.027987, 0.090462, -0.064392, 0.068858, 0.021698, -0.063734, -0.048794, -0.033384, -0.093136, 0.013937, 0.058596, -0.013170, 0.028596, 0.060610, -0.074792, -0.021273, 0.064594, 0.023158, -0.011427, -0.097393, 0.078797, 0.029986, -0.076793, 0.038259, -0.005688, -0.083041, 0.078760, 0.074431, -0.005395, -0.030913, -0.011268, 0.058659, -0.097527, 0.050346, -0.082956, 0.041798, -0.056059, -0.080682, -0.019824, -0.085661, -0.084405, -0.051338, 0.009044, -0.052089, -0.040507, -0.090150, -0.041784, 0.106680, 0.027210, -0.013951, -0.056900, -0.010154, 0.030399, 0.069965, -0.058586, 0.010271, -0.057351, -0.052482, -0.027663, 0.028306, 0.080337, -0.058366, -0.034797, 0.102197, -0.078399, 0.023725, -0.052191, -0.046808, 0.023796, -0.099135, 0.019920, -0.056188, 0.016418, 0.049316, 0.003634, 0.061152, 0.068308, -0.097834, 0.043395, -0.009911, -0.033738, -0.022582, 0.031065, 0.050691, 0.002179, 0.053360, 0.073619, -0.031380, -0.097330, -0.011394, 0.039587, 0.057886, -0.004114, -0.042376, -0.041332, 0.080596, 0.038093, 0.038286, 0.030295, 0.007260, -0.079720, 0.001946, -0.039299, -0.034927, -0.097273, -0.084847, -0.005622, 0.015597, 0.041824, -0.079257, 0.012337, -0.032660, -0.030268, 0.018695, -0.029358, 0.087166, 0.019840, -0.016486, -0.017669, 0.000849, -0.086088, 0.004407, 0.066064, 0.077572, 0.023112, -0.005415, -0.059201, 0.051102, -0.014285, -0.064868, -0.022028, -0.090154, 0.054752, -0.032179, 0.071602, 0.024910, -0.003747, -0.017677, 0.039176, 0.064717, -0.012127, -0.075076, 0.031511, 0.053012, -0.056127, -0.020653, -0.022478, 0.012224, 0.045802, -0.016641, -0.076759, -0.035171, -0.099343, -0.018816, -0.063719, -0.056034, 0.016979, -0.018244, 0.025834, -0.042925, 0.019265, 0.069009, -0.041973, -0.011385, 0.045645, 0.003972, -0.081557, -0.006847, -0.023574, 0.027780, -0.030226, -0.052084, -0.047485, -0.021253, -0.040787, 0.110890, 0.001134, 0.033081, 0.047247, -0.044547, -0.020664, 0.025692, -0.064801, -0.059207, 0.013108, -0.066229, -0.092315, -0.014051, 0.007307, -0.057630, 0.020198, -0.009549, -0.035978, 0.046679, 0.020976, 0.033987, 0.020499, -0.066130, 0.055135, 0.032816, -0.095180, -0.022291, 0.027398, -0.007699, 0.091464, -0.093400, -0.030744, -0.003465, 0.062697, -0.021536, 0.010233, -0.002897, -0.033242, -0.037758, -0.069958, 0.051739, -0.102695, 0.048720, 0.072240, 0.047910, 0.080933, 0.052552, -0.081176, 0.052583, -0.026402, -0.011135, -0.078819, 0.056753, -0.036912, -0.000416, 0.037979, -0.023088, -0.002945, -0.021527, -0.009933, 0.004663, 0.040277, -0.078965, -0.033794, 0.062442, 0.054779, -0.048558, 0.038909, -0.048508, 0.006343, 0.017638, -0.086295, 0.073738, -0.001050, -0.050147, 0.057020, -0.024475, 0.079707, -0.059979, 0.002803, 0.050998, 0.076640, -0.040387, 0.011166, -0.062377, -0.075843, 0.034937, 0.013917, -0.038339, 0.068979, -0.038618, 0.056138, -0.082578, 0.057637, 0.054259, -0.055003, 0.044612, 0.027609, 0.090286, -0.055349, -0.044746, -0.016352, -0.041711, -0.052753, 0.090785, -0.055422, 0.039723, 0.064757, -0.048405, -0.051215, 0.041268, 0.071056, 0.012122, -0.049164, -0.051437, -0.008201, 0.024250, -0.069544, 0.066007, 0.045683, 0.076766, 0.013069, 0.073608, 0.013981, -0.007117, 0.008788, -0.012518, 0.006706, -0.046175, 0.030525, -0.047878, -0.093518, 0.061209, 0.058270, -0.067411, 0.010252, 0.016771, 0.026984, -0.051264, 0.008547, 0.072739, -0.021522, -0.018314, 0.065331, -0.036678, 0.094373, -0.080967, 0.091458, -0.045943, -0.008334, -0.031110, 0.022309, -0.021658, 0.037857, -0.008378, -0.046185, -0.084320, -0.023078, -0.046826, -0.059877, -0.025317, 0.064038, -0.058990, -0.006933, -0.037449, 0.027893, -0.038087, -0.066982, 0.037023, -0.040752, -0.033946, 0.040418, -0.049880, -0.030814, 0.060426, -0.066486, -0.078533, 0.034579, 0.063079, -0.023108, -0.026887, 0.058374, -0.025240, 0.077685, -0.051282, 0.032405, -0.018964, 0.079837, -0.032832, -0.046831, 0.031939, -0.025325, 0.008234, 0.036266, -0.065512, 0.058710, -0.065793, -0.069921, -0.045070, -0.020699, 0.072227, 0.065128, 0.035554, 0.018827, -0.078530, -0.038022, 0.020589, -0.007800, 0.040585, 0.074681, -0.064659, -0.080885, 0.097634, 0.050248, 0.028429, 0.008091, 0.074920, 0.016753, 0.043982, -0.018721, 0.009865, 0.081382, 0.109935, 0.049377, 0.001017, -0.036541, -0.074060, 0.012905, 0.025487, 0.016742, -0.108174, -0.046796, -0.029774, 0.032555, 0.045454, -0.023522, -0.047650, 0.038287, 0.023558, -0.046468, -0.032225, -0.024042, 0.030821, -0.049176, 0.081750, 0.032484, 0.087137, 0.073708, 0.088201, 0.038440, -0.041839, -0.052193, 0.064770, 0.006319, 0.059260, -0.013148, -0.020569, 0.012755, -0.007088, 0.053111, -0.038562, -0.105529, -0.042077, -0.043720, 0.023076, 0.023805, -0.063523, -0.057494, -0.054528, 0.038063, 0.060495, 0.082758, -0.096798, -0.040336, 0.053722, 0.058730, 0.003416, -0.023675, -0.020587, -0.041998, 0.063934, -0.024027, 0.055213, 0.007733, -0.047449, 0.033577, -0.013981, 0.013061, 0.028011, -0.016226, -0.000553, 0.002307, 0.027494, -0.073743, -0.000233, 0.075702, -0.002771, -0.000808, 0.047070, 0.001458, 0.057891, 0.034703, 0.054720, 0.076814, -0.090733, 0.048696, -0.034065, 0.092913, 0.056185, -0.012772, 0.069038, -0.033404, -0.044164, -0.047942, 0.090519, 0.004834, -0.070548, 0.087176, 0.000335, -0.045784, -0.085930, -0.083986, -0.008330, 0.016444, -0.077046, -0.094589, 0.007311, 0.031610, -0.023834, 0.052125, -0.046947, -0.018213, 0.046418, 0.021692, 0.050693, 0.029570, 0.037703, -0.058307, 0.039547, -0.006862, 0.011375, 0.038777, -0.051675, -0.003523, 0.094718, 0.059840, -0.036239, -0.027825, -0.047810, 0.066080, 0.062319, -0.036611, -0.092092, -0.039395, 0.054302, 0.050932, -0.069276, 0.031935, -0.073150, 0.062012, 0.044189, 0.029955, 0.011405, -0.020879, -0.064480, 0.022871, 0.049676, 0.038471, -0.054003, 0.024561, -0.025808, -0.018550, 0.030052, 0.015461, 0.102018, -0.029769, 0.094405, 0.023435, -0.050318, 0.028086, 0.014462, 0.033889, 0.064534, -0.009203, -0.045091, -0.039746, -0.070248, -0.050170, 0.026295, -0.004974, -0.101298, -0.036940, -0.000276, 0.077222, 0.025904, 0.000658, -0.056551, 0.049051, 0.017938, 0.097699, -0.093540, 0.048974, 0.008931, -0.057771, 0.060197, 0.011717, -0.037977, -0.006154, 0.093688, -0.059756, 0.083596, -0.066224, 0.014892, 0.069919, 0.094533, -0.046072, 0.017047, 0.007768, -0.067866, 0.019295, -0.042546, 0.041442, 0.049571, 0.046493, 0.002059, -0.004900, -0.065606, -0.070214, 0.017811, -0.085491, 0.008447, -0.035682, 0.028704, -0.025388, 0.074949, -0.067327, -0.064725, 0.060911, 0.007386, -0.062404, -0.034100, -0.022916, 0.010760, -0.010578, -0.004990, 0.031308, 0.041371, 0.022350, -0.070241, 0.023452, 0.020340, 0.024525, -0.001013, -0.085309, -0.012126, 0.026627, -0.020624, 0.013000, 0.002913, -0.017407, 0.091228, 0.046641, 0.031252, -0.060914, -0.030986, -0.056275, 0.043669, -0.088631, -0.009826, -0.026894, 0.022508, -0.075163, 0.037967, -0.046686, -0.009182, -0.021460, 0.047423, 0.034272, 0.056451, -0.010587, -0.017542, 0.008921, 0.017732, 0.000755, -0.044624, 0.060080, -0.079743, -0.053692, 0.001987, 0.086927, -0.019552, -0.062853, 0.062212, 0.038764, 0.071091, -0.027462, -0.018872, 0.045341, -0.004432, 0.039827, 0.066449, 0.070362, 0.023352, -0.014268, 0.039438, 0.100735, 0.040312, 0.045413, 0.058630, -0.025185, 0.063012, -0.064589, 0.040495, -0.002973, 0.041624, -0.076319, 0.076185, -0.050718, 0.000687, -0.057344, -0.007892, 0.026370, -0.040563, 0.045163, -0.059342, 0.039026, 0.009132, 0.051130, 0.077171, 0.046067, -0.056149, 0.043514, -0.071851, 0.018624, 0.030537, 0.073424, 0.011884, 0.078814, -0.032987, 0.027235, 0.073755, -0.040588, 0.010052, -0.025503, -0.029678, 0.034354, -0.040433, 0.006525, 0.028027, 0.024340, 0.032284, 0.052132, 0.080281, -0.058071, -0.031801, -0.071090, -0.014301, 0.081183, -0.030621, 0.019498, -0.075336, 0.081503, 0.091230, -0.021340, -0.031917, 0.042819, 0.049665, 0.039486, 0.058153, -0.013040, 0.057943, 0.030481, 0.001404, 0.031424, -0.047923, -0.054163, -0.078763, -0.010314, 0.037081, -0.018702, -0.023117, 0.059389, -0.017868, 0.075567, 0.061826, 0.066837, 0.027637, 0.013315, -0.089669, 0.055375, 0.070116, -0.060470, -0.088658, 0.036431, 0.064367, 0.051247, 0.034455, 0.054904, 0.059472, 0.020704, 0.047029, 0.094838, 0.042786, 0.012399, -0.028351, -0.073099, -0.023945, -0.006255, -0.082283, 0.036448, 0.007261, -0.066277, 0.085584, -0.090639, -0.060277, 0.077216, 0.009893, -0.005840, -0.054783, -0.019339, 0.050715, 0.053050, -0.033116, -0.017883, -0.040990, 0.016660, 0.075543, 0.031277, 0.083534, -0.071295, -0.014836, -0.005615, 0.049647, -0.054676, 0.028273, 0.024556, -0.021278, 0.048926, 0.022889, -0.006288, -0.093514, -0.076819, -0.008783, 0.016703, 0.008496, -0.039791, -0.034496, 0.002579, -0.022181, -0.058969, 0.005305, 0.004218, 0.000057, -0.019221, -0.037108, -0.047582, 0.027128, -0.014948, -0.052454, -0.058055, 0.059427, 0.072448, -0.046848, 0.031032, -0.062824, -0.032998, -0.023928, 0.071725, 0.076240, -0.057350, -0.072241, 0.014200, -0.051282, 0.055585, -0.022411, -0.069212, -0.042607, -0.031733, 0.033929, -0.046920, 0.006144, -0.074089, 0.004560, 0.029818, -0.067790, 0.064073, -0.057660, 0.002158, -0.067998, -0.019885, -0.067253, -0.059511, 0.078891, 0.071470, 0.076164, 0.075693, 0.066469, 0.074188, -0.032067, 0.011573, -0.028111, 0.088898, 0.011058, 0.020239, -0.061898, -0.069645, -0.022078, 0.000374, 0.048619, 0.027561, -0.070188, 0.091627, -0.005870, 0.064042, 0.083238, -0.031990, 0.071906, 0.049097, -0.051619, -0.035707, -0.032228, 0.060992, -0.030190, -0.003738, -0.041043, -0.067031, -0.018987, -0.000179, 0.051201, 0.068370, -0.016587, 0.048832, 0.071713, 0.037386, -0.077146, -0.043584, -0.042555, 0.040582, 0.034674, 0.035589, -0.026506, -0.008681, 0.076067, -0.003389, -0.018422, 0.055759, -0.019602, -0.042469, 0.042756, -0.024840, 0.082948, -0.035806, -0.017253, -0.046197, 0.006127, 0.034046, -0.040922, 0.009696, -0.092013, -0.080356, -0.081692, -0.046600, 0.069747, 0.055104, 0.059390, 0.079193, -0.081257, 0.010567, 0.082303, 0.029412, 0.056894, 0.044621, 0.024643, -0.067141, 0.009404, 0.081009, 0.058516, 0.034286, -0.014887, 0.015934, 0.016114, 0.047715, -0.066156, -0.055981, 0.071697, 0.079330, 0.044604, -0.036036, -0.076707, 0.016550, -0.029818, -0.015839, -0.025757, -0.053477, -0.017060, -0.036428, 0.057307, 0.004708, 0.061710, 0.043488, 0.012985, 0.048722, -0.001174, -0.009323, 0.041721, -0.045226, -0.032397, -0.018584, -0.060398, -0.082478, -0.036088, 0.032922, -0.050502, -0.006262, 0.070611, -0.052794, 0.046435, 0.049788, -0.040677, 0.002805, -0.021099, 0.071098, 0.029317, 0.078448, -0.069333, -0.006740, -0.047100, 0.007880, 0.043419, -0.019265, 0.031059, 0.011902, 0.068637, 0.074968, 0.006117, 0.080323, -0.058309, -0.008469, 0.077068, 0.016395, 0.046670, -0.073237, 0.027802, 0.055351, 0.021410, -0.017810, -0.061081, 0.053106, 0.090457, -0.091805, -0.052281, 0.012162, -0.065725, 0.031538, -0.025452, 0.014265, 0.009482, 0.056054, 0.044343, 0.052944, 0.046458, -0.040429, -0.053066, 0.040769, -0.003382, -0.059266, -0.036370, -0.017317, -0.016425, 0.054129, -0.005659, 0.002990, -0.033154, -0.050519, 0.051090, -0.048911, 0.080405, 0.085040, -0.011058, -0.054285, 0.023219, 0.060770, 0.024607, 0.028227, -0.010465, -0.044659, 0.069556, -0.061159, 0.042988, -0.088860, 0.028153, -0.040562, 0.033265, -0.049064, -0.061740, -0.035215, 0.058878, 0.005727, 0.006946, 0.059786, -0.044542, 0.072616, -0.007934, 0.051752, -0.036305, -0.009968, -0.042388, -0.018102, -0.057971, 0.003313, 0.036147, -0.072046, 0.054588, -0.054676, 0.027776, -0.053646, -0.019776, 0.068533, -0.011323, 0.043065, 0.059153, 0.050405, -0.063268, 0.052960, -0.054415, 0.084130, 0.035235, -0.024801, 0.073197, 0.010287, -0.028023, -0.034725, -0.046941, -0.034703, 0.083266, -0.077143, 0.007547, -0.035736, 0.086367, 0.032152, -0.089198, 0.039284, 0.063998, 0.036316, 0.029669, 0.043774, -0.024124, -0.022298, 0.025492, -0.052121, -0.063196, 0.069269, 0.016773, -0.008434, 0.028875, 0.059462, -0.049647, 0.102549, 0.029093, -0.064226, -0.067514, -0.081356, 0.096978, 0.047858, -0.090849, 0.086046, 0.038444, -0.035360, 0.043611, -0.036998, 0.027948, 0.037640, -0.029308, -0.038959, -0.015889, -0.068258, 0.023372, -0.040161, 0.041755, 0.037037, 0.014242, 0.013634, 0.004761, 0.033351, 0.002183, 0.081123, -0.050870, -0.011954, 0.031575, 0.070183, -0.003285, -0.044781, 0.006813, -0.008974, 0.006711, -0.017272, -0.073509, -0.027939, -0.060484, 0.029817, -0.025276, -0.044125, 0.065332, 0.029931, -0.078446, 0.015180, 0.029022, 0.087973, -0.083749, 0.055782, 0.015098, -0.044974, 0.054221, 0.014779, 0.008136, 0.057924, 0.078454, 0.022891, -0.072205, -0.073228, 0.004266, -0.071299, -0.045238, -0.061935, -0.030530, 0.023843, 0.011612, 0.019688, -0.015952, 0.002794, 0.041696, -0.072434, 0.053712, 0.089363, 0.075690, 0.035666, 0.058690, 0.020822, -0.066690, -0.065406, 0.041902, -0.051395, 0.030720, 0.036541, 0.044452, -0.012073, -0.060325, -0.053156, -0.043458, 0.012845, 0.040660, -0.016061, 0.037535, 0.053221, 0.057889, 0.064616, 0.067877, -0.077574, -0.000210, 0.002484, -0.036921, -0.043738, -0.030364, 0.055128, -0.042094, 0.041947, 0.062882, -0.078857, -0.051982, -0.043998, -0.029733, 0.000345, -0.036917, 0.000079, 0.056567, -0.022651, 0.030681, 0.001213, 0.101216, -0.015733, -0.020539, 0.038459, 0.000019, 0.010061, -0.056873, -0.025660, 0.077533, 0.069417, -0.066816, -0.030379, -0.005677, -0.012486, 0.006840, 0.044520, -0.023275, 0.043165, 0.042675, 0.088842, 0.041978, 0.034171, 0.006392, 0.035200, -0.000077, 0.071029, 0.081067, -0.014152, 0.020773, 0.031578, -0.012845, -0.053034, 0.047495, 0.020653, 0.064973, -0.029545, 0.024964, -0.038988, -0.077301, 0.062827, -0.067591, 0.054069, 0.005185, 0.066348, -0.061417, -0.059711, -0.019607, 0.055929, -0.066321, -0.009310, -0.023231, -0.008339, 0.061781, -0.036991, 0.032498, 0.086544, 0.073959, -0.042065, 0.027111, 0.068040, 0.020476, 0.010062, -0.056316, 0.075268, -0.006430, -0.047736, -0.015268, 0.027663, 0.021977, 0.086093, 0.046870, 0.014669, -0.002596, -0.062468, 0.031801, 0.041185, -0.065305, -0.071987, 0.014090, 0.024198, -0.080485, -0.040584, -0.063321, -0.068614, -0.075394, -0.011431, 0.014214, 0.039268, -0.034578, 0.016684, 0.060713, -0.034842, -0.020498, -0.011390, 0.012640, -0.030459, 0.040498, 0.058195, 0.080198, -0.058446, 0.041176, -0.012877, -0.035897, 0.059907, 0.049818, 0.026222, 0.025329, 0.062044, 0.075626, -0.044864, 0.062063, -0.038980, 0.068396, -0.063504, -0.073509, 0.006288, -0.041704, -0.043591, 0.066427, -0.008027, 0.048950, -0.052612, 0.057416, -0.040430, 0.049895, 0.013587, 0.066477, -0.018930, 0.031783, 0.013446, 0.051557, 0.058706, -0.049920, -0.001549, 0.069594, 0.084614, -0.047231, -0.029874, -0.029969, -0.053030, -0.060347, 0.071544, 0.021892, -0.003542, 0.009961, -0.072597, -0.037467, -0.019772, 0.047848, -0.068543, 0.018136, -0.060257, -0.073747, -0.031800, -0.024981, 0.039911, 0.038341, 0.024296, -0.031626, -0.056067, 0.081786, 0.011075, -0.028983, -0.000790, -0.065964, -0.025813, -0.007937, 0.036874, -0.016594, 0.007106, -0.012275, 0.074549, 0.004005, -0.083318, -0.040496, 0.037306, -0.055542, -0.077957, -0.036018, 0.086958, 0.079209, 0.003242, 0.011922, -0.024116, -0.001041, -0.038088, -0.071807, -0.036699, -0.023411, -0.025997, 0.058996, -0.000174, -0.007090, 0.053030, -0.014384, -0.022592, 0.002412, -0.079930, -0.057092, 0.085154, -0.045151, 0.021746, -0.029547, 0.041479, 0.058600, -0.001373, -0.062075, 0.048685, 0.050669, 0.060637, -0.020560, 0.026506, 0.071876, -0.015851, 0.045949, -0.066094, -0.042198, -0.011896, -0.014306, -0.063201, -0.025884, 0.040878, -0.049917, -0.065908, -0.042624, 0.014325, -0.056966, 0.002113, 0.044556, -0.089201, -0.081365, -0.031379, -0.049002, -0.047477, 0.067706, 0.033516, 0.023034, -0.011864, 0.074779, -0.071815, 0.036110, -0.004651, -0.050736, 0.075502, 0.052831, 0.016878, -0.021704, -0.030616, -0.012345, 0.080855, 0.040293, -0.055489, -0.044083, -0.029416, 0.025966, -0.032545, -0.028564, -0.030238, 0.082742, -0.009747, -0.024700, -0.098486, -0.016930, -0.022118, 0.061900, 0.095203, -0.068501, 0.056788, 0.012948, 0.022693, 0.003661, -0.042272, -0.083117, -0.048367, 0.009821, -0.050810, 0.060816, 0.080592, -0.040352, -0.041740, 0.047152, -0.000079, 0.054159, -0.035922, -0.022538, 0.007770, 0.050501, 0.006881, -0.041538, 0.075512, 0.080887, 0.056060, 0.046774, 0.015555, -0.059635, -0.044095, -0.000853, 0.067667, 0.055784, -0.044155, -0.039498, -0.012011, -0.044859, -0.070672, -0.017178, -0.052103, -0.083420, -0.033866, 0.035924, 0.106655, -0.083542, -0.032374, 0.089352, -0.031045, 0.000258, 0.064174, 0.091479, 0.032378, -0.019312, 0.029879, -0.038642, -0.081627, 0.057715, 0.014296, 0.051541, -0.005646, -0.064696, -0.054537, 0.017722, 0.005340, 0.037244, 0.070712, 0.041568, -0.057789, -0.012735, 0.002537, -0.062926, -0.022526, 0.072770, 0.031294, 0.016439, -0.037480, -0.078828, -0.034151, -0.035904, 0.026705, -0.041138, 0.069803, 0.030309, 0.057022, 0.012366, -0.071688, 0.016965, 0.065403, 0.070665, -0.012562, 0.060642, 0.025617, -0.035450, 0.028253, -0.007986, 0.052671, 0.066871, 0.059584, -0.097492, 0.045433, 0.010331, -0.089677, -0.072422, 0.029602, -0.014630, 0.054860, 0.013654, -0.043122, -0.067376, -0.012321, 0.097575, -0.051226, -0.090906, 0.023888, 0.007894, 0.033774, 0.067533, -0.056818, -0.008511, -0.034029, -0.040907, 0.002234, 0.062714, -0.080910, -0.085501, 0.015421, 0.061136, -0.073698, -0.078114, 0.071558, -0.013841, -0.003536, -0.058650, 0.049634, 0.060072, 0.071636, -0.069818, 0.060165, 0.081963, 0.017336, -0.017189, 0.018529, -0.000404, -0.034759, 0.052637, -0.026880, -0.047212, -0.048989, 0.008754, -0.050132, -0.029150, -0.016865, 0.064080, 0.012797, 0.032767, 0.049160, 0.043901, 0.055133, 0.081093, 0.013838, -0.065342, -0.080145, -0.052276, -0.062857, 0.074316, -0.045596, 0.010083, -0.003745, -0.054862, -0.016348, -0.020812, 0.061033, 0.064250, -0.003309, 0.027063, 0.043399, -0.030979, 0.048492, -0.039482, 0.070174, 0.030907, -0.058695, -0.088547, -0.032832, -0.068530, 0.019824, 0.050783, -0.056476, 0.050410, 0.050288, -0.010628, -0.003550, 0.011025, 0.075987, 0.058586, 0.029902, 0.078763, -0.012823, 0.059288, -0.050067, 0.028931, 0.036093, -0.028316, -0.008652, 0.048481, 0.009766, -0.025948, 0.008611, 0.041168, -0.079182, -0.050048, 0.026926, -0.055585, -0.024628, -0.033370, 0.059152, 0.072216, -0.054732, -0.017946, -0.039031, -0.008497, 0.077932, -0.057356, 0.073451, -0.013350, -0.030066, 0.057952, 0.073520, -0.017492, -0.028386, 0.047499, 0.089656, 0.039797, 0.072083, -0.009560, 0.009985, 0.050019, -0.008413, 0.038496, 0.061291, 0.043648, -0.039888, 0.013592, 0.064840, -0.077421, -0.008971, 0.042447, -0.001109, -0.009579, 0.054594, -0.005743, -0.019056, 0.047355, -0.064855, 0.010071, 0.048277, 0.012518, -0.041129, -0.000151, 0.004481, -0.090602, 0.032781, 0.063454, 0.063000, -0.025487, -0.016861, -0.029157, 0.069171, 0.010060, -0.073597, -0.058535, 0.024452, -0.048615, -0.048021, -0.019645, 0.030922, -0.018026, 0.016605, -0.061533, -0.077403, 0.028037, 0.003536, 0.064827, -0.068463, -0.033947, 0.037389, -0.071362, -0.054368, 0.098933, 0.041874, -0.028512, -0.033143, 0.099220, -0.050850, -0.051635, 0.061223, -0.036918, 0.057019, 0.053782, 0.007527, 0.014651, -0.067490, -0.025766, -0.052911, 0.072402, -0.023513, -0.068554, 0.017890, 0.043184, -0.006266, 0.046793, -0.014679, -0.012587, -0.100874, 0.029898, 0.028274, -0.063186, 0.017041, -0.003303, -0.073799, -0.020827, 0.010599, 0.060790, -0.058284, 0.028807, 0.067869, 0.051162, -0.077633, 0.033103, -0.071452, 0.064502, 0.026590, 0.042572, -0.058998, -0.012372, -0.072004, 0.066037, 0.048669, -0.034441, 0.065114, -0.052180, -0.045889, -0.044161, -0.051282, 0.068376, 0.060714, 0.057801, 0.030496, 0.054664, -0.058339, 0.051219, -0.016187, 0.060790, -0.037827, -0.011409, -0.075479, 0.072191, 0.024853, -0.001702, 0.004924, 0.071712, 0.037605, 0.054816, 0.047918, 0.049115, 0.081177, -0.042433, -0.078321, -0.045974, 0.051375, -0.007793, -0.016395, 0.031431, 0.016130, 0.023204, 0.007310, 0.047748, 0.000620, 0.014025, -0.077251, 0.042462, 0.034544, -0.078621, -0.089660, 0.091333, -0.038013, 0.030704, -0.030614, 0.096164, -0.027596, 0.094036, 0.043822, -0.056347, -0.059011, 0.030272, -0.029033, 0.013762, 0.047679, 0.049307, 0.000685, -0.004919, 0.020639, 0.039288, 0.068512, -0.023208, -0.052039, -0.095967, -0.005681, 0.071383, -0.043499, -0.049980, 0.053457, 0.065611, 0.022150, -0.008547, 0.034979, -0.061895, -0.032581, -0.036335, 0.050797, 0.020053, 0.077096, -0.008250, 0.049897, -0.053440, 0.002659, -0.057518, -0.070871, -0.041191, -0.009496, -0.049330, -0.084462, -0.070491, -0.068671, -0.015942, -0.047451, 0.011777, 0.012288, 0.026373, -0.030344, -0.070726, 0.031548, -0.070904, 0.050388, -0.037361, -0.075327, -0.035695, -0.030901, -0.016126, -0.066967, -0.095554, 0.068053, -0.036057, 0.035107, 0.042325, -0.059876, -0.045559, -0.027167, -0.079727, -0.041220, -0.047529, -0.078521, -0.035427, -0.072906, 0.073784, 0.028672, -0.053315, 0.074780, 0.062810, 0.063978, 0.001517, 0.030031, -0.056345, 0.006898, 0.067500, 0.013609, -0.033402, -0.038387, -0.022452, 0.033883, -0.021792, -0.080374, -0.023969, -0.014087, -0.079088, 0.009970, -0.040743, -0.012593, 0.041825, -0.045885, -0.019946, 0.012890, -0.026071, -0.051689, 0.030454, -0.055399, -0.042623, -0.074791, 0.030437, -0.088287, 0.006181, -0.067888, 0.050529, 0.073383, 0.006119, 0.048237, -0.020425, 0.020497, -0.006413, 0.048041, 0.051157, -0.074113, 0.039221, 0.041750, -0.029609, 0.002163, -0.062339, -0.041679, 0.047778, 0.073374, 0.014933, -0.024535, -0.077942, 0.049607, -0.027404, 0.060377, 0.024731, -0.078120, 0.021267, -0.053238, -0.001842, -0.001161, -0.063277, -0.054978, 0.026019, 0.088704, 0.051893, 0.055596, 0.037142, -0.000476, 0.048336, -0.058239, -0.013640, 0.070780, 0.033937, 0.067987, 0.071111, 0.031275, 0.019867, 0.030941, -0.043762, 0.077960, -0.044429, 0.038409, 0.030728, -0.000762, -0.046264, -0.066055, 0.029519, 0.040270, -0.069047, -0.053268, -0.066574, -0.033725, 0.046567, -0.042707, -0.020195, 0.019576, -0.016734, 0.038348, -0.086643, 0.016694, 0.071871, -0.014804, 0.029619, 0.014404, 0.041691, -0.057561, 0.072034, -0.056590, 0.092015, 0.049138, 0.065798, 0.058696, 0.049373, -0.063460, 0.016047, -0.014241, -0.017737, -0.079841, -0.064036, -0.048196, 0.039863, -0.083553, -0.003774, 0.019616, -0.008662, -0.025113, 0.031394, -0.026985, 0.042670, -0.023817, -0.030012, -0.047337, 0.017697, -0.000388, -0.029046, -0.006166, 0.017029, -0.038028, 0.000870, -0.066192, -0.004355, -0.021371, 0.007016, -0.036095, -0.008016, 0.008359, -0.003162, -0.072608, 0.074518, 0.012135, -0.070306, 0.064463, -0.010979, 0.069179, -0.082301, 0.022282, 0.027949, -0.067057, -0.025424, -0.046815, -0.044968, 0.026387, -0.076216, -0.058331, 0.045945, 0.000476, -0.041804, 0.032274, 0.068937, -0.025501, -0.018224, -0.081808, -0.021154, -0.019185, -0.054114, -0.004035, -0.030302, -0.053194, 0.059194, -0.106464, 0.081984, -0.021321, -0.027840, 0.059427, 0.005870, -0.027277, 0.002672, 0.002580, -0.049304, 0.028590, -0.003515, -0.015796, 0.068183, 0.049209, 0.051742, -0.055201, -0.081898, -0.007842, -0.037191, -0.027204, -0.023870, 0.042324, -0.060172, -0.091657, -0.012325, -0.069824, -0.037614, 0.035189, -0.017249, 0.062273, 0.082317, -0.078223, -0.058384, 0.064127, 0.030552, -0.069782, -0.064763, 0.015137, 0.043511, 0.052179, 0.033341, -0.002042, -0.016479, -0.072551, -0.039476, -0.007785, 0.077076, 0.041653, -0.019538, -0.047452, -0.066343, 0.034416, 0.049213, 0.052527, -0.023267, 0.002277, 0.047390, 0.024652, -0.064523, 0.006717, 0.022321, 0.008809, -0.056185, 0.031231, -0.089847, 0.054999, 0.070451, -0.038412, 0.000855, -0.048764, 0.046663, -0.029393, -0.007905, -0.000876, 0.007710, -0.072770, -0.043065, 0.040940, -0.004018, -0.002855, -0.040810, 0.043058, -0.019406, 0.003840, 0.016249, -0.030745, -0.031671, 0.023334, 0.074142, 0.017320, -0.009488, 0.039852, 0.062415, -0.001260, -0.049787, -0.101302, 0.023173, 0.099879, -0.021638, -0.067293, -0.053450, -0.047683, -0.063074, -0.064102, 0.009046, 0.002131, -0.028367, -0.050520, -0.044724, -0.034149, -0.065644, -0.059354, 0.008139, -0.064475, -0.057644, 0.054687, -0.047474, -0.005981, 0.039870, -0.041664, -0.046890, -0.044511, 0.062984, -0.079119, -0.003938, 0.068717, -0.048078, -0.077978, 0.047933, 0.013696, -0.001045, 0.041540, 0.051986, -0.048843, -0.000290, -0.008642, -0.024484, 0.021436, 0.093728, -0.058140, 0.071125, -0.050618, 0.000790, -0.031557, 0.001965, -0.041106, 0.061239, 0.042678, -0.034948, 0.014634, 0.013193, -0.028138, 0.001554, -0.050201, 0.038649, 0.076438, 0.076484, 0.062334, 0.081406, -0.015198, -0.044309, -0.010165, 0.043173, 0.090823, -0.060937, 0.076023, 0.077046, 0.028029, -0.036205, 0.054748, 0.023707, 0.001828, 0.014756, 0.036964, 0.037673, -0.078985, 0.060670, -0.050056, 0.089011, -0.022666, 0.007404, -0.081446, -0.025178, -0.037581, 0.010445, -0.027202, -0.088241, -0.012421, 0.037367, -0.003589, 0.035757, 0.045331, -0.036955, 0.033110, 0.053428, -0.057225, 0.000668, -0.000828, -0.013622, 0.091228, 0.035515, -0.029737, 0.049097, 0.000919, -0.062134, 0.058031, -0.052339, 0.030271, 0.004466, -0.017077, 0.092957, -0.009620, -0.101824, -0.039515, 0.044048, -0.056136, -0.014416, 0.013874, -0.003494, -0.038525, -0.020493, -0.009525, 0.018757, -0.014164, 0.000919, -0.034961, -0.047641, 0.062574, 0.048780, -0.050943, -0.037266, 0.008887, -0.064940, -0.045492, 0.062639, 0.092949, 0.062402, 0.002286, -0.013687, 0.065389, -0.037802, 0.017090, 0.007082, 0.029969, -0.001388, -0.065739, -0.036523, 0.034705, 0.003895, -0.038937, 0.043040, -0.037572, -0.018790, -0.059634, -0.036450, 0.020894, -0.078286, 0.052404, 0.059668, 0.025458, -0.042037, -0.025305, -0.043636, -0.054412, -0.033410, 0.026083, 0.087872, 0.005138, -0.062596, 0.025709, -0.069304, -0.001956, -0.101092, -0.028609, 0.056390, 0.086057, -0.079684, -0.007858, -0.018063, -0.034101, 0.034941, 0.052888, -0.043500, -0.001960, 0.005533, -0.050757, -0.015311, 0.079461, 0.038267, 0.064949, 0.076175, 0.032008, -0.108883, 0.060317, 0.052784, 0.047164, 0.031905, -0.087602, 0.110150, 0.005170, 0.026938, -0.023042, 0.034450, -0.047582, -0.039892, 0.089972, 0.004906, -0.034873, -0.043130, 0.005558, -0.062607, 0.026762, -0.063243, -0.047581, 0.012753, 0.020213, 0.070548, 0.017715, 0.031085, 0.074897, 0.067861, -0.046678, -0.033825, 0.059366, -0.096675, 0.013626, 0.069173, 0.099393, 0.012513, -0.051988, 0.046184, 0.097472, 0.006119, 0.004466, -0.067898, 0.001998, -0.065657, 0.025252, 0.097087, 0.004279, -0.032587, -0.007541, 0.073683, -0.016172, -0.010001, -0.025457, -0.022783, -0.055177, 0.064908, 0.078600, 0.020569, 0.083211, 0.036636, -0.007698, 0.062302, -0.019230, -0.050939, 0.055681, -0.078059, 0.086465, 0.068207, 0.002157, -0.007648, 0.034512, -0.055407, 0.103904, -0.028126, -0.049154, 0.007695, 0.026131, 0.001797, 0.099660, -0.074199, -0.066769, 0.017458, 0.030784, 0.074628, -0.054033, -0.113247, 0.013617, 0.014394, 0.116426, -0.042008, 0.028778, -0.050562, -0.010264, 0.045632, 0.068504, -0.028107, 0.099575, 0.057641, 0.055339, 0.053989, 0.085978, 0.011882, 0.051811, 0.062656, 0.025018, 0.058636, 0.024006, -0.054319, -0.049464, -0.052157, -0.022239, 0.001848, 0.013177, 0.040928, 0.018173, 0.027874, 0.010230, -0.060967, 0.071192, 0.014202, -0.044551, 0.011982, 0.091313, -0.042809, 0.036395, 0.084081, -0.037440, -0.049164, 0.031165, 0.002764, 0.034124, 0.032209, -0.016459, -0.014883, -0.068158, 0.059456, 0.076985, -0.000562, -0.071006, 0.008541, -0.042254, -0.021198, 0.088282, -0.027812, -0.074936, -0.090594, 0.055513, 0.009313, -0.085656, -0.019443, -0.004593, 0.040149, 0.072588, 0.001158, -0.024890, -0.051842, -0.028853, 0.073094, -0.007548, -0.038015, -0.051721, 0.023166, 0.050583, 0.014535, 0.059446, 0.034523, 0.024573, -0.044308, -0.035670, -0.043116, 0.047842, -0.080284, -0.022682, -0.046025, -0.048601, -0.075401, -0.033295, -0.014225, -0.032492, -0.033142, 0.049168, 0.057150, -0.080232, -0.016990, 0.082555, 0.017150, 0.085947, 0.043692, 0.002470, 0.084400, -0.005602, 0.032798, 0.083208, -0.064508, 0.087436, 0.071089, 0.005138, 0.083396, 0.058314, 0.022680, 0.093371, 0.001685, -0.055872, 0.023953, 0.020194, 0.080005, -0.042882, -0.047740, 0.031209, 0.005107, -0.028982, 0.002729, -0.028990, -0.084331, -0.044464, 0.018566, -0.035613, 0.057966, -0.073841, 0.009079, -0.056325, -0.046075, -0.056452, 0.025333, -0.000389, -0.016708, 0.041438, -0.051141, -0.020696, -0.039451, -0.027235, -0.040989, 0.090606, 0.083596, -0.081004, -0.094334, 0.059627, 0.025192, 0.085351, -0.001314, -0.055078, 0.050345, 0.002480, -0.026523, -0.045905, -0.008970, -0.020021, 0.004782, -0.022748, -0.002921, -0.022331, -0.011351, -0.030719, -0.031298, 0.038560, 0.045361, -0.052693, 0.021404, 0.035817, 0.060279, 0.014041, 0.024880, 0.034496, -0.053366, 0.011026, 0.083279, -0.054741, -0.059293, 0.043758, 0.107925, 0.071764, -0.115082, 0.037863, 0.019967, -0.079473, 0.094920, -0.003837, -0.087611, -0.054428, -0.042804, 0.043629, 0.090166, 0.029122, 0.036124, -0.058090, -0.032033, 0.048567, -0.003739, 0.035415, 0.010074, 0.033402, 0.099850, -0.070781, 0.045564, -0.053854, 0.089056, 0.104846, 0.087667, -0.049334, -0.052075, -0.004692, 0.060871, 0.077333, 0.000017, -0.063964, 0.032402, -0.115727, 0.041743, -0.003361, -0.082866, -0.012157, -0.039060, 0.104149, -0.040721, 0.074048, 0.046576, 0.022981, 0.067647, -0.037337, 0.050514, 0.053137, -0.086474, -0.024786, -0.009351, -0.079771, 0.078198, -0.006606, 0.014741, 0.053449, 0.061629, -0.062866, -0.002340, -0.025096, -0.042907, 0.071840, -0.119055, 0.041551, 0.030272, -0.053524, 0.026327, 0.057628, 0.013083, -0.050470, -0.053856, 0.116366, -0.040386, 0.017838, -0.059076, -0.015796, 0.071502, 0.080603, -0.091187, 0.032697, 0.083693, 0.003595, 0.011964, -0.062988, 0.069459, -0.015190, -0.058987, 0.044740, -0.020998, -0.060907, -0.052379, -0.062155, -0.046890, 0.093291, 0.047423, 0.018212, -0.051761, 0.019507, 0.057487, -0.068172, 0.004400, -0.052858, -0.025256, 0.023847, 0.005920, 0.071403, 0.015283, 0.048296, 0.013231, 0.075810, 0.023984, 0.016672, 0.004242, -0.057870, -0.071062, -0.067874, 0.003605, 0.026094, -0.041175, -0.024294, -0.037543, -0.015071, -0.034917, 0.053997, 0.074473, 0.036416, -0.028639, -0.062856, 0.043112, -0.049259, -0.032380, 0.046707, 0.071799, 0.068654, -0.030593, 0.070464, 0.003096, 0.009344, -0.068619, 0.065030, 0.068936, 0.064008, 0.066002, -0.059384, 0.056547, 0.084785, -0.030419, 0.062590, -0.014134, -0.065852, -0.028318, 0.044218, -0.047317, -0.055434, 0.084170, -0.029445, -0.015035, -0.016565, -0.065070, 0.003917, -0.040105, -0.062003, -0.087034, -0.060941, 0.082820, 0.051495, 0.056121, -0.083112, 0.069050, 0.052793, -0.067358, 0.033392, 0.035626, 0.002282, -0.076302, -0.023742, -0.052374, -0.016523, -0.063088, 0.050494, 0.079591, -0.041581, 0.032316, 0.074165, 0.074131, -0.031382, 0.043468, -0.048051, -0.066695, -0.022560, -0.009250, -0.037682, 0.032430, 0.011058, 0.068039, 0.031245, 0.023880, 0.001513, -0.013738, 0.049763, 0.001412, 0.015202, -0.014654, -0.056918, 0.031350, -0.023068, -0.070174, -0.014137, 0.031968, -0.084104, 0.056972, 0.037944, -0.067761, -0.069795, 0.026630, -0.008856, 0.060093, 0.000457, -0.024273, -0.019013, 0.076855, -0.020960, -0.063985, 0.068669, -0.095731, -0.078624, -0.027451, 0.042263, 0.047767, 0.008283, -0.045066, 0.002090, -0.020736, -0.073652, 0.073292, 0.032380, 0.034173, -0.052422, 0.049992, 0.072029, 0.005480, -0.040496, 0.057201, -0.022920, -0.054421, -0.019975, 0.041566, 0.042781, -0.045728, 0.024298, -0.071931, 0.046466, -0.030991, -0.040348, 0.019526, -0.085510, 0.000097, -0.034942, 0.002643, -0.044066, -0.086983, -0.053335, -0.047036, -0.055276, -0.032047, 0.086646, 0.006760, -0.078549, -0.016385, 0.010955, -0.088160, -0.066175, -0.010851, 0.017051, 0.082158, -0.043776, 0.084023, -0.050442, 0.038802, -0.011154, -0.000348, 0.006353, -0.051273, 0.041302, 0.047325, 0.039644, 0.059627, 0.061907, -0.006990, 0.048134, -0.042283, -0.072718, -0.010911, -0.076775, -0.013425, -0.029070, 0.024169, 0.003500, -0.077204, -0.054939, 0.053611, 0.001789, -0.017434, 0.089749, -0.049553, -0.020248, 0.013163, -0.015036, 0.053315, -0.017558, 0.056961, -0.014267, 0.008774, -0.043977, 0.062429, 0.092947, 0.083795, -0.038112, -0.071370, -0.003577, -0.080799, -0.084385, -0.067442, -0.018070, -0.090549, 0.029025, -0.038025, -0.035180, -0.038546, -0.062029, -0.053233, -0.015155, -0.040254, -0.044665, -0.077405, -0.066828, 0.069271, -0.011193, 0.088033, -0.023094, 0.073385, 0.015644, 0.081163, 0.078123, 0.009924, -0.022997, -0.002047, 0.025282, -0.030493, 0.104852, -0.088063, -0.081322, -0.049128, -0.090143, -0.033053, -0.022156, -0.091385, 0.078471, 0.018951, 0.047366, 0.070610, 0.081563, -0.040129, -0.011167, 0.040880, 0.037782, -0.023267, 0.001073, -0.072468, -0.077283, -0.039195, 0.057735, -0.057749, 0.056461, 0.014507, 0.002816, -0.077952, 0.039428, 0.029813, 0.038624, -0.054952, 0.073761, -0.080532, 0.030197, -0.026295, -0.028061, -0.011474, -0.050726, -0.033712, 0.062107, 0.017396, -0.004986, -0.027146, 0.062062, 0.009438, -0.004031, -0.025516, 0.045312, -0.008077, -0.015880, 0.053781, -0.045235, 0.084227, -0.043861, -0.008577, 0.017938, 0.026731, -0.049249, -0.045183, -0.091237, -0.051481, -0.077720, -0.000389, -0.037037, 0.016319, -0.021455, -0.080449, 0.059485, 0.071646, -0.007223, -0.014730, -0.074064, -0.004752, 0.000082, 0.046574, 0.066233, 0.033602, -0.077291, -0.029268, -0.074520, 0.045588, -0.008736, 0.017027, -0.058244, -0.004272, 0.012174, -0.046570, 0.057845, 0.068934, -0.071012, -0.085446, -0.075175, 0.085092, -0.009188, -0.029532, -0.084941, 0.049265, 0.075200, -0.025183, -0.071110, 0.008314, 0.057695, 0.035736, -0.019162, 0.002649, -0.013338, -0.075124, 0.056920, -0.000941, 0.069213, -0.080238, -0.078474, -0.031855, 0.037625, 0.004060, 0.063623, -0.067735, -0.011825, -0.030527, -0.010221, -0.058559, -0.071319, 0.060991, -0.023930, 0.077193, -0.042386, -0.009717, 0.017444, -0.065140, -0.006776, -0.088618, 0.030745, -0.067976, 0.022276, 0.002459, 0.012108, -0.042098, 0.003760, 0.036738, 0.049165, -0.064097, 0.068907, -0.058890, 0.030710, 0.094605, -0.020597, -0.020879, 0.047971, 0.071662, 0.084165, 0.057050, 0.061529, -0.071215, -0.096574, 0.085562, -0.002011, -0.063050, -0.049113, -0.007290, 0.046789, 0.061022, -0.055853, 0.034088, 0.030198, 0.019455, -0.045492, -0.008711, -0.078802, 0.031813, -0.099040, -0.063302, 0.081675, 0.033432, 0.035108, 0.004667, -0.084448, 0.040739, 0.028193, -0.056309, 0.044014, -0.039167, -0.065050, 0.019541, -0.081900, 0.054046, 0.005090, 0.056491, 0.051221, 0.096228, -0.013135, 0.029520, -0.010490, 0.006988, -0.046618, -0.047375, 0.086820, -0.081650, 0.022272, -0.056717, -0.070153, 0.015638, -0.104996, 0.026998, 0.057420, 0.031580, -0.051274, 0.002585, 0.012407, 0.065777, 0.053642, 0.012274, -0.034389, 0.054127, -0.016255, 0.016573, -0.013242, -0.082358, 0.043465, -0.002522, -0.049261, -0.019721, 0.066840, -0.085819, -0.091234, 0.067503, 0.067348, -0.025712, 0.066287, -0.075136, -0.035026, 0.040658, -0.024092, 0.049467, -0.078038, 0.056621, -0.065717, -0.003878, -0.000184, 0.012188, -0.072445, 0.076782, -0.094193, 0.060651, -0.001043, -0.037404, 0.015351, 0.017806, -0.069651, -0.087200, 0.043302, 0.006400, 0.083316, -0.029702, 0.026601, 0.048269, -0.062692, -0.003695, 0.093921, 0.008364, 0.018670, 0.017790, -0.020271, 0.079845, 0.001653, 0.029402, 0.050989, -0.046160, -0.004270, -0.064087, -0.043063, -0.062893, -0.018594, 0.093489, -0.083717, -0.066397, -0.030109, 0.028958, -0.008132, -0.044183, 0.049301, 0.028070, -0.037640, 0.012040, -0.027385, -0.034587, -0.049742, -0.020190, -0.074321, 0.099652, 0.078453, 0.071464, -0.057169, 0.066345, 0.075526, 0.047087, -0.060225, 0.029211, -0.012584, -0.012694, -0.058155, -0.053201, -0.006114, -0.060742, 0.024722, 0.022411, -0.083335, -0.040747, -0.000273, -0.071610, 0.080939, -0.102495, -0.090139, 0.039551, -0.048547, 0.033571, -0.003360, -0.035201, 0.067772, -0.032319, -0.066821, -0.039358, -0.044454, 0.068970, -0.014418, 0.010448, 0.078667, -0.026576, -0.017919, -0.070380, 0.027106, 0.068785, -0.005537, -0.060570, 0.056681, -0.098352, -0.056657, -0.046155, 0.020822, 0.012350, 0.037635, -0.003020, 0.032860, 0.067450, 0.068255, -0.033789, 0.043867, 0.035823, -0.038867, -0.060191, 0.016875, -0.073061, 0.044981, 0.089447, 0.019086, -0.035923, 0.048746, 0.064190, -0.065641, -0.048693, -0.054625, 0.060478, 0.048539, 0.068290, -0.008626, 0.039185, 0.019663, 0.056909, -0.085855, -0.031397, -0.072334, 0.003789, -0.029972, -0.032946, -0.060239, 0.033342, 0.080409, 0.016216, -0.023903, 0.024809, 0.005605, -0.036049, -0.021113, -0.060123, -0.075945, 0.026561, 0.025774, -0.023233, -0.069073, -0.043991, -0.021115, 0.046908, -0.049338, -0.072787, 0.074358, 0.040875, -0.038744, 0.037968, -0.041839, -0.042002, 0.023226, 0.014812, -0.020098, -0.034377, -0.031278, -0.058212, -0.044157, 0.043634, -0.033095, 0.013749, 0.002793, 0.023989, 0.069053, 0.075668, 0.045687, -0.006531, -0.032427, -0.050140, 0.051737, 0.027583, 0.010824, -0.020484, 0.032084, 0.048554, 0.066441, -0.077447, -0.054796, 0.080432, -0.046662, -0.004936, 0.011275, 0.081133, 0.056445, -0.027943, -0.069297, -0.040048, -0.079785, -0.067597, 0.007297, 0.035981, 0.084242, -0.072639, -0.000171, -0.059207, 0.039386, -0.082170, -0.010905, 0.046440, 0.056898, -0.011510, 0.054791, -0.065049, 0.056708, 0.062577, -0.013623, 0.075141, 0.071963, 0.048868, 0.034216, -0.041844, -0.055036, 0.072242, -0.007838, 0.081144, -0.035433, -0.033030, -0.030103, 0.037890, -0.086457, 0.056997, -0.029080, 0.043857, -0.053114, 0.017259, -0.073531, 0.041398, -0.028327, -0.015832, -0.079992, 0.089369, 0.017790, 0.032387, 0.020909, 0.078416, -0.068242, -0.035401, 0.072723, -0.059140, 0.053041, -0.011230, -0.069082, 0.033993, -0.073040, -0.030743, 0.039850, 0.058125, 0.069727, 0.004860, -0.010676, -0.056412, 0.062312, 0.069414, -0.050128, -0.060767, 0.037124, 0.024627, 0.048592, 0.011874, -0.059409, 0.070836, -0.029241, 0.005097, 0.016949, -0.027179, -0.001159, 0.070525, 0.029880, 0.045100, 0.016716, 0.038778, 0.007179, -0.011168, 0.023348, 0.007629, 0.072987, 0.073365, -0.076986, 0.014105, 0.089098, 0.064577, -0.073737, -0.058297, 0.007958, -0.004876, -0.021373, -0.066880, 0.007788, 0.086073, 0.081300, -0.004229, -0.058024, 0.027478, 0.077284, -0.047668, -0.036486, -0.061028, 0.000913, 0.026112, -0.066631, 0.048225, 0.074878, -0.006219, 0.066356, -0.037547, 0.070434, -0.048809, -0.073608, 0.006157, 0.042216, 0.065863, 0.024329, -0.074840, -0.048746, 0.063272, -0.002646, -0.001186, -0.047823, 0.077295, -0.051647, -0.047917, -0.043470, -0.046911, 0.011912, 0.039809, 0.040661, 0.043818, -0.020320, -0.079959, -0.030422, -0.026955, -0.005056, -0.054439, 0.056542, -0.016230, 0.021615, -0.071635, -0.025095, -0.012496, -0.039266, -0.046021, -0.006002, -0.041074, -0.039776, -0.053893, -0.036050, -0.024218, -0.048437, -0.023356, -0.008974, 0.032585, 0.070144, 0.075626, 0.044567, -0.072087, -0.000734, -0.048042, 0.081936, -0.005670, 0.055189, -0.096771, -0.029093, -0.009509, -0.065761, -0.012562, 