//Numpy array shape [64]
//Min -0.022191930562
//Max 0.027716524899
//Number of zeros 0

#ifndef B9_H_
#define B9_H_

#ifndef __SYNTHESIS__
conv2d_2_bias_t b9[64];
#else
conv2d_2_bias_t b9[64] = {0.0077983914, 0.0166100152, -0.0160231832, 0.0191579498, -0.0105886953, -0.0181362983, -0.0069178338, 0.0207736529, 0.0147942221, -0.0172134787, -0.0185710080, -0.0181836020, -0.0151005425, -0.0168719217, -0.0178549234, 0.0192559008, 0.0167573038, 0.0162584186, -0.0187522639, 0.0075536859, 0.0163704827, -0.0192142185, -0.0221919306, 0.0176788308, -0.0117784860, -0.0035717529, -0.0157723483, 0.0151006309, -0.0204687491, 0.0192915276, -0.0187046286, 0.0140893292, -0.0216174200, -0.0184901785, -0.0076616155, 0.0207896344, -0.0142689142, -0.0218921136, -0.0154761095, 0.0277165249, -0.0021651054, -0.0142231537, 0.0121383658, 0.0086698402, -0.0181406140, 0.0162831433, 0.0178743675, 0.0172506291, 0.0167467762, 0.0086440556, 0.0138874194, 0.0212360919, 0.0212951098, 0.0209667720, 0.0099000689, -0.0193504374, 0.0146786300, 0.0256629884, 0.0155057553, -0.0161218401, 0.0108857807, -0.0115182828, -0.0183570590, -0.0198637713};
#endif

#endif
