//Numpy array shape [3, 3, 64, 32]
//Min -0.141533389688
//Max 0.140220060945
//Number of zeros 0

#ifndef W12_H_
#define W12_H_

#ifndef __SYNTHESIS__
conv2d_3_weight_t w12[18432];
#else
conv2d_3_weight_t w12[18432] = {-0.0483517274, -0.0135888839, -0.0533309653, -0.0828230008, -0.0769828558, -0.0321850814, -0.0018432708, -0.0593782291, -0.0425995030, 0.0400624350, 0.0591106899, -0.0294780210, 0.0061832713, -0.0045740074, 0.0890479311, -0.0276280772, -0.0239323676, -0.0558891557, -0.0036538588, -0.0223601963, -0.0777689815, 0.0443073623, 0.0113798492, -0.0329936966, -0.0268280674, 0.0123927360, -0.0715602189, 0.0029465654, -0.0323752835, -0.0816144422, 0.0709555373, -0.0801804587, 0.0505362116, 0.0628143027, 0.0608497411, -0.0332361758, 0.0865298584, 0.0564223789, 0.0075713024, 0.0073984219, 0.0650658235, 0.0261244029, -0.0406587385, -0.0440006964, -0.0413615890, 0.0479539670, -0.0168668609, 0.0277853943, -0.0291041806, 0.0015811009, -0.0514510311, -0.0401490219, 0.0088326456, -0.0853420720, -0.0594327636, 0.0354620032, -0.0533086844, 0.0496200398, -0.0775629655, 0.0912909284, -0.0354024023, 0.0748080239, 0.0219568629, 0.0790603161, -0.0528442711, -0.0331705362, -0.0279583037, 0.0256377887, 0.0843503624, -0.0057718032, 0.0854918659, 0.0454767272, -0.0403349437, 0.0096351458, 0.0385541655, -0.0430469289, 0.0774350911, -0.0680911019, 0.0706507117, 0.0428768769, 0.0491855070, -0.0766157955, 0.0691165999, 0.0679329857, -0.0214446876, 0.0474983752, 0.0566342287, 0.0185534656, 0.0713282973, -0.0562266819, 0.0798320770, -0.0021568518, -0.0246596634, -0.0997820571, 0.0175452698, -0.0554509126, 0.0237111915, 0.0395680927, 0.0644474775, -0.0562472306, -0.0482213162, 0.0778631046, -0.0140017113, 0.0975511447, 0.0387259461, -0.0530179404, -0.0560393855, -0.0862853676, 0.0243983213, 0.0164100267, -0.0597079732, -0.0741079524, -0.0322565660, -0.0229289196, -0.0626399964, -0.0254765153, 0.0650357902, -0.0523339361, -0.0380002968, -0.0398404635, -0.0490076132, -0.0316773243, -0.0770449415, 0.0409144983, -0.0106325978, 0.0303136595, 0.0868059620, -0.0448602065, -0.0193738043, -0.0636064857, 0.0738242194, 0.0111929132, 0.0864873007, -0.0066308356, -0.0479616523, 0.0594973788, -0.0267745219, 0.0387844555, -0.0205682535, 0.0442835093, -0.0842975304, -0.0057972469, 0.0821157545, 0.0662647262, -0.0728054494, -0.0052618082, -0.0567992963, -0.0835072026, 0.0627125576, 0.0169058274, -0.0317302085, 0.0305782706, -0.0683298558, -0.0243048202, -0.0183638725, 0.0646738708, 0.0249371100, -0.0298414323, -0.0239981227, 0.0283281542, 0.0343583487, 0.0374356695, -0.0615057796, 0.0519457348, -0.0697411373, 0.0615927801, 0.0460769199, -0.0304320659, 0.0335263200, -0.0437463596, -0.0137694487, -0.0430008471, -0.0855121836, -0.0708509088, -0.0733725280, 0.0901999176, -0.0752279013, -0.0591928363, -0.0359214991, 0.0631204695, -0.0689871684, 0.0074042832, -0.0127656609, -0.0024308220, 0.0068666101, -0.0683735162, -0.0418432131, -0.0304055363, -0.0615930632, -0.0682236552, 0.0416058078, -0.0077240211, -0.0523260981, -0.0760643035, 0.0973723903, -0.0485217087, 0.0618968494, -0.0376643799, -0.0312176216, -0.0174640976, 0.0239768233, 0.1010679826, 0.0545061082, 0.0841799900, 0.0404659882, 0.0535366908, 0.0362586342, -0.0828670785, 0.0327951945, -0.0448268354, 0.0269586369, 0.0614213869, -0.0793124288, 0.0675901994, -0.0704361126, -0.0563778244, 0.0312192664, -0.0154797360, 0.0174333416, 0.0565000884, -0.0330551825, 0.0392238572, 0.0808839351, -0.0830295533, 0.0753692687, 0.0243951324, 0.0611821711, 0.0198235605, -0.0656233877, 0.0224820636, 0.0653030351, 0.0577827059, 0.0037602833, 0.0286415033, 0.0090811541, -0.0927610174, 0.0558009669, 0.0248915106, -0.0329099707, -0.0798055083, -0.0636959374, -0.0575540513, 0.0402014032, 0.0228540245, 0.0019158749, 0.0525577664, 0.0072679603, 0.0098149832, -0.0395610854, -0.0261828694, -0.0499414355, -0.0517765395, -0.0605513602, -0.0103774918, 0.0087943831, 0.0098125851, -0.0637707040, -0.0648915544, 0.0096013937, 0.0107469894, 0.0011040900, -0.0086379573, 0.0054310285, -0.0799787417, 0.0097547546, 0.0160223991, -0.0709328055, 0.0325153805, 0.0270901509, 0.0095960647, -0.0701159015, -0.0015429605, -0.0446290374, -0.0433307551, 0.0416033790, -0.0529190525, 0.0136490269, -0.0393737480, 0.0119722364, -0.0018046849, -0.0709851682, 0.0749796927, -0.0314126387, 0.0663073659, 0.0448427908, 0.0099776080, -0.0189415030, -0.0269232783, 0.0097056599, -0.0270978343, -0.0361401550, -0.0876407698, 0.0678869113, 0.0195275005, 0.0429398939, -0.0483547635, 0.0390907452, 0.0006046466, -0.0669189095, 0.0155245299, 0.0581236295, -0.0651204064, -0.0612021089, 0.0024643417, 0.0437000729, -0.0180787854, -0.0706552193, -0.0917008296, -0.0243108142, 0.0088301580, -0.0169924237, -0.0048485999, -0.0505393706, -0.0377770849, -0.0697629675, 0.0460127443, 0.0713321567, -0.0029369663, 0.0410752147, 0.0152951172, -0.0414828174, -0.0950478241, 0.0392829999, 0.0642352477, -0.0052124788, 0.0269459188, 0.0082388008, 0.0016054439, 0.0292559322, 0.0226334911, -0.0147961322, -0.0074699200, -0.0313154832, -0.0432859808, -0.0012228130, 0.0558744147, 0.0421045534, 0.0563059449, 0.0339111350, -0.0423190556, 0.0075201569, 0.0542303696, -0.0946734175, -0.0021439632, -0.0324533693, 0.0528772175, 0.0965669900, -0.0861941501, 0.0193790030, 0.0001159998, -0.0715434328, -0.0458981618, -0.0512589253, -0.0112301921, 0.0772631615, 0.0053763986, 0.0365460217, 0.0587463975, 0.0875813663, -0.0753768310, -0.0207534656, -0.0817762241, -0.0200876500, 0.0058412836, -0.0842832997, -0.0826100484, 0.0495668985, -0.0226368010, 0.0532924682, 0.0060182209, -0.0558373556, -0.0051547075, 0.0042183762, 0.0237092841, -0.0159030203, -0.0295663234, 0.0064801537, -0.0109386174, 0.0326737016, 0.0714895055, 0.0163507909, -0.0308629386, -0.0442417674, 0.0636125356, -0.0753777921, 0.0398643017, 0.0687163994, 0.0015765461, -0.0653978884, 0.0627107844, -0.0934409425, 0.0370075665, -0.0020348968, 0.0632289425, 0.0591505058, 0.0266582333, -0.0037960627, -0.0057520717, 0.0692287683, 0.0456604250, 0.0909155235, 0.0117617492, -0.0538444109, -0.0355015844, 0.0005889664, 0.0374482498, 0.0779160485, 0.0055281031, -0.0920890346, -0.0613708347, -0.0000001206, 0.0520582870, 0.0160971191, -0.0670524761, 0.0347917937, -0.0038599037, -0.0475996099, 0.0386752300, 0.0757258907, -0.0107264044, 0.0005213642, 0.0406296402, 0.0025244069, -0.0143620586, 0.0038454658, 0.0090353973, 0.0213056281, 0.0295949336, -0.0547552519, 0.0360473394, 0.0144595634, -0.0022005178, -0.0151155386, 0.0042128540, 0.0023964983, 0.0312829055, -0.0273971725, -0.0222552214, 0.0834550485, -0.0323128887, -0.0035861926, -0.0459258743, 0.0144972662, -0.0076159844, 0.0632175282, 0.0542181619, -0.0247931406, 0.0276198387, -0.0113463951, -0.0476010554, 0.0807008669, -0.0769862384, -0.0053961519, 0.0207270663, -0.0720771253, -0.0208821036, -0.0492685996, 0.0866105855, 0.0727616325, -0.0094808666, 0.0641099066, -0.0144826826, -0.0053419699, -0.0159505457, 0.0000101431, 0.0050452929, -0.0080225654, -0.0854528919, -0.0913688317, -0.0128098009, -0.0288898200, -0.0780549124, 0.0149788382, -0.0085760597, -0.0535832308, 0.0070740520, -0.0249925703, 0.0321892686, -0.0475834161, -0.0670580417, -0.0601151809, -0.0206172727, -0.0080136098, -0.0740583614, 0.0673873052, 0.0384645350, 0.0689692870, 0.0558729097, -0.0042515788, 0.0433261953, 0.0007364512, 0.0426365882, -0.0032739833, -0.0362374447, 0.0315388553, -0.0092316093, 0.0297451280, -0.0449434146, -0.0547562018, 0.0324458331, -0.0351769999, -0.0256550889, 0.0371639803, -0.0344427973, -0.0294082556, -0.0040759183, -0.0292964187, 0.0191571116, 0.0379311219, 0.1093802452, 0.0004371890, -0.0253809448, -0.0341168493, -0.0103152990, 0.0888064057, -0.0361581147, 0.0714312270, 0.0691416636, -0.0818008110, -0.0864366367, 0.0079059647, 0.0286833253, 0.0538836792, 0.0785595253, 0.0139893731, -0.0516256094, 0.0732150227, -0.0501110666, -0.0060202507, 0.0711680353, 0.1122794151, 0.0532408878, 0.0307594109, 0.1040422097, 0.0193791520, 0.0272003599, 0.0872754306, -0.0428543799, 0.0625233501, -0.1035182402, 0.0448273160, -0.0197636951, 0.0972592458, 0.0397821218, -0.0129399356, 0.0394499712, -0.0351216495, -0.0146979261, -0.0204401892, -0.0073832138, -0.0235058945, -0.0700385049, -0.0712760240, 0.0766396150, -0.0443311781, -0.0744836777, 0.0910840705, 0.0306559149, -0.0347674154, -0.0921589732, -0.0744858086, 0.0013894069, 0.0469793752, -0.0875689015, -0.0131102335, -0.0274799168, 0.0182398595, 0.1021455526, -0.1021677107, 0.0136649469, 0.0181430690, 0.0764245689, 0.0706639886, 0.0822625756, 0.0047624982, 0.0077582728, -0.0841496512, -0.0456991307, -0.0606966093, 0.0073785391, 0.0159242600, -0.0309230313, -0.1125887856, -0.0712684095, 0.0731835067, -0.0475313663, -0.0007211823, 0.0102974009, 0.0609008409, -0.0533823408, 0.0453392528, 0.0048295427, 0.0617424771, 0.0571096353, -0.0856948122, 0.0578802750, -0.0305061098, 0.0642901734, -0.0272239838, 0.0420039482, 0.0175967943, -0.0357795842, -0.0049103252, -0.0012874852, 0.0700431988, -0.0302429404, -0.0466326289, -0.0615795329, 0.0708956122, 0.0586513802, 0.0728886276, -0.0248025078, 0.0128587680, -0.1023076177, -0.0527393147, 0.0395525023, 0.0555339232, -0.0784866884, -0.0356252678, 0.0510536768, 0.0269816723, 0.0454222523, 0.0340830237, -0.0594672710, 0.0086387461, 0.0411027558, 0.0824371353, -0.0051735910, -0.0163042378, 0.0486240089, -0.0705463812, 0.0311245099, -0.0236922521, -0.0574838333, -0.0109571628, -0.0890901759, -0.0410492681, 0.0560439229, -0.0733076334, -0.0740928873, -0.0911001191, -0.0064564524, -0.0439566299, 0.0892128423, -0.0568538122, -0.0395999700, -0.0022340554, 0.0154139930, 0.0254584104, -0.0324452780, -0.0787135214, -0.0532296561, 0.0243580788, 0.0052282419, 0.0243087579, 0.0883869082, 0.0537979193, -0.0906336904, -0.0298359599, -0.0391378291, 0.0375224538, 0.0211702641, 0.1027813330, 0.0305773802, 0.0625424907, 0.0282838698, -0.0986863151, 0.0308904089, 0.0061015598, 0.0774788335, -0.0227182209, -0.0263996199, 0.0563531779, -0.0637860447, -0.0110954205, 0.0553736314, -0.0051440108, -0.0107213510, 0.0245775860, -0.0140493037, 0.0321628116, 0.0270763095, 0.1248132288, -0.0421776026, -0.0427121259, 0.0098826615, -0.0510351583, -0.0553358346, 0.0256630536, 0.0348921977, -0.0304446742, 0.0413949788, -0.0332576483, -0.0328263827, -0.0832479149, -0.0106187705, -0.0326468162, 0.0746636540, -0.0544259213, -0.0280442294, -0.0187558457, -0.0599085055, -0.0416129977, -0.0918847695, 0.0119903516, 0.0296118613, 0.0464228280, 0.0582783408, -0.0245641712, 0.0154259410, -0.0417860821, -0.0084823770, 0.0856467634, -0.0035673548, -0.0611533448, 0.0178057998, -0.0250819866, 0.0284112711, -0.0775147676, -0.0560816452, -0.0551618412, 0.0166125223, 0.0010099430, 0.0208783727, 0.0850871280, 0.0579410009, 0.0616992563, -0.0349186249, 0.0853368044, -0.0370714664, 0.0383533426, -0.0075693396, -0.0773775801, -0.0171449687, 0.0730347782, -0.0309469756, 0.0662680566, -0.0901308060, 0.0027786293, 0.0320291631, -0.0694763437, 0.0017167445, 0.0222539511, -0.0321066901, 0.0471457317, -0.0535184816, -0.0186999403, 0.0664732382, -0.0638569444, 0.0491032116, -0.0513027459, -0.0025265680, 0.0166286342, 0.0777441189, -0.0173264202, 0.0655715019, -0.0329569392, -0.0170105845, 0.0181915853, 0.0641085804, -0.0588225722, 0.0615266152, 0.0135659268, 0.0282072183, -0.0160122905, 0.0599965639, -0.0311884545, 0.0678525344, -0.0852806196, 0.1011123881, -0.0660354197, -0.0250505060, 0.0501807109, 0.0666669831, -0.0172337107, 0.0309998821, 0.0150229745, 0.0230339486, 0.0525842607, 0.0255912449, 0.0287595429, 0.0465499125, -0.0316308402, 0.0150793288, 0.0179936048, -0.0565369539, -0.0074402303, 0.0351497419, 0.0004849245, 0.0564497970, 0.0092714466, 0.0778164938, 0.0908693895, 0.0338844471, 0.0419975817, -0.0254807584, -0.0664175525, 0.0832058266, -0.0499438718, 0.0019229089, 0.0713564456, -0.0363709778, 0.0435230024, 0.0865304321, 0.0553495139, 0.0123479217, -0.0571220145, 0.0160709172, 0.0293130204, -0.0704435334, 0.0747364834, 0.0154808937, 0.0315961502, -0.0267857332, -0.0598459989, 0.0181677341, -0.0621151738, -0.0221732650, 0.0199602321, 0.0222751461, -0.0477581322, -0.0244563241, -0.0543857031, -0.0678795427, 0.0326132998, -0.0215421375, 0.0510352626, -0.0930239707, -0.0775620863, 0.0456245877, 0.0063386643, 0.0593894050, 0.0538312048, 0.0173958428, -0.0523829572, -0.0499415323, 0.0281664655, 0.0374603681, 0.0423536412, 0.0150094777, 0.0820090026, -0.0670469776, 0.0257275905, -0.0303620286, -0.0576961897, -0.0567809381, -0.0913220942, 0.0308748838, 0.0967760235, 0.0212132372, 0.0366239250, 0.0392079093, -0.0451521240, 0.0666613728, 0.0458391830, 0.0406554639, 0.0709616914, 0.0801919773, 0.0591920540, -0.0453040488, 0.0191919804, 0.0192064438, -0.0234018266, 0.0553432629, -0.0569915213, 0.0400085077, 0.0193711575, 0.0816007704, -0.0899317786, -0.0773372576, -0.1011639163, 0.0827319026, 0.0426076800, -0.0341706313, 0.0368907303, -0.0071143061, -0.0842486173, 0.0102520781, 0.0008396063, 0.0664504096, -0.0366467647, -0.0097006718, 0.0003274409, -0.0935312510, 0.0445216298, 0.0057741818, 0.0338083431, 0.0329737291, -0.0690121129, -0.0280438513, 0.0917112678, -0.0096745985, 0.0290097520, -0.0385925993, -0.0696506351, -0.0214757584, -0.0393371060, -0.0403139666, -0.0288349763, -0.0447669104, -0.0280710272, 0.0141604962, -0.0002946169, -0.0527859442, -0.0684803650, 0.0387031436, -0.0294929296, -0.0005015018, -0.0771811306, -0.0518153571, 0.0108859800, -0.0413428061, -0.0105469367, 0.0723269433, 0.0019311602, -0.0324122310, -0.0375359096, -0.0646778494, 0.0284396913, -0.0265899114, 0.0803665668, -0.0480362251, 0.0214421153, 0.0623355769, 0.0799678266, -0.0144397365, -0.0570581406, -0.0076293778, 0.0902195498, 0.0534751639, -0.0545159839, -0.0571876466, 0.0720197633, -0.0214609765, -0.0467969142, 0.0016842610, -0.0230516661, -0.0614524968, 0.0496666692, 0.0214225706, -0.0446629301, 0.0545707271, 0.0163000207, 0.0325902291, 0.0847880095, 0.0127806729, 0.0474644639, 0.0649162829, 0.0043856604, 0.0627807602, -0.0702269599, -0.0486169457, 0.0526913926, 0.0432042219, 0.0118806288, 0.0184321906, 0.0323012583, 0.0298460070, 0.0675635785, -0.0262586325, -0.0832785815, 0.0000615470, 0.0371950306, 0.0177728646, -0.0099468967, -0.0828459114, -0.0882202610, 0.0480850264, 0.0116983745, 0.0353801809, 0.0385153256, 0.0716169402, -0.0506757274, 0.0250727069, 0.0731767863, -0.0099968994, 0.0895146430, -0.0361014605, 0.0669292584, -0.0373808593, 0.0044989930, -0.0433901250, 0.0286355373, 0.0185370147, -0.0395842455, -0.0348747484, -0.0833661929, 0.0158935506, 0.0224843733, 0.0502430946, -0.0605758615, 0.0580883026, -0.0119614070, 0.0058130794, 0.0845732987, -0.0579253919, -0.0560803674, 0.0356107280, 0.0049003265, -0.1089884415, -0.0613650493, -0.0581094772, 0.0721812695, 0.0601773746, -0.0172774419, 0.0592390522, 0.0084887035, -0.0596110970, 0.0501111932, -0.0635208338, -0.0442037694, -0.0609591343, -0.0237136334, 0.0517078079, 0.0032726005, -0.0450802818, -0.0366671532, -0.0807051361, 0.0041519571, -0.0353663787, 0.0529266149, -0.0232142322, -0.0152054792, 0.0792843997, -0.0380511172, 0.0848175883, -0.0359669104, -0.0033929767, -0.0318554603, -0.0544528998, 0.0594248772, -0.0324365422, -0.0939594507, -0.0971173793, 0.0507367849, 0.0218483806, 0.0288461391, -0.0406056121, -0.0137331421, -0.0506248698, 0.0599294193, -0.0548408143, -0.0960910246, -0.0946113914, -0.0538725704, 0.0301866289, 0.0708400458, -0.0444200076, -0.0728127584, -0.0615101755, 0.0640697777, 0.0688406974, 0.0289743692, -0.0136559457, -0.0577892922, 0.0724098831, 0.0107122520, -0.0949191079, 0.0100307874, -0.0769111738, -0.0543681383, 0.0576434098, 0.0396859907, -0.0277127698, -0.0435690954, 0.0502519272, 0.0710616186, 0.0253677573, -0.0455861464, -0.0163332876, 0.0947903395, -0.0355737023, -0.0606777593, -0.0164364874, 0.0423070602, 0.0299890544, -0.0257243104, -0.0899200812, -0.0741322935, 0.0287152026, 0.0303157233, 0.0764228702, 0.0151741952, -0.0263108201, -0.0697080940, -0.0553393997, -0.0366003662, 0.0449541584, -0.0499879606, 0.0267443601, -0.0676809698, -0.0073353993, 0.0747857019, 0.0458827056, -0.0190866776, 0.0157722346, 0.0430981889, 0.0122009963, 0.0193919726, -0.0722083300, 0.0265304241, 0.0093626296, -0.0655201823, 0.0662349686, -0.0519070327, 0.0295695160, -0.0802699178, 0.0489205159, 0.0286822822, -0.0196093619, -0.0063689561, -0.0113469744, 0.0446692631, -0.0452980287, -0.0335373282, 0.0699534938, -0.0353946909, -0.0722125471, -0.0644321665, 0.0118254935, 0.0040329620, 0.0647192001, -0.0606337152, -0.0170562472, -0.0396628417, -0.0564240888, 0.0033621355, 0.0309693720, -0.0473894514, -0.0748881921, -0.0209214017, -0.0094296923, 0.0222276039, 0.0765767917, 0.0486834385, 0.0631082132, -0.0013247031, 0.1016927212, -0.0280085374, 0.0469475389, 0.0304739829, -0.0253094565, 0.0770957619, 0.0831906646, 0.0672850534, -0.0310603417, 0.0690255985, -0.0055894400, -0.0399016179, -0.0848905891, -0.0666345581, -0.0346679166, -0.0386092179, 0.0356230102, -0.0307515115, 0.0709304959, -0.0014631912, 0.0365848951, -0.0973977372, 0.0279979743, 0.0006783660, -0.0387885310, -0.0566878431, 0.0606119856, -0.0809208453, -0.0415836424, -0.0127256000, 0.0745569617, 0.0280628428, 0.0376838967, -0.0743552223, 0.0290082116, -0.0197217204, -0.0068032132, -0.0251242407, 0.1168953255, -0.0073406752, -0.0791390389, 0.0331808701, -0.0173405185, -0.0510271750, 0.0722477511, 0.0101541867, 0.0716321245, 0.0405989289, 0.0169722959, 0.0402922481, 0.1121012792, 0.0319824778, 0.0619254075, 0.0270248726, -0.1040464044, 0.0328221694, -0.0573801324, 0.0529034436, 0.0813192800, 0.0694777369, 0.0876299888, -0.0160889793, 0.0195493530, 0.0470261425, -0.0279536303, 0.0559331253, 0.0096453987, 0.0221120808, 0.0106409276, -0.0262923650, 0.0012017887, 0.0386580154, -0.0777902156, 0.0679932386, 0.0390170813, -0.0505034588, 0.0015738836, 0.0134698749, 0.0409107432, -0.0270739030, -0.0097697712, 0.0087106023, 0.0658931062, -0.0289270505, -0.0440647118, -0.0779251754, 0.0391889550, 0.0226000305, -0.0427874327, 0.0368749350, 0.0174413305, -0.0290247761, -0.0548505113, 0.0837324336, 0.0103059607, 0.0247490890, 0.0324092507, -0.0079758726, -0.0075932019, -0.0229829531, 0.0112758530, 0.0915489271, 0.0583376065, 0.0230211243, -0.0285322014, -0.0096407970, -0.0176603943, -0.0388938114, 0.1023480594, -0.0306446590, -0.0405758284, 0.0620347187, -0.0201459713, -0.0634127930, -0.0156627465, 0.0717037171, 0.0158551838, -0.0440814197, -0.0545055978, -0.0246204380, -0.0188227016, 0.0692897663, -0.0049301414, 0.0835404694, 0.0024033859, 0.0725090280, -0.0107718464, 0.0358832665, -0.0077697793, 0.0500886738, 0.0208810065, 0.0116022704, 0.0734283477, -0.0708410293, -0.0430157930, 0.0262569934, 0.0599297583, 0.0447368920, 0.0293193627, -0.0296458229, -0.0229631439, 0.0376102068, -0.0635392889, -0.0156269167, 0.0477397107, -0.0511028133, -0.1013088524, -0.0426214635, 0.0681806505, 0.0358216986, -0.0664964840, 0.0991090760, 0.0614661612, -0.0195383392, 0.0678289831, -0.0656994656, 0.0389490798, 0.0848547891, 0.0055131088, -0.0457038172, -0.0378416069, -0.0002691505, -0.0519011468, 0.0133480858, 0.0275693107, -0.0453766435, -0.0126385866, 0.0086014308, -0.0137938848, 0.0481207706, -0.0291106012, 0.0372161716, 0.0873943940, 0.0683785230, -0.0099194795, -0.0326282866, -0.0467148870, -0.0203044526, 0.0511383377, -0.0181288086, -0.0217824727, 0.0759609416, -0.0575581640, -0.0453979522, 0.0335638225, 0.0554281026, 0.0169862360, 0.0908129737, -0.0751527995, 0.0307243485, -0.0227252729, -0.0943046361, 0.0124580236, 0.0331030414, 0.0185669065, -0.0235769153, -0.0765060261, 0.0484679304, 0.0884247795, -0.0828633830, -0.0675938278, -0.0682976395, 0.0268723238, -0.0476723351, 0.0648615658, 0.0764389783, -0.0380298048, -0.0307176393, 0.0677762255, -0.0713182315, 0.0211407002, 0.0485229082, -0.0445305109, 0.0511644185, 0.0230175965, -0.0020366539, 0.0038290871, 0.0971726924, 0.0588879474, -0.0331597291, -0.0850380808, 0.0340950750, -0.0335414149, -0.0485139899, 0.0247380696, -0.0307315625, 0.1075297743, -0.0125549454, 0.0802148730, 0.0312747881, -0.0523222089, 0.0926256180, -0.0221900530, -0.0571555123, 0.0483807735, 0.0636320263, -0.0275114588, -0.0224444754, 0.0654176399, 0.0417659618, 0.0374958403, 0.0643125772, 0.0060876701, 0.0459876172, -0.0153857488, 0.0566385128, -0.0638993308, -0.0034769615, 0.0787368715, -0.0020972993, 0.0367368981, 0.0973528847, -0.0651552230, 0.0441999845, -0.0397248939, -0.0711093172, 0.0412969738, 0.0320711024, -0.0623859018, -0.0102525689, -0.0032831428, -0.0138790403, 0.0512907617, -0.0287704337, -0.0941851288, 0.0359658822, -0.0521861240, -0.0677375346, 0.0900534317, 0.0555546694, -0.0344889574, 0.0276543461, -0.0444147363, 0.0055086217, -0.0227191076, 0.0193478763, 0.0080811074, -0.0185945276, -0.0770402253, -0.0309913345, 0.0725854188, 0.0555772893, 0.0229250640, -0.0042517339, -0.0376571044, 0.0548324473, 0.0165223889, -0.0311680641, 0.0410733372, 0.1028189063, 0.0386148021, -0.0934413821, -0.0071022077, -0.0434198827, 0.0597780049, 0.0125858523, 0.0633468181, 0.0786853582, 0.0292210970, 0.0562313795, -0.0640604049, 0.0257994402, -0.0915770456, 0.0632492527, 0.0734591708, -0.0232837107, 0.0426211767, 0.0860216692, 0.0098511772, 0.0547867715, -0.0403908081, 0.0019384306, 0.0814722776, -0.0611083210, 0.0816968530, 0.0351543278, -0.0974228978, -0.0219979938, -0.0138408309, -0.0188857615, -0.0960052758, -0.0580602102, -0.0471051894, -0.0016504050, 0.0228387024, 0.0724077597, 0.0663527921, -0.0911317542, -0.0110644968, -0.0079372153, -0.0514820851, -0.0228855368, -0.0237556305, -0.0409627520, -0.0384675376, 0.0393211693, -0.0225601029, 0.0570726767, 0.0742098242, -0.0028311128, -0.0180744976, -0.0878070369, 0.0025536509, -0.0262265168, 0.0261760205, 0.0132042691, -0.0589851439, 0.0283189248, 0.0726096779, 0.0420955084, 0.0538615622, 0.0300965682, -0.0250414703, -0.0414100476, -0.0376231633, 0.0475331657, 0.0559828021, 0.0418387167, -0.0041892077, -0.0598145649, 0.0419071652, -0.0385918729, 0.0017293950, -0.0439885780, 0.0085860873, -0.0005356102, -0.0753086433, -0.0627951548, -0.0317104720, 0.0256188214, 0.0111180814, 0.0741760954, 0.0703246444, 0.0315832496, -0.0134300506, -0.0142775076, 0.0274334550, -0.0130538503, -0.0613871515, 0.0489250682, -0.0731005520, -0.0678746626, -0.0203847978, 0.0797077268, -0.0385789089, 0.0365664735, -0.0902762339, 0.0047585275, 0.0629080310, 0.0914213136, -0.0155742839, 0.0626730099, 0.0289031342, -0.0800662041, 0.0025533026, 0.0039003766, 0.0455231108, -0.0154221449, 0.0425480045, 0.0321599916, -0.0585288517, -0.0925484076, -0.0098619778, -0.0054628057, -0.0957736745, -0.0824443921, -0.0400735959, 0.0747470111, -0.0423761122, -0.0809027106, -0.0273619071, -0.0613187328, 0.0038700574, -0.0221264679, -0.0541554056, 0.0438960083, 0.0184353814, 0.0761319846, -0.0180005617, -0.0076096319, 0.0261116773, 0.0769777074, -0.0029126322, -0.0621809401, 0.0101479329, -0.0942300260, 0.0387814306, -0.0693007559, -0.0248323604, -0.0179191642, 0.0248819236, 0.0872999728, 0.0271675438, 0.0987071544, 0.0421509929, 0.0144724352, 0.0268265586, -0.0603096560, -0.0881856307, -0.0695110410, 0.0642589107, -0.0124128312, -0.0064755450, -0.0201443899, -0.0605255738, -0.0461425409, -0.0241673775, 0.0408935994, -0.0232356954, 0.0495001599, 0.0544759817, -0.0744419917, 0.0448752269, -0.0433974750, 0.0185763855, 0.0092656640, 0.0008199945, 0.0314506292, 0.0198919829, 0.0946267992, -0.0310112964, 0.0150109725, 0.0027515194, 0.0441502444, 0.0302974656, -0.0218432210, 0.0359490030, 0.0068273977, -0.0519561134, -0.0560779274, 0.0204807445, 0.0292458199, -0.0906010866, 0.0047357474, -0.0684140101, -0.0075541059, 0.0605061650, -0.0478762537, 0.0454582237, 0.0986407772, -0.0918424875, -0.0300084613, -0.0110837230, 0.0452554636, 0.0624202825, -0.0118180132, 0.0934127122, -0.1013808027, 0.0230401084, 0.0269678608, -0.0813964158, -0.0293660462, 0.0026176875, -0.0224224478, -0.0731212720, -0.0844932348, -0.0308803022, -0.0586057082, -0.0554255843, 0.0135890786, -0.0865051746, -0.0703648180, 0.0182882939, -0.0497397557, -0.0274886023, 0.0175478775, -0.0724756867, 0.0100094825, -0.0038270431, -0.0486974269, 0.0135166226, 0.0914802924, 0.0983530357, -0.0265328307, 0.0565762371, -0.0820816681, -0.0723221973, -0.0451426990, -0.0740946978, 0.0099423034, 0.0824974477, 0.0730235651, 0.0469863266, 0.0683191344, -0.1099844351, -0.0568211526, -0.0712257028, 0.0953361318, -0.0452939756, -0.0924126133, 0.0595981292, -0.0436223298, 0.0367153101, 0.0253827907, -0.0441052206, 0.0159554500, -0.0585649833, -0.0347619690, -0.1001235992, -0.0789591596, -0.0208747108, 0.0367562845, 0.1045118794, 0.0732728392, 0.0440032482, -0.0209619999, -0.0556347854, 0.0133136827, -0.0536139645, 0.0207259208, -0.0101511972, -0.0372152887, 0.0457655527, 0.0642873049, 0.0271277502, -0.0705457032, -0.0394048244, 0.0331195630, 0.0045141978, -0.0931666046, 0.0118903378, 0.0346605368, 0.0341436416, -0.0498464890, -0.1110150665, 0.0230956487, 0.0652208552, -0.0015667743, -0.1176471412, 0.1188131645, -0.0437851809, -0.0931934640, 0.0812043324, -0.0429003350, 0.0485647321, 0.0528885275, -0.0266935620, 0.0455681048, 0.1007328182, -0.0166652128, -0.0504106767, -0.0118880672, 0.0635866150, 0.1065643355, 0.0462787002, 0.0942238942, -0.0268004760, -0.0066321306, -0.0599238388, -0.0936883315, -0.0501782708, -0.0625465959, 0.0605740361, 0.0343201682, -0.0489623323, -0.0464829430, -0.0709683523, -0.0204504374, -0.0077772741, 0.0431351066, -0.0255696326, -0.0149544906, 0.0104327695, -0.0429306775, -0.0381894037, 0.0023012999, 0.0641040504, 0.0740685090, -0.0609523356, -0.0030440511, 0.0919621736, -0.0019501788, 0.0441000946, -0.0607278533, -0.0443332307, 0.0482717305, -0.0625493005, -0.0040776539, 0.0709149912, 0.0086257318, -0.0375824384, 0.0222505499, 0.0345190950, 0.0826970786, -0.0063307136, 0.0742626935, 0.0067924890, 0.0750565380, 0.0636783540, -0.0016318018, -0.0549932979, 0.0088204127, -0.0366425589, 0.0719111413, -0.0492352396, -0.0588932671, 0.0806920305, 0.0869629383, -0.0593520887, -0.0011164688, -0.0824994668, 0.0649373010, 0.0707970485, -0.0897593498, -0.0190598331, -0.0071762446, -0.0112745212, 0.0345257446, 0.0371215455, -0.0044628810, -0.0036536870, -0.0640109554, 0.0623787902, -0.0263455249, -0.0237485655, -0.0391681679, -0.0643644705, -0.0770140365, 0.0280318744, -0.0126847597, -0.0581815392, -0.0961278528, 0.0105085149, 0.0617475174, -0.0741339177, 0.0289813019, -0.0428571105, -0.0320489593, 0.0062212306, 0.0554081388, -0.0617414191, 0.0150783202, 0.0057523684, 0.0746840239, 0.0872602463, 0.0843731463, 0.0433734730, 0.0525229797, 0.0976380482, 0.0410224162, 0.0461074822, 0.0269967299, 0.0104365163, -0.0360645317, 0.0708147362, -0.0335620157, 0.0711588338, 0.0028998703, 0.0260691866, 0.0747120306, 0.0445786007, 0.0352456197, -0.0326730311, -0.0633729547, -0.0739393607, 0.0165261310, 0.0479755104, 0.0197914150, 0.0322441161, 0.0142639596, -0.0608752742, -0.0645295307, 0.0493221916, -0.0412729196, 0.0382730365, 0.0397178009, -0.0466425456, -0.0010585061, -0.0355070606, -0.0685097575, -0.0128250821, -0.0301662795, -0.0186882485, 0.0391743556, 0.0283388216, 0.0522761345, -0.0267546605, -0.0197802838, -0.0595914572, -0.0364296697, -0.0837711543, 0.0540925525, -0.0562225617, 0.0108625237, -0.0526705384, 0.0293364841, -0.0493578985, -0.0773636997, -0.0404212959, -0.0343806669, 0.0347812921, -0.0159223899, 0.0562504269, 0.0023156418, 0.0936404690, -0.0087426826, 0.0294091478, 0.0494384430, -0.0094410572, -0.0349939875, -0.1012462005, 0.0675895587, 0.0050125974, 0.0807694048, -0.0369460136, -0.0011392733, 0.0763735399, 0.0183369946, -0.0169438086, -0.0450944379, -0.0499953479, 0.0616616234, 0.0260557774, 0.0672414601, -0.0905818120, 0.0209572241, -0.0005842797, 0.0227572210, 0.0443268828, -0.0307930522, 0.0544742867, 0.0177710913, 0.0579684600, -0.0550766215, -0.0774216875, 0.0033508239, -0.0392415524, 0.0604877733, 0.0629215613, 0.0353737138, 0.0530349761, 0.0334682204, 0.0026991677, -0.0116906660, -0.0564625710, -0.0221337005, -0.0364553668, -0.0608440787, -0.0457788222, -0.0400817357, -0.0024397178, -0.0461169332, -0.0676851347, 0.0256075338, 0.0524683371, -0.0016123150, -0.0339143425, 0.0257885680, -0.0225887895, 0.0639405474, 0.0949842930, 0.0154390754, 0.0310545228, -0.0696377456, -0.0600351803, -0.0556157418, 0.0055136918, -0.0092996545, -0.0434609093, 0.0026582945, 0.0201282781, -0.0812258050, -0.0289085321, -0.0050587035, -0.0049074069, 0.0521871112, 0.0446548983, 0.0293503460, -0.0355490558, -0.0295437016, -0.0655195341, 0.0079219928, -0.0551075041, -0.0841944590, -0.0657396764, -0.0320841856, 0.0658933371, 0.0102818077, 0.0435781516, 0.0513902120, -0.0011485781, 0.0059703426, 0.0283282939, -0.0406048819, -0.0515955985, 0.0843537375, 0.0299594998, 0.0725002289, -0.0490335077, -0.0586227290, 0.0600714758, 0.0627150610, -0.0779601485, 0.0491319820, -0.0149671985, -0.0440374464, -0.0325766653, 0.0447954610, -0.0529554076, 0.0858791918, 0.0151062487, 0.0081067961, -0.0608673953, -0.0285587721, 0.0222627725, 0.0091935983, 0.0842880830, 0.0037165522, 0.0367352478, 0.0169324838, -0.0116733080, 0.0254549906, -0.0202790741, -0.0075765946, -0.0300116688, 0.0767453834, -0.0806217417, -0.0312188976, -0.0247969124, 0.0290136281, -0.0157863386, -0.0355151370, -0.0016609675, 0.0747179762, -0.0674933940, -0.0372205004, 0.0536514185, 0.0405292921, 0.0266818590, -0.0511519760, 0.0857769921, -0.0155964307, 0.0274799559, 0.0391502753, -0.0034918629, -0.0449402183, 0.0646342337, 0.0078863148, 0.0229250975, 0.0471760929, -0.0347201452, 0.0087880064, 0.0561753884, -0.0480960980, 0.0689177439, -0.0545122959, -0.0868202224, -0.0527581684, -0.0706720576, 0.0416449830, -0.0467081964, 0.0145237353, -0.0373713672, -0.0307501368, 0.0432660058, -0.0374037027, -0.0273602717, 0.0487598553, 0.0581148267, 0.0424852632, 0.0595429279, -0.0683068782, -0.0531367734, -0.0123836836, -0.0449915715, 0.0400607288, 0.0473600253, -0.0737314224, -0.0759948120, 0.0331318341, -0.0687721446, -0.0237924643, 0.0209940486, -0.0691700727, 0.0864003748, 0.0101636797, -0.0696767420, -0.0164458361, 0.1006043926, -0.0081451265, -0.0996385366, -0.0552985854, -0.0028028823, -0.0677155480, -0.0647479966, -0.0829567984, 0.0077756080, -0.0519969203, 0.0395779461, -0.0290032886, -0.0552502796, 0.0329955108, -0.0706300437, 0.0216932707, -0.0150638865, 0.0261483882, 0.0061584879, -0.0238529537, 0.0178145133, -0.0403404757, 0.0142541211, 0.0233211201, 0.0511747338, -0.0313057601, 0.0269059781, -0.0005116293, -0.0137495426, -0.0225602556, -0.0988039151, -0.0874550194, -0.0475761183, 0.0035121213, -0.0586877540, -0.0392984338, -0.0722491592, 0.0608384088, -0.0415390991, 0.0331360064, 0.0706234500, 0.0445043445, -0.0203589797, -0.0075352234, -0.0153772188, -0.0869963765, -0.0124438787, -0.0167529937, -0.0182799753, -0.0174467228, -0.0641327426, 0.0796608850, -0.0668625608, -0.0630312264, -0.0130709838, 0.0603002273, 0.0358480215, 0.0130642988, -0.0230207853, 0.0251601674, 0.0137151908, -0.0184108112, -0.0186702069, -0.0169295669, -0.0651249364, -0.0001669252, 0.0221519880, -0.0578519925, 0.0373969860, 0.0451653004, 0.0725002736, -0.0227714106, -0.0669647083, -0.0485007688, 0.0271233395, 0.0746297017, -0.0602107905, 0.0534836650, -0.0406145751, -0.0360882729, -0.0238244142, -0.0891241059, 0.0561725721, 0.0111058578, -0.0115849525, 0.0267570838, -0.0078023504, -0.0737756565, -0.0618874803, 0.0560885258, -0.0097508840, 0.0485321246, -0.0104011623, 0.0561523736, 0.0269336719, -0.0021039308, 0.0057667666, -0.0615405813, -0.0673713312, 0.0120098563, -0.0732551664, 0.0192438662, 0.0027253442, -0.0035860864, -0.0517927557, 0.0013777213, 0.0145020345, -0.0868062153, 0.0484591983, 0.0353965051, 0.0638104081, 0.0568750799, 0.0182002988, -0.0351562575, -0.0591364875, -0.1017238721, -0.0454889908, -0.0070432564, -0.0463095345, -0.0715731755, 0.0270820223, 0.0442518368, 0.0945397094, 0.0476744659, 0.0876921788, -0.0131243458, 0.0515693314, 0.0052565206, -0.0083080316, 0.0677960813, -0.0331851393, -0.0697910562, 0.0583020747, 0.0338167027, 0.0465731993, 0.0215369072, -0.0866460875, -0.0324465744, 0.0328461416, -0.0609229803, -0.0403317772, 0.0045877690, 0.0030742029, -0.0014617109, -0.0338178463, -0.0140739046, -0.0251945853, -0.0220304728, -0.0577682927, -0.0738610774, -0.0493133329, -0.0673458576, 0.0623475276, -0.0233392511, 0.0451115035, -0.0000236483, 0.0348088555, 0.0701894835, 0.0682348832, 0.0171268303, -0.0282160919, 0.0054956791, -0.0416057259, 0.0862171277, 0.0720949247, 0.0321702696, 0.0121640731, -0.0152058983, 0.0249469616, -0.0505994745, 0.0514136516, -0.0338066854, 0.0134455608, -0.0384610444, 0.0631249025, 0.0181708261, -0.0701560900, 0.0140203089, 0.0530350842, -0.0301476754, -0.0932444483, 0.0644274056, 0.0142591577, 0.0711534619, 0.0423334353, 0.0692938641, 0.0222286228, -0.0586695634, -0.0089881960, -0.0064171911, -0.0253300220, 0.0209061839, 0.0864587501, -0.0375776775, -0.0991142914, -0.0111349309, -0.0916296765, -0.0207969099, 0.0462841243, 0.0036375488, 0.1050347611, 0.1009144709, -0.0580732897, -0.1033431962, 0.0702548772, 0.0572674237, -0.0856101885, 0.0254190620, 0.0135969510, -0.0601628684, 0.0055441158, 0.0298549533, 0.0487685129, -0.0299901869, 0.0878738537, 0.0147949262, -0.0245984532, -0.0409372002, 0.0575114004, -0.0457308032, -0.0038944723, 0.0548074804, 0.0216536894, -0.0754025057, -0.0835978165, -0.0168446265, -0.0414875671, 0.0911506787, -0.0277878307, 0.0677561760, 0.0893723667, 0.0691361204, 0.0809839815, -0.0021432061, 0.0684187263, -0.0155970445, -0.0530306511, -0.0051773917, 0.0598311052, 0.0393794104, 0.0630598292, 0.0030396851, 0.0650371835, -0.0331219994, -0.0772565976, -0.0124824690, -0.0185246728, 0.0405615270, -0.0204508901, 0.0487521216, 0.0538705103, -0.0754238814, -0.0272809509, -0.0825848207, -0.0308472104, -0.0154135479, -0.0196888056, 0.0952721015, 0.0295886360, 0.0255631153, 0.0040131020, 0.0480585471, -0.0791927949, 0.0011380333, 0.0282989591, 0.0267338697, 0.0422022492, 0.0521452576, 0.0767762288, -0.0397608019, 0.0235133637, 0.1004548222, 0.0100854952, 0.0378769226, 0.0400091559, -0.0823932812, 0.0508554988, -0.0604780465, -0.0346985050, -0.0741867647, 0.0965702534, 0.0081831906, -0.0333813652, 0.0348615833, -0.0428448617, 0.0590037555, 0.0028525023, -0.0238954443, 0.0687348396, 0.0064739557, 0.0499484204, -0.0077221110, -0.0041321525, 0.0071912110, -0.0257210080, -0.0368707813, -0.0828469396, 0.0406875759, 0.0445447452, -0.0605473630, 0.0035091608, -0.0934633315, -0.0064732623, -0.0872257650, 0.0526036918, -0.0488711409, -0.0256343186, -0.0216676015, -0.0149939964, 0.0026162728, 0.0404375605, 0.0413783863, -0.0450219698, -0.1013452038, -0.0562578402, -0.0669863522, -0.0827149749, -0.0269794315, -0.0303286258, 0.0495275073, -0.0739964768, -0.0075095529, -0.0188800357, -0.0385547727, -0.0069630076, -0.0555410646, -0.0850105956, 0.0632199869, 0.0010233688, 0.0592724271, -0.0782152265, 0.0153159536, -0.0580946133, -0.0592853576, 0.0711804107, 0.0593214817, 0.0453308076, 0.0581555553, -0.0037603676, -0.0290073249, 0.0575351715, -0.0548653379, 0.0333678573, -0.0005658381, -0.0565188490, 0.0022308030, 0.0469230488, -0.0347550251, -0.0760068521, -0.0159890708, -0.0758004189, -0.0110130766, -0.0373913087, 0.0533250459, -0.0110777840, 0.0494974628, -0.0203324389, 0.0518448800, -0.0138063524, -0.0475436971, -0.0212064199, -0.0422736220, -0.0031613305, 0.0007521543, 0.0271874294, 0.0040507489, 0.0521974154, 0.0276729390, 0.0243022684, -0.0899270326, 0.0105753606, 0.0626229420, -0.0317768082, 0.0810338780, -0.0472811647, 0.0699638203, -0.0279295892, -0.0788736045, -0.0664444864, -0.0531734452, -0.0104916357, 0.0573275574, 0.0779239163, -0.0725617856, -0.0767656490, -0.0339645743, -0.0097304676, 0.0584640726, -0.0294284858, 0.0608896427, -0.0512821972, -0.0306732506, 0.0074633914, 0.0495658815, -0.0034346762, 0.0581694171, -0.0226488784, 0.0109039834, -0.0202053860, 0.0695779920, 0.0447678119, 0.0268282648, 0.0198987126, -0.0263949763, 0.0685484707, 0.0555781387, -0.0164808091, -0.0425561965, -0.0132876402, -0.0089468779, 0.0090082921, 0.0109907733, 0.0082909232, -0.0263953116, 0.0611469299, -0.0392837785, 0.0359183401, -0.0015338988, 0.0354715586, 0.0208725408, 0.0064702267, 0.0597889461, 0.0226683971, 0.0521760546, -0.0482603349, -0.0522622503, -0.0021512462, 0.0463655666, 0.0728648752, -0.0547671728, 0.0512007549, 0.0071869250, -0.0096035926, 0.0300129745, 0.0605873019, 0.0293503627, -0.0440798961, 0.0455932207, 0.0472659245, -0.0258409157, 0.0677519068, -0.0312321782, 0.0672120824, 0.0667385310, 0.0018039665, -0.0776836276, 0.0473078862, -0.0926121026, 0.0490522087, -0.0046386593, 0.0900859907, 0.0379438698, 0.0909238309, -0.0762760788, 0.0252567250, -0.0121155679, 0.0481707789, -0.0189391039, -0.0850247890, -0.0715092272, 0.0646387562, -0.0753218308, 0.0601198077, 0.0374711156, -0.0336140580, 0.0650296584, -0.0776474774, 0.0636542588, -0.0316139460, -0.0428197421, 0.0868169516, -0.0427382626, 0.0213970169, 0.0471675731, 0.0224454608, -0.0017495811, 0.0239843596, 0.0119192833, -0.0175180510, 0.0106746862, -0.0524672307, -0.0406199805, 0.0846861228, 0.0170943644, -0.0581064411, -0.0111786714, -0.0463835858, -0.0442536436, -0.0667590350, -0.0353346616, -0.0895599350, 0.0423022695, -0.0019479485, 0.0582096800, 0.0204559360, -0.0787145570, 0.0404160321, -0.0231892243, -0.0252872761, 0.0262474287, -0.0806449354, 0.0650989637, -0.0075452328, -0.0734400824, -0.0268760994, 0.0530576557, 0.0244660284, 0.0225470532, 0.0388758183, 0.0018251543, 0.0282826237, 0.0710182786, 0.0254900530, 0.0190868266, 0.0107460562, -0.0496254601, -0.0659862906, -0.0652551651, -0.0407237634, -0.0290216226, 0.0723573789, -0.0624029562, -0.0352639109, 0.0114245079, 0.0382544808, 0.0443626456, 0.0470838286, 0.0013081257, 0.0125549100, 0.0062525151, -0.0366835557, -0.0439745970, -0.0029534367, 0.0460253023, -0.0051766229, 0.0360776782, 0.0260334872, 0.0615100600, 0.0065974989, 0.0460363999, -0.0011257334, 0.0036009748, 0.0538746044, 0.0484533384, -0.0071729384, -0.0650406033, 0.0751711056, 0.0404549949, 0.0572756715, -0.0160885714, -0.0913612098, -0.0555382371, 0.0110593475, -0.0599411242, -0.0343768373, 0.0751622617, 0.0241038371, -0.0147179961, 0.0445120223, 0.0403082259, -0.0793334395, 0.0024508368, -0.0361491144, -0.0718301907, 0.0250744186, 0.0774742663, -0.0243255887, 0.0885334462, -0.0120555349, -0.0052368860, 0.0352410190, -0.0509233400, 0.0543253422, 0.0363409333, 0.0608023964, -0.0516375341, -0.0658574849, 0.0805035830, -0.0339032076, 0.0621403120, -0.0009145305, 0.0149461348, 0.0664025694, 0.0802084506, -0.0554854125, 0.0565413125, 0.0428178310, -0.0111380536, -0.0377250612, 0.0021593301, 0.0027501446, 0.0698541179, 0.0156960897, -0.0416520685, 0.0109309349, 0.0222918484, -0.0084761651, -0.0566738471, 0.0461130999, -0.0336222313, 0.0143640237, -0.0247510392, 0.0457988642, 0.0813415125, 0.0242565069, 0.0317941979, 0.0675996467, 0.0033653490, 0.0124557195, -0.0625372007, -0.0372477323, 0.0555135533, 0.0101147620, -0.0640183315, -0.0095136147, -0.0332352854, 0.0448893122, -0.0599190518, -0.0831269771, -0.0511986092, -0.0675785318, 0.0091585210, -0.0554666556, -0.0192145519, -0.0666317269, -0.0148024932, -0.0010675099, 0.0290064085, -0.0106099825, -0.0196614899, 0.0477488786, 0.0857966393, 0.0123262275, 0.0404698178, -0.0202196538, 0.0234762970, -0.0761959553, -0.0303920936, -0.0219368767, -0.0223878529, -0.0629155859, -0.0358645022, -0.0050770543, 0.0204662196, -0.0162274651, -0.0235517975, -0.0006247273, -0.0132617867, -0.0546068661, 0.0580177121, 0.0032800364, -0.0362885892, 0.0198571738, -0.0454104953, 0.0169664659, -0.0634500757, 0.0379010811, -0.0566212572, 0.0606715046, 0.0201819260, 0.0303606857, 0.0680800527, 0.1054267958, -0.0642687753, 0.0816847086, -0.0005043064, -0.0590743199, 0.0165060591, -0.0740932152, -0.0510415323, -0.0500540659, 0.0833816901, -0.0011577205, 0.0356467254, 0.0634641424, -0.0833073333, -0.0490467623, -0.0195486024, 0.0480555966, -0.0737538710, -0.0901129991, -0.0313490927, -0.0867572203, 0.0348142125, 0.0230353009, 0.0095883664, -0.0057641510, 0.0257437415, 0.0139287598, -0.0872375220, 0.0519659854, -0.0403446071, -0.0893793032, 0.0097197527, 0.0237781536, 0.0029929853, -0.0397823900, 0.0817385763, -0.0442616940, -0.0303245299, 0.0336049348, -0.0772939920, -0.0083335955, -0.0580143109, 0.0614562556, -0.0039653699, -0.0542213544, 0.0785244703, 0.0470835529, -0.0574945770, 0.0642419383, -0.0548448414, -0.0197849311, -0.0040746438, -0.0193901453, -0.0153949149, 0.0453607813, -0.0589769334, 0.0204393249, -0.0775715932, 0.0496296622, 0.0694295317, 0.0489701703, -0.0351320617, -0.0146212820, -0.0241757594, 0.0610297136, 0.0549124591, -0.0682770833, 0.0607953481, 0.0247494150, 0.0844992995, 0.0036633713, 0.0349710770, -0.0534729138, 0.0361664891, -0.0355993658, 0.0681339651, -0.0109884292, -0.0033292668, -0.0386494659, -0.0228377599, -0.0273228232, 0.0378531627, 0.0126504451, 0.0583053194, 0.0001505631, -0.0475873388, -0.0468651541, 0.1026071459, 0.0603536814, -0.0214689299, 0.0077117714, -0.0830377042, -0.0575564913, -0.0311674364, -0.0771621615, -0.0341121480, 0.0425258502, 0.0124336118, -0.0140347751, 0.0032838508, -0.0309252124, -0.0570639484, -0.0417828299, 0.0642373711, -0.0580635555, 0.0372598618, -0.0364830531, 0.0765871108, 0.0835752413, -0.0501365177, 0.0595510788, -0.0606348887, 0.0776717737, 0.0771390647, -0.0244405214, 0.0296047051, 0.0665647537, 0.0879128054, 0.0342057496, 0.0228447989, 0.0047258185, 0.0514869392, -0.0011949303, 0.0199744869, -0.0497466773, -0.0756362975, -0.0526397862, 0.0038777576, 0.0795016140, -0.0193951186, -0.0151509326, 0.0654560626, -0.0391928405, 0.0063548679, 0.0257663168, 0.0412638970, -0.0126951970, 0.0397988521, -0.0231679380, -0.0430374667, -0.0250649732, -0.0837433040, -0.0366002992, -0.0519223362, 0.0476089455, 0.0207809787, -0.0034478016, -0.0130071742, -0.0212530624, -0.0547290780, -0.0734776258, 0.0688256621, 0.0585616902, -0.0047044349, -0.0017016572, 0.0141891334, -0.0697752163, -0.0261620469, -0.0361100659, 0.0411986969, 0.0280449875, -0.0304518342, -0.0575240962, 0.0224987660, 0.0907040834, 0.0324506499, -0.0163085666, -0.0812798887, -0.0209931061, 0.0000345912, 0.0092368182, 0.0128608784, 0.0411338359, -0.0256727058, 0.0959932432, -0.0861803666, -0.0147699444, 0.0500233322, -0.0824161246, 0.0041385852, -0.0276094023, 0.0109337764, -0.0001676226, -0.0074871769, -0.0055469032, 0.0785061494, 0.0879122615, -0.0269962084, -0.0225161649, -0.0550347306, -0.0607600510, -0.0508943796, 0.0368187018, 0.1046612933, -0.0537346303, 0.0714642927, 0.0750497952, 0.0251377169, 0.0660510585, -0.0314829648, 0.0896371007, 0.0343848541, -0.1095155850, 0.0600552484, 0.0704132617, 0.0436278582, -0.0637868047, 0.0219143834, 0.0743270963, -0.0503107756, -0.1063906103, 0.0476086549, -0.0065311706, 0.0225786716, -0.0288885478, -0.0495243557, 0.0703493208, -0.0730896220, 0.0830750689, -0.0235736631, -0.0723148063, -0.0316734836, -0.0284243505, 0.0438805856, -0.0686572790, 0.0148327937, 0.0743294656, -0.0965253636, 0.0064132786, -0.0632948950, -0.0746964738, -0.0265511554, -0.0325889178, 0.0685885698, -0.0556183383, 0.0084273620, 0.0647353828, 0.0182905626, 0.0527707674, 0.0866302997, 0.0545137227, -0.0117984526, -0.0541914217, 0.0791118070, 0.0267630126, 0.0323846638, -0.0053672679, -0.0556513555, -0.0524192899, 0.0724097565, -0.0391208120, -0.0609929599, 0.0662443042, 0.0400224589, -0.0365217477, 0.0106910262, 0.0290001724, 0.0394048169, 0.0324693806, 0.0779406503, 0.0776204541, 0.0864020959, 0.0771939158, 0.0891997665, 0.0112874359, -0.0702989325, -0.1016146541, -0.0546311140, 0.0376240909, 0.0238710884, 0.0091521908, 0.0343454182, 0.0701318607, -0.0942596719, -0.0737838447, 0.0568335541, -0.0778829083, -0.0160941165, 0.0397137813, -0.0037837147, -0.0456694700, -0.1067316309, -0.0680310875, -0.0751379207, -0.0019625465, -0.0608824492, 0.0169343296, 0.0423975661, -0.0535671674, 0.0563682914, 0.0017049673, 0.0019718229, 0.1153506562, -0.0993759111, -0.0410796478, 0.0235220809, -0.0151767628, -0.0761929601, -0.0351945125, -0.0059187086, -0.0020977031, 0.0540425368, 0.0973783210, -0.0274090972, 0.0690566227, -0.0121194376, 0.0664160922, -0.0545536987, -0.0437739752, 0.0615410134, 0.0755356848, -0.0608288683, -0.0497553647, 0.0344649851, 0.1025885493, 0.0031208098, 0.0009848473, -0.0605790205, -0.0446843877, -0.0427767821, -0.0475296713, -0.0208601635, 0.0023212451, -0.0643486902, -0.0385007933, -0.0498360135, -0.0694911107, 0.0511486679, 0.0743076578, -0.0563040674, -0.0144170746, 0.0253752861, 0.0694473684, 0.0283505060, -0.0027970043, 0.0929551944, 0.0191107988, -0.0438749194, -0.0924120098, 0.0701394528, 0.0546358563, -0.0325529724, -0.0436926186, -0.0449700318, 0.0209982432, 0.0761852190, 0.0814575404, -0.0191479977, 0.0280347299, 0.0198646430, 0.0246801879, 0.0541422665, -0.0249709208, 0.0560232252, -0.0189373214, -0.1139643565, -0.0462214537, 0.1067895070, -0.0937261805, -0.0414772294, -0.0616630130, 0.0336717963, -0.0569464117, 0.0560628138, 0.0913370028, -0.0350569636, 0.0323576517, 0.0067559010, 0.0123512838, 0.0546754785, -0.0638825968, 0.0330445282, -0.0489833876, 0.0243998710, 0.0634467378, -0.0842918828, 0.0618999749, 0.0820463151, -0.0716202557, 0.0678118020, 0.1078606546, 0.0474160910, -0.0721165389, -0.0114692459, 0.0847392455, -0.0080362987, 0.0059408480, -0.0553264543, 0.0403505377, 0.0389727689, -0.0751683116, 0.0201422479, -0.0362034254, -0.0278924610, 0.0321142264, 0.0451205596, 0.0440424606, 0.0111307353, -0.0135846492, 0.0415011495, -0.0475012995, -0.0095118918, -0.0472847819, 0.0427837633, -0.0428841971, 0.0093922513, -0.0927226990, 0.0262396131, 0.0608407371, -0.0293498002, -0.0260838829, -0.0626422912, -0.0968176723, -0.1123476550, 0.0810118467, 0.0198979117, -0.0736882314, 0.0048413696, -0.0067846766, 0.0439376645, 0.0134676164, 0.0910713226, -0.0918909609, -0.0165833179, -0.0388354808, -0.0591601767, 0.0126393773, 0.0498228148, 0.0562709980, -0.0071343216, -0.0134137217, -0.0676853731, 0.0529057346, -0.0332674012, 0.0110147521, 0.0911759809, -0.0708303228, 0.0185158141, 0.1154769138, -0.0780805424, -0.0305657238, 0.0251089223, -0.0442455038, 0.0069621471, 0.0369337872, 0.0499401167, -0.0700370893, 0.0854974762, 0.0402393229, 0.0107210856, -0.0762723088, -0.0013668292, 0.0141408620, 0.0622184984, -0.0812656134, 0.0625934005, 0.0633123964, -0.0601972714, 0.0181235112, 0.0602440462, 0.0469838493, -0.0006031580, 0.0765568614, 0.0101607228, -0.0121920845, -0.0488438159, -0.0832103789, -0.0289037116, -0.0901807100, -0.0996901169, -0.0791987479, -0.0525486469, 0.0508707836, -0.0742384270, -0.0808434039, -0.0865502656, 0.0585351102, -0.0673959851, 0.0662541538, 0.0789046958, 0.0491175652, 0.0650302023, 0.0602803752, -0.0212103687, 0.0251667779, -0.0682076514, -0.0753562450, 0.0123116085, -0.0049990006, -0.0452152193, -0.0018908037, 0.0672436655, -0.0582882203, -0.0539037324, -0.0441032797, 0.0493135378, 0.0798557103, -0.0732130632, -0.0820568800, 0.0205649622, 0.0533072352, -0.0623027384, 0.0610642210, -0.0130834170, -0.0181824621, -0.0235117991, 0.0190209523, -0.1043435559, 0.0607031174, -0.1007565707, -0.0805146694, 0.0122336764, -0.0051566218, 0.0661735684, -0.0308412593, -0.0272184461, 0.0212897509, 0.0168866310, 0.0556075685, 0.0624636821, -0.0664462671, -0.0772615969, -0.0641070604, -0.0620124564, -0.0183640029, 0.0431315638, 0.0457285233, -0.0203137193, -0.0231128186, -0.0079857698, -0.0212220568, -0.0128656747, 0.0109372530, 0.0316231027, 0.0151144639, -0.0172439944, -0.0339078642, -0.0918516889, -0.0631047487, -0.0438164137, 0.0480416119, -0.0764939487, 0.0534581132, 0.0235479809, 0.0148031814, -0.0623268448, 0.0785900354, 0.0115523264, 0.0200336911, -0.0094196666, -0.0168211143, 0.0133144874, 0.0888208523, -0.0835276246, 0.0323977917, 0.0167748705, 0.1343300790, -0.0250589885, 0.0270814244, -0.0059500625, 0.0398943350, 0.0089852437, -0.0887212977, -0.0487244874, 0.0564106181, 0.0514557846, -0.0484957658, -0.0820971802, 0.0774271935, 0.0145820547, -0.0014506724, -0.0347022600, 0.0452486612, -0.0169130415, 0.0127637656, 0.0679523200, 0.1013462320, -0.0063488977, -0.0120758070, -0.0551168770, 0.0112558156, 0.0138032483, -0.1133889109, 0.0823544189, 0.0776980445, 0.0549288355, -0.0061656348, 0.0030184861, -0.0309301820, -0.0439540260, -0.0464382619, -0.0290201586, -0.0949364156, -0.1101081222, -0.0054107066, -0.0265773311, 0.0008944924, 0.0520544425, 0.0252538286, 0.0931481123, 0.0532699786, 0.0552540384, 0.0733331740, -0.0439591222, 0.0382226966, 0.0339896120, -0.0347179398, -0.0306004826, -0.0286463816, 0.0430713110, -0.0359924845, 0.0404520631, -0.0529739074, 0.0528344810, -0.0509972982, 0.0359282047, -0.0203916784, 0.0358418003, 0.0014903676, 0.0098984949, 0.0835970268, 0.0474648327, 0.0457855538, -0.0288501401, 0.0438241325, -0.0405332372, 0.0343124010, 0.1013283506, 0.0703718513, -0.0480412655, 0.1015766785, -0.0390579067, 0.0013609205, -0.0527750812, 0.0282362849, -0.0459810868, -0.0471271798, 0.0353263766, 0.0423508659, 0.0635246262, 0.0658089593, 0.0945563167, 0.0222927053, -0.0572135597, 0.0395754762, 0.0719723031, -0.0462948568, 0.0323424824, 0.0492083207, 0.0139038656, 0.0614881553, -0.0204687547, 0.0553949066, 0.0022252218, 0.0029392710, -0.0045238826, -0.0405030362, 0.0481659174, 0.0420782529, 0.0105186906, 0.0362652726, -0.0931392163, -0.0764006153, -0.0275383554, 0.0593138784, 0.0583110973, 0.0834011436, -0.0612693951, -0.0012051325, -0.0970434919, -0.0503981896, 0.0271172728, 0.0659506917, 0.0911184624, 0.0318748541, -0.0006392190, -0.0245681461, 0.0407706350, 0.0300411340, 0.0160751119, -0.0208311118, -0.0433894470, 0.0598210581, 0.0594413802, 0.0739598572, -0.0315763429, 0.0548313037, -0.0053456314, 0.0079745594, -0.0444008186, 0.0500212349, -0.0307136066, -0.0599593110, -0.0268558059, -0.0470074378, 0.0107601080, -0.0735545233, 0.0761309788, 0.0843014792, 0.0582914427, -0.0531090572, 0.0153437462, -0.0836428702, 0.0488266349, 0.0440894775, -0.0216521733, -0.0766297430, 0.0602494814, 0.0364551209, -0.0678363740, 0.0477672629, 0.0056175049, -0.0131669790, -0.0490880348, -0.0595421046, -0.0350058079, -0.0291264355, 0.0139612490, 0.0197659638, -0.0088022081, -0.0584790148, -0.0281423610, -0.0777987689, 0.0723372996, -0.0072035431, -0.0571257770, -0.0217917729, 0.0196484327, 0.0063325842, -0.0613331646, 0.0685131699, -0.0482331179, -0.0638160929, 0.0110656004, -0.0915077105, 0.0587254241, 0.0236351229, 0.0036210481, -0.0235385597, -0.0187946428, -0.1126893461, 0.1059685796, -0.0404486209, 0.0568341166, 0.0372655839, 0.0556293130, -0.0531324148, -0.0915330425, 0.0455539525, 0.0399387404, 0.0743900463, -0.0430307239, -0.0292278323, -0.0523969717, -0.0388703719, -0.0478458144, -0.0647586510, -0.0669193119, -0.0029133218, -0.0732277259, -0.0172926448, -0.0622741729, 0.0366864465, -0.0872912183, -0.0096368454, 0.0478476398, -0.0530382507, -0.0507749319, 0.0050201360, -0.0573295243, -0.0440396927, 0.0371199287, -0.0314221233, 0.0484332331, -0.0330721252, 0.0472450778, -0.0484965369, -0.0546684451, 0.0826930776, 0.0288312528, 0.0108553953, -0.0265059732, 0.0043456145, -0.0099345082, 0.0243945271, 0.0624155737, -0.0079651736, 0.0738117248, -0.0427103750, -0.0493042395, 0.0653206557, 0.0072596730, -0.0812223330, -0.0806136206, 0.0207388699, -0.0957739204, -0.0657236725, -0.0713207945, 0.0521167293, 0.0138679417, 0.0011041830, -0.0515729003, 0.0023513739, -0.0295678303, -0.0010676301, -0.0469453037, -0.0148512237, 0.0178118777, -0.0802439302, 0.0649009496, -0.0858180076, 0.0188344419, 0.0806777179, -0.0610846244, -0.0535726175, -0.0308256000, 0.0658059493, 0.0669686496, -0.0394391008, -0.0251305699, -0.0809308439, -0.0570407957, 0.0210695341, 0.0163508300, 0.0511089526, 0.0333139710, 0.0346537158, 0.0535493828, -0.0754037127, -0.0524778701, -0.0575380363, 0.0227949731, -0.0121061243, 0.0543924086, -0.0225489289, 0.0572241135, -0.0641715601, -0.0359985791, 0.0079946928, 0.0464962423, -0.0723907277, 0.0029061779, -0.0396209583, -0.0291031543, 0.0844060257, -0.0265393909, 0.0848695412, 0.0525418445, -0.0052282093, 0.0175785590, -0.0315742306, 0.0093124826, 0.0671507269, -0.0121406373, 0.0485531613, -0.0313267745, -0.0438307822, -0.0446561910, -0.0840685815, -0.0754877925, 0.0446850173, 0.0660760775, 0.0150950644, -0.0438555367, -0.0263605397, 0.0942031890, -0.0338377208, -0.0103263399, -0.0638843849, 0.0105381319, 0.0284030698, 0.0167660397, 0.0434356555, -0.0388473272, 0.0202640649, -0.0243159831, -0.0600186773, -0.0735134855, -0.0713108629, 0.0641405657, 0.0411739163, 0.0445964150, 0.0004109395, -0.0517371483, -0.0602607615, 0.0595619902, -0.0154403737, 0.0756308511, 0.0614772551, 0.0655215383, -0.0225327108, -0.0384858847, 0.0414678007, 0.0149991885, -0.0533205047, -0.0594104677, 0.0073312754, -0.0572865903, -0.0056391130, 0.0449822955, -0.0402629860, 0.0075344886, 0.0464138724, 0.0108359158, -0.0750817358, -0.0264039189, 0.0309086088, 0.0117129292, -0.0505641662, 0.0849704817, -0.0384861082, 0.0507795438, -0.0075276350, -0.0222256407, -0.0777646303, 0.0618887208, 0.0949959233, 0.0427165553, 0.0334983319, -0.0236759540, 0.0193782225, 0.0606813394, -0.0360742845, -0.0560789853, -0.0580490828, 0.0172824450, 0.0906741768, 0.0498600118, 0.0326532759, 0.0039267298, -0.0587912761, -0.0760968998, 0.0544616766, -0.0867631659, 0.0186221916, 0.0769079700, 0.0660077929, -0.0633868724, 0.0105977571, -0.0144183151, -0.0186082479, -0.0301712509, -0.0353847370, 0.0635144338, 0.0657872111, -0.0642346889, 0.0830862001, 0.0160891078, -0.0332013480, -0.0002633103, 0.0723711103, -0.0043755919, 0.0279921480, -0.0614383928, 0.0816483498, -0.0163866896, 0.0536585972, -0.0527085923, 0.0570398122, -0.0449914970, 0.0249295793, -0.0299978387, -0.0686898977, -0.0761119425, -0.0144896572, 0.0789819360, 0.0347713418, 0.0030635169, -0.0341742784, -0.0328362398, 0.0356452875, -0.0690127015, -0.0085692229, 0.0767574683, -0.0184366293, -0.0403789394, 0.0365787037, 0.0561693385, 0.0058370824, 0.0486383252, 0.0760386586, 0.0024602218, -0.0164691359, -0.0093882624, 0.0285240430, -0.0022528216, -0.0840755627, -0.0276033096, 0.0150755337, -0.0595149212, -0.0758841634, 0.0210577007, 0.0257536378, -0.0300143324, 0.0206073150, -0.0301674288, -0.0079544745, -0.0903517380, 0.0028830562, 0.0678772926, -0.0110758925, -0.0705886856, 0.0106957918, -0.0441988409, 0.0580016747, 0.0282150079, -0.0548491664, -0.0424513333, -0.0426552072, 0.0406608395, -0.0488955900, 0.0482407473, -0.0189700685, -0.0947166383, -0.0431650281, 0.0332906507, -0.0468549579, 0.1039779261, -0.0028239316, -0.0080511682, -0.0327874385, -0.0102263680, 0.0594898090, -0.1023842767, 0.0824052468, 0.0195860323, 0.0755696297, -0.0486434326, 0.0739281252, 0.0112435818, -0.0462040752, 0.0336751975, -0.0878912956, 0.0180784315, -0.0827259645, 0.0394082554, -0.0373982973, 0.0223250128, 0.0334301926, 0.0503872074, 0.0566281006, -0.0575104728, -0.0333618708, 0.0988051966, 0.0347436666, 0.0361042656, -0.0581141859, -0.0944486707, 0.0520755164, 0.0257179234, -0.0513379127, -0.0342207141, -0.0564068891, 0.0139962630, 0.0392093174, 0.0111744516, 0.0004998261, -0.0659487993, 0.0481015742, -0.0740206540, 0.0206909385, -0.0507641695, 0.0655056909, 0.0186547227, 0.0660866275, 0.0237476584, 0.0637881234, 0.0249705017, 0.0604386367, -0.0017413525, 0.0170338601, 0.0719542950, 0.0346558318, -0.0899950042, -0.0356723256, 0.0832878724, -0.0398761258, 0.0530907102, -0.0258034058, -0.0366099253, -0.0820686743, -0.0589913465, -0.0306736734, 0.0325713009, -0.0420847423, 0.0103020705, 0.0337882377, 0.0375567004, -0.0257257707, 0.0194387026, 0.0129766092, 0.0480111651, 0.0638558492, 0.0760617927, 0.0503503866, -0.0400483422, 0.0468033589, 0.0461540483, -0.0597328767, 0.0394867584, -0.0029527706, 0.0307135992, -0.0715607405, -0.0138104400, -0.0608310774, 0.0343241654, -0.0475403033, 0.0709265172, 0.0684600547, 0.0503274538, 0.0143171875, -0.0559050255, -0.0675254837, 0.0135725653, -0.0239223372, 0.0306655914, -0.0153108723, 0.0070148292, -0.0765632465, 0.0989200696, -0.0363749377, -0.0457199812, -0.0692853406, -0.0041002957, -0.0302729588, -0.0378675088, 0.0434111767, 0.0675172880, 0.0300383847, 0.0387538485, 0.0566822886, 0.0481228940, -0.0243341830, 0.0970201716, 0.0078915963, 0.0299024936, -0.0322938040, 0.0587106347, 0.0008921985, -0.0416808128, 0.0774516836, 0.0021846651, -0.0130876126, 0.0563006178, -0.0429725125, -0.0195130389, 0.0291680247, -0.0261621568, 0.0712057650, -0.0142061282, -0.0351034626, -0.0625740588, 0.0821204931, 0.0082968483, 0.0556753650, 0.0928223580, 0.0135909636, -0.0265020039, 0.0181653649, -0.0767967626, 0.0817589089, -0.0200868100, -0.0221183319, 0.0705901533, 0.0420760177, 0.0568951331, 0.0840092301, 0.1002751291, 0.0656851307, -0.0238278378, -0.0939242169, -0.0052748392, -0.0131074302, -0.0556709617, -0.1187080443, 0.0431587622, 0.0094964206, 0.0062634451, 0.0127309086, -0.0079011498, -0.0342705622, 0.0301185958, 0.0022042696, 0.0513443127, 0.0265692864, -0.0545065552, 0.0717478767, -0.0299312826, 0.0817284659, -0.0723727793, 0.0622440539, -0.0233879015, 0.0499597825, 0.0219606664, -0.0201893505, 0.0821571797, 0.0099339699, 0.0174834449, 0.0270359032, -0.0563635193, -0.0177040081, 0.0420548432, -0.0693800822, 0.0761509091, -0.0067788390, -0.0065251049, 0.0134808160, -0.0628826991, -0.0029649707, 0.0220996141, 0.0679387748, -0.0362058878, -0.0607174225, -0.0671137795, 0.0360120721, -0.0518474877, 0.1105656102, 0.0384112224, -0.0182593111, 0.0966553390, 0.0085475985, -0.0212578829, 0.0237446167, 0.0504767485, 0.0842952803, 0.0204661172, 0.0523351543, 0.0006849835, -0.0265461020, 0.0248794947, -0.0454502851, 0.0844284743, 0.0545456335, -0.0030496845, 0.0424597487, -0.0498189442, -0.0486694686, -0.0175979100, -0.1039140821, 0.0308744777, 0.0958412066, 0.0296787191, -0.0036984596, 0.0241414178, -0.0395736918, -0.0912706032, 0.0506411158, 0.0390608273, 0.0547369644, -0.0142961638, -0.0699607059, -0.0216399208, -0.0483379178, -0.0637111440, 0.0282874256, -0.0291482788, 0.0009729957, -0.0854834318, 0.0658815205, 0.0194874760, 0.1156691462, 0.0322470404, 0.0046549849, -0.0364481471, 0.0029009401, 0.0346726850, -0.0279527809, -0.0263340659, -0.0541641153, -0.0310935322, 0.0578330420, -0.0638259277, 0.1032935530, 0.0504369624, 0.0747378245, 0.0521103777, 0.0048390292, 0.0506718531, -0.0733550489, 0.0847933218, 0.1077196226, -0.0040818918, 0.0248709340, -0.0207673460, 0.0541243963, 0.1009055153, -0.0077778166, 0.0795946419, 0.0982275307, 0.0737745166, 0.0044765989, 0.0406633317, -0.0248696152, 0.0542202741, 0.0967484042, 0.0666481555, -0.0489227697, -0.1030079648, -0.1207105890, 0.0125583941, 0.0085609229, 0.0224755201, -0.0309736468, 0.0637755543, -0.0617083013, 0.0109273093, 0.0262435749, -0.0619346276, -0.0933141485, 0.0276728179, 0.0078648413, 0.1291799396, 0.0777274668, -0.0072650304, 0.0254206099, 0.0310046077, 0.0404423624, -0.0046477015, -0.0645722151, -0.0979316831, 0.0472436510, 0.0139839519, -0.0380861759, 0.0282218754, 0.0308912229, -0.0188683886, -0.0503903627, -0.0945165455, 0.0282374565, -0.0575020798, 0.0069248392, -0.0217837505, -0.0231826138, 0.0630471259, 0.0055332375, -0.0788161904, 0.0003812574, -0.0529695116, 0.0253624264, -0.0298930351, 0.0571849868, 0.0633692294, 0.0538198501, -0.0436427593, 0.0743930191, -0.0395671614, -0.0873096287, 0.0838961974, -0.0462163724, 0.0120302914, -0.0349538662, 0.0677313879, -0.0667172894, 0.0669142306, -0.0111815371, -0.0147708040, -0.0054936889, -0.0053047207, -0.0327765644, 0.0560479611, -0.0829499885, -0.0586419888, -0.0188194811, -0.0205625873, -0.0361913517, -0.0607804023, 0.0227214433, -0.0328434967, -0.0007027620, 0.0638908744, 0.0994240269, 0.0818123370, -0.0577091612, 0.0183564834, -0.0604132414, 0.0504099540, -0.0261181109, -0.0668065697, -0.0569822155, 0.0503644384, 0.0208959766, -0.0330036357, -0.0365309268, 0.0572563671, 0.0321327709, 0.0610518157, -0.0094272709, -0.0481963940, 0.0072520729, 0.0319992267, 0.0566140711, 0.0051987921, -0.0236032642, 0.0380205065, 0.0321353339, -0.0919558033, 0.0644878075, -0.0118518593, 0.0102196522, 0.0005609667, -0.0132828709, -0.0483825877, 0.0703961998, -0.0892760605, 0.0737357363, 0.0289669503, -0.0030705989, 0.0153670991, 0.0079216780, -0.0257568713, 0.0217805188, -0.0272415057, -0.0467650741, 0.0010479518, 0.0357662551, 0.0038974700, -0.0131042497, 0.0161819216, -0.0812215656, 0.0195464343, -0.0112550249, 0.0739826038, -0.0309741646, -0.0564639494, -0.0769593865, -0.0673199296, -0.0668429136, 0.0130550219, -0.0952126458, 0.0096597914, -0.0101564834, 0.0446601026, 0.0320407338, -0.0096557895, -0.0566777475, -0.0409539975, 0.0590081885, 0.0303798541, -0.0039310153, -0.0099183936, 0.0612207539, 0.0395145565, -0.0140081244, -0.0706870407, -0.0205669310, -0.0279847495, 0.0290795173, 0.0071887970, 0.0190586261, -0.0854073241, 0.0286240894, 0.0045145145, 0.0226374939, -0.0140202232, 0.0110584069, -0.1256180853, 0.0981372893, 0.1056912616, 0.0044808597, 0.0150791258, -0.0592047237, 0.0330343954, -0.0400105678, -0.0784794018, 0.0479731895, 0.0342194997, -0.0314428918, 0.0115968036, 0.1055097058, -0.0373614393, 0.0238282271, -0.0419689454, 0.0722220466, 0.0440618582, 0.0566196293, -0.0513307899, 0.1009994373, 0.1117926463, 0.0524335802, 0.0405108631, 0.1129338592, 0.0247345828, -0.0026271648, 0.0485349111, 0.0631066859, -0.0511075966, 0.0052296268, -0.0400888063, -0.0184712540, -0.0955763757, 0.0317933187, 0.0161512103, -0.1189605817, 0.0384909213, -0.0417661592, 0.0097114705, 0.0000014344, -0.0181062277, 0.0390718132, 0.0238688253, -0.0641252249, -0.0103178946, -0.0154481390, 0.0607758425, -0.0249604154, 0.0838284269, 0.0697686449, 0.0452271439, 0.0732225925, -0.0535036512, -0.0641544610, 0.0153217679, -0.0676150918, 0.0191494934, 0.0099383602, 0.0749267638, 0.0952161998, -0.0314577781, -0.0433320925, 0.0368800201, -0.0193365756, 0.0196720604, 0.0660841987, 0.0170094520, 0.0584608205, 0.0369540416, 0.0294274185, -0.0036422226, -0.0253819693, 0.0343630463, -0.0231915433, 0.0626269579, -0.0151262516, 0.0308377631, -0.0588910021, 0.0023218940, 0.0886658654, -0.0571619384, -0.0047057769, -0.0284210984, 0.0141593218, -0.0268984586, 0.0228308551, -0.0646280348, 0.0959241912, 0.0486445762, 0.0285587441, 0.0817236006, -0.0079480801, -0.0200375300, 0.0534617566, 0.0306931753, -0.0054979576, 0.0188232791, 0.0347896628, 0.0336856134, 0.0385583527, 0.0746134222, 0.0085043935, 0.0559680052, 0.0785571933, 0.0328988731, 0.0650194809, -0.1069655865, -0.0150011405, -0.0304765087, 0.0447820686, 0.0953038260, 0.0225684363, 0.0384961143, 0.0189555436, -0.0693027005, 0.0257401131, 0.0144769223, -0.0131001733, 0.0169353206, -0.0231389347, -0.0048056799, -0.0788853317, 0.0426426157, 0.0273808632, 0.0893720090, -0.0097119287, -0.0225813445, 0.1013869196, 0.0001430630, 0.0211213827, -0.0558381155, 0.0532119721, 0.0137841525, -0.0043387492, -0.0259393863, 0.1101281568, 0.0392097570, -0.0015564316, -0.0815174058, 0.0419693775, -0.0733408555, 0.0504198931, 0.0231052916, 0.0456924178, -0.0489976853, -0.0638756901, -0.0001500554, 0.0069907089, 0.0579306819, -0.1042219028, 0.0422581695, 0.1133467853, 0.0765442029, 0.0329240635, 0.0780838802, 0.0217552520, 0.0238046721, 0.0633282214, -0.0374298170, -0.0818345994, -0.0113239419, 0.0143460454, 0.0632700399, -0.0877750292, -0.0660844743, -0.0769451037, 0.0203258377, -0.0660976171, 0.1029689610, 0.0436820537, -0.1182843894, -0.0073356228, -0.0452147387, -0.0341034792, -0.0358898640, -0.0167868827, -0.0387376435, 0.0981271937, -0.0727626830, 0.0725816190, 0.0652348399, 0.0072004283, -0.0424300656, -0.0612498522, 0.0338830873, -0.0328164287, -0.0553484820, 0.0481237471, 0.0032384037, 0.0253192522, -0.0489647873, 0.0326371528, -0.0112186773, -0.0777056888, -0.0408702828, 0.0848190337, 0.0900224522, 0.0790889487, -0.0946305916, 0.0653314516, -0.0004673563, -0.0395617113, -0.0562697127, 0.0750050694, -0.0591066368, -0.0338617563, 0.0956651270, 0.0429178327, 0.0950061530, 0.0401507281, -0.0195834339, 0.0317970626, 0.0134614110, -0.0656912848, 0.0760782957, 0.0821064040, -0.0504074953, 0.0374473557, -0.0365880504, -0.0655772239, 0.0495625585, 0.0111984638, 0.0401677378, 0.0513102114, -0.0270565655, -0.0596672446, -0.0625596941, 0.0315126926, -0.0448601060, 0.0005470678, 0.0790363103, -0.0380130485, -0.0460993573, 0.1115531102, -0.0496900827, -0.0512570217, -0.1043782681, 0.0152726984, 0.0797764584, -0.0409231707, -0.0303347819, -0.0670395792, -0.0415011011, 0.0480188876, -0.0741541088, -0.1007413790, -0.0490250103, 0.0060214009, -0.0883343592, -0.0033679795, 0.0437306613, 0.0415485129, 0.0399592407, 0.1204946041, 0.0166784804, -0.0622497872, 0.0124655524, -0.0737131089, 0.0562338158, 0.0288671087, 0.0039423197, 0.0374374390, -0.0698681325, -0.0458995514, 0.0354660824, 0.0688008666, -0.0126604373, 0.0829422027, -0.0653012171, -0.0956628695, -0.0072117159, 0.0031414346, -0.0019201894, 0.0421065129, 0.0088967392, 0.0586938411, 0.0877527148, -0.0540488288, 0.0461605377, 0.0215852056, 0.0504381433, -0.1117035151, 0.0865062773, -0.0188530888, 0.1043140143, -0.0290018842, 0.1072863862, -0.0854200348, 0.0348056182, -0.0818255395, -0.0624597408, -0.0671157613, 0.0353588723, -0.0689829290, 0.0650761276, 0.0315669551, -0.0229670350, 0.0887767524, 0.0445327312, 0.0195921976, 0.0181234591, 0.0033701865, -0.0820044279, -0.0244012289, -0.0111762341, 0.0103485389, 0.0002818776, -0.0103028510, 0.0743869916, 0.0249536335, -0.0084346207, 0.0597224832, -0.0794352144, -0.0122801587, 0.0176055841, 0.0690492839, 0.0100040343, 0.0124127697, 0.0635034069, 0.0984097272, -0.0177335627, -0.0910309479, 0.0690067485, -0.0407488719, -0.0227147304, 0.0961536244, -0.0268580765, -0.0041566603, 0.0213623885, -0.0544518642, -0.0722433180, -0.0600509495, -0.0647735223, -0.1019893512, 0.0060044387, 0.0242389422, 0.0340655483, 0.0056857839, 0.0416735709, -0.0139512215, 0.0748243928, -0.0468315296, 0.0634853616, 0.0964734927, 0.0900598019, -0.0619758964, 0.0120937936, 0.0020635780, 0.0002338790, 0.1004059017, 0.0554663949, -0.0378083326, -0.1016564742, 0.0509976186, -0.0056978893, -0.0611921735, -0.0450716615, -0.0181557927, -0.0631868169, 0.0511439294, 0.0363650024, -0.0473533496, -0.0797044039, -0.0782189444, 0.0212529507, -0.0214992967, 0.0278497059, -0.0582787655, -0.0075211446, 0.0666105449, -0.0273522064, -0.0804822594, -0.0004923643, -0.0415920019, 0.0509632565, 0.0641379058, 0.0398863405, -0.1022000909, -0.0341057107, -0.0013180474, -0.0256425478, 0.0785658732, -0.0810343325, 0.0580226928, 0.0043130051, -0.0387542732, 0.0636944398, 0.0773019344, 0.0444159061, 0.0768946558, 0.0236961655, 0.0980414301, 0.0575519875, 0.0342487879, 0.0395229943, -0.0405580029, 0.0157062560, -0.0945598036, 0.0139401108, 0.0428260863, -0.0241611190, 0.0366278067, 0.0297969040, 0.0216769762, 0.0829730555, -0.0200945567, 0.0057976418, 0.0121004926, 0.0490556508, -0.0678647310, 0.0435798205, -0.0269268248, -0.0810206160, -0.0211287942, 0.0101658870, 0.0638558418, -0.0298528410, -0.0210198537, 0.0130346548, -0.0843714625, -0.0878810212, 0.0264407471, -0.0254240911, -0.0070659867, -0.0505916439, 0.0934242755, -0.1142104715, 0.0023292287, -0.1319912970, -0.0423058197, 0.0777814612, -0.0126588298, 0.0265516564, -0.0263728760, -0.0298354551, -0.0697488785, -0.0248603448, -0.0388317779, -0.0424842462, 0.0094895903, 0.0001140790, 0.0549975298, 0.0082344292, 0.0123267770, 0.0417868532, -0.0072622830, 0.0199400224, 0.0203661397, 0.0436334498, 0.0755043998, -0.0808297023, 0.0726210400, 0.0257052965, 0.0555726700, 0.0344029367, -0.0733792633, -0.0495504364, -0.0757697299, 0.0705768615, 0.0977885500, 0.0493644923, -0.0139047811, -0.0265890285, 0.0321715102, -0.0426607914, -0.0587401353, 0.0140352100, -0.0482060239, 0.0727889910, 0.0391721353, -0.0755157918, 0.0178498942, -0.0307541825, 0.0426568873, -0.0257631689, 0.0669494122, -0.0020121904, -0.0193399098, -0.0608887225, 0.0156386662, 0.0103906067, 0.0111242915, -0.0593839437, -0.0262678023, -0.0277291816, -0.0792565942, 0.0230628513, 0.0429660939, 0.0630073175, 0.0236210264, 0.0637844279, 0.0253823288, -0.0247325674, -0.0621385500, 0.0438155644, -0.0505290255, 0.0928453356, -0.0431299545, 0.0050095352, 0.0020970767, 0.0447165072, 0.0079227621, 0.0455415212, 0.0201892685, -0.0213527065, 0.0415342674, -0.0531278737, -0.0830866024, -0.0254381932, -0.0987668559, -0.0738034323, -0.0336562358, -0.1015299261, -0.0550009012, 0.0082506631, 0.0079581123, -0.0623142496, -0.0493861847, 0.1012478471, -0.0375642739, 0.0109592360, -0.0293362793, -0.0657852069, 0.0548375323, -0.0327502638, 0.0579831265, -0.1052537486, 0.0179348942, -0.0376204811, 0.1110025048, -0.0186830293, 0.0275284033, 0.0252172742, -0.0199057646, -0.0327185057, 0.0616912916, -0.0072441553, -0.0214217957, -0.0723126680, 0.0069648172, 0.0038084590, -0.0946084112, 0.0364454463, -0.0093114153, 0.0682606846, 0.0562054403, -0.0760260224, 0.0712772906, -0.0390135013, 0.0618986934, 0.0377585925, 0.0447538458, -0.0755574778, 0.0641797706, 0.0380136408, -0.0103404243, -0.0615737624, -0.1054991931, 0.0750189126, 0.0371498764, 0.0072610183, -0.1011476368, -0.0532839000, 0.0458572358, -0.0024819858, -0.0386648551, -0.0339586623, 0.0316467285, -0.0201012436, 0.1010727882, 0.0316893868, -0.1039532498, 0.0088630700, 0.0300293267, -0.0347950868, -0.0980530977, -0.0481756590, 0.0059169526, -0.0587704554, -0.0644170567, -0.0125896577, -0.0190990865, 0.0460155308, -0.0950397104, -0.0526313744, 0.0751230493, 0.0267974082, 0.0380901583, 0.0633571893, -0.0044992752, -0.0301711038, 0.0868557841, -0.0498754866, 0.0759479180, 0.0331699513, -0.0819837674, -0.0895181224, 0.0544923991, -0.0817916244, -0.0889226943, 0.0486900210, 0.0635083169, -0.0294039138, -0.0279329624, -0.0389063321, -0.0264739469, -0.0792932957, 0.0092523806, -0.0474700630, 0.0572501943, 0.0594896413, -0.0561799034, -0.0309318211, -0.0353077762, 0.0211491231, -0.0050017727, -0.1038398221, -0.0155778853, 0.0789196566, 0.1084314883, -0.0070869871, 0.0074319867, -0.0137611497, 0.0462300703, -0.0600769371, 0.0410142019, -0.0521761551, -0.0170459114, 0.0993385166, -0.0509059615, -0.0832595602, -0.0052676024, 0.0559793301, -0.0672016740, -0.0771414936, 0.0579901785, 0.0767641813, -0.0371560156, -0.0600690097, 0.0472435728, 0.0402519740, -0.0214723293, 0.0928321034, -0.0211213101, 0.0336809233, -0.0151386121, -0.1067335680, -0.0312630385, -0.0716657043, -0.0227341801, -0.1060580686, 0.0132432450, -0.0606026873, -0.1112449914, -0.0156339556, -0.0047946759, -0.0173499044, 0.0277929325, -0.0413615890, 0.0723783672, 0.0402195789, -0.0664432943, 0.1079944223, -0.0301627200, 0.0192710198, -0.0306227021, 0.0268477462, 0.0138576506, -0.0135839684, 0.0755114853, 0.0306399316, -0.1056525186, 0.0045092013, -0.0243583079, -0.0256877206, -0.0663025081, 0.0388228185, -0.0890026465, 0.0464664772, 0.0463171303, 0.0955820382, 0.1062690392, -0.0555830114, -0.0257093459, -0.0257700142, -0.0120138898, -0.0108917663, -0.0371952094, 0.0727292821, 0.0666998401, 0.0615609698, -0.0183244292, 0.0873902515, 0.0584899075, -0.0188132580, 0.0929469541, -0.0252415258, -0.0365031697, -0.0425439999, -0.0645439401, 0.0922133327, -0.0071142660, -0.0136760641, -0.0139961354, -0.0129803065, 0.0300791543, 0.0793691725, -0.0762762949, 0.0689623579, -0.0021500441, -0.0575512424, 0.0148181906, 0.0417932123, -0.0270397160, -0.0454233252, 0.0628635511, 0.0714316145, 0.0600498393, -0.0137305763, -0.0393590108, -0.0107340617, 0.0371625349, 0.0212179553, 0.0740390867, 0.0840177834, -0.1054884717, -0.0696700215, 0.0827998519, -0.0137720807, -0.0421010256, 0.0303366724, 0.0420151465, -0.0582302213, -0.0635676309, 0.0816705599, -0.0596769638, -0.0006385004, -0.0134767424, 0.0087260716, 0.0171171296, -0.0143857161, 0.0023333218, 0.0878954753, 0.0094716242, 0.0747424290, -0.0512433350, 0.0807628259, 0.0555202514, -0.0272846501, 0.0471011288, 0.0745689571, 0.0271858815, -0.0138179222, 0.0024665585, 0.0058509447, 0.0215337016, -0.0469731130, 0.0522896200, 0.0343092345, -0.0478290059, 0.0423804522, 0.0363244265, 0.0037412187, 0.0330227092, -0.0276968423, -0.0431010276, 0.0157594923, 0.0316188894, -0.0706939101, -0.0347498581, 0.0749629587, -0.0169526413, -0.0626758486, -0.0312848501, 0.0180813912, -0.0586088859, -0.0239528976, 0.0288846605, -0.0480422564, -0.0475307293, 0.0021824257, 0.0540705062, -0.0404922627, 0.0151262870, 0.0405868553, 0.0617319383, 0.0479482450, 0.0502619855, 0.0169201829, -0.0197999384, 0.0507307537, -0.0657209009, -0.0371209309, 0.0358614475, -0.0887113288, 0.0361638628, -0.0237262528, -0.0024275600, -0.0267625004, 0.0147050042, -0.0341572240, 0.0945182219, 0.0984223709, 0.1002097800, 0.0322752595, 0.0097108614, 0.0642806515, 0.0269800741, -0.0679784045, -0.0574458763, -0.0376178212, -0.0069809468, -0.0130756777, 0.0266665630, 0.0644906387, 0.0214032270, 0.0344665237, -0.0648633316, -0.0735370293, -0.0394237228, 0.0299710575, 0.0670898706, -0.0272880886, -0.0308982469, 0.0331601463, 0.0401448421, 0.0304723550, -0.0170930717, -0.0661320835, -0.0167787690, -0.0561353490, -0.0680006519, 0.0177997127, -0.0492191911, 0.0025212506, -0.0775686726, -0.0474594645, -0.0353124924, 0.0753298551, -0.0791187882, 0.0085223299, -0.0135208964, -0.0103264106, 0.0531882420, -0.0587976649, 0.0243728608, 0.0696239397, -0.0332215242, -0.0573400892, -0.0589370094, -0.0016664456, -0.0732240081, 0.0106104156, 0.0260273777, 0.0843555480, -0.0107579734, -0.0684745312, 0.0121416729, -0.0068734563, 0.0299874470, 0.1135382652, 0.0340185314, 0.0845880806, -0.0628375262, 0.0645823479, 0.0028137194, -0.0086360592, 0.0745760724, 0.0771269500, 0.0710419640, -0.0672133937, 0.0031549849, -0.0017899449, 0.0719830021, 0.0038823716, -0.0527220666, 0.0372201540, 0.0070136064, 0.0365382358, 0.0290695988, -0.0923105106, -0.0607765540, 0.0138311060, 0.0642314181, -0.0575767644, 0.0102790985, -0.0368281268, 0.0331057794, -0.0373515598, 0.0140343001, 0.0697201714, -0.0040138536, -0.0455075316, -0.0278364625, -0.0031001011, -0.0599721298, 0.0478427969, 0.0830969214, -0.0251037776, -0.0921884924, -0.0310675465, -0.0241884291, 0.0316426344, 0.0313279927, -0.0338685438, 0.0755924359, -0.0212419648, 0.0623076335, -0.0589628294, 0.0581868514, -0.0105877174, -0.0052880677, 0.0136213237, -0.0490485914, -0.0904398710, -0.0105554145, -0.0599930361, 0.0881046802, 0.0856711417, -0.0265820380, 0.0521456227, -0.0178710837, -0.0587766059, -0.0379161462, 0.0171353836, -0.0429898091, -0.0823309049, -0.0508855768, 0.0825123116, 0.0771321878, 0.0306341797, 0.0717647746, -0.0050001666, 0.1026051939, 0.0527948253, 0.0086987978, -0.0406510346, 0.0030661805, 0.0963524058, -0.0467950627, 0.0174234528, -0.0146499733, 0.0111751966, -0.0870182887, -0.0230264366, -0.0959372818, 0.0871492326, 0.0020518308, 0.0467515662, -0.0307593513, 0.0179322194, -0.0473763794, 0.0509837233, 0.0816797167, 0.0342182890, -0.0241564531, -0.0928196460, -0.1275999546, 0.0619882941, -0.0723678917, -0.0544318408, -0.0071912697, -0.0065837791, 0.0150400335, -0.0252626296, -0.0692346469, 0.0835234597, 0.0250278730, 0.0214803796, 0.0619788431, -0.0551816151, -0.0663353801, -0.0538515598, 0.0937429070, -0.0017699745, 0.0379305705, -0.0331628658, 0.0468673185, -0.1159142926, 0.0215847027, -0.0561440066, -0.0147148492, -0.0393946171, -0.0656527877, -0.1178095341, 0.0000498845, -0.0130978432, 0.0413670912, -0.0493347272, -0.0148325870, -0.1275448203, 0.1199766099, 0.0336700864, -0.0395374931, -0.0316857062, 0.1170184687, 0.0048749158, 0.0249580741, -0.0804416016, 0.0823023766, -0.1042844951, -0.0802839175, 0.1019357219, 0.0359773487, 0.0341200717, -0.1413923353, -0.0007698206, 0.0584182516, 0.0144381681, -0.0874750018, 0.0058900691, -0.0815512240, 0.0059338473, -0.0278018657, 0.0750307366, -0.0680208579, 0.0141815888, 0.0349211991, 0.0693021417, -0.0603553802, -0.0318084545, 0.0667841583, -0.0059479806, -0.0538362674, -0.0360954478, 0.0375642814, 0.0114625702, -0.0207825284, 0.0732857883, -0.0521424040, -0.0783832297, -0.0294458698, -0.0391966328, -0.0672183856, 0.0115256524, 0.0653538257, -0.0172961019, 0.0548778586, -0.0582058914, 0.0379246324, -0.0435309298, -0.0766187310, -0.0652266145, 0.0540923178, 0.0051900065, -0.0206906237, 0.0329963043, 0.0227523297, 0.0588656142, 0.0203905907, -0.0471607409, -0.0192818064, -0.0650442988, -0.0198866855, 0.0477663465, 0.0078465072, -0.0799640864, 0.0622791722, -0.0501657687, 0.0884889513, 0.0292309523, -0.0204215925, 0.0077811782, -0.0840941742, -0.0197387766, -0.0341465808, -0.0344765820, -0.0053610923, 0.0153032336, 0.0266096443, -0.0678822026, -0.0478633270, 0.0571643189, 0.0192786343, 0.0313096419, -0.0822783634, -0.0653139129, -0.0490132160, -0.0278168228, -0.0675223246, 0.0420534275, 0.0715298504, -0.0291235223, 0.0215087328, 0.0633141845, -0.0011023132, 0.0544222146, 0.0188938044, 0.0418434888, 0.0028667105, -0.0382576510, -0.0620020814, -0.0551809929, 0.0501401164, -0.0019353798, -0.0183772128, -0.0656636730, -0.0278578158, 0.0236601457, -0.0519202575, 0.0345304236, 0.0214836709, -0.0550944917, -0.0309050735, 0.0230890252, 0.0496591553, -0.0346883573, 0.0468090810, -0.0588048883, -0.0107368641, -0.0691473037, -0.0256460253, 0.0068682069, 0.0564890802, -0.0024187283, 0.0248110089, -0.0260007158, 0.0540757030, -0.0074763810, 0.0181660354, -0.0011736167, 0.0344233699, -0.0291568134, -0.0346513428, -0.0350870937, -0.0358030871, 0.0736854151, 0.0518459566, 0.0931434482, 0.0515392981, -0.0536105148, -0.0667063221, -0.0639582723, -0.0246704426, -0.0142822387, 0.0463763215, -0.0367341526, -0.0745395347, -0.0142129725, -0.0538456291, 0.0639532357, 0.0103836861, -0.0437300317, 0.0008331359, 0.0192113370, -0.0811684430, 0.0699649081, 0.1040582955, 0.0959014446, -0.0221166778, -0.0267386958, -0.0447100326, -0.0432748161, 0.0252754036, -0.0000361866, -0.0007352845, -0.0288667493, 0.0041057495, -0.0241679586, 0.0782260746, -0.0744834691, 0.0601102673, 0.0462828130, -0.0349886902, 0.0543270297, -0.0154966377, 0.0282234717, 0.0357425958, 0.0621935055, 0.0127029251, 0.0657444447, 0.0971658006, 0.0896866396, 0.0007463420, 0.0091657750, 0.0041667428, -0.0256062783, -0.0645678937, 0.0772842020, -0.0440858603, -0.1057104245, 0.0626078025, -0.0194460824, -0.0875907466, -0.0750695765, -0.0411361083, -0.0457763895, 0.0021317801, 0.0406583436, 0.0285365302, -0.0156705864, 0.0401343480, 0.0029574153, -0.0304072667, -0.0703676492, -0.0199625120, -0.0759310648, -0.0148485098, 0.0279112756, -0.0100053549, 0.0280187000, 0.0351237394, -0.0170848425, -0.0082861623, -0.0380466282, 0.0923091993, -0.0393125638, -0.0787991807, 0.0909006521, 0.0895023644, -0.0700343177, -0.0312336143, -0.0510068350, -0.0282923393, 0.0596555658, -0.0370804109, 0.0644529313, 0.0728335306, 0.0009456138, 0.0012180918, -0.0036294395, -0.0285636913, -0.0603103712, 0.0247729551, 0.0591759868, 0.0280616358, -0.0555770323, 0.0347543769, -0.0840051770, -0.0538926683, 0.0697983950, -0.0074724331, -0.0417769141, 0.0359427817, -0.0141454134, -0.0047985502, -0.0264766440, 0.0559339300, 0.0102630844, 0.0270073619, 0.0414003059, -0.0360961668, 0.0446534678, 0.0616887882, -0.0676910356, 0.0292874184, -0.0434469841, 0.0126255322, 0.0578290820, -0.0633763149, 0.0399928093, -0.0460785814, -0.0073849638, 0.0715347603, -0.0729592890, 0.0718162134, 0.0627187192, -0.0548889227, 0.0001802469, 0.0542422198, 0.0198709704, -0.0152543411, 0.0065830392, -0.0444264896, 0.0266914405, 0.0179107785, -0.0566129722, 0.0978672579, 0.0250563268, 0.0407517105, -0.0687009245, 0.0459092520, 0.0011392405, 0.0846017674, -0.0355837382, -0.0334684849, 0.0491769351, -0.0090278806, -0.0293112155, 0.0105953095, -0.0683228523, 0.0648910031, 0.0566870570, 0.0479331426, 0.0165467858, 0.0692484081, 0.0873775855, -0.0244892556, -0.0274275616, 0.0153842857, -0.0333736986, -0.0131675228, -0.0350330435, 0.0572541282, 0.0447708145, 0.0262148846, 0.0437338538, -0.0135179134, -0.0642137155, 0.0170133766, 0.0310145952, 0.0938451216, 0.0691637397, -0.0775003880, -0.0348956324, -0.0179028790, 0.0845580623, -0.0601744540, -0.0161863882, -0.0446260348, -0.0300857332, 0.0018489691, 0.0246854704, -0.0866838470, -0.0160790812, -0.0030107242, 0.0579709820, -0.0091997655, 0.0220662784, 0.0015222704, -0.0115576731, 0.0373600163, -0.0296892338, 0.0015155873, 0.0126031898, -0.0361048654, 0.0589114800, -0.0447219238, -0.0005280674, -0.0496881455, 0.0027171003, 0.0089107510, 0.0673569888, -0.0314585567, 0.0788856447, -0.0339524932, -0.0748818815, -0.0621424355, 0.0739916414, 0.0260749552, 0.0486173593, 0.0520047136, -0.0516164303, 0.0418185033, 0.0222096052, -0.0697911456, 0.0091274343, 0.0242407229, 0.0850849152, -0.0343730487, -0.0931845084, -0.0166100804, -0.0634539872, 0.0466973893, -0.0146430358, -0.0389889628, 0.0621821880, -0.0376860239, 0.0191540569, -0.0245131981, 0.0668006986, 0.0081810551, 0.0863381326, 0.0179824904, 0.0891062990, -0.0462259054, -0.0528576262, -0.0144449202, -0.0564656593, -0.0085266652, 0.0760294050, 0.0726943016, -0.0899441317, 0.0006331597, 0.0353644677, 0.0264176801, 0.0480515808, -0.0305972323, -0.0059617623, -0.0617069267, -0.0160550941, 0.0756177902, 0.0752529055, -0.0273176339, 0.0538115874, -0.0104611292, -0.1041381806, -0.0773678273, -0.0495314524, 0.0472053029, -0.0509327762, -0.0541848019, 0.0660259426, -0.0241451915, 0.0447516292, 0.0375097133, -0.0408165231, -0.0342511646, -0.0386927240, -0.0552503616, 0.0661953539, 0.0026549622, 0.0475792028, 0.1035402417, 0.0237293392, 0.0191167854, -0.0463185422, 0.0511964895, 0.0555042438, -0.1080091968, -0.0349693820, -0.0362120159, 0.0913293883, 0.0202757120, 0.0389735140, 0.0558201335, 0.0451425649, -0.0081617339, 0.0709522814, 0.0674262643, -0.0083503798, 0.0478209034, -0.0399109907, 0.0743331090, -0.0313406289, -0.0811845437, -0.0291849673, 0.0900932923, 0.0317818187, -0.0931711569, 0.0701055378, 0.0663944855, 0.0999734551, -0.0873011276, 0.0802912563, 0.0315885283, -0.0616714582, -0.0142757287, 0.0769550428, 0.0087607838, -0.0376058780, -0.1011196822, -0.0467010699, -0.1206458285, 0.0099264318, -0.1133645028, 0.0548993871, 0.0690547675, 0.0716055408, -0.0596215688, 0.0098908972, 0.0533339605, -0.0933313593, 0.0589466132, -0.0440650769, 0.0978745818, -0.0162300821, 0.0045598480, -0.0182103142, 0.0107408827, -0.0689534768, 0.0271041989, -0.0852833763, 0.0026767633, -0.0042903279, 0.0242378693, 0.0513722636, 0.0286864098, -0.0112275118, 0.0632650033, 0.0117799351, -0.0078164646, -0.0406942703, 0.0227578767, 0.0067823566, 0.0540797003, 0.0738439262, -0.0013376018, 0.0209014006, 0.1008929983, 0.0645308942, 0.0891543925, -0.0217641611, 0.0601976588, -0.0498399511, -0.0027386656, 0.0397115685, 0.0915489569, 0.0463113822, 0.0077120895, 0.0601095967, 0.0991005898, 0.0884685367, 0.0467619114, -0.0277880654, -0.0068622627, 0.0985180512, 0.0044197403, 0.0959362090, 0.0357775688, 0.0214873962, -0.0291805454, 0.0388503708, -0.0712382868, -0.0279621240, 0.0279893987, -0.0447299257, 0.0445029065, -0.0078850649, -0.0175683741, -0.0090373196, 0.0722646788, -0.0242087003, -0.0175175406, -0.1013843343, -0.0021558451, -0.1048334762, 0.0754207149, 0.0726099759, 0.0570839755, -0.0157523043, 0.0952372849, -0.0855878219, 0.0154464096, -0.0701210126, 0.0215407535, -0.0323101170, -0.0232532788, -0.0275326744, -0.1026030034, 0.0446715765, 0.1087367833, 0.0954048410, 0.1054340005, -0.0511008911, 0.0109184990, 0.0694069043, 0.0240783338, -0.0194862317, 0.0537843406, 0.0186529551, -0.0473409779, -0.0115733650, 0.0460262932, -0.0374688283, -0.0629590154, 0.0754874423, 0.0258051306, 0.0161195081, -0.0212864503, 0.0410154946, 0.0460906811, -0.0129252989, -0.0873789340, 0.0021865044, 0.0807851478, -0.0130538130, 0.0326465443, -0.0428806059, 0.0609474294, 0.0900859162, -0.0735192299, -0.0240870696, 0.0095144575, -0.0146630891, -0.0789833814, 0.0093224058, -0.0371082239, 0.0290474948, -0.1135852635, -0.0151434382, 0.0137257194, 0.0430400707, -0.0248647444, 0.0590323098, -0.0922738537, -0.0240796823, 0.0753941759, -0.0124300309, 0.0088754157, -0.0827522576, 0.0810786635, -0.0017296821, 0.0195194464, 0.0803772658, 0.0451929793, 0.0154429330, -0.0845471025, -0.0219693892, -0.0544037372, 0.0118624829, -0.0032011438, -0.0366750732, -0.0649751276, 0.0493830293, -0.0722891018, -0.0967794880, -0.0006676022, -0.0827243850, 0.0538238324, -0.0696966574, -0.0566336177, -0.0140324226, 0.0183172859, -0.0176050887, 0.0050111506, 0.0619867034, -0.0103699910, 0.0221795961, -0.0722746849, -0.0704362318, 0.0342688784, 0.0946134701, -0.0205124095, -0.0019690401, 0.0167717524, 0.0213525444, -0.0570008010, -0.0969533697, -0.0594974160, 0.0581425987, 0.0751763210, -0.0516501814, -0.0204168726, 0.0070720483, 0.0436041057, 0.0181845166, -0.0586936995, 0.0629196316, -0.0911431164, 0.0304994658, 0.0170581676, 0.0782784447, 0.0424827673, -0.0428166017, 0.0370069705, 0.0337963030, 0.0793428421, -0.0545688495, -0.0248205382, 0.0009781006, 0.0112717263, 0.1155180708, 0.0620227791, -0.0154786892, -0.0842178762, -0.0005423703, 0.0603299215, -0.0163912848, -0.0763057247, -0.0037264999, -0.0360529684, 0.0210833047, 0.0768481120, -0.0174698550, -0.0679259524, -0.0221553724, 0.0663664341, -0.0965152532, -0.0866665542, -0.0908036977, -0.1189573556, -0.0495900624, 0.0232829228, -0.0447374545, 0.0301118828, 0.0555520952, 0.0036264032, -0.0413126536, -0.0576568097, -0.0292770769, -0.0384042412, -0.0036514006, 0.0070398808, -0.0260098502, -0.0249350742, -0.0644813552, 0.0652294531, 0.0317968614, 0.0076484093, -0.0429714434, 0.0525285602, 0.0355960466, -0.1172276437, -0.0157027934, 0.0465620793, 0.0286415629, -0.1016275883, 0.0127726700, -0.0817053318, 0.0023175268, 0.0573817939, -0.0504127219, 0.0488375761, 0.0217615217, 0.0440170579, -0.0080446210, 0.0130525082, 0.0200153291, 0.0037627551, 0.0061489800, 0.0714288577, -0.0947070718, -0.0565904938, -0.0176022388, -0.0778432116, 0.0375269949, 0.0708506256, 0.0506681092, 0.0501983836, -0.0069179968, -0.0077296519, -0.0083947433, 0.0086577777, 0.0435324013, 0.0710622892, -0.0940154791, 0.0344083123, 0.0809160918, 0.0525927208, 0.0483813994, 0.0961273313, 0.0305067692, -0.0354082808, -0.1008843631, -0.1252848357, 0.0541557260, 0.0198889747, -0.0391041525, -0.0249802861, 0.0586659499, 0.0344430581, 0.0179706570, 0.0095067052, -0.0108814426, 0.0497439504, -0.0618195198, -0.0355369933, 0.0020540040, -0.0807930604, -0.0527344495, 0.0975681767, 0.0260505509, 0.0169869531, -0.0519075468, 0.0811476633, -0.0109220902, -0.0624710135, 0.0013788412, -0.0560765788, 0.0376209356, -0.0573985204, -0.0281754583, -0.0506480858, 0.0205023158, 0.0651899353, -0.0745809302, 0.0403070040, -0.1178799346, 0.0921170190, 0.1134568527, 0.0446569212, 0.0528596267, 0.0102628497, -0.0081159072, 0.0546746701, -0.0190430470, -0.0731924921, -0.0146118272, -0.0104101282, 0.0686526820, -0.0158389695, -0.0094679072, 0.0018196052, 0.0287177395, -0.0532647967, -0.0854909271, -0.1106588393, 0.1085697711, -0.0576148443, -0.0399742089, 0.0594273880, -0.0117026735, 0.0290222932, 0.0462426879, -0.0208350252, -0.0781623796, 0.0117678288, -0.0608346313, -0.0626553968, 0.0570404753, -0.0984819308, -0.0325916186, 0.0280160438, 0.0505411476, 0.0694892555, -0.0793727040, 0.0118753128, -0.0023594422, -0.0169678684, -0.0737976506, 0.0470605791, -0.0037042275, -0.1010909230, -0.0428388380, -0.0033963176, -0.1105097756, 0.0783266351, -0.0991815105, -0.0445729196, -0.0063387956, -0.1092535928, -0.0074478500, -0.0300974529, -0.0356753059, -0.0846881494, -0.0462134928, -0.0026572775, 0.0367514975, -0.0329005159, -0.0132799931, 0.0449339785, -0.1223559603, 0.0180434752, 0.0904948041, 0.0611154772, 0.0851532221, 0.0245866012, 0.0682471842, 0.0873751789, 0.0310726520, -0.0135714160, 0.0741850808, 0.0447751023, 0.0042299656, 0.0568960384, -0.0362697095, -0.0923837051, -0.0227496549, -0.0194548685, -0.0062860064, -0.0140756015, 0.1009268761, -0.0445771553, -0.0323718227, -0.0330489762, 0.0862545744, -0.0370198898, 0.0162330028, -0.0179290809, -0.0183973126, -0.0815610364, 0.0094981901, -0.0689861923, -0.0148693332, -0.0887847319, -0.0628109500, 0.0917508751, -0.0228217505, 0.0889922902, 0.0556368269, -0.1070880890, 0.0344590135, 0.0114715137, -0.0743719116, -0.0547909588, -0.0560029894, 0.0216843653, 0.0060639549, 0.0058684773, 0.0559543110, -0.0101715494, -0.0835409090, 0.0604901575, 0.0713095888, -0.0401252136, -0.0118630240, 0.0790289193, -0.0989123806, 0.0536822863, 0.0464276150, -0.0250857510, -0.0708051920, -0.0380102545, -0.0469052382, -0.0259703286, -0.0459867492, 0.0749081746, 0.0476112477, -0.0067549734, 0.0755220205, 0.0283092260, -0.0094461124, -0.0349616520, -0.0281492211, -0.0406691208, 0.0434187390, -0.0500748754, -0.0156613123, 0.0465632565, -0.0532398820, -0.0901269317, 0.0222319197, -0.0076412535, -0.0289004482, -0.0622298643, 0.0017550348, -0.0525766164, -0.0616657622, -0.0386126079, 0.0456349142, -0.0008578679, 0.0395516604, 0.0954565853, -0.0839209482, -0.1054278314, 0.0253550038, -0.0228124242, 0.0363320075, -0.1124483645, 0.0198326800, 0.0973046497, 0.0328774527, -0.0607570298, -0.0942225009, -0.0660805553, -0.0132945301, -0.0295132920, -0.0753982887, 0.0289255902, -0.0257626232, 0.0025579166, 0.0600869544, 0.1152406558, -0.0822265223, 0.0348102637, -0.0751195550, 0.0075422595, -0.1043115929, -0.0452645756, -0.0207598135, -0.0208451916, -0.0451487489, -0.0552694574, -0.0480275750, 0.0069583706, -0.0606968589, 0.0396989249, -0.0385943018, 0.0294327345, 0.0420620218, 0.0920260847, -0.0161205959, 0.0970634595, 0.0162959434, -0.0089475065, -0.0082051465, 0.0401105471, -0.0547258817, -0.0375018120, -0.0208583921, 0.0276355110, -0.0209248923, 0.0001011234, 0.0030618580, -0.0758966655, -0.0471456945, -0.0329519026, 0.0658188462, -0.0311671831, -0.0094496952, 0.0837619752, -0.0467644818, 0.1101562902, -0.0492065474, -0.1078417301, 0.0201095622, 0.0185763892, -0.0721385404, -0.0439168364, -0.0863500684, -0.0110220267, 0.0673364103, -0.1296855509, -0.0170137510, 0.1074530035, 0.0091565792, -0.0165436175, -0.0620194077, -0.0061471132, 0.0559902191, -0.1232871264, 0.0079151429, 0.0417011753, 0.0361650847, -0.0457347967, -0.0400689989, 0.0279702358, 0.0126487799, -0.0857785195, 0.0068633840, 0.0676993206, -0.0582232140, -0.1001731381, -0.0527383611, 0.0775076374, -0.0364543684, -0.0860437378, -0.0777071938, 0.0459077470, -0.0604949929, -0.1001108587, -0.0429667681, 0.0318797342, -0.1111069992, 0.0077592381, -0.0005875677, 0.1119261310, -0.0260222461, -0.0013913962, -0.0560086034, 0.0389671922, 0.0689542890, 0.0233140141, 0.0300713368, -0.0803542659, 0.0847232714, 0.0663540959, 0.0702129155, 0.0311987512, -0.0267395638, -0.0152772563, -0.0494951196, 0.0475560687, -0.0545736887, 0.0442166068, 0.0269809254, 0.0202853829, -0.0202994272, -0.0545423552, -0.0975775123, 0.0967538133, -0.0120887095, -0.0983330533, -0.1172190160, -0.0744181052, 0.0089429580, 0.0219449066, 0.0008326359, 0.0650447160, 0.0236016419, 0.0578817725, 0.0148458788, 0.0580780432, 0.0248129722, 0.0098707052, -0.0717796683, 0.0592403859, -0.0036848306, -0.0172100700, -0.0502673872, 0.0782169774, 0.0302932411, -0.0304913670, 0.0213997383, 0.0516682453, -0.0973847285, -0.0064932769, -0.0675309673, -0.0226201545, 0.0151592745, 0.0244462639, -0.0088752126, -0.0321001336, -0.0250339396, -0.0097174812, 0.0514597110, -0.0020484929, -0.0094539523, 0.0447996594, 0.0960274115, 0.0943090692, -0.0373369604, 0.0447060242, 0.0350078084, 0.0980955437, -0.0142442165, 0.0585472658, -0.0046140412, 0.0212778579, 0.0427802838, 0.0596132912, -0.0397585891, 0.0727206916, -0.0602830090, -0.0553626567, -0.0002679894, -0.0647221878, 0.0804017857, -0.0438671149, -0.0374107137, 0.1078991592, 0.1121006086, 0.0313240215, -0.0329002663, 0.0842983201, -0.0635166988, -0.1237624288, -0.1284221262, -0.0779457837, -0.0341528133, 0.0389286429, -0.1070671454, 0.0853904784, 0.0332357660, -0.0241401270, -0.1064502597, -0.1088088006, 0.1325438470, -0.0808413327, 0.0188693758, -0.0666846111, -0.1128197908, -0.0579287857, -0.0724222362, 0.0346835703, 0.0124059515, -0.0855304822, -0.0824203044, 0.0662915930, -0.0610532202, -0.1158885062, 0.0109667499, 0.0344069004, -0.0741608590, -0.0966908112, -0.0940564275, -0.0264073461, 0.0064434600, 0.0333845541, 0.0420471206, 0.0123310452, -0.1070936844, -0.0065651499, 0.0708614960, 0.1092617586, 0.1025377512, 0.1220247597, 0.0419038832, 0.0653543621, -0.0526612066, 0.0089906547, -0.1076873019, -0.0070101270, 0.0562724993, 0.0933816060, 0.0816991255, -0.0720439777, -0.0168386381, -0.0813265368, -0.0436205529, 0.0165960733, -0.0243459605, 0.0140281757, -0.0580572449, -0.0876272619, -0.1150998101, 0.0562302135, -0.0525997542, 0.0131550683, -0.0234639738, 0.0845371112, 0.0845880434, 0.0645145848, 0.0104215825, 0.0006672475, 0.0053783301, 0.0561049655, -0.0045408504, 0.0383550152, 0.0891155675, 0.0567528047, -0.0718972459, -0.0317348205, -0.0380836986, 0.0334619693, -0.0539889298, -0.0592469759, -0.0664977953, -0.0387745127, -0.0178752858, -0.0108575244, 0.0155066941, 0.0434781834, 0.0956632644, -0.0531454682, 0.0267858952, -0.0300821010, 0.0643903688, -0.0410369225, 0.0205515604, -0.0854159296, 0.0804504082, -0.0720804036, -0.0477081165, 0.0974480510, 0.0656475946, -0.0990457013, -0.0386476666, -0.0652717277, -0.0688462928, 0.0101498328, -0.0649761781, -0.0117965061, 0.0056660273, 0.0376284383, -0.0701800138, 0.0826864690, -0.0055849175, 0.0401805080, -0.0696538463, -0.0518579334, 0.0164372157, 0.0675067678, -0.0481503569, 0.0505894199, -0.1036889926, -0.0248987414, 0.0139334407, 0.0044459784, -0.0388906747, 0.0778530017, 0.0424889848, -0.0956750214, 0.0313156508, 0.1176492646, 0.1032899544, -0.0149097554, 0.0236455165, 0.0933204070, 0.0745979995, 0.0164525285, -0.0305847172, -0.0453833230, -0.0462757125, 0.0716104433, 0.0017339968, -0.0260022450, 0.0808438361, -0.0588447712, 0.0002803910, 0.0413416810, 0.0419341736, -0.1019896269, 0.0932285860, -0.0654171556, 0.0495051779, 0.0101856934, -0.0384094492, -0.0200610030, -0.0431325696, -0.0945847481, 0.1029531211, 0.0343452357, -0.0372738838, -0.0459631681, -0.0054494562, -0.0462477915, 0.0187008772, -0.0842810422, -0.0221094750, 0.0381745696, -0.1145296618, -0.0479547493, 0.0591144115, -0.0169878397, -0.0149987387, -0.0211797561, -0.0106641697, -0.0685209706, 0.0327232853, -0.0402297340, -0.0613182597, -0.0651461482, -0.0929853246, 0.0809061751, -0.0442672707, -0.0437759683, -0.0513029732, 0.0633333400, 0.0232774597, -0.0459473766, 0.0033834637, -0.0796196088, -0.0383941866, 0.0496998169, -0.0348777436, 0.0090311039, 0.0388431139, 0.0974778160, 0.0938871428, 0.0398421921, -0.0097404663, -0.0305270683, 0.0430335626, 0.0219011717, -0.1041736454, 0.0823949724, 0.0665499941, 0.0414726399, -0.0825508237, 0.0071999016, -0.0267125946, -0.0749386922, -0.0409800895, -0.0318010002, -0.0621349998, -0.1031979769, 0.0081599383, -0.0470586270, 0.1040679514, -0.0450439677, 0.0662881508, 0.0904434025, -0.0004420289, 0.0169366226, -0.0148050766, 0.0916884020, 0.0727850720, -0.0314105526, 0.0979069024, -0.0182988495, -0.0162431933, -0.0094773425, 0.0493119024, -0.1060616374, -0.0965324119, -0.1063003540, 0.0800793916, -0.0414904431, 0.0246364903, -0.0382748693, -0.0323442407, -0.0343991444, 0.1263858378, 0.0610475875, -0.0505288430, -0.0975543559, -0.0768613815, 0.0107287979, 0.0365275033, 0.0917010009, -0.0264499392, 0.0519067906, -0.0485541523, -0.0291953422, 0.0498155467, -0.1066700146, 0.0753209293, 0.0170132667, 0.0087786559, -0.0646179020, 0.0614576451, -0.0203015506, 0.0360439718, -0.0285527203, 0.0553155132, 0.0638046339, 0.0178444907, -0.0684069246, -0.0007731151, 0.0284641404, 0.0985760242, -0.0061087813, 0.0087736323, 0.0812749788, 0.0945805162, -0.0658282861, -0.0213558953, -0.0421474352, -0.0262410995, -0.0900270641, 0.0209914148, -0.0408425815, 0.0616376624, -0.0941470712, -0.0159974582, 0.0405371971, 0.0663895383, -0.0664028972, 0.0786199272, 0.0840577036, -0.0199513510, 0.0923431665, -0.0122990133, 0.0414923206, 0.0146341976, 0.0301975235, 0.0938574150, -0.0025104398, -0.0501864292, 0.0140856225, 0.0358223505, -0.0137333963, 0.0403839611, -0.0036579194, -0.0244949386, -0.0138333282, -0.0498007722, -0.0362360589, 0.0152195059, -0.0937398225, 0.0524914935, 0.0926477313, -0.0516449884, -0.0120919459, 0.0806160867, -0.0238206405, 0.0580104962, -0.0014318494, 0.0926021338, 0.0130839320, -0.0006579065, 0.0746481195, 0.0609901547, -0.0510440506, -0.0385548882, 0.0485465415, 0.0207427405, -0.0561711118, -0.0883624405, 0.0405547991, 0.1063965484, 0.0563797839, -0.0798728243, 0.0793027878, 0.0328498110, 0.0542350858, 0.0388386026, -0.0496951304, -0.0489619114, -0.0901913419, 0.0532528982, 0.0105046481, 0.0041543366, -0.0195566248, 0.0147253154, 0.0189000554, 0.0316809528, -0.0034427901, -0.0429448150, -0.0359589383, 0.0829860270, 0.0290505216, 0.0446490943, 0.0983402729, 0.0454616211, 0.0262868740, 0.0600226671, 0.0629616529, -0.0517806150, 0.0631640851, 0.0839035287, -0.0156586040, -0.0735767111, -0.0266558565, -0.0718683749, -0.0450277776, 0.0509266295, 0.0563774258, 0.0155383097, 0.0198860448, 0.0867594033, 0.0749464706, 0.0112684490, -0.0706160739, -0.0646757185, -0.0287593752, -0.0692301169, -0.0664193183, 0.0573794469, -0.0405941941, -0.0023744572, -0.0450559817, 0.0165631380, -0.1184123009, -0.0949928984, -0.0091519533, 0.0621750019, -0.0447788686, -0.0148168970, 0.0490458831, -0.0141975172, -0.0150367180, 0.0263002515, 0.0949032679, 0.0690017343, -0.1194256842, 0.0334768966, 0.0318304524, 0.0911566317, 0.0520043783, -0.1265912354, 0.1147056147, 0.0133905234, -0.0803617388, -0.0716759786, 0.0699918121, -0.0079340469, 0.0092380447, 0.0807914287, 0.0605756789, 0.0741831958, -0.0976382196, -0.0176165570, 0.0953644291, 0.0467234030, -0.0531115755, 0.0898741409, -0.0119131524, 0.1031840369, -0.0688908324, -0.0351308882, 0.0795904174, 0.0142632509, 0.0636650845, 0.0632498339, -0.0214450117, -0.0892691612, -0.0448615626, -0.0282501001, 0.0122858258, -0.0245157797, -0.0660565719, 0.0821670592, 0.0848303959, 0.1016373038, 0.1059659570, 0.0289488733, 0.0231849495, -0.1139427572, -0.0281736739, 0.0922578573, -0.0470836721, -0.0382205546, 0.1216278374, -0.0064893248, 0.0338946022, 0.1061849892, 0.0415786318, -0.0630414188, 0.0757837072, -0.0268446729, 0.0442582853, 0.0171488393, 0.0020275349, 0.0536983907, 0.0720431879, -0.0015499787, 0.1007808894, 0.1203857809, -0.0493056588, 0.0422704592, 0.0539571270, 0.0686692744, -0.0503682233, -0.0087067140, 0.0454890467, 0.0895511061, -0.0656480044, 0.0451740883, 0.0814248398, 0.0777174160, -0.0803946033, 0.0120327696, 0.0343352109, 0.0828064904, 0.0040988266, -0.0089360410, -0.0173670333, 0.0611548722, 0.0533101484, 0.0283322111, 0.0600613318, -0.0304898247, 0.0476971865, -0.0781315118, -0.0320981257, 0.0292736851, 0.0295723882, -0.0073985374, 0.0305236820, -0.0458699688, -0.0159503855, -0.0652109981, -0.0281927437, 0.0519251488, -0.0995482653, -0.0029106450, -0.0712041333, 0.0958862007, -0.0553594641, -0.0854172483, 0.0450661480, -0.0807847008, -0.0465794802, 0.0888250172, -0.0706097856, 0.0035180226, 0.0839335397, -0.0861035660, -0.1036661193, 0.0933837369, -0.1148393080, -0.0773179457, 0.0653751940, -0.0134235788, -0.0769295171, 0.0059838588, 0.0393774807, -0.0492612273, 0.0026992941, -0.0105542541, 0.0710523278, 0.0363707133, -0.1149272472, -0.0367194004, 0.0690998435, 0.0129242651, 0.0727997124, -0.0913090408, 0.0012919941, -0.0725886896, -0.0886527747, -0.0343275554, -0.0316035077, 0.0348576456, 0.0341431350, 0.0544464365, 0.0735505000, 0.0524490066, 0.0290352758, -0.0640863702, -0.0085609034, -0.0528373308, -0.0337687396, 0.0494077839, 0.0175722390, 0.0679033101, -0.0501161180, -0.0965128168, -0.0161837842, -0.0555295087, 0.0548207909, 0.0177431330, -0.0218149275, 0.0131282769, -0.0553762317, 0.0280464068, -0.0819884539, -0.0365975760, 0.0338996798, 0.0083219949, 0.0425284095, 0.0238710344, 0.0993969068, -0.0399451964, 0.0103374375, -0.0442307629, 0.0292413160, -0.0078049451, 0.0303494632, -0.0726384595, 0.0484153740, -0.0652573556, -0.0421637408, 0.0041317889, -0.1055757850, -0.0942962095, 0.0002396978, -0.0158610661, 0.0106243677, 0.0513810553, 0.0887923539, -0.0056389421, 0.0672029778, -0.0171822011, -0.0179396048, -0.0381712057, -0.1215570942, -0.0891333967, 0.0012587588, -0.0360988639, 0.0747838244, 0.0287501942, 0.0673592761, 0.0461889952, -0.0362911895, -0.0410057418, 0.0839671120, 0.0615225732, -0.1079002991, 0.0073227710, -0.0714299530, 0.0605220422, -0.0444179475, 0.0789839327, 0.0806876495, 0.0465152897, 