//Numpy array shape [3, 3, 64, 32]
//Min -0.141533389688
//Max 0.140220060945
//Number of zeros 0

#ifndef W12_H_
#define W12_H_

#ifndef __SYNTHESIS__
conv2d_3_weight_t w12[18432];
#else
conv2d_3_weight_t w12[18432] = {-0.048352, -0.013589, -0.053331, -0.082823, -0.076983, -0.032185, -0.001843, -0.059378, -0.042600, 0.040062, 0.059111, -0.029478, 0.006183, -0.004574, 0.089048, -0.027628, -0.023932, -0.055889, -0.003654, -0.022360, -0.077769, 0.044307, 0.011380, -0.032994, -0.026828, 0.012393, -0.071560, 0.002947, -0.032375, -0.081614, 0.070956, -0.080180, 0.050536, 0.062814, 0.060850, -0.033236, 0.086530, 0.056422, 0.007571, 0.007398, 0.065066, 0.026124, -0.040659, -0.044001, -0.041362, 0.047954, -0.016867, 0.027785, -0.029104, 0.001581, -0.051451, -0.040149, 0.008833, -0.085342, -0.059433, 0.035462, -0.053309, 0.049620, -0.077563, 0.091291, -0.035402, 0.074808, 0.021957, 0.079060, -0.052844, -0.033171, -0.027958, 0.025638, 0.084350, -0.005772, 0.085492, 0.045477, -0.040335, 0.009635, 0.038554, -0.043047, 0.077435, -0.068091, 0.070651, 0.042877, 0.049186, -0.076616, 0.069117, 0.067933, -0.021445, 0.047498, 0.056634, 0.018553, 0.071328, -0.056227, 0.079832, -0.002157, -0.024660, -0.099782, 0.017545, -0.055451, 0.023711, 0.039568, 0.064447, -0.056247, -0.048221, 0.077863, -0.014002, 0.097551, 0.038726, -0.053018, -0.056039, -0.086285, 0.024398, 0.016410, -0.059708, -0.074108, -0.032257, -0.022929, -0.062640, -0.025477, 0.065036, -0.052334, -0.038000, -0.039840, -0.049008, -0.031677, -0.077045, 0.040914, -0.010633, 0.030314, 0.086806, -0.044860, -0.019374, -0.063606, 0.073824, 0.011193, 0.086487, -0.006631, -0.047962, 0.059497, -0.026775, 0.038784, -0.020568, 0.044284, -0.084298, -0.005797, 0.082116, 0.066265, -0.072805, -0.005262, -0.056799, -0.083507, 0.062713, 0.016906, -0.031730, 0.030578, -0.068330, -0.024305, -0.018364, 0.064674, 0.024937, -0.029841, -0.023998, 0.028328, 0.034358, 0.037436, -0.061506, 0.051946, -0.069741, 0.061593, 0.046077, -0.030432, 0.033526, -0.043746, -0.013769, -0.043001, -0.085512, -0.070851, -0.073373, 0.090200, -0.075228, -0.059193, -0.035921, 0.063120, -0.068987, 0.007404, -0.012766, -0.002431, 0.006867, -0.068374, -0.041843, -0.030406, -0.061593, -0.068224, 0.041606, -0.007724, -0.052326, -0.076064, 0.097372, -0.048522, 0.061897, -0.037664, -0.031218, -0.017464, 0.023977, 0.101068, 0.054506, 0.084180, 0.040466, 0.053537, 0.036259, -0.082867, 0.032795, -0.044827, 0.026959, 0.061421, -0.079312, 0.067590, -0.070436, -0.056378, 0.031219, -0.015480, 0.017433, 0.056500, -0.033055, 0.039224, 0.080884, -0.083030, 0.075369, 0.024395, 0.061182, 0.019824, -0.065623, 0.022482, 0.065303, 0.057783, 0.003760, 0.028642, 0.009081, -0.092761, 0.055801, 0.024892, -0.032910, -0.079806, -0.063696, -0.057554, 0.040201, 0.022854, 0.001916, 0.052558, 0.007268, 0.009815, -0.039561, -0.026183, -0.049941, -0.051777, -0.060551, -0.010377, 0.008794, 0.009813, -0.063771, -0.064892, 0.009601, 0.010747, 0.001104, -0.008638, 0.005431, -0.079979, 0.009755, 0.016022, -0.070933, 0.032515, 0.027090, 0.009596, -0.070116, -0.001543, -0.044629, -0.043331, 0.041603, -0.052919, 0.013649, -0.039374, 0.011972, -0.001805, -0.070985, 0.074980, -0.031413, 0.066307, 0.044843, 0.009978, -0.018942, -0.026923, 0.009706, -0.027098, -0.036140, -0.087641, 0.067887, 0.019528, 0.042940, -0.048355, 0.039091, 0.000605, -0.066919, 0.015525, 0.058124, -0.065120, -0.061202, 0.002464, 0.043700, -0.018079, -0.070655, -0.091701, -0.024311, 0.008830, -0.016992, -0.004849, -0.050539, -0.037777, -0.069763, 0.046013, 0.071332, -0.002937, 0.041075, 0.015295, -0.041483, -0.095048, 0.039283, 0.064235, -0.005212, 0.026946, 0.008239, 0.001605, 0.029256, 0.022633, -0.014796, -0.007470, -0.031315, -0.043286, -0.001223, 0.055874, 0.042105, 0.056306, 0.033911, -0.042319, 0.007520, 0.054230, -0.094673, -0.002144, -0.032453, 0.052877, 0.096567, -0.086194, 0.019379, 0.000116, -0.071543, -0.045898, -0.051259, -0.011230, 0.077263, 0.005376, 0.036546, 0.058746, 0.087581, -0.075377, -0.020753, -0.081776, -0.020088, 0.005841, -0.084283, -0.082610, 0.049567, -0.022637, 0.053292, 0.006018, -0.055837, -0.005155, 0.004218, 0.023709, -0.015903, -0.029566, 0.006480, -0.010939, 0.032674, 0.071490, 0.016351, -0.030863, -0.044242, 0.063613, -0.075378, 0.039864, 0.068716, 0.001577, -0.065398, 0.062711, -0.093441, 0.037008, -0.002035, 0.063229, 0.059151, 0.026658, -0.003796, -0.005752, 0.069229, 0.045660, 0.090916, 0.011762, -0.053844, -0.035502, 0.000589, 0.037448, 0.077916, 0.005528, -0.092089, -0.061371, -0.000000, 0.052058, 0.016097, -0.067052, 0.034792, -0.003860, -0.047600, 0.038675, 0.075726, -0.010726, 0.000521, 0.040630, 0.002524, -0.014362, 0.003845, 0.009035, 0.021306, 0.029595, -0.054755, 0.036047, 0.014460, -0.002201, -0.015116, 0.004213, 0.002396, 0.031283, -0.027397, -0.022255, 0.083455, -0.032313, -0.003586, -0.045926, 0.014497, -0.007616, 0.063218, 0.054218, -0.024793, 0.027620, -0.011346, -0.047601, 0.080701, -0.076986, -0.005396, 0.020727, -0.072077, -0.020882, -0.049269, 0.086611, 0.072762, -0.009481, 0.064110, -0.014483, -0.005342, -0.015951, 0.000010, 0.005045, -0.008023, -0.085453, -0.091369, -0.012810, -0.028890, -0.078055, 0.014979, -0.008576, -0.053583, 0.007074, -0.024993, 0.032189, -0.047583, -0.067058, -0.060115, -0.020617, -0.008014, -0.074058, 0.067387, 0.038465, 0.068969, 0.055873, -0.004252, 0.043326, 0.000736, 0.042637, -0.003274, -0.036237, 0.031539, -0.009232, 0.029745, -0.044943, -0.054756, 0.032446, -0.035177, -0.025655, 0.037164, -0.034443, -0.029408, -0.004076, -0.029296, 0.019157, 0.037931, 0.109380, 0.000437, -0.025381, -0.034117, -0.010315, 0.088806, -0.036158, 0.071431, 0.069142, -0.081801, -0.086437, 0.007906, 0.028683, 0.053884, 0.078560, 0.013989, -0.051626, 0.073215, -0.050111, -0.006020, 0.071168, 0.112279, 0.053241, 0.030759, 0.104042, 0.019379, 0.027200, 0.087275, -0.042854, 0.062523, -0.103518, 0.044827, -0.019764, 0.097259, 0.039782, -0.012940, 0.039450, -0.035122, -0.014698, -0.020440, -0.007383, -0.023506, -0.070039, -0.071276, 0.076640, -0.044331, -0.074484, 0.091084, 0.030656, -0.034767, -0.092159, -0.074486, 0.001389, 0.046979, -0.087569, -0.013110, -0.027480, 0.018240, 0.102146, -0.102168, 0.013665, 0.018143, 0.076425, 0.070664, 0.082263, 0.004762, 0.007758, -0.084150, -0.045699, -0.060697, 0.007379, 0.015924, -0.030923, -0.112589, -0.071268, 0.073184, -0.047531, -0.000721, 0.010297, 0.060901, -0.053382, 0.045339, 0.004830, 0.061742, 0.057110, -0.085695, 0.057880, -0.030506, 0.064290, -0.027224, 0.042004, 0.017597, -0.035780, -0.004910, -0.001287, 0.070043, -0.030243, -0.046633, -0.061580, 0.070896, 0.058651, 0.072889, -0.024803, 0.012859, -0.102308, -0.052739, 0.039553, 0.055534, -0.078487, -0.035625, 0.051054, 0.026982, 0.045422, 0.034083, -0.059467, 0.008639, 0.041103, 0.082437, -0.005174, -0.016304, 0.048624, -0.070546, 0.031125, -0.023692, -0.057484, -0.010957, -0.089090, -0.041049, 0.056044, -0.073308, -0.074093, -0.091100, -0.006456, -0.043957, 0.089213, -0.056854, -0.039600, -0.002234, 0.015414, 0.025458, -0.032445, -0.078714, -0.053230, 0.024358, 0.005228, 0.024309, 0.088387, 0.053798, -0.090634, -0.029836, -0.039138, 0.037522, 0.021170, 0.102781, 0.030577, 0.062542, 0.028284, -0.098686, 0.030890, 0.006102, 0.077479, -0.022718, -0.026400, 0.056353, -0.063786, -0.011095, 0.055374, -0.005144, -0.010721, 0.024578, -0.014049, 0.032163, 0.027076, 0.124813, -0.042178, -0.042712, 0.009883, -0.051035, -0.055336, 0.025663, 0.034892, -0.030445, 0.041395, -0.033258, -0.032826, -0.083248, -0.010619, -0.032647, 0.074664, -0.054426, -0.028044, -0.018756, -0.059909, -0.041613, -0.091885, 0.011990, 0.029612, 0.046423, 0.058278, -0.024564, 0.015426, -0.041786, -0.008482, 0.085647, -0.003567, -0.061153, 0.017806, -0.025082, 0.028411, -0.077515, -0.056082, -0.055162, 0.016613, 0.001010, 0.020878, 0.085087, 0.057941, 0.061699, -0.034919, 0.085337, -0.037071, 0.038353, -0.007569, -0.077378, -0.017145, 0.073035, -0.030947, 0.066268, -0.090131, 0.002779, 0.032029, -0.069476, 0.001717, 0.022254, -0.032107, 0.047146, -0.053518, -0.018700, 0.066473, -0.063857, 0.049103, -0.051303, -0.002527, 0.016629, 0.077744, -0.017326, 0.065572, -0.032957, -0.017011, 0.018192, 0.064109, -0.058823, 0.061527, 0.013566, 0.028207, -0.016012, 0.059997, -0.031188, 0.067853, -0.085281, 0.101112, -0.066035, -0.025051, 0.050181, 0.066667, -0.017234, 0.031000, 0.015023, 0.023034, 0.052584, 0.025591, 0.028760, 0.046550, -0.031631, 0.015079, 0.017994, -0.056537, -0.007440, 0.035150, 0.000485, 0.056450, 0.009271, 0.077816, 0.090869, 0.033884, 0.041998, -0.025481, -0.066418, 0.083206, -0.049944, 0.001923, 0.071356, -0.036371, 0.043523, 0.086530, 0.055350, 0.012348, -0.057122, 0.016071, 0.029313, -0.070444, 0.074736, 0.015481, 0.031596, -0.026786, -0.059846, 0.018168, -0.062115, -0.022173, 0.019960, 0.022275, -0.047758, -0.024456, -0.054386, -0.067880, 0.032613, -0.021542, 0.051035, -0.093024, -0.077562, 0.045625, 0.006339, 0.059389, 0.053831, 0.017396, -0.052383, -0.049942, 0.028166, 0.037460, 0.042354, 0.015009, 0.082009, -0.067047, 0.025728, -0.030362, -0.057696, -0.056781, -0.091322, 0.030875, 0.096776, 0.021213, 0.036624, 0.039208, -0.045152, 0.066661, 0.045839, 0.040655, 0.070962, 0.080192, 0.059192, -0.045304, 0.019192, 0.019206, -0.023402, 0.055343, -0.056992, 0.040009, 0.019371, 0.081601, -0.089932, -0.077337, -0.101164, 0.082732, 0.042608, -0.034171, 0.036891, -0.007114, -0.084249, 0.010252, 0.000840, 0.066450, -0.036647, -0.009701, 0.000327, -0.093531, 0.044522, 0.005774, 0.033808, 0.032974, -0.069012, -0.028044, 0.091711, -0.009675, 0.029010, -0.038593, -0.069651, -0.021476, -0.039337, -0.040314, -0.028835, -0.044767, -0.028071, 0.014160, -0.000295, -0.052786, -0.068480, 0.038703, -0.029493, -0.000502, -0.077181, -0.051815, 0.010886, -0.041343, -0.010547, 0.072327, 0.001931, -0.032412, -0.037536, -0.064678, 0.028440, -0.026590, 0.080367, -0.048036, 0.021442, 0.062336, 0.079968, -0.014440, -0.057058, -0.007629, 0.090220, 0.053475, -0.054516, -0.057188, 0.072020, -0.021461, -0.046797, 0.001684, -0.023052, -0.061452, 0.049667, 0.021423, -0.044663, 0.054571, 0.016300, 0.032590, 0.084788, 0.012781, 0.047464, 0.064916, 0.004386, 0.062781, -0.070227, -0.048617, 0.052691, 0.043204, 0.011881, 0.018432, 0.032301, 0.029846, 0.067564, -0.026259, -0.083279, 0.000062, 0.037195, 0.017773, -0.009947, -0.082846, -0.088220, 0.048085, 0.011698, 0.035380, 0.038515, 0.071617, -0.050676, 0.025073, 0.073177, -0.009997, 0.089515, -0.036101, 0.066929, -0.037381, 0.004499, -0.043390, 0.028636, 0.018537, -0.039584, -0.034875, -0.083366, 0.015894, 0.022484, 0.050243, -0.060576, 0.058088, -0.011961, 0.005813, 0.084573, -0.057925, -0.056080, 0.035611, 0.004900, -0.108988, -0.061365, -0.058109, 0.072181, 0.060177, -0.017277, 0.059239, 0.008489, -0.059611, 0.050111, -0.063521, -0.044204, -0.060959, -0.023714, 0.051708, 0.003273, -0.045080, -0.036667, -0.080705, 0.004152, -0.035366, 0.052927, -0.023214, -0.015205, 0.079284, -0.038051, 0.084818, -0.035967, -0.003393, -0.031855, -0.054453, 0.059425, -0.032437, -0.093959, -0.097117, 0.050737, 0.021848, 0.028846, -0.040606, -0.013733, -0.050625, 0.059929, -0.054841, -0.096091, -0.094611, -0.053873, 0.030187, 0.070840, -0.044420, -0.072813, -0.061510, 0.064070, 0.068841, 0.028974, -0.013656, -0.057789, 0.072410, 0.010712, -0.094919, 0.010031, -0.076911, -0.054368, 0.057643, 0.039686, -0.027713, -0.043569, 0.050252, 0.071062, 0.025368, -0.045586, -0.016333, 0.094790, -0.035574, -0.060678, -0.016436, 0.042307, 0.029989, -0.025724, -0.089920, -0.074132, 0.028715, 0.030316, 0.076423, 0.015174, -0.026311, -0.069708, -0.055339, -0.036600, 0.044954, -0.049988, 0.026744, -0.067681, -0.007335, 0.074786, 0.045883, -0.019087, 0.015772, 0.043098, 0.012201, 0.019392, -0.072208, 0.026530, 0.009363, -0.065520, 0.066235, -0.051907, 0.029570, -0.080270, 0.048921, 0.028682, -0.019609, -0.006369, -0.011347, 0.044669, -0.045298, -0.033537, 0.069953, -0.035395, -0.072213, -0.064432, 0.011825, 0.004033, 0.064719, -0.060634, -0.017056, -0.039663, -0.056424, 0.003362, 0.030969, -0.047389, -0.074888, -0.020921, -0.009430, 0.022228, 0.076577, 0.048683, 0.063108, -0.001325, 0.101693, -0.028009, 0.046948, 0.030474, -0.025309, 0.077096, 0.083191, 0.067285, -0.031060, 0.069026, -0.005589, -0.039902, -0.084891, -0.066635, -0.034668, -0.038609, 0.035623, -0.030752, 0.070930, -0.001463, 0.036585, -0.097398, 0.027998, 0.000678, -0.038789, -0.056688, 0.060612, -0.080921, -0.041584, -0.012726, 0.074557, 0.028063, 0.037684, -0.074355, 0.029008, -0.019722, -0.006803, -0.025124, 0.116895, -0.007341, -0.079139, 0.033181, -0.017341, -0.051027, 0.072248, 0.010154, 0.071632, 0.040599, 0.016972, 0.040292, 0.112101, 0.031982, 0.061925, 0.027025, -0.104046, 0.032822, -0.057380, 0.052903, 0.081319, 0.069478, 0.087630, -0.016089, 0.019549, 0.047026, -0.027954, 0.055933, 0.009645, 0.022112, 0.010641, -0.026292, 0.001202, 0.038658, -0.077790, 0.067993, 0.039017, -0.050503, 0.001574, 0.013470, 0.040911, -0.027074, -0.009770, 0.008711, 0.065893, -0.028927, -0.044065, -0.077925, 0.039189, 0.022600, -0.042787, 0.036875, 0.017441, -0.029025, -0.054851, 0.083732, 0.010306, 0.024749, 0.032409, -0.007976, -0.007593, -0.022983, 0.011276, 0.091549, 0.058338, 0.023021, -0.028532, -0.009641, -0.017660, -0.038894, 0.102348, -0.030645, -0.040576, 0.062035, -0.020146, -0.063413, -0.015663, 0.071704, 0.015855, -0.044081, -0.054506, -0.024620, -0.018823, 0.069290, -0.004930, 0.083540, 0.002403, 0.072509, -0.010772, 0.035883, -0.007770, 0.050089, 0.020881, 0.011602, 0.073428, -0.070841, -0.043016, 0.026257, 0.059930, 0.044737, 0.029319, -0.029646, -0.022963, 0.037610, -0.063539, -0.015627, 0.047740, -0.051103, -0.101309, -0.042621, 0.068181, 0.035822, -0.066496, 0.099109, 0.061466, -0.019538, 0.067829, -0.065699, 0.038949, 0.084855, 0.005513, -0.045704, -0.037842, -0.000269, -0.051901, 0.013348, 0.027569, -0.045377, -0.012639, 0.008601, -0.013794, 0.048121, -0.029111, 0.037216, 0.087394, 0.068379, -0.009919, -0.032628, -0.046715, -0.020304, 0.051138, -0.018129, -0.021782, 0.075961, -0.057558, -0.045398, 0.033564, 0.055428, 0.016986, 0.090813, -0.075153, 0.030724, -0.022725, -0.094305, 0.012458, 0.033103, 0.018567, -0.023577, -0.076506, 0.048468, 0.088425, -0.082863, -0.067594, -0.068298, 0.026872, -0.047672, 0.064862, 0.076439, -0.038030, -0.030718, 0.067776, -0.071318, 0.021141, 0.048523, -0.044531, 0.051164, 0.023018, -0.002037, 0.003829, 0.097173, 0.058888, -0.033160, -0.085038, 0.034095, -0.033541, -0.048514, 0.024738, -0.030732, 0.107530, -0.012555, 0.080215, 0.031275, -0.052322, 0.092626, -0.022190, -0.057156, 0.048381, 0.063632, -0.027511, -0.022444, 0.065418, 0.041766, 0.037496, 0.064313, 0.006088, 0.045988, -0.015386, 0.056639, -0.063899, -0.003477, 0.078737, -0.002097, 0.036737, 0.097353, -0.065155, 0.044200, -0.039725, -0.071109, 0.041297, 0.032071, -0.062386, -0.010253, -0.003283, -0.013879, 0.051291, -0.028770, -0.094185, 0.035966, -0.052186, -0.067738, 0.090053, 0.055555, -0.034489, 0.027654, -0.044415, 0.005509, -0.022719, 0.019348, 0.008081, -0.018595, -0.077040, -0.030991, 0.072585, 0.055577, 0.022925, -0.004252, -0.037657, 0.054832, 0.016522, -0.031168, 0.041073, 0.102819, 0.038615, -0.093441, -0.007102, -0.043420, 0.059778, 0.012586, 0.063347, 0.078685, 0.029221, 0.056231, -0.064060, 0.025799, -0.091577, 0.063249, 0.073459, -0.023284, 0.042621, 0.086022, 0.009851, 0.054787, -0.040391, 0.001938, 0.081472, -0.061108, 0.081697, 0.035154, -0.097423, -0.021998, -0.013841, -0.018886, -0.096005, -0.058060, -0.047105, -0.001650, 0.022839, 0.072408, 0.066353, -0.091132, -0.011064, -0.007937, -0.051482, -0.022886, -0.023756, -0.040963, -0.038468, 0.039321, -0.022560, 0.057073, 0.074210, -0.002831, -0.018074, -0.087807, 0.002554, -0.026227, 0.026176, 0.013204, -0.058985, 0.028319, 0.072610, 0.042096, 0.053862, 0.030097, -0.025041, -0.041410, -0.037623, 0.047533, 0.055983, 0.041839, -0.004189, -0.059815, 0.041907, -0.038592, 0.001729, -0.043989, 0.008586, -0.000536, -0.075309, -0.062795, -0.031710, 0.025619, 0.011118, 0.074176, 0.070325, 0.031583, -0.013430, -0.014278, 0.027433, -0.013054, -0.061387, 0.048925, -0.073101, -0.067875, -0.020385, 0.079708, -0.038579, 0.036566, -0.090276, 0.004759, 0.062908, 0.091421, -0.015574, 0.062673, 0.028903, -0.080066, 0.002553, 0.003900, 0.045523, -0.015422, 0.042548, 0.032160, -0.058529, -0.092548, -0.009862, -0.005463, -0.095774, -0.082444, -0.040074, 0.074747, -0.042376, -0.080903, -0.027362, -0.061319, 0.003870, -0.022126, -0.054155, 0.043896, 0.018435, 0.076132, -0.018001, -0.007610, 0.026112, 0.076978, -0.002913, -0.062181, 0.010148, -0.094230, 0.038781, -0.069301, -0.024832, -0.017919, 0.024882, 0.087300, 0.027168, 0.098707, 0.042151, 0.014472, 0.026827, -0.060310, -0.088186, -0.069511, 0.064259, -0.012413, -0.006476, -0.020144, -0.060526, -0.046143, -0.024167, 0.040894, -0.023236, 0.049500, 0.054476, -0.074442, 0.044875, -0.043397, 0.018576, 0.009266, 0.000820, 0.031451, 0.019892, 0.094627, -0.031011, 0.015011, 0.002752, 0.044150, 0.030297, -0.021843, 0.035949, 0.006827, -0.051956, -0.056078, 0.020481, 0.029246, -0.090601, 0.004736, -0.068414, -0.007554, 0.060506, -0.047876, 0.045458, 0.098641, -0.091842, -0.030008, -0.011084, 0.045255, 0.062420, -0.011818, 0.093413, -0.101381, 0.023040, 0.026968, -0.081396, -0.029366, 0.002618, -0.022422, -0.073121, -0.084493, -0.030880, -0.058606, -0.055426, 0.013589, -0.086505, -0.070365, 0.018288, -0.049740, -0.027489, 0.017548, -0.072476, 0.010009, -0.003827, -0.048697, 0.013517, 0.091480, 0.098353, -0.026533, 0.056576, -0.082082, -0.072322, -0.045143, -0.074095, 0.009942, 0.082497, 0.073024, 0.046986, 0.068319, -0.109984, -0.056821, -0.071226, 0.095336, -0.045294, -0.092413, 0.059598, -0.043622, 0.036715, 0.025383, -0.044105, 0.015955, -0.058565, -0.034762, -0.100124, -0.078959, -0.020875, 0.036756, 0.104512, 0.073273, 0.044003, -0.020962, -0.055635, 0.013314, -0.053614, 0.020726, -0.010151, -0.037215, 0.045766, 0.064287, 0.027128, -0.070546, -0.039405, 0.033120, 0.004514, -0.093167, 0.011890, 0.034661, 0.034144, -0.049846, -0.111015, 0.023096, 0.065221, -0.001567, -0.117647, 0.118813, -0.043785, -0.093193, 0.081204, -0.042900, 0.048565, 0.052889, -0.026694, 0.045568, 0.100733, -0.016665, -0.050411, -0.011888, 0.063587, 0.106564, 0.046279, 0.094224, -0.026800, -0.006632, -0.059924, -0.093688, -0.050178, -0.062547, 0.060574, 0.034320, -0.048962, -0.046483, -0.070968, -0.020450, -0.007777, 0.043135, -0.025570, -0.014954, 0.010433, -0.042931, -0.038189, 0.002301, 0.064104, 0.074069, -0.060952, -0.003044, 0.091962, -0.001950, 0.044100, -0.060728, -0.044333, 0.048272, -0.062549, -0.004078, 0.070915, 0.008626, -0.037582, 0.022251, 0.034519, 0.082697, -0.006331, 0.074263, 0.006792, 0.075057, 0.063678, -0.001632, -0.054993, 0.008820, -0.036643, 0.071911, -0.049235, -0.058893, 0.080692, 0.086963, -0.059352, -0.001116, -0.082499, 0.064937, 0.070797, -0.089759, -0.019060, -0.007176, -0.011275, 0.034526, 0.037122, -0.004463, -0.003654, -0.064011, 0.062379, -0.026346, -0.023749, -0.039168, -0.064364, -0.077014, 0.028032, -0.012685, -0.058182, -0.096128, 0.010509, 0.061748, -0.074134, 0.028981, -0.042857, -0.032049, 0.006221, 0.055408, -0.061741, 0.015078, 0.005752, 0.074684, 0.087260, 0.084373, 0.043373, 0.052523, 0.097638, 0.041022, 0.046107, 0.026997, 0.010437, -0.036065, 0.070815, -0.033562, 0.071159, 0.002900, 0.026069, 0.074712, 0.044579, 0.035246, -0.032673, -0.063373, -0.073939, 0.016526, 0.047976, 0.019791, 0.032244, 0.014264, -0.060875, -0.064530, 0.049322, -0.041273, 0.038273, 0.039718, -0.046643, -0.001059, -0.035507, -0.068510, -0.012825, -0.030166, -0.018688, 0.039174, 0.028339, 0.052276, -0.026755, -0.019780, -0.059591, -0.036430, -0.083771, 0.054093, -0.056223, 0.010863, -0.052671, 0.029336, -0.049358, -0.077364, -0.040421, -0.034381, 0.034781, -0.015922, 0.056250, 0.002316, 0.093640, -0.008743, 0.029409, 0.049438, -0.009441, -0.034994, -0.101246, 0.067590, 0.005013, 0.080769, -0.036946, -0.001139, 0.076374, 0.018337, -0.016944, -0.045094, -0.049995, 0.061662, 0.026056, 0.067241, -0.090582, 0.020957, -0.000584, 0.022757, 0.044327, -0.030793, 0.054474, 0.017771, 0.057968, -0.055077, -0.077422, 0.003351, -0.039242, 0.060488, 0.062922, 0.035374, 0.053035, 0.033468, 0.002699, -0.011691, -0.056463, -0.022134, -0.036455, -0.060844, -0.045779, -0.040082, -0.002440, -0.046117, -0.067685, 0.025608, 0.052468, -0.001612, -0.033914, 0.025789, -0.022589, 0.063941, 0.094984, 0.015439, 0.031055, -0.069638, -0.060035, -0.055616, 0.005514, -0.009300, -0.043461, 0.002658, 0.020128, -0.081226, -0.028909, -0.005059, -0.004907, 0.052187, 0.044655, 0.029350, -0.035549, -0.029544, -0.065520, 0.007922, -0.055108, -0.084194, -0.065740, -0.032084, 0.065893, 0.010282, 0.043578, 0.051390, -0.001149, 0.005970, 0.028328, -0.040605, -0.051596, 0.084354, 0.029959, 0.072500, -0.049034, -0.058623, 0.060071, 0.062715, -0.077960, 0.049132, -0.014967, -0.044037, -0.032577, 0.044795, -0.052955, 0.085879, 0.015106, 0.008107, -0.060867, -0.028559, 0.022263, 0.009194, 0.084288, 0.003717, 0.036735, 0.016932, -0.011673, 0.025455, -0.020279, -0.007577, -0.030012, 0.076745, -0.080622, -0.031219, -0.024797, 0.029014, -0.015786, -0.035515, -0.001661, 0.074718, -0.067493, -0.037221, 0.053651, 0.040529, 0.026682, -0.051152, 0.085777, -0.015596, 0.027480, 0.039150, -0.003492, -0.044940, 0.064634, 0.007886, 0.022925, 0.047176, -0.034720, 0.008788, 0.056175, -0.048096, 0.068918, -0.054512, -0.086820, -0.052758, -0.070672, 0.041645, -0.046708, 0.014524, -0.037371, -0.030750, 0.043266, -0.037404, -0.027360, 0.048760, 0.058115, 0.042485, 0.059543, -0.068307, -0.053137, -0.012384, -0.044992, 0.040061, 0.047360, -0.073731, -0.075995, 0.033132, -0.068772, -0.023792, 0.020994, -0.069170, 0.086400, 0.010164, -0.069677, -0.016446, 0.100604, -0.008145, -0.099639, -0.055299, -0.002803, -0.067716, -0.064748, -0.082957, 0.007776, -0.051997, 0.039578, -0.029003, -0.055250, 0.032996, -0.070630, 0.021693, -0.015064, 0.026148, 0.006158, -0.023853, 0.017815, -0.040340, 0.014254, 0.023321, 0.051175, -0.031306, 0.026906, -0.000512, -0.013750, -0.022560, -0.098804, -0.087455, -0.047576, 0.003512, -0.058688, -0.039298, -0.072249, 0.060838, -0.041539, 0.033136, 0.070623, 0.044504, -0.020359, -0.007535, -0.015377, -0.086996, -0.012444, -0.016753, -0.018280, -0.017447, -0.064133, 0.079661, -0.066863, -0.063031, -0.013071, 0.060300, 0.035848, 0.013064, -0.023021, 0.025160, 0.013715, -0.018411, -0.018670, -0.016930, -0.065125, -0.000167, 0.022152, -0.057852, 0.037397, 0.045165, 0.072500, -0.022771, -0.066965, -0.048501, 0.027123, 0.074630, -0.060211, 0.053484, -0.040615, -0.036088, -0.023824, -0.089124, 0.056173, 0.011106, -0.011585, 0.026757, -0.007802, -0.073776, -0.061887, 0.056089, -0.009751, 0.048532, -0.010401, 0.056152, 0.026934, -0.002104, 0.005767, -0.061541, -0.067371, 0.012010, -0.073255, 0.019244, 0.002725, -0.003586, -0.051793, 0.001378, 0.014502, -0.086806, 0.048459, 0.035397, 0.063810, 0.056875, 0.018200, -0.035156, -0.059136, -0.101724, -0.045489, -0.007043, -0.046310, -0.071573, 0.027082, 0.044252, 0.094540, 0.047674, 0.087692, -0.013124, 0.051569, 0.005257, -0.008308, 0.067796, -0.033185, -0.069791, 0.058302, 0.033817, 0.046573, 0.021537, -0.086646, -0.032447, 0.032846, -0.060923, -0.040332, 0.004588, 0.003074, -0.001462, -0.033818, -0.014074, -0.025195, -0.022030, -0.057768, -0.073861, -0.049313, -0.067346, 0.062348, -0.023339, 0.045112, -0.000024, 0.034809, 0.070189, 0.068235, 0.017127, -0.028216, 0.005496, -0.041606, 0.086217, 0.072095, 0.032170, 0.012164, -0.015206, 0.024947, -0.050599, 0.051414, -0.033807, 0.013446, -0.038461, 0.063125, 0.018171, -0.070156, 0.014020, 0.053035, -0.030148, -0.093244, 0.064427, 0.014259, 0.071153, 0.042333, 0.069294, 0.022229, -0.058670, -0.008988, -0.006417, -0.025330, 0.020906, 0.086459, -0.037578, -0.099114, -0.011135, -0.091630, -0.020797, 0.046284, 0.003638, 0.105035, 0.100914, -0.058073, -0.103343, 0.070255, 0.057267, -0.085610, 0.025419, 0.013597, -0.060163, 0.005544, 0.029855, 0.048769, -0.029990, 0.087874, 0.014795, -0.024598, -0.040937, 0.057511, -0.045731, -0.003894, 0.054807, 0.021654, -0.075403, -0.083598, -0.016845, -0.041488, 0.091151, -0.027788, 0.067756, 0.089372, 0.069136, 0.080984, -0.002143, 0.068419, -0.015597, -0.053031, -0.005177, 0.059831, 0.039379, 0.063060, 0.003040, 0.065037, -0.033122, -0.077257, -0.012482, -0.018525, 0.040562, -0.020451, 0.048752, 0.053871, -0.075424, -0.027281, -0.082585, -0.030847, -0.015414, -0.019689, 0.095272, 0.029589, 0.025563, 0.004013, 0.048059, -0.079193, 0.001138, 0.028299, 0.026734, 0.042202, 0.052145, 0.076776, -0.039761, 0.023513, 0.100455, 0.010085, 0.037877, 0.040009, -0.082393, 0.050855, -0.060478, -0.034699, -0.074187, 0.096570, 0.008183, -0.033381, 0.034862, -0.042845, 0.059004, 0.002853, -0.023895, 0.068735, 0.006474, 0.049948, -0.007722, -0.004132, 0.007191, -0.025721, -0.036871, -0.082847, 0.040688, 0.044545, -0.060547, 0.003509, -0.093463, -0.006473, -0.087226, 0.052604, -0.048871, -0.025634, -0.021668, -0.014994, 0.002616, 0.040438, 0.041378, -0.045022, -0.101345, -0.056258, -0.066986, -0.082715, -0.026979, -0.030329, 0.049528, -0.073996, -0.007510, -0.018880, -0.038555, -0.006963, -0.055541, -0.085011, 0.063220, 0.001023, 0.059272, -0.078215, 0.015316, -0.058095, -0.059285, 0.071180, 0.059321, 0.045331, 0.058156, -0.003760, -0.029007, 0.057535, -0.054865, 0.033368, -0.000566, -0.056519, 0.002231, 0.046923, -0.034755, -0.076007, -0.015989, -0.075800, -0.011013, -0.037391, 0.053325, -0.011078, 0.049497, -0.020332, 0.051845, -0.013806, -0.047544, -0.021206, -0.042274, -0.003161, 0.000752, 0.027187, 0.004051, 0.052197, 0.027673, 0.024302, -0.089927, 0.010575, 0.062623, -0.031777, 0.081034, -0.047281, 0.069964, -0.027930, -0.078874, -0.066444, -0.053173, -0.010492, 0.057328, 0.077924, -0.072562, -0.076766, -0.033965, -0.009730, 0.058464, -0.029428, 0.060890, -0.051282, -0.030673, 0.007463, 0.049566, -0.003435, 0.058169, -0.022649, 0.010904, -0.020205, 0.069578, 0.044768, 0.026828, 0.019899, -0.026395, 0.068548, 0.055578, -0.016481, -0.042556, -0.013288, -0.008947, 0.009008, 0.010991, 0.008291, -0.026395, 0.061147, -0.039284, 0.035918, -0.001534, 0.035472, 0.020873, 0.006470, 0.059789, 0.022668, 0.052176, -0.048260, -0.052262, -0.002151, 0.046366, 0.072865, -0.054767, 0.051201, 0.007187, -0.009604, 0.030013, 0.060587, 0.029350, -0.044080, 0.045593, 0.047266, -0.025841, 0.067752, -0.031232, 0.067212, 0.066739, 0.001804, -0.077684, 0.047308, -0.092612, 0.049052, -0.004639, 0.090086, 0.037944, 0.090924, -0.076276, 0.025257, -0.012116, 0.048171, -0.018939, -0.085025, -0.071509, 0.064639, -0.075322, 0.060120, 0.037471, -0.033614, 0.065030, -0.077647, 0.063654, -0.031614, -0.042820, 0.086817, -0.042738, 0.021397, 0.047168, 0.022445, -0.001750, 0.023984, 0.011919, -0.017518, 0.010675, -0.052467, -0.040620, 0.084686, 0.017094, -0.058106, -0.011179, -0.046384, -0.044254, -0.066759, -0.035335, -0.089560, 0.042302, -0.001948, 0.058210, 0.020456, -0.078715, 0.040416, -0.023189, -0.025287, 0.026247, -0.080645, 0.065099, -0.007545, -0.073440, -0.026876, 0.053058, 0.024466, 0.022547, 0.038876, 0.001825, 0.028283, 0.071018, 0.025490, 0.019087, 0.010746, -0.049625, -0.065986, -0.065255, -0.040724, -0.029022, 0.072357, -0.062403, -0.035264, 0.011425, 0.038254, 0.044363, 0.047084, 0.001308, 0.012555, 0.006253, -0.036684, -0.043975, -0.002953, 0.046025, -0.005177, 0.036078, 0.026033, 0.061510, 0.006597, 0.046036, -0.001126, 0.003601, 0.053875, 0.048453, -0.007173, -0.065041, 0.075171, 0.040455, 0.057276, -0.016089, -0.091361, -0.055538, 0.011059, -0.059941, -0.034377, 0.075162, 0.024104, -0.014718, 0.044512, 0.040308, -0.079333, 0.002451, -0.036149, -0.071830, 0.025074, 0.077474, -0.024326, 0.088533, -0.012056, -0.005237, 0.035241, -0.050923, 0.054325, 0.036341, 0.060802, -0.051638, -0.065857, 0.080504, -0.033903, 0.062140, -0.000915, 0.014946, 0.066403, 0.080208, -0.055485, 0.056541, 0.042818, -0.011138, -0.037725, 0.002159, 0.002750, 0.069854, 0.015696, -0.041652, 0.010931, 0.022292, -0.008476, -0.056674, 0.046113, -0.033622, 0.014364, -0.024751, 0.045799, 0.081342, 0.024257, 0.031794, 0.067600, 0.003365, 0.012456, -0.062537, -0.037248, 0.055514, 0.010115, -0.064018, -0.009514, -0.033235, 0.044889, -0.059919, -0.083127, -0.051199, -0.067579, 0.009159, -0.055467, -0.019215, -0.066632, -0.014802, -0.001068, 0.029006, -0.010610, -0.019661, 0.047749, 0.085797, 0.012326, 0.040470, -0.020220, 0.023476, -0.076196, -0.030392, -0.021937, -0.022388, -0.062916, -0.035865, -0.005077, 0.020466, -0.016227, -0.023552, -0.000625, -0.013262, -0.054607, 0.058018, 0.003280, -0.036289, 0.019857, -0.045410, 0.016966, -0.063450, 0.037901, -0.056621, 0.060672, 0.020182, 0.030361, 0.068080, 0.105427, -0.064269, 0.081685, -0.000504, -0.059074, 0.016506, -0.074093, -0.051042, -0.050054, 0.083382, -0.001158, 0.035647, 0.063464, -0.083307, -0.049047, -0.019549, 0.048056, -0.073754, -0.090113, -0.031349, -0.086757, 0.034814, 0.023035, 0.009588, -0.005764, 0.025744, 0.013929, -0.087238, 0.051966, -0.040345, -0.089379, 0.009720, 0.023778, 0.002993, -0.039782, 0.081739, -0.044262, -0.030325, 0.033605, -0.077294, -0.008334, -0.058014, 0.061456, -0.003965, -0.054221, 0.078524, 0.047084, -0.057495, 0.064242, -0.054845, -0.019785, -0.004075, -0.019390, -0.015395, 0.045361, -0.058977, 0.020439, -0.077572, 0.049630, 0.069430, 0.048970, -0.035132, -0.014621, -0.024176, 0.061030, 0.054912, -0.068277, 0.060795, 0.024749, 0.084499, 0.003663, 0.034971, -0.053473, 0.036166, -0.035599, 0.068134, -0.010988, -0.003329, -0.038649, -0.022838, -0.027323, 0.037853, 0.012650, 0.058305, 0.000151, -0.047587, -0.046865, 0.102607, 0.060354, -0.021469, 0.007712, -0.083038, -0.057556, -0.031167, -0.077162, -0.034112, 0.042526, 0.012434, -0.014035, 0.003284, -0.030925, -0.057064, -0.041783, 0.064237, -0.058064, 0.037260, -0.036483, 0.076587, 0.083575, -0.050137, 0.059551, -0.060635, 0.077672, 0.077139, -0.024441, 0.029605, 0.066565, 0.087913, 0.034206, 0.022845, 0.004726, 0.051487, -0.001195, 0.019974, -0.049747, -0.075636, -0.052640, 0.003878, 0.079502, -0.019395, -0.015151, 0.065456, -0.039193, 0.006355, 0.025766, 0.041264, -0.012695, 0.039799, -0.023168, -0.043037, -0.025065, -0.083743, -0.036600, -0.051922, 0.047609, 0.020781, -0.003448, -0.013007, -0.021253, -0.054729, -0.073478, 0.068826, 0.058562, -0.004704, -0.001702, 0.014189, -0.069775, -0.026162, -0.036110, 0.041199, 0.028045, -0.030452, -0.057524, 0.022499, 0.090704, 0.032451, -0.016309, -0.081280, -0.020993, 0.000035, 0.009237, 0.012861, 0.041134, -0.025673, 0.095993, -0.086180, -0.014770, 0.050023, -0.082416, 0.004139, -0.027609, 0.010934, -0.000168, -0.007487, -0.005547, 0.078506, 0.087912, -0.026996, -0.022516, -0.055035, -0.060760, -0.050894, 0.036819, 0.104661, -0.053735, 0.071464, 0.075050, 0.025138, 0.066051, -0.031483, 0.089637, 0.034385, -0.109516, 0.060055, 0.070413, 0.043628, -0.063787, 0.021914, 0.074327, -0.050311, -0.106391, 0.047609, -0.006531, 0.022579, -0.028889, -0.049524, 0.070349, -0.073090, 0.083075, -0.023574, -0.072315, -0.031673, -0.028424, 0.043881, -0.068657, 0.014833, 0.074329, -0.096525, 0.006413, -0.063295, -0.074696, -0.026551, -0.032589, 0.068589, -0.055618, 0.008427, 0.064735, 0.018291, 0.052771, 0.086630, 0.054514, -0.011798, -0.054191, 0.079112, 0.026763, 0.032385, -0.005367, -0.055651, -0.052419, 0.072410, -0.039121, -0.060993, 0.066244, 0.040022, -0.036522, 0.010691, 0.029000, 0.039405, 0.032469, 0.077941, 0.077620, 0.086402, 0.077194, 0.089200, 0.011287, -0.070299, -0.101615, -0.054631, 0.037624, 0.023871, 0.009152, 0.034345, 0.070132, -0.094260, -0.073784, 0.056834, -0.077883, -0.016094, 0.039714, -0.003784, -0.045669, -0.106732, -0.068031, -0.075138, -0.001963, -0.060882, 0.016934, 0.042398, -0.053567, 0.056368, 0.001705, 0.001972, 0.115351, -0.099376, -0.041080, 0.023522, -0.015177, -0.076193, -0.035195, -0.005919, -0.002098, 0.054043, 0.097378, -0.027409, 0.069057, -0.012119, 0.066416, -0.054554, -0.043774, 0.061541, 0.075536, -0.060829, -0.049755, 0.034465, 0.102589, 0.003121, 0.000985, -0.060579, -0.044684, -0.042777, -0.047530, -0.020860, 0.002321, -0.064349, -0.038501, -0.049836, -0.069491, 0.051149, 0.074308, -0.056304, -0.014417, 0.025375, 0.069447, 0.028351, -0.002797, 0.092955, 0.019111, -0.043875, -0.092412, 0.070139, 0.054636, -0.032553, -0.043693, -0.044970, 0.020998, 0.076185, 0.081458, -0.019148, 0.028035, 0.019865, 0.024680, 0.054142, -0.024971, 0.056023, -0.018937, -0.113964, -0.046221, 0.106790, -0.093726, -0.041477, -0.061663, 0.033672, -0.056946, 0.056063, 0.091337, -0.035057, 0.032358, 0.006756, 0.012351, 0.054675, -0.063883, 0.033045, -0.048983, 0.024400, 0.063447, -0.084292, 0.061900, 0.082046, -0.071620, 0.067812, 0.107861, 0.047416, -0.072117, -0.011469, 0.084739, -0.008036, 0.005941, -0.055326, 0.040351, 0.038973, -0.075168, 0.020142, -0.036203, -0.027892, 0.032114, 0.045121, 0.044042, 0.011131, -0.013585, 0.041501, -0.047501, -0.009512, -0.047285, 0.042784, -0.042884, 0.009392, -0.092723, 0.026240, 0.060841, -0.029350, -0.026084, -0.062642, -0.096818, -0.112348, 0.081012, 0.019898, -0.073688, 0.004841, -0.006785, 0.043938, 0.013468, 0.091071, -0.091891, -0.016583, -0.038835, -0.059160, 0.012639, 0.049823, 0.056271, -0.007134, -0.013414, -0.067685, 0.052906, -0.033267, 0.011015, 0.091176, -0.070830, 0.018516, 0.115477, -0.078081, -0.030566, 0.025109, -0.044246, 0.006962, 0.036934, 0.049940, -0.070037, 0.085497, 0.040239, 0.010721, -0.076272, -0.001367, 0.014141, 0.062218, -0.081266, 0.062593, 0.063312, -0.060197, 0.018124, 0.060244, 0.046984, -0.000603, 0.076557, 0.010161, -0.012192, -0.048844, -0.083210, -0.028904, -0.090181, -0.099690, -0.079199, -0.052549, 0.050871, -0.074238, -0.080843, -0.086550, 0.058535, -0.067396, 0.066254, 0.078905, 0.049118, 0.065030, 0.060280, -0.021210, 0.025167, -0.068208, -0.075356, 0.012312, -0.004999, -0.045215, -0.001891, 0.067244, -0.058288, -0.053904, -0.044103, 0.049314, 0.079856, -0.073213, -0.082057, 0.020565, 0.053307, -0.062303, 0.061064, -0.013083, -0.018182, -0.023512, 0.019021, -0.104344, 0.060703, -0.100757, -0.080515, 0.012234, -0.005157, 0.066174, -0.030841, -0.027218, 0.021290, 0.016887, 0.055608, 0.062464, -0.066446, -0.077262, -0.064107, -0.062012, -0.018364, 0.043132, 0.045729, -0.020314, -0.023113, -0.007986, -0.021222, -0.012866, 0.010937, 0.031623, 0.015114, -0.017244, -0.033908, -0.091852, -0.063105, -0.043816, 0.048042, -0.076494, 0.053458, 0.023548, 0.014803, -0.062327, 0.078590, 0.011552, 0.020034, -0.009420, -0.016821, 0.013314, 0.088821, -0.083528, 0.032398, 0.016775, 0.134330, -0.025059, 0.027081, -0.005950, 0.039894, 0.008985, -0.088721, -0.048724, 0.056411, 0.051456, -0.048496, -0.082097, 0.077427, 0.014582, -0.001451, -0.034702, 0.045249, -0.016913, 0.012764, 0.067952, 0.101346, -0.006349, -0.012076, -0.055117, 0.011256, 0.013803, -0.113389, 0.082354, 0.077698, 0.054929, -0.006166, 0.003018, -0.030930, -0.043954, -0.046438, -0.029020, -0.094936, -0.110108, -0.005411, -0.026577, 0.000894, 0.052054, 0.025254, 0.093148, 0.053270, 0.055254, 0.073333, -0.043959, 0.038223, 0.033990, -0.034718, -0.030600, -0.028646, 0.043071, -0.035992, 0.040452, -0.052974, 0.052834, -0.050997, 0.035928, -0.020392, 0.035842, 0.001490, 0.009898, 0.083597, 0.047465, 0.045786, -0.028850, 0.043824, -0.040533, 0.034312, 0.101328, 0.070372, -0.048041, 0.101577, -0.039058, 0.001361, -0.052775, 0.028236, -0.045981, -0.047127, 0.035326, 0.042351, 0.063525, 0.065809, 0.094556, 0.022293, -0.057214, 0.039575, 0.071972, -0.046295, 0.032342, 0.049208, 0.013904, 0.061488, -0.020469, 0.055395, 0.002225, 0.002939, -0.004524, -0.040503, 0.048166, 0.042078, 0.010519, 0.036265, -0.093139, -0.076401, -0.027538, 0.059314, 0.058311, 0.083401, -0.061269, -0.001205, -0.097043, -0.050398, 0.027117, 0.065951, 0.091118, 0.031875, -0.000639, -0.024568, 0.040771, 0.030041, 0.016075, -0.020831, -0.043389, 0.059821, 0.059441, 0.073960, -0.031576, 0.054831, -0.005346, 0.007975, -0.044401, 0.050021, -0.030714, -0.059959, -0.026856, -0.047007, 0.010760, -0.073555, 0.076131, 0.084301, 0.058291, -0.053109, 0.015344, -0.083643, 0.048827, 0.044089, -0.021652, -0.076630, 0.060249, 0.036455, -0.067836, 0.047767, 0.005618, -0.013167, -0.049088, -0.059542, -0.035006, -0.029126, 0.013961, 0.019766, -0.008802, -0.058479, -0.028142, -0.077799, 0.072337, -0.007204, -0.057126, -0.021792, 0.019648, 0.006333, -0.061333, 0.068513, -0.048233, -0.063816, 0.011066, -0.091508, 0.058725, 0.023635, 0.003621, -0.023539, -0.018795, -0.112689, 0.105969, -0.040449, 0.056834, 0.037266, 0.055629, -0.053132, -0.091533, 0.045554, 0.039939, 0.074390, -0.043031, -0.029228, -0.052397, -0.038870, -0.047846, -0.064759, -0.066919, -0.002913, -0.073228, -0.017293, -0.062274, 0.036686, -0.087291, -0.009637, 0.047848, -0.053038, -0.050775, 0.005020, -0.057330, -0.044040, 0.037120, -0.031422, 0.048433, -0.033072, 0.047245, -0.048497, -0.054668, 0.082693, 0.028831, 0.010855, -0.026506, 0.004346, -0.009935, 0.024395, 0.062416, -0.007965, 0.073812, -0.042710, -0.049304, 0.065321, 0.007260, -0.081222, -0.080614, 0.020739, -0.095774, -0.065724, -0.071321, 0.052117, 0.013868, 0.001104, -0.051573, 0.002351, -0.029568, -0.001068, -0.046945, -0.014851, 0.017812, -0.080244, 0.064901, -0.085818, 0.018834, 0.080678, -0.061085, -0.053573, -0.030826, 0.065806, 0.066969, -0.039439, -0.025131, -0.080931, -0.057041, 0.021070, 0.016351, 0.051109, 0.033314, 0.034654, 0.053549, -0.075404, -0.052478, -0.057538, 0.022795, -0.012106, 0.054392, -0.022549, 0.057224, -0.064172, -0.035999, 0.007995, 0.046496, -0.072391, 0.002906, -0.039621, -0.029103, 0.084406, -0.026539, 0.084870, 0.052542, -0.005228, 0.017579, -0.031574, 0.009312, 0.067151, -0.012141, 0.048553, -0.031327, -0.043831, -0.044656, -0.084069, -0.075488, 0.044685, 0.066076, 0.015095, -0.043856, -0.026361, 0.094203, -0.033838, -0.010326, -0.063884, 0.010538, 0.028403, 0.016766, 0.043436, -0.038847, 0.020264, -0.024316, -0.060019, -0.073513, -0.071311, 0.064141, 0.041174, 0.044596, 0.000411, -0.051737, -0.060261, 0.059562, -0.015440, 0.075631, 0.061477, 0.065522, -0.022533, -0.038486, 0.041468, 0.014999, -0.053321, -0.059410, 0.007331, -0.057287, -0.005639, 0.044982, -0.040263, 0.007534, 0.046414, 0.010836, -0.075082, -0.026404, 0.030909, 0.011713, -0.050564, 0.084970, -0.038486, 0.050780, -0.007528, -0.022226, -0.077765, 0.061889, 0.094996, 0.042717, 0.033498, -0.023676, 0.019378, 0.060681, -0.036074, -0.056079, -0.058049, 0.017282, 0.090674, 0.049860, 0.032653, 0.003927, -0.058791, -0.076097, 0.054462, -0.086763, 0.018622, 0.076908, 0.066008, -0.063387, 0.010598, -0.014418, -0.018608, -0.030171, -0.035385, 0.063514, 0.065787, -0.064235, 0.083086, 0.016089, -0.033201, -0.000263, 0.072371, -0.004376, 0.027992, -0.061438, 0.081648, -0.016387, 0.053659, -0.052709, 0.057040, -0.044991, 0.024930, -0.029998, -0.068690, -0.076112, -0.014490, 0.078982, 0.034771, 0.003064, -0.034174, -0.032836, 0.035645, -0.069013, -0.008569, 0.076757, -0.018437, -0.040379, 0.036579, 0.056169, 0.005837, 0.048638, 0.076039, 0.002460, -0.016469, -0.009388, 0.028524, -0.002253, -0.084076, -0.027603, 0.015076, -0.059515, -0.075884, 0.021058, 0.025754, -0.030014, 0.020607, -0.030167, -0.007954, -0.090352, 0.002883, 0.067877, -0.011076, -0.070589, 0.010696, -0.044199, 0.058002, 0.028215, -0.054849, -0.042451, -0.042655, 0.040661, -0.048896, 0.048241, -0.018970, -0.094717, -0.043165, 0.033291, -0.046855, 0.103978, -0.002824, -0.008051, -0.032787, -0.010226, 0.059490, -0.102384, 0.082405, 0.019586, 0.075570, -0.048643, 0.073928, 0.011244, -0.046204, 0.033675, -0.087891, 0.018078, -0.082726, 0.039408, -0.037398, 0.022325, 0.033430, 0.050387, 0.056628, -0.057510, -0.033362, 0.098805, 0.034744, 0.036104, -0.058114, -0.094449, 0.052076, 0.025718, -0.051338, -0.034221, -0.056407, 0.013996, 0.039209, 0.011174, 0.000500, -0.065949, 0.048102, -0.074021, 0.020691, -0.050764, 0.065506, 0.018655, 0.066087, 0.023748, 0.063788, 0.024971, 0.060439, -0.001741, 0.017034, 0.071954, 0.034656, -0.089995, -0.035672, 0.083288, -0.039876, 0.053091, -0.025803, -0.036610, -0.082069, -0.058991, -0.030674, 0.032571, -0.042085, 0.010302, 0.033788, 0.037557, -0.025726, 0.019439, 0.012977, 0.048011, 0.063856, 0.076062, 0.050350, -0.040048, 0.046803, 0.046154, -0.059733, 0.039487, -0.002953, 0.030714, -0.071561, -0.013810, -0.060831, 0.034324, -0.047540, 0.070927, 0.068460, 0.050327, 0.014317, -0.055905, -0.067525, 0.013573, -0.023922, 0.030666, -0.015311, 0.007015, -0.076563, 0.098920, -0.036375, -0.045720, -0.069285, -0.004100, -0.030273, -0.037868, 0.043411, 0.067517, 0.030038, 0.038754, 0.056682, 0.048123, -0.024334, 0.097020, 0.007892, 0.029902, -0.032294, 0.058711, 0.000892, -0.041681, 0.077452, 0.002185, -0.013088, 0.056301, -0.042973, -0.019513, 0.029168, -0.026162, 0.071206, -0.014206, -0.035103, -0.062574, 0.082120, 0.008297, 0.055675, 0.092822, 0.013591, -0.026502, 0.018165, -0.076797, 0.081759, -0.020087, -0.022118, 0.070590, 0.042076, 0.056895, 0.084009, 0.100275, 0.065685, -0.023828, -0.093924, -0.005275, -0.013107, -0.055671, -0.118708, 0.043159, 0.009496, 0.006263, 0.012731, -0.007901, -0.034271, 0.030119, 0.002204, 0.051344, 0.026569, -0.054507, 0.071748, -0.029931, 0.081728, -0.072373, 0.062244, -0.023388, 0.049960, 0.021961, -0.020189, 0.082157, 0.009934, 0.017483, 0.027036, -0.056364, -0.017704, 0.042055, -0.069380, 0.076151, -0.006779, -0.006525, 0.013481, -0.062883, -0.002965, 0.022100, 0.067939, -0.036206, -0.060717, -0.067114, 0.036012, -0.051847, 0.110566, 0.038411, -0.018259, 0.096655, 0.008548, -0.021258, 0.023745, 0.050477, 0.084295, 0.020466, 0.052335, 0.000685, -0.026546, 0.024879, -0.045450, 0.084428, 0.054546, -0.003050, 0.042460, -0.049819, -0.048669, -0.017598, -0.103914, 0.030874, 0.095841, 0.029679, -0.003698, 0.024141, -0.039574, -0.091271, 0.050641, 0.039061, 0.054737, -0.014296, -0.069961, -0.021640, -0.048338, -0.063711, 0.028287, -0.029148, 0.000973, -0.085483, 0.065882, 0.019487, 0.115669, 0.032247, 0.004655, -0.036448, 0.002901, 0.034673, -0.027953, -0.026334, -0.054164, -0.031094, 0.057833, -0.063826, 0.103294, 0.050437, 0.074738, 0.052110, 0.004839, 0.050672, -0.073355, 0.084793, 0.107720, -0.004082, 0.024871, -0.020767, 0.054124, 0.100906, -0.007778, 0.079595, 0.098228, 0.073775, 0.004477, 0.040663, -0.024870, 0.054220, 0.096748, 0.066648, -0.048923, -0.103008, -0.120711, 0.012558, 0.008561, 0.022476, -0.030974, 0.063776, -0.061708, 0.010927, 0.026244, -0.061935, -0.093314, 0.027673, 0.007865, 0.129180, 0.077727, -0.007265, 0.025421, 0.031005, 0.040442, -0.004648, -0.064572, -0.097932, 0.047244, 0.013984, -0.038086, 0.028222, 0.030891, -0.018868, -0.050390, -0.094517, 0.028237, -0.057502, 0.006925, -0.021784, -0.023183, 0.063047, 0.005533, -0.078816, 0.000381, -0.052970, 0.025362, -0.029893, 0.057185, 0.063369, 0.053820, -0.043643, 0.074393, -0.039567, -0.087310, 0.083896, -0.046216, 0.012030, -0.034954, 0.067731, -0.066717, 0.066914, -0.011182, -0.014771, -0.005494, -0.005305, -0.032777, 0.056048, -0.082950, -0.058642, -0.018819, -0.020563, -0.036191, -0.060780, 0.022721, -0.032843, -0.000703, 0.063891, 0.099424, 0.081812, -0.057709, 0.018356, -0.060413, 0.050410, -0.026118, -0.066807, -0.056982, 0.050364, 0.020896, -0.033004, -0.036531, 0.057256, 0.032133, 0.061052, -0.009427, -0.048196, 0.007252, 0.031999, 0.056614, 0.005199, -0.023603, 0.038021, 0.032135, -0.091956, 0.064488, -0.011852, 0.010220, 0.000561, -0.013283, -0.048383, 0.070396, -0.089276, 0.073736, 0.028967, -0.003071, 0.015367, 0.007922, -0.025757, 0.021781, -0.027242, -0.046765, 0.001048, 0.035766, 0.003897, -0.013104, 0.016182, -0.081222, 0.019546, -0.011255, 0.073983, -0.030974, -0.056464, -0.076959, -0.067320, -0.066843, 0.013055, -0.095213, 0.009660, -0.010156, 0.044660, 0.032041, -0.009656, -0.056678, -0.040954, 0.059008, 0.030380, -0.003931, -0.009918, 0.061221, 0.039515, -0.014008, -0.070687, -0.020567, -0.027985, 0.029080, 0.007189, 0.019059, -0.085407, 0.028624, 0.004515, 0.022637, -0.014020, 0.011058, -0.125618, 0.098137, 0.105691, 0.004481, 0.015079, -0.059205, 0.033034, -0.040011, -0.078479, 0.047973, 0.034219, -0.031443, 0.011597, 0.105510, -0.037361, 0.023828, -0.041969, 0.072222, 0.044062, 0.056620, -0.051331, 0.100999, 0.111793, 0.052434, 0.040511, 0.112934, 0.024735, -0.002627, 0.048535, 0.063107, -0.051108, 0.005230, -0.040089, -0.018471, -0.095576, 0.031793, 0.016151, -0.118961, 0.038491, -0.041766, 0.009711, 0.000001, -0.018106, 0.039072, 0.023869, -0.064125, -0.010318, -0.015448, 0.060776, -0.024960, 0.083828, 0.069769, 0.045227, 0.073223, -0.053504, -0.064154, 0.015322, -0.067615, 0.019149, 0.009938, 0.074927, 0.095216, -0.031458, -0.043332, 0.036880, -0.019337, 0.019672, 0.066084, 0.017009, 0.058461, 0.036954, 0.029427, -0.003642, -0.025382, 0.034363, -0.023192, 0.062627, -0.015126, 0.030838, -0.058891, 0.002322, 0.088666, -0.057162, -0.004706, -0.028421, 0.014159, -0.026898, 0.022831, -0.064628, 0.095924, 0.048645, 0.028559, 0.081724, -0.007948, -0.020038, 0.053462, 0.030693, -0.005498, 0.018823, 0.034790, 0.033686, 0.038558, 0.074613, 0.008504, 0.055968, 0.078557, 0.032899, 0.065019, -0.106966, -0.015001, -0.030477, 0.044782, 0.095304, 0.022568, 0.038496, 0.018956, -0.069303, 0.025740, 0.014477, -0.013100, 0.016935, -0.023139, -0.004806, -0.078885, 0.042643, 0.027381, 0.089372, -0.009712, -0.022581, 0.101387, 0.000143, 0.021121, -0.055838, 0.053212, 0.013784, -0.004339, -0.025939, 0.110128, 0.039210, -0.001556, -0.081517, 0.041969, -0.073341, 0.050420, 0.023105, 0.045692, -0.048998, -0.063876, -0.000150, 0.006991, 0.057931, -0.104222, 0.042258, 0.113347, 0.076544, 0.032924, 0.078084, 0.021755, 0.023805, 0.063328, -0.037430, -0.081835, -0.011324, 0.014346, 0.063270, -0.087775, -0.066084, -0.076945, 0.020326, -0.066098, 0.102969, 0.043682, -0.118284, -0.007336, -0.045215, -0.034103, -0.035890, -0.016787, -0.038738, 0.098127, -0.072763, 0.072582, 0.065235, 0.007200, -0.042430, -0.061250, 0.033883, -0.032816, -0.055348, 0.048124, 0.003238, 0.025319, -0.048965, 0.032637, -0.011219, -0.077706, -0.040870, 0.084819, 0.090022, 0.079089, -0.094631, 0.065331, -0.000467, -0.039562, -0.056270, 0.075005, -0.059107, -0.033862, 0.095665, 0.042918, 0.095006, 0.040151, -0.019583, 0.031797, 0.013461, -0.065691, 0.076078, 0.082106, -0.050407, 0.037447, -0.036588, -0.065577, 0.049563, 0.011198, 0.040168, 0.051310, -0.027057, -0.059667, -0.062560, 0.031513, -0.044860, 0.000547, 0.079036, -0.038013, -0.046099, 0.111553, -0.049690, -0.051257, -0.104378, 0.015273, 0.079776, -0.040923, -0.030335, -0.067040, -0.041501, 0.048019, -0.074154, -0.100741, -0.049025, 0.006021, -0.088334, -0.003368, 0.043731, 0.041549, 0.039959, 0.120495, 0.016678, -0.062250, 0.012466, -0.073713, 0.056234, 0.028867, 0.003942, 0.037437, -0.069868, -0.045900, 0.035466, 0.068801, -0.012660, 0.082942, -0.065301, -0.095663, -0.007212, 0.003141, -0.001920, 0.042107, 0.008897, 0.058694, 0.087753, -0.054049, 0.046161, 0.021585, 0.050438, -0.111704, 0.086506, -0.018853, 0.104314, -0.029002, 0.107286, -0.085420, 0.034806, -0.081826, -0.062460, -0.067116, 0.035359, -0.068983, 0.065076, 0.031567, -0.022967, 0.088777, 0.044533, 0.019592, 0.018123, 0.003370, -0.082004, -0.024401, -0.011176, 0.010349, 0.000282, -0.010303, 0.074387, 0.024954, -0.008435, 0.059722, -0.079435, -0.012280, 0.017606, 0.069049, 0.010004, 0.012413, 0.063503, 0.098410, -0.017734, -0.091031, 0.069007, -0.040749, -0.022715, 0.096154, -0.026858, -0.004157, 0.021362, -0.054452, -0.072243, -0.060051, -0.064774, -0.101989, 0.006004, 0.024239, 0.034066, 0.005686, 0.041674, -0.013951, 0.074824, -0.046832, 0.063485, 0.096473, 0.090060, -0.061976, 0.012094, 0.002064, 0.000234, 0.100406, 0.055466, -0.037808, -0.101656, 0.050998, -0.005698, -0.061192, -0.045072, -0.018156, -0.063187, 0.051144, 0.036365, -0.047353, -0.079704, -0.078219, 0.021253, -0.021499, 0.027850, -0.058279, -0.007521, 0.066611, -0.027352, -0.080482, -0.000492, -0.041592, 0.050963, 0.064138, 0.039886, -0.102200, -0.034106, -0.001318, -0.025643, 0.078566, -0.081034, 0.058023, 0.004313, -0.038754, 0.063694, 0.077302, 0.044416, 0.076895, 0.023696, 0.098041, 0.057552, 0.034249, 0.039523, -0.040558, 0.015706, -0.094560, 0.013940, 0.042826, -0.024161, 0.036628, 0.029797, 0.021677, 0.082973, -0.020095, 0.005798, 0.012100, 0.049056, -0.067865, 0.043580, -0.026927, -0.081021, -0.021129, 0.010166, 0.063856, -0.029853, -0.021020, 0.013035, -0.084371, -0.087881, 0.026441, -0.025424, -0.007066, -0.050592, 0.093424, -0.114210, 0.002329, -0.131991, -0.042306, 0.077781, -0.012659, 0.026552, -0.026373, -0.029835, -0.069749, -0.024860, -0.038832, -0.042484, 0.009490, 0.000114, 0.054998, 0.008234, 0.012327, 0.041787, -0.007262, 0.019940, 0.020366, 0.043633, 0.075504, -0.080830, 0.072621, 0.025705, 0.055573, 0.034403, -0.073379, -0.049550, -0.075770, 0.070577, 0.097789, 0.049364, -0.013905, -0.026589, 0.032172, -0.042661, -0.058740, 0.014035, -0.048206, 0.072789, 0.039172, -0.075516, 0.017850, -0.030754, 0.042657, -0.025763, 0.066949, -0.002012, -0.019340, -0.060889, 0.015639, 0.010391, 0.011124, -0.059384, -0.026268, -0.027729, -0.079257, 0.023063, 0.042966, 0.063007, 0.023621, 0.063784, 0.025382, -0.024733, -0.062139, 0.043816, -0.050529, 0.092845, -0.043130, 0.005010, 0.002097, 0.044717, 0.007923, 0.045542, 0.020189, -0.021353, 0.041534, -0.053128, -0.083087, -0.025438, -0.098767, -0.073803, -0.033656, -0.101530, -0.055001, 0.008251, 0.007958, -0.062314, -0.049386, 0.101248, -0.037564, 0.010959, -0.029336, -0.065785, 0.054838, -0.032750, 0.057983, -0.105254, 0.017935, -0.037620, 0.111003, -0.018683, 0.027528, 0.025217, -0.019906, -0.032719, 0.061691, -0.007244, -0.021422, -0.072313, 0.006965, 0.003808, -0.094608, 0.036445, -0.009311, 0.068261, 0.056205, -0.076026, 0.071277, -0.039014, 0.061899, 0.037759, 0.044754, -0.075557, 0.064180, 0.038014, -0.010340, -0.061574, -0.105499, 0.075019, 0.037150, 0.007261, -0.101148, -0.053284, 0.045857, -0.002482, -0.038665, -0.033959, 0.031647, -0.020101, 0.101073, 0.031689, -0.103953, 0.008863, 0.030029, -0.034795, -0.098053, -0.048176, 0.005917, -0.058770, -0.064417, -0.012590, -0.019099, 0.046016, -0.095040, -0.052631, 0.075123, 0.026797, 0.038090, 0.063357, -0.004499, -0.030171, 0.086856, -0.049875, 0.075948, 0.033170, -0.081984, -0.089518, 0.054492, -0.081792, -0.088923, 0.048690, 0.063508, -0.029404, -0.027933, -0.038906, -0.026474, -0.079293, 0.009252, -0.047470, 0.057250, 0.059490, -0.056180, -0.030932, -0.035308, 0.021149, -0.005002, -0.103840, -0.015578, 0.078920, 0.108431, -0.007087, 0.007432, -0.013761, 0.046230, -0.060077, 0.041014, -0.052176, -0.017046, 0.099339, -0.050906, -0.083260, -0.005268, 0.055979, -0.067202, -0.077141, 0.057990, 0.076764, -0.037156, -0.060069, 0.047244, 0.040252, -0.021472, 0.092832, -0.021121, 0.033681, -0.015139, -0.106734, -0.031263, -0.071666, -0.022734, -0.106058, 0.013243, -0.060603, -0.111245, -0.015634, -0.004795, -0.017350, 0.027793, -0.041362, 0.072378, 0.040220, -0.066443, 0.107994, -0.030163, 0.019271, -0.030623, 0.026848, 0.013858, -0.013584, 0.075511, 0.030640, -0.105653, 0.004509, -0.024358, -0.025688, -0.066303, 0.038823, -0.089003, 0.046466, 0.046317, 0.095582, 0.106269, -0.055583, -0.025709, -0.025770, -0.012014, -0.010892, -0.037195, 0.072729, 0.066700, 0.061561, -0.018324, 0.087390, 0.058490, -0.018813, 0.092947, -0.025242, -0.036503, -0.042544, -0.064544, 0.092213, -0.007114, -0.013676, -0.013996, -0.012980, 0.030079, 0.079369, -0.076276, 0.068962, -0.002150, -0.057551, 0.014818, 0.041793, -0.027040, -0.045423, 0.062864, 0.071432, 0.060050, -0.013731, -0.039359, -0.010734, 0.037163, 0.021218, 0.074039, 0.084018, -0.105488, -0.069670, 0.082800, -0.013772, -0.042101, 0.030337, 0.042015, -0.058230, -0.063568, 0.081671, -0.059677, -0.000639, -0.013477, 0.008726, 0.017117, -0.014386, 0.002333, 0.087895, 0.009472, 0.074742, -0.051243, 0.080763, 0.055520, -0.027285, 0.047101, 0.074569, 0.027186, -0.013818, 0.002467, 0.005851, 0.021534, -0.046973, 0.052290, 0.034309, -0.047829, 0.042380, 0.036324, 0.003741, 0.033023, -0.027697, -0.043101, 0.015759, 0.031619, -0.070694, -0.034750, 0.074963, -0.016953, -0.062676, -0.031285, 0.018081, -0.058609, -0.023953, 0.028885, -0.048042, -0.047531, 0.002182, 0.054071, -0.040492, 0.015126, 0.040587, 0.061732, 0.047948, 0.050262, 0.016920, -0.019800, 0.050731, -0.065721, -0.037121, 0.035861, -0.088711, 0.036164, -0.023726, -0.002428, -0.026763, 0.014705, -0.034157, 0.094518, 0.098422, 0.100210, 0.032275, 0.009711, 0.064281, 0.026980, -0.067978, -0.057446, -0.037618, -0.006981, -0.013076, 0.026667, 0.064491, 0.021403, 0.034467, -0.064863, -0.073537, -0.039424, 0.029971, 0.067090, -0.027288, -0.030898, 0.033160, 0.040145, 0.030472, -0.017093, -0.066132, -0.016779, -0.056135, -0.068001, 0.017800, -0.049219, 0.002521, -0.077569, -0.047459, -0.035312, 0.075330, -0.079119, 0.008522, -0.013521, -0.010326, 0.053188, -0.058798, 0.024373, 0.069624, -0.033222, -0.057340, -0.058937, -0.001666, -0.073224, 0.010610, 0.026027, 0.084356, -0.010758, -0.068475, 0.012142, -0.006873, 0.029987, 0.113538, 0.034019, 0.084588, -0.062838, 0.064582, 0.002814, -0.008636, 0.074576, 0.077127, 0.071042, -0.067213, 0.003155, -0.001790, 0.071983, 0.003882, -0.052722, 0.037220, 0.007014, 0.036538, 0.029070, -0.092311, -0.060777, 0.013831, 0.064231, -0.057577, 0.010279, -0.036828, 0.033106, -0.037352, 0.014034, 0.069720, -0.004014, -0.045508, -0.027836, -0.003100, -0.059972, 0.047843, 0.083097, -0.025104, -0.092188, -0.031068, -0.024188, 0.031643, 0.031328, -0.033869, 0.075592, -0.021242, 0.062308, -0.058963, 0.058187, -0.010588, -0.005288, 0.013621, -0.049049, -0.090440, -0.010555, -0.059993, 0.088105, 0.085671, -0.026582, 0.052146, -0.017871, -0.058777, -0.037916, 0.017135, -0.042990, -0.082331, -0.050886, 0.082512, 0.077132, 0.030634, 0.071765, -0.005000, 0.102605, 0.052795, 0.008699, -0.040651, 0.003066, 0.096352, -0.046795, 0.017423, -0.014650, 0.011175, -0.087018, -0.023026, -0.095937, 0.087149, 0.002052, 0.046752, -0.030759, 0.017932, -0.047376, 0.050984, 0.081680, 0.034218, -0.024156, -0.092820, -0.127600, 0.061988, -0.072368, -0.054432, -0.007191, -0.006584, 0.015040, -0.025263, -0.069235, 0.083523, 0.025028, 0.021480, 0.061979, -0.055182, -0.066335, -0.053852, 0.093743, -0.001770, 0.037931, -0.033163, 0.046867, -0.115914, 0.021585, -0.056144, -0.014715, -0.039395, -0.065653, -0.117810, 0.000050, -0.013098, 0.041367, -0.049335, -0.014833, -0.127545, 0.119977, 0.033670, -0.039537, -0.031686, 0.117018, 0.004875, 0.024958, -0.080442, 0.082302, -0.104284, -0.080284, 0.101936, 0.035977, 0.034120, -0.141392, -0.000770, 0.058418, 0.014438, -0.087475, 0.005890, -0.081551, 0.005934, -0.027802, 0.075031, -0.068021, 0.014182, 0.034921, 0.069302, -0.060355, -0.031808, 0.066784, -0.005948, -0.053836, -0.036095, 0.037564, 0.011463, -0.020783, 0.073286, -0.052142, -0.078383, -0.029446, -0.039197, -0.067218, 0.011526, 0.065354, -0.017296, 0.054878, -0.058206, 0.037925, -0.043531, -0.076619, -0.065227, 0.054092, 0.005190, -0.020691, 0.032996, 0.022752, 0.058866, 0.020391, -0.047161, -0.019282, -0.065044, -0.019887, 0.047766, 0.007847, -0.079964, 0.062279, -0.050166, 0.088489, 0.029231, -0.020422, 0.007781, -0.084094, -0.019739, -0.034147, -0.034477, -0.005361, 0.015303, 0.026610, -0.067882, -0.047863, 0.057164, 0.019279, 0.031310, -0.082278, -0.065314, -0.049013, -0.027817, -0.067522, 0.042053, 0.071530, -0.029124, 0.021509, 0.063314, -0.001102, 0.054422, 0.018894, 0.041843, 0.002867, -0.038258, -0.062002, -0.055181, 0.050140, -0.001935, -0.018377, -0.065664, -0.027858, 0.023660, -0.051920, 0.034530, 0.021484, -0.055094, -0.030905, 0.023089, 0.049659, -0.034688, 0.046809, -0.058805, -0.010737, -0.069147, -0.025646, 0.006868, 0.056489, -0.002419, 0.024811, -0.026001, 0.054076, -0.007476, 0.018166, -0.001174, 0.034423, -0.029157, -0.034651, -0.035087, -0.035803, 0.073685, 0.051846, 0.093143, 0.051539, -0.053611, -0.066706, -0.063958, -0.024670, -0.014282, 0.046376, -0.036734, -0.074540, -0.014213, -0.053846, 0.063953, 0.010384, -0.043730, 0.000833, 0.019211, -0.081168, 0.069965, 0.104058, 0.095901, -0.022117, -0.026739, -0.044710, -0.043275, 0.025275, -0.000036, -0.000735, -0.028867, 0.004106, -0.024168, 0.078226, -0.074483, 0.060110, 0.046283, -0.034989, 0.054327, -0.015497, 0.028223, 0.035743, 0.062194, 0.012703, 0.065744, 0.097166, 0.089687, 0.000746, 0.009166, 0.004167, -0.025606, -0.064568, 0.077284, -0.044086, -0.105710, 0.062608, -0.019446, -0.087591, -0.075070, -0.041136, -0.045776, 0.002132, 0.040658, 0.028537, -0.015671, 0.040134, 0.002957, -0.030407, -0.070368, -0.019963, -0.075931, -0.014849, 0.027911, -0.010005, 0.028019, 0.035124, -0.017085, -0.008286, -0.038047, 0.092309, -0.039313, -0.078799, 0.090901, 0.089502, -0.070034, -0.031234, -0.051007, -0.028292, 0.059656, -0.037080, 0.064453, 0.072834, 0.000946, 0.001218, -0.003629, -0.028564, -0.060310, 0.024773, 0.059176, 0.028062, -0.055577, 0.034754, -0.084005, -0.053893, 0.069798, -0.007472, -0.041777, 0.035943, -0.014145, -0.004799, -0.026477, 0.055934, 0.010263, 0.027007, 0.041400, -0.036096, 0.044653, 0.061689, -0.067691, 0.029287, -0.043447, 0.012626, 0.057829, -0.063376, 0.039993, -0.046079, -0.007385, 0.071535, -0.072959, 0.071816, 0.062719, -0.054889, 0.000180, 0.054242, 0.019871, -0.015254, 0.006583, -0.044426, 0.026691, 0.017911, -0.056613, 0.097867, 0.025056, 0.040752, -0.068701, 0.045909, 0.001139, 0.084602, -0.035584, -0.033468, 0.049177, -0.009028, -0.029311, 0.010595, -0.068323, 0.064891, 0.056687, 0.047933, 0.016547, 0.069248, 0.087378, -0.024489, -0.027428, 0.015384, -0.033374, -0.013168, -0.035033, 0.057254, 0.044771, 0.026215, 0.043734, -0.013518, -0.064214, 0.017013, 0.031015, 0.093845, 0.069164, -0.077500, -0.034896, -0.017903, 0.084558, -0.060174, -0.016186, -0.044626, -0.030086, 0.001849, 0.024685, -0.086684, -0.016079, -0.003011, 0.057971, -0.009200, 0.022066, 0.001522, -0.011558, 0.037360, -0.029689, 0.001516, 0.012603, -0.036105, 0.058911, -0.044722, -0.000528, -0.049688, 0.002717, 0.008911, 0.067357, -0.031459, 0.078886, -0.033952, -0.074882, -0.062142, 0.073992, 0.026075, 0.048617, 0.052005, -0.051616, 0.041819, 0.022210, -0.069791, 0.009127, 0.024241, 0.085085, -0.034373, -0.093185, -0.016610, -0.063454, 0.046697, -0.014643, -0.038989, 0.062182, -0.037686, 0.019154, -0.024513, 0.066801, 0.008181, 0.086338, 0.017982, 0.089106, -0.046226, -0.052858, -0.014445, -0.056466, -0.008527, 0.076029, 0.072694, -0.089944, 0.000633, 0.035364, 0.026418, 0.048052, -0.030597, -0.005962, -0.061707, -0.016055, 0.075618, 0.075253, -0.027318, 0.053812, -0.010461, -0.104138, -0.077368, -0.049531, 0.047205, -0.050933, -0.054185, 0.066026, -0.024145, 0.044752, 0.037510, -0.040817, -0.034251, -0.038693, -0.055250, 0.066195, 0.002655, 0.047579, 0.103540, 0.023729, 0.019117, -0.046319, 0.051196, 0.055504, -0.108009, -0.034969, -0.036212, 0.091329, 0.020276, 0.038974, 0.055820, 0.045143, -0.008162, 0.070952, 0.067426, -0.008350, 0.047821, -0.039911, 0.074333, -0.031341, -0.081185, -0.029185, 0.090093, 0.031782, -0.093171, 0.070106, 0.066394, 0.099973, -0.087301, 0.080291, 0.031589, -0.061671, -0.014276, 0.076955, 0.008761, -0.037606, -0.101120, -0.046701, -0.120646, 0.009926, -0.113365, 0.054899, 0.069055, 0.071606, -0.059622, 0.009891, 0.053334, -0.093331, 0.058947, -0.044065, 0.097875, -0.016230, 0.004560, -0.018210, 0.010741, -0.068953, 0.027104, -0.085283, 0.002677, -0.004290, 0.024238, 0.051372, 0.028686, -0.011228, 0.063265, 0.011780, -0.007816, -0.040694, 0.022758, 0.006782, 0.054080, 0.073844, -0.001338, 0.020901, 0.100893, 0.064531, 0.089154, -0.021764, 0.060198, -0.049840, -0.002739, 0.039712, 0.091549, 0.046311, 0.007712, 0.060110, 0.099101, 0.088469, 0.046762, -0.027788, -0.006862, 0.098518, 0.004420, 0.095936, 0.035778, 0.021487, -0.029181, 0.038850, -0.071238, -0.027962, 0.027989, -0.044730, 0.044503, -0.007885, -0.017568, -0.009037, 0.072265, -0.024209, -0.017518, -0.101384, -0.002156, -0.104833, 0.075421, 0.072610, 0.057084, -0.015752, 0.095237, -0.085588, 0.015446, -0.070121, 0.021541, -0.032310, -0.023253, -0.027533, -0.102603, 0.044672, 0.108737, 0.095405, 0.105434, -0.051101, 0.010918, 0.069407, 0.024078, -0.019486, 0.053784, 0.018653, -0.047341, -0.011573, 0.046026, -0.037469, -0.062959, 0.075487, 0.025805, 0.016120, -0.021286, 0.041015, 0.046091, -0.012925, -0.087379, 0.002187, 0.080785, -0.013054, 0.032647, -0.042881, 0.060947, 0.090086, -0.073519, -0.024087, 0.009514, -0.014663, -0.078983, 0.009322, -0.037108, 0.029047, -0.113585, -0.015143, 0.013726, 0.043040, -0.024865, 0.059032, -0.092274, -0.024080, 0.075394, -0.012430, 0.008875, -0.082752, 0.081079, -0.001730, 0.019519, 0.080377, 0.045193, 0.015443, -0.084547, -0.021969, -0.054404, 0.011862, -0.003201, -0.036675, -0.064975, 0.049383, -0.072289, -0.096779, -0.000668, -0.082724, 0.053824, -0.069697, -0.056634, -0.014032, 0.018317, -0.017605, 0.005011, 0.061987, -0.010370, 0.022180, -0.072275, -0.070436, 0.034269, 0.094613, -0.020512, -0.001969, 0.016772, 0.021353, -0.057001, -0.096953, -0.059497, 0.058143, 0.075176, -0.051650, -0.020417, 0.007072, 0.043604, 0.018185, -0.058694, 0.062920, -0.091143, 0.030499, 0.017058, 0.078278, 0.042483, -0.042817, 0.037007, 0.033796, 0.079343, -0.054569, -0.024821, 0.000978, 0.011272, 0.115518, 0.062023, -0.015479, -0.084218, -0.000542, 0.060330, -0.016391, -0.076306, -0.003726, -0.036053, 0.021083, 0.076848, -0.017470, -0.067926, -0.022155, 0.066366, -0.096515, -0.086667, -0.090804, -0.118957, -0.049590, 0.023283, -0.044737, 0.030112, 0.055552, 0.003626, -0.041313, -0.057657, -0.029277, -0.038404, -0.003651, 0.007040, -0.026010, -0.024935, -0.064481, 0.065229, 0.031797, 0.007648, -0.042971, 0.052529, 0.035596, -0.117228, -0.015703, 0.046562, 0.028642, -0.101628, 0.012773, -0.081705, 0.002318, 0.057382, -0.050413, 0.048838, 0.021762, 0.044017, -0.008045, 0.013053, 0.020015, 0.003763, 0.006149, 0.071429, -0.094707, -0.056590, -0.017602, -0.077843, 0.037527, 0.070851, 0.050668, 0.050198, -0.006918, -0.007730, -0.008395, 0.008658, 0.043532, 0.071062, -0.094015, 0.034408, 0.080916, 0.052593, 0.048381, 0.096127, 0.030507, -0.035408, -0.100884, -0.125285, 0.054156, 0.019889, -0.039104, -0.024980, 0.058666, 0.034443, 0.017971, 0.009507, -0.010881, 0.049744, -0.061820, -0.035537, 0.002054, -0.080793, -0.052734, 0.097568, 0.026051, 0.016987, -0.051908, 0.081148, -0.010922, -0.062471, 0.001379, -0.056077, 0.037621, -0.057399, -0.028175, -0.050648, 0.020502, 0.065190, -0.074581, 0.040307, -0.117880, 0.092117, 0.113457, 0.044657, 0.052860, 0.010263, -0.008116, 0.054675, -0.019043, -0.073192, -0.014612, -0.010410, 0.068653, -0.015839, -0.009468, 0.001820, 0.028718, -0.053265, -0.085491, -0.110659, 0.108570, -0.057615, -0.039974, 0.059427, -0.011703, 0.029022, 0.046243, -0.020835, -0.078162, 0.011768, -0.060835, -0.062655, 0.057040, -0.098482, -0.032592, 0.028016, 0.050541, 0.069489, -0.079373, 0.011875, -0.002359, -0.016968, -0.073798, 0.047061, -0.003704, -0.101091, -0.042839, -0.003396, -0.110510, 0.078327, -0.099182, -0.044573, -0.006339, -0.109254, -0.007448, -0.030097, -0.035675, -0.084688, -0.046213, -0.002657, 0.036751, -0.032901, -0.013280, 0.044934, -0.122356, 0.018043, 0.090495, 0.061115, 0.085153, 0.024587, 0.068247, 0.087375, 0.031073, -0.013571, 0.074185, 0.044775, 0.004230, 0.056896, -0.036270, -0.092384, -0.022750, -0.019455, -0.006286, -0.014076, 0.100927, -0.044577, -0.032372, -0.033049, 0.086255, -0.037020, 0.016233, -0.017929, -0.018397, -0.081561, 0.009498, -0.068986, -0.014869, -0.088785, -0.062811, 0.091751, -0.022822, 0.088992, 0.055637, -0.107088, 0.034459, 0.011472, -0.074372, -0.054791, -0.056003, 0.021684, 0.006064, 0.005868, 0.055954, -0.010172, -0.083541, 0.060490, 0.071310, -0.040125, -0.011863, 0.079029, -0.098912, 0.053682, 0.046428, -0.025086, -0.070805, -0.038010, -0.046905, -0.025970, -0.045987, 0.074908, 0.047611, -0.006755, 0.075522, 0.028309, -0.009446, -0.034962, -0.028149, -0.040669, 0.043419, -0.050075, -0.015661, 0.046563, -0.053240, -0.090127, 0.022232, -0.007641, -0.028900, -0.062230, 0.001755, -0.052577, -0.061666, -0.038613, 0.045635, -0.000858, 0.039552, 0.095457, -0.083921, -0.105428, 0.025355, -0.022812, 0.036332, -0.112448, 0.019833, 0.097305, 0.032877, -0.060757, -0.094223, -0.066081, -0.013295, -0.029513, -0.075398, 0.028926, -0.025763, 0.002558, 0.060087, 0.115241, -0.082227, 0.034810, -0.075120, 0.007542, -0.104312, -0.045265, -0.020760, -0.020845, -0.045149, -0.055269, -0.048028, 0.006958, -0.060697, 0.039699, -0.038594, 0.029433, 0.042062, 0.092026, -0.016121, 0.097063, 0.016296, -0.008948, -0.008205, 0.040111, -0.054726, -0.037502, -0.020858, 0.027636, -0.020925, 0.000101, 0.003062, -0.075897, -0.047146, -0.032952, 0.065819, -0.031167, -0.009450, 0.083762, -0.046764, 0.110156, -0.049207, -0.107842, 0.020110, 0.018576, -0.072139, -0.043917, -0.086350, -0.011022, 0.067336, -0.129686, -0.017014, 0.107453, 0.009157, -0.016544, -0.062019, -0.006147, 0.055990, -0.123287, 0.007915, 0.041701, 0.036165, -0.045735, -0.040069, 0.027970, 0.012649, -0.085779, 0.006863, 0.067699, -0.058223, -0.100173, -0.052738, 0.077508, -0.036454, -0.086044, -0.077707, 0.045908, -0.060495, -0.100111, -0.042967, 0.031880, -0.111107, 0.007759, -0.000588, 0.111926, -0.026022, -0.001391, -0.056009, 0.038967, 0.068954, 0.023314, 0.030071, -0.080354, 0.084723, 0.066354, 0.070213, 0.031199, -0.026740, -0.015277, -0.049495, 0.047556, -0.054574, 0.044217, 0.026981, 0.020285, -0.020299, -0.054542, -0.097578, 0.096754, -0.012089, -0.098333, -0.117219, -0.074418, 0.008943, 0.021945, 0.000833, 0.065045, 0.023602, 0.057882, 0.014846, 0.058078, 0.024813, 0.009871, -0.071780, 0.059240, -0.003685, -0.017210, -0.050267, 0.078217, 0.030293, -0.030491, 0.021400, 0.051668, -0.097385, -0.006493, -0.067531, -0.022620, 0.015159, 0.024446, -0.008875, -0.032100, -0.025034, -0.009717, 0.051460, -0.002048, -0.009454, 0.044800, 0.096027, 0.094309, -0.037337, 0.044706, 0.035008, 0.098096, -0.014244, 0.058547, -0.004614, 0.021278, 0.042780, 0.059613, -0.039759, 0.072721, -0.060283, -0.055363, -0.000268, -0.064722, 0.080402, -0.043867, -0.037411, 0.107899, 0.112101, 0.031324, -0.032900, 0.084298, -0.063517, -0.123762, -0.128422, -0.077946, -0.034153, 0.038929, -0.107067, 0.085390, 0.033236, -0.024140, -0.106450, -0.108809, 0.132544, -0.080841, 0.018869, -0.066685, -0.112820, -0.057929, -0.072422, 0.034684, 0.012406, -0.085530, -0.082420, 0.066292, -0.061053, -0.115889, 0.010967, 0.034407, -0.074161, -0.096691, -0.094056, -0.026407, 0.006443, 0.033385, 0.042047, 0.012331, -0.107094, -0.006565, 0.070861, 0.109262, 0.102538, 0.122025, 0.041904, 0.065354, -0.052661, 0.008991, -0.107687, -0.007010, 0.056272, 0.093382, 0.081699, -0.072044, -0.016839, -0.081327, -0.043621, 0.016596, -0.024346, 0.014028, -0.058057, -0.087627, -0.115100, 0.056230, -0.052600, 0.013155, -0.023464, 0.084537, 0.084588, 0.064515, 0.010422, 0.000667, 0.005378, 0.056105, -0.004541, 0.038355, 0.089116, 0.056753, -0.071897, -0.031735, -0.038084, 0.033462, -0.053989, -0.059247, -0.066498, -0.038775, -0.017875, -0.010858, 0.015507, 0.043478, 0.095663, -0.053145, 0.026786, -0.030082, 0.064390, -0.041037, 0.020552, -0.085416, 0.080450, -0.072080, -0.047708, 0.097448, 0.065648, -0.099046, -0.038648, -0.065272, -0.068846, 0.010150, -0.064976, -0.011797, 0.005666, 0.037628, -0.070180, 0.082686, -0.005585, 0.040181, -0.069654, -0.051858, 0.016437, 0.067507, -0.048150, 0.050589, -0.103689, -0.024899, 0.013933, 0.004446, -0.038891, 0.077853, 0.042489, -0.095675, 0.031316, 0.117649, 0.103290, -0.014910, 0.023646, 0.093320, 0.074598, 0.016453, -0.030585, -0.045383, -0.046276, 0.071610, 0.001734, -0.026002, 0.080844, -0.058845, 0.000280, 0.041342, 0.041934, -0.101990, 0.093229, -0.065417, 0.049505, 0.010186, -0.038409, -0.020061, -0.043133, -0.094585, 0.102953, 0.034345, -0.037274, -0.045963, -0.005449, -0.046248, 0.018701, -0.084281, -0.022109, 0.038175, -0.114530, -0.047955, 0.059114, -0.016988, -0.014999, -0.021180, -0.010664, -0.068521, 0.032723, -0.040230, -0.061318, -0.065146, -0.092985, 0.080906, -0.044267, -0.043776, -0.051303, 0.063333, 0.023277, -0.045947, 0.003383, -0.079620, -0.038394, 0.049700, -0.034878, 0.009031, 0.038843, 0.097478, 0.093887, 0.039842, -0.009740, -0.030527, 0.043034, 0.021901, -0.104174, 0.082395, 0.066550, 0.041473, -0.082551, 0.007200, -0.026713, -0.074939, -0.040980, -0.031801, -0.062135, -0.103198, 0.008160, -0.047059, 0.104068, -0.045044, 0.066288, 0.090443, -0.000442, 0.016937, -0.014805, 0.091688, 0.072785, -0.031411, 0.097907, -0.018299, -0.016243, -0.009477, 0.049312, -0.106062, -0.096532, -0.106300, 0.080079, -0.041490, 0.024636, -0.038275, -0.032344, -0.034399, 0.126386, 0.061048, -0.050529, -0.097554, -0.076861, 0.010729, 0.036528, 0.091701, -0.026450, 0.051907, -0.048554, -0.029195, 0.049816, -0.106670, 0.075321, 0.017013, 0.008779, -0.064618, 0.061458, -0.020302, 0.036044, -0.028553, 0.055316, 0.063805, 0.017844, -0.068407, -0.000773, 0.028464, 0.098576, -0.006109, 0.008774, 0.081275, 0.094581, -0.065828, -0.021356, -0.042147, -0.026241, -0.090027, 0.020991, -0.040843, 0.061638, -0.094147, -0.015997, 0.040537, 0.066390, -0.066403, 0.078620, 0.084058, -0.019951, 0.092343, -0.012299, 0.041492, 0.014634, 0.030198, 0.093857, -0.002510, -0.050186, 0.014086, 0.035822, -0.013733, 0.040384, -0.003658, -0.024495, -0.013833, -0.049801, -0.036236, 0.015220, -0.093740, 0.052491, 0.092648, -0.051645, -0.012092, 0.080616, -0.023821, 0.058010, -0.001432, 0.092602, 0.013084, -0.000658, 0.074648, 0.060990, -0.051044, -0.038555, 0.048547, 0.020743, -0.056171, -0.088362, 0.040555, 0.106397, 0.056380, -0.079873, 0.079303, 0.032850, 0.054235, 0.038839, -0.049695, -0.048962, -0.090191, 0.053253, 0.010505, 0.004154, -0.019557, 0.014725, 0.018900, 0.031681, -0.003443, -0.042945, -0.035959, 0.082986, 0.029051, 0.044649, 0.098340, 0.045462, 0.026287, 0.060023, 0.062962, -0.051781, 0.063164, 0.083904, -0.015659, -0.073577, -0.026656, -0.071868, -0.045028, 0.050927, 0.056377, 0.015538, 0.019886, 0.086759, 0.074946, 0.011268, -0.070616, -0.064676, -0.028759, -0.069230, -0.066419, 0.057379, -0.040594, -0.002374, -0.045056, 0.016563, -0.118412, -0.094993, -0.009152, 0.062175, -0.044779, -0.014817, 0.049046, -0.014198, -0.015037, 0.026300, 0.094903, 0.069002, -0.119426, 0.033477, 0.031830, 0.091157, 0.052004, -0.126591, 0.114706, 0.013391, -0.080362, -0.071676, 0.069992, -0.007934, 0.009238, 0.080791, 0.060576, 0.074183, -0.097638, -0.017617, 0.095364, 0.046723, -0.053112, 0.089874, -0.011913, 0.103184, -0.068891, -0.035131, 0.079590, 0.014263, 0.063665, 0.063250, -0.021445, -0.089269, -0.044862, -0.028250, 0.012286, -0.024516, -0.066057, 0.082167, 0.084830, 0.101637, 0.105966, 0.028949, 0.023185, -0.113943, -0.028174, 0.092258, -0.047084, -0.038221, 0.121628, -0.006489, 0.033895, 0.106185, 0.041579, -0.063041, 0.075784, -0.026845, 0.044258, 0.017149, 0.002028, 0.053698, 0.072043, -0.001550, 0.100781, 0.120386, -0.049306, 0.042270, 0.053957, 0.068669, -0.050368, -0.008707, 0.045489, 0.089551, -0.065648, 0.045174, 0.081425, 0.077717, -0.080395, 0.012033, 0.034335, 0.082806, 0.004099, -0.008936, -0.017367, 0.061155, 0.053310, 0.028332, 0.060061, -0.030490, 0.047697, -0.078132, -0.032098, 0.029274, 0.029572, -0.007399, 0.030524, -0.045870, -0.015950, -0.065211, -0.028193, 0.051925, -0.099548, -0.002911, -0.071204, 0.095886, -0.055359, -0.085417, 0.045066, -0.080785, -0.046579, 0.088825, -0.070610, 0.003518, 0.083934, -0.086104, -0.103666, 0.093384, -0.114839, -0.077318, 0.065375, -0.013424, -0.076930, 0.005984, 0.039377, -0.049261, 0.002699, -0.010554, 0.071052, 0.036371, -0.114927, -0.036719, 0.069100, 0.012924, 0.072800, -0.091309, 0.001292, -0.072589, -0.088653, -0.034328, -0.031604, 0.034858, 0.034143, 0.054446, 0.073550, 0.052449, 0.029035, -0.064086, -0.008561, -0.052837, -0.033769, 0.049408, 0.017572, 0.067903, -0.050116, -0.096513, -0.016184, -0.055530, 0.054821, 0.017743, -0.021815, 0.013128, -0.055376, 0.028046, -0.081988, -0.036598, 0.033900, 0.008322, 0.042528, 0.023871, 0.099397, -0.039945, 0.010337, -0.044231, 0.029241, -0.007805, 0.030349, -0.072638, 0.048415, -0.065257, -0.042164, 0.004132, -0.105576, -0.094296, 0.000240, -0.015861, 0.010624, 0.051381, 0.088792, -0.005639, 0.067203, -0.017182, -0.017940, -0.038171, -0.121557, -0.089133, 0.001259, -0.036099, 0.074784, 0.028750, 0.067359, 0.046189, -0.036291, -0.041006, 0.083967, 0.061523, -0.107900, 0.007323, -0.071430, 0.060522, -0.044418, 0.078984, 0.080688, 0.046515, -0.074120, -0.054283, -0.040593, 0.066535, -0.006133, -0.009210, 0.064689, 0.057873, -0.037567, 0.051240, 0.030558, 0.037998, -0.017006, -0.000442, -0.080503, -0.052475, -0.018063, 0.052931, -0.016639, 0.060021, -0.034754, -0.068999, -0.068725, -0.022198, 0.091649, -0.041510, -0.038664, 0.065836, 0.088110, -0.028262, 0.010463, -0.034579, -0.019679, -0.053619, 0.060906, 0.035121, -0.029721, -0.019594, -0.050008, -0.029808, -0.026960, -0.044830, 0.016835, -0.027651, -0.080663, 0.041164, -0.085023, 0.079368, -0.056715, -0.094764, 0.086617, -0.007467, 0.079008, -0.092007, 0.014864, 0.026092, 0.000755, 0.028833, -0.067377, -0.013601, -0.026099, 0.043686, 0.042498, -0.044178, -0.083372, 0.006317, -0.057474, 0.074845, 0.039885, 0.041729, -0.040998, 0.010049, -0.080613, -0.040550, -0.044354, -0.050562, 0.034375, -0.009047, 0.046994, -0.017679, 0.053912, 0.088494, -0.080507, 0.060264, -0.062921, 0.030086, 0.050503, -0.041642, -0.018964, 0.065106, 0.024319, -0.042170, 0.067665, 0.080493, 0.019682, 0.001535, -0.023877, 0.032786, 0.058675, 0.017487, -0.020085, 0.039510, 0.006015, 0.001265, 0.007178, 0.066246, -0.076716, 0.046221, 0.028728, 0.056692, -0.068545, -0.072329, -0.078005, -0.035271, -0.022168, -0.049183, -0.003557, -0.035743, 0.029416, 0.023207, -0.040011, 0.045962, 0.029689, -0.055566, 0.059308, -0.030198, 0.028992, 0.010049, -0.055798, 0.079538, 0.004488, 0.021386, 0.035660, -0.027719, 0.036359, -0.036112, -0.079380, -0.039182, -0.029317, 0.043929, -0.047092, 0.001447, -0.033798, 0.081640, -0.072781, 0.006419, -0.039092, 0.067368, 0.035949, 0.067501, 0.064064, 0.065712, 0.047137, -0.044462, 0.024216, 0.047214, 0.020545, -0.051521, -0.025833, 0.007673, 0.092838, -0.065482, -0.028240, 0.007039, -0.053860, -0.016668, -0.079574, -0.069084, -0.019130, -0.084071, 0.066717, 0.046093, -0.058548, 0.003193, -0.078039, -0.090347, -0.003453, -0.074111, -0.082470, -0.018597, 0.001512, -0.083698, 0.072846, -0.025848, 0.033737, -0.059165, -0.038291, -0.036704, -0.060641, 0.065070, -0.042037, 0.003148, 0.069130, 0.031772, -0.062886, 0.000718, -0.028184, -0.002659, -0.072629, 0.089595, -0.053629, -0.060758, -0.069790, -0.036902, 0.061417, -0.056369, -0.009593, -0.035641, 0.020340, 0.009062, 0.030459, -0.054606, 0.001916, 0.094162, 0.032759, 0.061679, -0.019904, 0.063304, -0.065746, 0.013708, 0.043678, 0.032543, -0.040937, 0.010302, 0.000066, -0.026249, -0.042644, 0.045121, 0.022050, -0.047222, -0.010056, -0.025669, -0.025663, -0.043999, 0.050723, 0.088268, -0.081394, -0.000176, -0.007421, -0.035354, 0.039833, -0.080942, 0.050855, 0.020754, -0.079425, 0.040266, -0.040547, 0.077418, -0.058471, -0.054999, -0.051955, -0.030246, -0.008072, -0.067110, -0.053683, 0.012709, -0.004505, 0.028727, -0.038613, 0.045401, 0.028730, -0.045043, 0.003812, -0.070355, 0.030177, 0.014670, 0.022233, -0.082702, -0.049973, -0.085340, 0.059976, -0.103311, 0.022472, 0.018091, -0.059314, -0.004006, 0.038489, 0.055425, 0.053693, -0.068983, 0.064120, 0.102882, -0.030599, -0.035647, 0.088427, -0.023925, -0.012457, -0.101300, 0.024429, -0.071613, -0.068917, 0.084954, 0.097915, 0.019643, -0.016573, -0.013049, -0.020534, 0.045023, 0.027991, -0.017096, -0.013531, 0.002407, -0.062622, -0.085882, 0.016897, 0.057224, 0.053820, 0.079113, -0.013216, -0.049698, 0.003297, -0.008632, -0.014701, -0.053318, 0.097728, 0.001802, -0.006529, -0.005900, 0.060865, -0.017273, -0.060241, -0.032709, 0.025910, -0.012125, -0.002713, 0.071211, 0.025863, -0.001226, 0.029069, 0.064345, -0.048810, -0.085240, 0.025786, -0.004021, -0.046613, -0.050421, 0.013166, -0.041828, -0.059004, -0.046830, 0.048348, -0.066805, 0.072894, 0.011016, -0.026397, 0.034478, 0.067347, 0.047985, -0.033763, 0.088079, -0.028730, 0.013213, -0.045554, 0.057786, -0.025338, -0.054351, 0.047748, -0.096196, -0.075498, -0.035699, -0.008312, 0.015383, 0.055084, 0.021001, 0.050543, 0.026031, -0.003261, -0.047302, -0.094456, 0.050480, -0.016731, -0.040818, -0.046080, 0.058222, -0.064851, 0.015342, 0.091730, 0.057447, 0.036973, -0.089760, 0.097832, -0.011250, 0.053896, -0.081537, 0.074087, -0.085535, -0.031687, -0.101390, -0.070755, 0.034533, -0.065121, 0.067054, -0.104363, -0.058904, -0.039355, 0.079152, 0.027919, 0.004071, 0.027299, 0.037636, 0.098815, 0.014604, 0.079103, -0.032013, -0.033838, 0.053298, -0.031808, 0.011638, -0.002176, 0.008180, 0.090635, -0.038788, 0.042041, -0.035519, -0.021953, -0.023010, -0.101742, -0.081304, 0.065755, 0.084793, -0.055278, -0.039995, 0.069807, 0.110586, -0.029621, -0.029998, -0.020690, 0.101800, -0.035905, 0.069258, 0.052231, 0.038402, 0.069800, -0.071291, 0.081794, 0.010291, -0.075362, -0.032665, -0.024553, -0.003467, -0.075932, 0.122133, -0.003807, 0.038109, 0.015957, 0.027866, 0.085061, 0.070292, -0.094338, 0.085839, 0.053662, 0.067703, -0.034614, 0.017846, 0.092039, -0.065115, 0.024405, 0.120227, -0.049722, -0.114249, 0.030873, 0.006940, -0.008706, -0.045721, -0.040450, -0.016131, -0.105734, 0.041426, 0.034515, 0.011763, -0.101720, -0.029565, 0.025433, 0.102981, -0.000268, 0.084136, 0.084761, 0.090593, -0.019377, 0.012645, 0.049141, 0.063714, -0.066746, 0.095000, 0.027761, 0.045616, 0.036981, -0.003716, -0.035868, 0.067671, -0.007073, -0.005410, 0.025152, -0.068238, 0.070553, 0.005357, 0.018172, 0.023867, 0.054571, 0.065843, -0.082443, -0.066602, 0.058858, -0.067850, -0.070360, 0.079131, -0.079139, 0.034245, -0.091687, 0.053419, 0.056070, -0.050084, 0.041842, -0.003230, 0.015046, -0.068887, 0.069263, -0.073572, -0.009221, 0.049720, 0.012234, -0.013732, 0.046720, -0.063204, 0.078462, -0.064249, 0.059203, -0.056375, 0.076426, -0.059423, -0.015424, -0.076315, 0.010301, -0.011710, 0.052138, -0.070532, -0.067993, 0.007691, -0.052680, -0.083956, 0.008647, -0.023951, -0.030399, 0.037009, 0.070344, 0.059768, -0.068380, -0.087137, 0.013339, 0.010085, -0.054765, 0.031205, -0.058022, -0.027966, 0.054160, -0.013784, 0.068465, -0.013661, 0.049082, -0.086428, -0.044905, 0.001556, -0.088355, -0.054925, -0.032042, 0.078383, 0.072199, -0.034054, -0.042416, -0.021678, -0.072770, -0.087427, 0.087542, 0.029859, -0.072067, -0.044576, 0.003171, 0.034633, 0.059151, -0.022248, -0.062348, -0.059724, -0.036489, -0.010357, -0.005383, 0.031031, 0.086452, -0.014998, -0.001057, -0.003650, 0.107944, 0.092202, 0.068042, -0.054307, 0.013516, -0.066163, 0.060864, -0.026770, -0.052174, -0.015913, -0.032378, 0.015835, 0.082317, 0.073406, -0.043801, -0.019674, 0.002165, -0.089172, -0.051800, 0.075367, -0.044293, 0.065531, -0.025400, 0.060859, -0.028966, -0.025690, -0.087572, 0.085334, -0.114898, 0.046125, 0.003956, -0.059729, 0.031111, -0.042967, -0.041318, 0.049662, -0.005843, 0.023091, -0.104054, 0.068342, -0.093036, 0.053876, 0.002238, -0.092899, -0.016314, 0.024702, 0.034735, -0.001063, -0.039984, -0.063399, 0.010931, -0.021449, -0.071666, -0.075446, 0.066627, 0.066968, 0.014901, 0.038274, 0.076936, 0.018312, 0.076682, 0.031958, 0.105730, 0.063403, -0.042415, 0.070281, 0.010583, -0.023566, 0.035492, 0.014955, -0.001565, 0.001656, 0.011599, 0.051335, 0.002524, -0.028724, 0.026860, 0.023095, -0.084315, -0.029164, -0.056363, 0.008659, -0.061994, -0.025686, 0.038172, 0.017210, -0.048786, 0.002333, -0.035611, 0.000796, 0.066242, -0.051676, -0.093002, -0.087277, 0.059097, -0.043451, 0.050551, -0.030234, -0.000142, -0.014906, 0.010859, -0.092235, -0.000068, 0.039589, 0.031766, 0.066174, 0.007648, -0.066612, -0.060927, 0.020612, 0.019484, 0.035427, -0.000058, -0.027286, -0.038459, -0.044297, -0.014650, -0.048181, 0.077552, -0.054828, 0.001558, -0.097115, -0.001036, -0.050884, -0.023599, -0.004003, -0.008818, -0.084844, -0.043482, 0.025331, -0.011725, 0.025172, 0.001523, -0.069471, 0.033016, -0.065488, 0.012866, 0.089326, -0.022042, -0.024975, -0.054681, -0.075278, 0.030475, 0.079058, -0.047961, -0.052352, 0.052558, 0.021852, -0.005867, 0.002649, 0.057483, 0.011296, -0.025413, -0.048807, 0.032385, -0.000824, -0.046683, -0.016348, -0.043341, 0.065037, -0.036187, 0.007578, -0.013134, 0.051112, 0.048473, -0.026693, -0.043181, 0.031973, 0.074931, 0.025274, 0.040632, -0.035739, 0.032652, -0.013841, 0.051146, -0.015830, 0.019776, -0.076228, 0.058965, 0.075167, 0.011637, -0.029356, 0.007009, 0.060253, -0.030712, -0.025660, -0.000622, -0.035601, -0.018933, -0.058750, 0.011471, 0.035232, -0.065181, -0.002084, -0.043298, 0.068834, 0.063339, -0.001440, 0.060526, -0.008434, -0.066830, -0.074980, -0.046127, -0.095639, -0.007267, 0.078865, 0.013072, 0.090150, -0.001281, -0.000072, 0.111662, -0.007242, 0.010377, 0.058317, 0.107967, 0.001649, -0.036564, -0.105063, 0.018439, 0.036230, -0.070033, -0.106595, 0.092532, -0.053750, 0.019138, -0.077094, -0.065784, 0.080717, -0.040800, 0.041453, 0.081780, 0.061186, 0.001369, -0.092678, -0.043728, -0.029182, -0.009810, -0.034453, 0.027241, -0.076224, -0.083162, -0.072928, 0.042289, -0.066080, 0.000905, -0.082335, 0.042583, 0.007863, -0.047729, 0.084701, -0.047021, 0.052075, -0.006212, 0.084583, -0.034669, 0.021419, 0.064291, 0.003133, 0.091773, 0.056772, 0.022637, 0.031415, -0.047418, 0.096189, 0.055804, -0.060433, -0.008188, 0.021396, -0.064996, -0.003237, 0.009276, 0.069758, -0.017629, -0.029173, -0.067296, 0.013221, -0.030006, 0.011827, -0.014550, -0.088551, -0.004421, -0.075700, 0.072272, -0.039610, 0.026396, -0.056862, 0.063073, -0.069146, -0.063347, -0.001552, 0.043844, -0.044199, -0.039094, 0.057440, -0.018307, 0.005591, 0.017074, -0.046670, 0.031224, -0.063035, -0.047142, -0.038955, 0.053302, -0.008123, 0.059882, 0.008403, 0.060283, 0.004903, -0.027668, 0.014721, -0.080538, -0.055899, -0.049874, -0.048380, 0.094323, 0.012441, -0.030083, -0.058964, 0.014129, -0.049762, -0.051745, 0.059299, -0.034973, -0.028629, 0.035895, -0.009911, 0.019281, 0.015734, 0.008024, 0.058585, 0.014794, -0.032431, -0.017343, -0.021455, 0.000234, 0.023186, -0.038457, 0.004574, -0.014631, 0.027417, 0.002403, -0.041088, 0.077082, 0.024642, 0.001392, -0.061808, -0.027020, -0.060382, -0.016138, -0.091141, 0.045411, -0.067997, 0.086792, -0.043367, 0.016676, -0.039706, -0.004953, 0.001438, -0.041264, 0.025949, 0.063654, 0.047080, 0.067211, -0.007179, -0.053974, -0.026987, -0.057108, -0.001703, -0.065093, 0.044886, 0.030542, -0.073464, -0.059577, 0.041052, 0.090811, -0.094397, -0.007522, 0.050187, 0.039504, -0.030756, 0.017141, 0.077212, -0.036511, 0.085323, -0.019128, 0.012362, 0.023707, 0.011940, 0.010457, 0.060236, -0.004478, 0.057807, 0.100617, 0.060503, 0.039123, -0.002264, 0.002272, -0.035316, -0.112731, 0.057369, -0.070895, 0.025721, 0.063348, -0.012377, 0.000028, -0.035142, 0.039157, 0.043196, 0.014169, 0.002611, 0.019576, 0.025933, -0.056257, -0.073959, 0.103581, 0.086245, 0.039873, -0.069906, 0.009154, 0.012516, -0.069690, 0.022129, 0.064956, -0.051849, -0.031880, 0.010866, 0.000411, -0.067040, -0.005680, -0.073416, 0.014498, -0.040049, -0.058874, -0.062955, -0.020007, -0.020439, -0.083078, 0.008102, 0.021868, -0.078445, -0.017532, -0.045494, 0.055263, 0.014937, 0.015670, 0.072164, -0.039178, 0.090794, 0.038220, 0.018187, 0.058069, 0.022883, 0.030269, -0.059611, -0.089258, -0.028470, 0.082146, 0.086950, -0.092865, -0.065869, -0.010070, -0.064958, -0.010298, -0.061161, 0.025912, -0.051644, 0.055715, 0.042898, -0.030842, 0.039601, -0.028211, -0.014708, -0.080119, 0.050355, 0.051007, 0.028324, 0.012603, -0.071429, 0.031286, 0.108794, -0.032860, -0.033977, -0.046100, 0.041754, 0.043909, 0.020847, -0.063050, -0.049409, -0.075144, -0.089876, -0.022104, -0.090296, 0.057643, -0.072886, 0.060086, -0.097278, -0.085856, -0.031992, 0.057170, 0.000847, -0.107527, -0.022139, 0.033528, -0.062142, -0.013442, 0.077913, 0.046015, 0.052835, 0.047643, 0.052586, 0.056594, 0.088723, -0.025277, -0.022896, 0.032296, -0.056658, -0.002504, -0.124215, 0.060626, 0.026206, 0.026030, 0.048721, -0.016164, -0.118542, 0.046622, -0.017213, -0.010819, 0.066751, 0.076063, -0.021851, 0.026823, 0.012518, 0.037080, 0.056646, 0.015427, -0.048609, 0.024532, -0.095393, 0.022421, -0.045012, -0.024239, 0.030725, 0.084898, 0.000043, 0.058894, -0.050728, 0.054140, 0.121914, -0.045571, 0.033922, 0.006473, -0.065712, -0.063473, -0.027934, -0.060786, -0.071685, 0.065114, -0.064592, -0.050306, -0.070875, 0.018910, 0.007062, 0.056900, 0.006517, 0.009213, -0.063070, 0.075651, 0.052704, -0.062979, 0.010266, 0.103090, 0.015469, -0.004617, 0.074143, 0.032345, 0.003786, 0.019439, 0.018592, -0.001093, -0.061289, -0.008795, -0.020414, 0.028421, 0.039677, 0.050298, 0.105408, -0.076751, -0.031311, -0.008565, -0.056843, -0.053881, 0.051927, 0.078658, 0.001550, -0.034129, 0.081057, 0.000557, 0.029149, -0.052019, 0.036703, -0.042983, -0.008693, 0.049678, -0.052138, 0.023088, -0.109213, -0.040299, -0.047440, 0.063808, -0.000973, 0.031619, 0.071182, -0.031771, -0.036227, -0.022159, -0.009553, -0.051214, 0.002955, 0.050312, -0.054508, -0.081500, -0.049808, 0.042250, -0.027017, 0.035761, -0.034613, -0.060121, 0.009122, 0.032778, 0.014944, -0.009926, 0.074322, 0.010334, 0.027148, 0.017253, -0.089505, 0.063249, 0.030901, -0.050193, 0.096572, -0.054828, -0.014874, -0.028041, -0.099954, 0.048297, -0.054131, -0.007933, -0.060287, -0.066413, -0.026444, -0.097522, 0.093125, 0.030845, -0.021233, -0.059123, -0.078567, 0.098580, 0.029015, -0.061879, -0.000344, 0.007495, 0.025491, -0.041196, -0.070583, 0.054347, 0.033013, 0.004490, 0.003471, 0.001055, -0.092689, 0.023587, -0.031541, -0.051791, 0.016902, -0.034802, 0.106386, -0.040889, 0.057744, -0.060033, 0.112253, 0.026870, 0.060787, -0.058596, -0.100451, 0.091216, -0.061851, 0.066471, 0.056446, 0.078144, 0.006317, -0.054192, 0.026343, 0.044251, -0.053382, -0.008597, -0.029871, 0.040470, 0.063504, -0.032740, -0.046825, 0.102349, -0.008788, -0.079280, 0.080604, 0.047198, -0.071322, -0.053606, 0.012002, 0.014673, -0.012276, 0.023741, -0.056565, -0.058491, 0.053647, -0.065787, 0.065960, -0.021068, -0.080763, 0.057669, -0.072980, 0.006819, -0.030300, -0.035888, -0.037749, -0.035864, 0.047086, -0.003641, 0.044325, 0.006736, 0.053973, -0.017546, -0.047802, -0.022516, 0.015304, -0.079119, 0.066545, 0.050978, -0.031912, 0.098826, 0.058575, 0.029598, -0.047765, 0.037716, 0.109170, 0.065668, 0.042630, -0.000275, 0.024823, 0.038387, -0.067879, 0.013465, 0.042973, 0.077722, 0.017244, 0.020261, 0.044379, 0.049011, -0.052874, -0.026497, -0.022739, -0.043617, -0.024360, -0.021524, 0.089968, 0.070585, -0.028132, -0.002078, -0.027262, -0.005926, -0.060780, -0.084010, -0.007956, -0.035669, -0.021734, 0.001587, -0.078816, -0.017662, 0.011797, -0.028195, -0.017580, 0.063670, 0.032100, 0.008947, -0.032564, -0.002443, -0.023573, 0.045949, -0.045599, -0.044802, -0.043258, 0.059789, 0.064546, 0.093445, 0.115970, 0.060861, -0.061758, 0.003751, 0.074781, 0.036911, -0.016602, -0.003101, -0.017244, 0.068761, 0.030173, 0.087273, 0.082408, -0.038040, 0.077494, 0.005262, 0.054532, 0.022812, -0.075281, 0.078535, 0.080156, -0.023551, 0.045112, 0.052880, 0.035706, -0.005700, 0.027770, 0.074935, 0.054105, 0.033768, -0.051181, 0.034766, -0.052832, 0.115847, 0.102655, -0.049672, 0.037364, -0.112872, 0.070981, 0.005736, -0.056412, -0.033083, -0.077201, 0.029732, 0.011968, 0.054685, 0.014696, -0.109219, -0.011346, 0.036511, 0.100744, 0.027755, 0.024731, 0.046776, 0.009173, 0.087049, -0.033304, -0.031417, -0.043457, -0.023207, 0.040881, -0.098868, 0.089128, 0.075214, 0.090833, 0.055706, 0.082624, -0.044989, 0.056112, -0.068200, 0.042049, -0.099568, -0.035015, 0.077058, -0.047832, -0.040107, 0.036514, 0.031937, 0.041582, 0.109355, 0.010298, -0.108468, 0.020898, 0.085068, 0.026885, -0.060148, -0.013492, -0.036864, 0.106524, -0.051456, 0.009627, 0.030030, -0.035423, 0.039164, -0.049466, 0.037160, 0.061423, -0.020146, 0.114770, -0.008578, -0.028054, -0.067927, 0.027389, -0.091621, -0.023405, -0.057316, 0.058800, 0.042084, 0.053999, 0.071639, -0.056920, -0.024866, 0.004235, -0.080607, 0.009842, -0.038039, -0.003153, -0.060889, 0.031574, 0.019255, 0.014103, 0.010376, -0.018536, -0.026071, -0.066745, 0.020096, 0.104761, -0.055592, 0.070101, 0.044863, -0.043024, 0.083093, -0.020580, 0.051322, -0.002866, -0.035173, -0.007233, 0.067815, 0.039340, 0.005626, 0.008716, -0.014022, -0.042896, 0.020082, -0.025492, -0.003802, -0.024126, 0.045024, -0.051105, 0.015425, 0.038952, 0.008031, 0.054517, -0.027315, -0.014811, 0.081826, 0.017284, -0.010196, -0.056438, 0.043706, 0.037117, -0.000184, -0.006135, 0.038833, 0.076319, -0.082304, 0.030752, 0.082247, -0.013707, -0.064839, 0.048906, 0.045045, -0.005609, 0.014650, 0.004917, -0.065909, 0.061869, 0.053848, 0.040457, 0.117186, 0.081349, 0.046423, -0.036264, 0.049153, -0.003269, -0.032268, -0.021860, 0.063889, -0.091921, 0.031571, -0.045025, 0.096910, -0.021595, 0.057893, -0.049765, -0.013949, -0.040149, -0.053963, 0.003809, -0.009328, 0.125693, 0.028688, 0.043940, 0.001906, 0.127606, 0.098871, 0.084126, 0.040276, -0.071342, -0.076139, -0.017495, 0.046345, 0.007397, -0.038226, 0.128580, 0.103022, 0.030652, 0.050119, 0.078578, 0.115056, 0.078406, -0.108584, -0.027237, 0.125414, 0.029198, 0.019206, 0.034309, -0.059827, 0.000583, -0.120682, -0.057561, -0.031221, -0.003884, -0.109422, -0.011548, -0.043376, -0.034552, 0.027706, 0.020490, -0.092375, -0.096254, -0.044003, -0.013909, 0.086344, -0.031182, 0.070020, -0.091372, -0.006163, 0.011798, -0.092298, -0.071768, 0.061994, 0.039516, 0.027903, 0.006912, 0.050431, 0.082767, 0.084517, -0.049181, 0.082772, 0.022134, 0.041738, 0.078172, -0.082012, -0.034025, 0.060076, 0.000384, 0.018262, 0.024496, 0.021133, -0.021432, -0.035160, 0.033846, -0.065226, 0.074445, 0.098506, 0.004991, -0.055416, -0.047273, -0.001514, 0.050038, -0.075043, 0.051105, -0.047170, 0.000458, -0.035632, 0.020741, 0.045506, 0.076318, -0.015151, 0.046214, -0.037959, -0.085019, -0.004131, -0.073035, -0.026463, -0.068234, -0.018874, 0.014422, -0.068297, -0.016784, 0.040993, -0.097101, 0.034318, -0.059570, -0.002048, 0.013311, 0.040841, 0.050197, 0.068798, -0.062726, -0.042885, -0.038603, -0.023504, -0.035039, 0.004892, -0.012740, -0.066623, -0.039346, 0.062755, 0.055186, -0.053960, 0.053284, -0.072631, -0.000306, 0.015844, 0.024386, -0.063510, -0.045188, -0.014377, -0.075589, -0.057203, 0.082968, -0.031109, -0.086860, -0.086046, -0.044068, 0.044802, 0.026989, -0.037171, -0.073035, 0.003357, -0.006484, 0.041942, -0.004187, 0.057874, 0.059682, 0.066026, 0.022065, -0.049587, -0.018761, -0.014265, -0.007979, -0.049748, 0.009738, 0.044066, -0.006915, 0.031226, -0.006999, 0.088604, 0.062265, -0.052969, -0.025700, 0.001896, 0.001226, -0.007705, 0.007608, -0.049343, 0.021717, -0.058489, 0.035128, 0.061953, 0.047419, 0.009040, 0.031400, -0.023468, -0.066659, 0.002032, 0.055663, -0.046989, 0.078833, 0.067417, -0.001491, 0.047706, 0.005048, 0.026812, 0.065196, -0.029602, -0.075014, -0.018312, 0.033332, -0.034128, 0.068234, -0.059734, -0.043097, -0.018429, 0.020500, -0.092768, 0.044408, -0.043223, -0.007668, 0.005521, -0.068256, -0.000341, -0.010638, -0.025918, -0.044962, 0.015042, -0.007780, -0.068669, -0.078592, -0.044527, 0.069679, -0.066012, 0.030391, -0.011769, -0.107074, -0.061245, -0.083623, -0.014650, 0.028326, -0.001597, -0.054595, 0.002632, -0.103917, -0.039041, -0.060419, 0.033979, -0.015550, -0.030016, 0.060415, -0.060062, 0.072472, -0.011124, 0.045694, -0.050344, 0.068831, -0.029720, -0.004793, 0.072542, -0.059372, 0.005627, 0.033683, 0.026897, 0.033553, 0.017764, 0.025408, 0.034920, -0.013128, -0.068174, -0.002621, -0.092573, 0.057697, 0.099048, 0.022264, 0.068626, -0.091312, -0.062985, 0.072342, -0.094776, -0.037515, 0.090767, -0.005736, -0.045994, -0.005740, 0.010854, 0.031249, -0.075276, 0.066265, 0.058839, -0.022894, -0.104616, -0.079034, 0.075927, 0.031383, -0.058157, 0.042853, 0.026904, -0.007481, -0.010500, -0.065490, -0.048433, -0.070442, 0.029262, -0.021369, -0.058711, -0.040524, -0.039642, -0.014011, 0.040837, 0.042042, 0.019860, -0.060246, -0.000295, 0.058935, 0.082292, 0.001387, -0.010315, 0.015197, 0.016874, 0.022693, 0.002057, -0.054421, -0.031899, -0.113513, 0.076201, 0.066744, -0.016758, 0.042515, 0.061499, -0.050310, -0.116193, -0.059820, -0.091577, 0.072985, 0.003958, -0.040170, 0.085359, 0.046447, 0.054800, 0.017448, -0.030966, -0.026812, -0.046035, 0.053241, 0.052569, -0.001371, 0.046309, 0.037843, -0.000379, -0.032847, -0.003181, -0.099637, 0.066890, -0.079928, -0.072494, -0.030795, 0.031653, -0.096786, 0.032979, -0.028336, 0.020993, -0.026380, -0.014550, 0.067802, 0.056438, -0.001102, 0.104072, 0.024855, 0.011206, -0.026371, 0.029809, -0.056103, 0.103678, -0.075326, -0.047090, -0.035518, 0.041276, 0.069657, 0.056400, 0.050475, -0.073416, -0.003570, -0.089857, -0.087105, -0.008272, 0.048461, -0.069289, 0.112272, -0.017547, 0.067467, 0.042951, 0.036014, -0.037769, 0.039041, 0.015660, 0.014628, -0.035360, 0.027661, -0.007207, -0.051283, -0.046734, -0.015175, -0.006517, 0.002938, -0.039640, -0.037082, 0.012464, 0.008665, -0.007248, 0.011302, 0.051354, 0.088933, 0.054300, 0.016262, 0.009776, -0.003154, 0.047390, -0.008496, 0.014257, 0.049211, -0.038264, -0.087627, 0.008239, 0.100669, 0.028331, 0.048967, -0.043558, 0.042644, -0.056076, -0.032836, 0.049682, -0.003647, 0.040659, 0.006831, -0.055450, 0.004704, 0.060836, -0.002625, -0.108323, 0.016142, 0.036828, -0.003212, 0.048857, -0.078086, 0.066710, -0.011422, 0.034435, 0.100332, -0.029879, -0.045856, -0.017743, 0.005396, 0.037108, 0.013080, -0.068547, 0.063662, -0.038258, 0.018086, -0.033716, 0.010579, -0.110871, -0.071576, -0.033983, -0.056067, -0.006072, 0.048266, -0.078060, 0.018264, -0.024580, -0.046786, 0.008207, -0.005759, -0.055002, -0.061803, -0.012863, 0.099068, -0.027827, 0.062890, 0.002095, -0.006634, 0.047663, -0.073699, -0.001155, -0.110124, 0.063686, 0.048582, -0.052043, -0.090485, 0.066140, -0.000573, -0.006396, 0.093132, -0.044209, 0.005452, -0.013008, 0.053722, 0.057203, 0.070988, 0.030610, 0.053683, 0.020606, -0.014896, -0.033121, -0.066394, -0.098197, 0.029772, 0.036147, 0.085957, 0.040078, 0.055077, 0.019458, -0.040550, -0.015567, -0.002359, -0.042235, 0.076772, -0.005498, 0.013847, -0.095934, -0.060301, 0.083233, -0.075672, -0.075696, -0.020407, -0.105992, 0.036784, -0.062065, 0.036701, 0.104949, 0.002797, 0.024741, -0.008141, -0.029564, 0.091165, 0.013516, -0.083972, -0.015294, 0.048540, -0.084410, 0.056987, 0.013673, -0.015286, 0.055738, -0.046438, 0.072831, -0.047640, 0.017666, -0.071029, 0.030922, -0.025440, 0.025839, 0.036682, 0.054769, -0.043896, 0.018345, 0.059336, -0.091531, -0.099298, 0.066514, 0.055593, 0.025139, -0.045987, 0.090763, -0.010722, 0.021318, -0.003223, -0.037665, 0.031061, -0.031420, 0.044091, 0.026790, 0.045867, -0.094949, -0.000022, -0.089422, 0.029437, 0.024974, 0.044424, 0.027078, 0.003431, -0.078386, -0.035205, 0.019604, -0.026518, -0.015365, -0.108019, -0.063634, -0.067258, -0.043419, -0.060128, -0.025158, -0.038474, 0.032537, 0.068915, 0.062589, -0.025847, -0.061553, 0.079159, -0.096676, 0.051481, 0.007816, -0.069846, 0.009878, 0.095912, 0.010873, -0.043600, 0.022606, 0.010225, -0.070293, -0.091369, 0.046732, -0.087968, -0.004705, -0.034460, 0.050077, 0.075303, 0.024159, -0.076809, 0.004305, 0.068726, -0.053582, -0.044981, 0.037624, -0.003270, -0.017222, -0.106076, -0.029679, 0.061553, 0.041344, 0.066749, 0.041805, 0.003838, -0.106536, 0.063469, -0.054537, 0.029196, -0.054153, 0.019956, 0.087883, -0.018901, -0.044483, 0.016558, -0.089900, -0.055205, 0.029558, -0.017379, -0.080286, -0.040292, 0.099357, -0.077050, 0.028803, -0.059034, -0.115640, 0.036901, -0.013569, 0.029623, 0.051822, 0.070751, -0.071982, 0.017870, 0.008704, 0.000590, -0.113355, -0.022228, -0.043388, -0.041821, -0.070574, -0.031911, 0.001612, -0.101324, -0.051402, -0.092063, 0.058272, -0.106588, 0.003864, -0.004829, -0.036286, -0.025010, -0.044006, 0.012487, -0.005557, 0.002892, 0.038289, -0.043575, -0.018637, 0.027258, -0.006076, 0.032019, 0.026979, 0.035455, 0.109156, -0.042647, 0.053612, -0.078716, -0.080015, 0.001641, -0.067473, 0.044917, 0.111791, -0.027780, -0.037098, -0.081774, 0.086850, -0.047350, 0.005262, 0.113122, 0.006913, 0.022165, 0.094841, 0.084657, 0.035551, -0.005407, -0.023851, -0.017165, 0.017980, 0.022563, -0.030885, 0.070951, -0.096777, -0.061400, -0.020074, -0.022211, 0.039704, -0.067899, 0.026569, -0.020490, -0.016772, -0.057307, -0.057839, -0.008766, -0.043422, -0.031310, 0.140220, -0.081741, 0.011788, -0.111279, 0.039815, -0.096534, -0.057910, -0.054923, 0.127210, -0.010547, -0.072770, -0.137262, -0.040205, 0.010242, -0.075880, 0.036759, -0.056653, -0.114410, 0.069217, 0.016501, 0.001151, 0.048756, 0.075583, 0.068668, 0.121754, -0.040194, 0.043252, -0.050974, -0.060094, 0.060191, 0.096827, 0.092409, -0.029705, -0.055781, -0.046126, -0.062359, -0.000662, -0.040443, -0.001216, 0.010322, -0.022073, -0.077467, 0.054008, -0.058717, -0.038346, -0.013818, 0.058400, -0.054002, 0.034752, 0.063637, -0.062554, -0.042870, 0.010606, 0.051591, 0.071597, -0.019669, 0.035635, -0.077086, -0.020670, -0.038330, 0.079418, -0.021274, -0.012294, -0.059658, -0.045133, 0.046343, -0.018945, 0.078455, 0.084649, 0.014390, -0.045730, -0.006759, 0.047286, -0.039895, 0.068374, -0.072986, -0.037515, -0.070429, 0.011140, 0.020008, 0.002670, -0.037658, 0.062806, 0.001995, -0.001073, 0.039786, -0.015088, -0.005100, 0.015486, -0.018190, -0.032639, -0.061005, 0.031965, -0.061063, -0.063378, -0.035394, -0.011448, -0.037491, -0.041492, -0.010379, 0.021930, 0.070421, 0.009789, -0.065817, 0.056868, -0.043063, 0.036418, -0.064190, -0.031390, 0.049341, 0.001161, 0.022256, -0.028441, -0.032580, -0.000408, 0.075215, 0.054211, 0.087016, 0.060979, 0.047324, -0.010651, 0.016658, -0.034515, -0.032457, 0.043936, 0.024599, 0.056033, 0.069303, -0.021184, 0.025927, 0.064382, -0.019182, -0.044905, 0.062888, -0.008631, -0.013854, -0.059363, 0.040305, -0.067459, 0.030072, 0.043526, -0.050810, -0.081404, -0.041330, 0.008230, -0.020530, -0.030630, 0.040263, -0.046558, -0.054447, -0.041454, -0.038612, -0.025935, 0.056597, 0.012529, 0.019509, -0.002999, 0.068829, -0.038958, 0.056945, 0.009221, 0.056804, 0.031254, 0.081703, -0.066133, -0.069391, 0.007868, 0.038505, 0.074543, -0.046154, 0.013468, 0.065094, -0.073880, -0.008575, 0.053605, -0.027874, -0.007070, -0.081587, 0.041376, 0.071313, -0.071120, -0.034402, 0.048015, -0.011201, 0.022695, -0.052526, -0.014732, 0.009946, 0.100375, 0.075302, -0.047443, 0.045984, 0.012601, -0.049784, 0.098740, -0.020503, 0.039519, 0.027603, 0.040561, -0.000244, 0.083563, 0.047933, 0.058412, -0.029989, -0.070991, 0.064062, -0.041065, 0.038161, 0.022463, -0.000200, -0.047750, -0.073515, -0.020093, 0.096220, 0.007711, -0.058921, 0.024192, -0.065737, 0.010386, 0.000947, -0.102231, 0.055981, -0.025352, -0.098009, 0.076250, -0.064498, 0.015608, -0.006828, 0.076963, 0.036477, 0.028346, 0.072026, 0.017450, 0.050259, -0.041417, 0.028733, 0.004117, -0.024677, 0.005144, 0.017680, 0.044217, -0.055662, 0.044568, -0.017372, 0.075423, 0.070043, 0.022372, -0.017650, 0.042012, -0.067940, 0.043136, 0.058089, -0.015764, -0.023995, 0.083963, 0.018278, 0.072231, -0.060448, -0.052757, -0.074366, 0.076106, 0.017289, -0.036338, 0.046879, -0.049958, -0.039771, 0.079873, -0.014166, -0.050479, 0.047534, 0.042911, -0.025793, -0.030108, -0.042424, -0.061700, 0.050493, 0.011126, 0.009266, -0.047521, 0.051078, 0.014108, 0.101940, 0.070231, 0.093950, 0.062063, -0.022182, 0.068296, -0.054376, 0.048742, 0.002262, 0.010055, -0.006443, -0.040216, 0.016577, 0.013738, 0.069424, 0.007948, 0.000505, -0.044258, -0.024764, -0.061803, -0.051416, 0.017769, 0.007594, 0.047849, -0.095674, 0.009491, -0.000970, -0.006000, -0.033132, -0.041823, -0.027659, 0.017682, -0.037693, 0.030178, 0.047380, 0.028621, 0.073488, 0.017451, 0.068746, 0.048209, -0.013372, -0.048954, -0.053501, -0.052831, 