//Numpy array shape [896, 8]
//Min -0.154031202197
//Max 0.147319763899
//Number of zeros 0

#ifndef W16_H_
#define W16_H_

#ifndef __SYNTHESIS__
dense_weight_t w16[7168];
#else
dense_weight_t w16[7168] = {0.0230013728, 0.0406903848, 0.0277618710, 0.0581434257, 0.0668466091, -0.1078503281, -0.0668716058, -0.0946692005, 0.0005673327, 0.0243167765, 0.0137104020, -0.0983093530, 0.0274255462, 0.0463500954, 0.0666571781, -0.0639444962, -0.0323898308, -0.0565913282, -0.0802544430, 0.1049573347, 0.0222320929, -0.0107032862, 0.0649591684, -0.0935430005, 0.0217226874, -0.0897163004, -0.0235507693, 0.0063152052, 0.0425493605, 0.0821661949, 0.0038028196, -0.1196553931, 0.0153351193, -0.0514472686, -0.0311834794, 0.0030681882, 0.0544548854, 0.0192304514, 0.0527550802, -0.1084423065, 0.0098379599, -0.0438959152, 0.0887098536, -0.0149440262, -0.0854474157, -0.0170893539, 0.0031186063, -0.0498120189, 0.0357524678, -0.1012308970, -0.0959736481, 0.0228516851, -0.0126507375, -0.0932153761, -0.0245461930, -0.0790525451, -0.0146464836, 0.0205243565, -0.0834486410, -0.0533855669, -0.0506941043, 0.0010691356, 0.0634977147, 0.0073538800, 0.0736334100, 0.0073250062, -0.0633954927, 0.0073916409, 0.0063376734, -0.0258139186, 0.0750059038, 0.0425876938, 0.0457499549, 0.0319595411, -0.0018535493, -0.0807917416, -0.0144994678, 0.0621407256, 0.0106561389, -0.0524198450, -0.0369896144, -0.0306210555, -0.0811044648, 0.0731162131, 0.0861762315, -0.0020901226, 0.0719642267, 0.0551514700, 0.0013494225, 0.0505980141, -0.0359991677, 0.0332066566, -0.0558233373, -0.0458317660, -0.0059687467, -0.0654387325, -0.0129280593, 0.0570726059, -0.0774809271, -0.0421600416, 0.0344646461, 0.0243575908, 0.0372060649, -0.0577141568, -0.0553897358, -0.0689328536, -0.0266801268, -0.0477768034, -0.0771813691, 0.0926571786, -0.0867714286, -0.0113952830, -0.0540011711, -0.0150545631, 0.0144328354, -0.0273770671, 0.0399153717, -0.0587999672, 0.0814779475, -0.0451544300, -0.0715271160, -0.0409689806, -0.0575071611, 0.0733722225, 0.0621047355, -0.0002312706, -0.0698147938, 0.0651819929, 0.0258971211, -0.0172977522, 0.0065213139, -0.0400720872, -0.0211835150, -0.0371374264, 0.0036165973, -0.0449591838, 0.0977676958, 0.0303085204, 0.1153733805, -0.0065425108, -0.0247743800, -0.0024112493, -0.0950810313, 0.0532102585, 0.0279528610, 0.0416140631, 0.0388059318, 0.0225447267, 0.1076371968, -0.0877813995, 0.0561263077, 0.0471553691, -0.0414467119, -0.0010332807, 0.0233301669, 0.1098231375, 0.0621610768, 0.0028687511, -0.0119535709, -0.0259071365, -0.0446231030, 0.0337782055, -0.0758685395, -0.0844701529, 0.0281843338, -0.0004222592, -0.0417533368, -0.0658707768, 0.0657199025, -0.0014305054, 0.0125331115, 0.0325460099, -0.0138873700, 0.1257571280, 0.0053656911, 0.0667087957, -0.0554028489, 0.0071589733, 0.0067290384, -0.0462294109, 0.0484616086, 0.0035089161, -0.0156727191, -0.0067399363, -0.0484110937, -0.0092272200, -0.0643451214, -0.0033037735, 0.1137320995, 0.0508341677, 0.0036692359, -0.0347740166, -0.0998790860, -0.0720367134, 0.0347583182, -0.0077240928, 0.0041519911, -0.0756537914, -0.0476907454, -0.1077838093, 0.0558347180, -0.0157279056, -0.0106606400, -0.1178592741, 0.0668501854, -0.0550210476, -0.0290099345, 0.0079852045, -0.0571546927, 0.0085593583, 0.0147775281, -0.0209977124, -0.0038263982, -0.0111335907, -0.0084326165, 0.0106220469, -0.0216550361, 0.0223720912, -0.0846378058, 0.0192684885, -0.0291909631, 0.0115592638, 0.0975563377, -0.1032742932, 0.0174237080, -0.0196867120, -0.0443427823, 0.0365586765, 0.0353244245, -0.0068370504, 0.0283542648, 0.0116640283, 0.0837405697, -0.0217045937, 0.0670817271, -0.0272843745, 0.0292953271, 0.0644149184, -0.0846674144, 0.0837493092, 0.0433967225, -0.0440774523, -0.0162713360, -0.0006801115, 0.0333561786, 0.0417675935, 0.0130024040, -0.0713443533, -0.0567408837, -0.1189895868, -0.0054967706, 0.0782764405, 0.0866816118, 0.0738150477, -0.0635804087, -0.0090225078, -0.0738303140, 0.0209357925, -0.0281526130, 0.0469038635, -0.0139186969, 0.0562332459, -0.0545116998, -0.0872126222, 0.0791215152, -0.0072878022, 0.0602022782, 0.0126169734, 0.0647035241, -0.0319643579, -0.0329720490, 0.0807772428, -0.0435517989, -0.0334337689, -0.0553816929, 0.0489247255, 0.0662234649, -0.0208713599, 0.0292440876, -0.0397710167, 0.0377087705, 0.0319593288, -0.0471542962, -0.0133265136, -0.0381555483, 0.0205952320, 0.0546142831, -0.0434348024, -0.0145750735, 0.0275797173, -0.0295294691, 0.0145814549, -0.0539882779, 0.0434037335, -0.0198615268, 0.0507256053, -0.0623657182, 0.0599188693, -0.0083731059, -0.0382091329, 0.0088561503, 0.0049345358, 0.0556017235, 0.0607524142, 0.0000444043, 0.0817761123, -0.0578834265, 0.0411301702, -0.0102617294, -0.0661206841, 0.0027660199, -0.0672665164, -0.0253448207, -0.0808465332, -0.0237417612, -0.0554736331, 0.0926850140, -0.0530602522, -0.0584045574, 0.0022741419, -0.0137994746, 0.0098493863, -0.0116676642, 0.0005117574, 0.0820833445, 0.1044503525, 0.0155018475, 0.0206482913, 0.0851564333, -0.0305135734, 0.0353620462, -0.0612874888, -0.0431070328, -0.0029471808, -0.0933435038, -0.0245531276, 0.0300348327, 0.0402287208, -0.0696320534, 0.0305602774, 0.0110855633, -0.1069092676, 0.0404676460, -0.0395463631, 0.0283293147, -0.0084952125, -0.0463550203, -0.0171724055, -0.0017295867, 0.0225547738, -0.0598780960, -0.0113845794, -0.0065679951, 0.0257739555, 0.0910429060, 0.0688635334, 0.0443283990, -0.0615641773, 0.0185615513, 0.0765678436, 0.0121067222, -0.0260116234, -0.0060885623, 0.0138023654, -0.0722349435, -0.0044763428, -0.0606722757, 0.0571855456, -0.0613505952, 0.0383109972, -0.0518787317, -0.0414934866, -0.0492721647, -0.0709769204, -0.0240073968, -0.0742734820, 0.0480460525, 0.0009322033, -0.0602995679, 0.0169163104, 0.0496099703, 0.0646750629, -0.0858607963, -0.0538032912, 0.0179369394, -0.0231667366, 0.0148218824, 0.0777722672, -0.0314115323, 0.0241204482, -0.0674417540, -0.0731198862, 0.0837723836, 0.0279878546, -0.0099490592, -0.0477846339, -0.0503668077, 0.1095933393, -0.1394290030, -0.0338648036, -0.0548032336, -0.0442312881, -0.0627454668, -0.0398641787, 0.0835140198, -0.0373472944, 0.0517951585, 0.0524624139, 0.0367023163, -0.0582225546, -0.0395551696, -0.0111827524, -0.0474753380, -0.0405119918, 0.0321241692, -0.0244981479, 0.0605201609, -0.0705874786, 0.0374328233, -0.0288228188, 0.0527746305, 0.0201784894, -0.0589884967, -0.0149977934, -0.0357327387, 0.0723766237, 0.0476922654, -0.0482934192, -0.0590774640, -0.0094305491, -0.0681928992, -0.0764345601, -0.0035230296, 0.0366230719, 0.0036308640, 0.0949059129, 0.0315028317, 0.0278074592, 0.0057160179, 0.0326142348, 0.0179634858, 0.0812853277, 0.0482254215, -0.0656595975, 0.0178483874, -0.0238063112, -0.0464049429, -0.0634029061, 0.0579892695, -0.0510411672, 0.0168116931, -0.0355057605, 0.0418741144, -0.0954721645, -0.0284947604, 0.0588083863, -0.0109959748, -0.0253247526, 0.0074460986, -0.1094651818, 0.0006551510, 0.1104378179, 0.0317555629, 0.0583589152, -0.0194657147, -0.0461802930, 0.0424477644, 0.1216462180, -0.0042444365, -0.0663088709, 0.0635183752, -0.0911496803, 0.0243893731, -0.0722137094, 0.0404481106, -0.0445679724, 0.0230860095, 0.0319114625, 0.0058007548, -0.0166335981, -0.0006400327, 0.0083707292, -0.0449470766, -0.0756519884, -0.0517604351, -0.0313078538, -0.0809784457, -0.0494364165, -0.0105921216, 0.0402719155, -0.1083553284, -0.0335222781, -0.0338609107, 0.0729021132, 0.0476696379, 0.0206623748, 0.0029452040, 0.0752850771, -0.0563297309, 0.0446992666, -0.0396588221, 0.0172295533, 0.0310533047, 0.0323590338, 0.0926630273, 0.0157345850, -0.0398202315, 0.0625423416, -0.0080676684, 0.1154134274, 0.0779508650, 0.1048487425, -0.0711899400, 0.0376649462, 0.0203615762, -0.0886594057, 0.0820653960, 0.1127223000, 0.0160631500, 0.0026753307, 0.0304412264, 0.0247555450, 0.0396457799, -0.0160816126, -0.1010922641, -0.0066313539, -0.0431619324, 0.0164997559, -0.0699777752, 0.0720940158, -0.0472927615, 0.1028633639, 0.0131558916, -0.0698090941, -0.0838756487, 0.0330341794, -0.0061202850, 0.0135940844, -0.0795276538, -0.0148063749, 0.0462926477, -0.0562877394, -0.0789232180, 0.0444067046, -0.0822014436, 0.0863753483, 0.0512003079, -0.0019488075, 0.0299655162, 0.0358750857, -0.0195682514, -0.0005101819, -0.0639266297, -0.1016348377, 0.0240648203, 0.0004462558, 0.0354265310, 0.0811421797, 0.0461409576, 0.0729964450, -0.0250295177, -0.0386916362, -0.0495724604, 0.0822637603, 0.0206805654, 0.0460208356, -0.0370596126, -0.0440690704, 0.0723829195, -0.0529384650, -0.0630817413, 0.0477538668, -0.0984420702, 0.0931678861, 0.0193058234, -0.0009079076, 0.0275406484, 0.0129606761, 0.0615643412, -0.0546131432, -0.0153760696, -0.0019631139, -0.0713122040, 0.0378541909, 0.0171153229, -0.0171559174, -0.0122765256, -0.0564384088, 0.0561820604, 0.0139995730, 0.0115161575, -0.0576619953, -0.0198253561, -0.0047410489, -0.0660048798, 0.0149304625, 0.0262080543, -0.0563363768, 0.0725355446, -0.0511432737, -0.0703276023, 0.0610959940, -0.0483449101, -0.0749097690, -0.0741041750, 0.0120579842, 0.0397419594, 0.0298735444, -0.0151383942, -0.0642099082, 0.0514483713, -0.0035440163, 0.1020189747, 0.0063040219, 0.0466990024, 0.0367009938, -0.0505249389, 0.0606412254, -0.0477429852, -0.0594570041, 0.0332472026, 0.0521300249, -0.0021157444, -0.0753569901, -0.0541495979, -0.0269710626, 0.0100343805, -0.0755635425, -0.0215073749, 0.0076506343, -0.0807042643, 0.0592889003, -0.0669468343, -0.0336465500, 0.0148157086, -0.0186365247, 0.0353667177, 0.0478717498, 0.0338208042, -0.0469951294, -0.0021836881, 0.0254698396, -0.0429532751, 0.0551606305, 0.0032692880, 0.0815330148, -0.0430394262, 0.0574374348, 0.0640612915, -0.0202877484, -0.0755698457, 0.0579145476, -0.0284540839, -0.0353011154, 0.0098768519, 0.0361345150, -0.0587562323, -0.0796496719, 0.0737561956, -0.0808085948, -0.0538324863, -0.0765893608, -0.0276478790, 0.0468200222, 0.0470024161, -0.0131299375, 0.0138184642, 0.0447323024, -0.0574929379, 0.1001353115, 0.0161424074, 0.0174394138, 0.0185260512, -0.0058135567, 0.0321121141, 0.0748782456, -0.0454952195, 0.0260468461, 0.0379602350, -0.0182207935, 0.0555111393, -0.0686330274, 0.0463110618, -0.0402820483, -0.0783983320, 0.0021307385, 0.0550479144, 0.0045208493, 0.0328991488, -0.0524939932, 0.0479395203, -0.0364962183, 0.0666050613, 0.0228861608, 0.0723371580, -0.0172243398, 0.0336033590, -0.0684050173, -0.0613357536, 0.0346472561, -0.0873605981, -0.0534304604, -0.0315771252, -0.0430328473, -0.0536475293, -0.0615085773, -0.0165047683, 0.0771381557, 0.0348987356, -0.0397580452, -0.1055945307, -0.0504814945, -0.0325888656, -0.0386921018, -0.0407473743, 0.0805053189, -0.0134530142, -0.0417962819, -0.1177741811, 0.0778011978, -0.0247557722, 0.0477446094, 0.0147717278, 0.0106549170, -0.0508896746, 0.0695709363, 0.0116644520, 0.0471710898, 0.0351304300, -0.0257807635, -0.0702333301, -0.0622473694, -0.0701255649, -0.0042906594, 0.0091440128, 0.0381048322, -0.0454345644, -0.0835175216, -0.0476770289, 0.0022075698, -0.0894096419, 0.0145675717, -0.0432271436, 0.0371670574, 0.0965229571, -0.0145533485, -0.0875137523, -0.0457327105, 0.1039906591, -0.0845653713, 0.0604286790, 0.0103240106, 0.0459625013, -0.0020408418, 0.1049076021, -0.0177239645, 0.0175422318, 0.0022747752, 0.0398899131, -0.0003291862, 0.0472983643, -0.0657004789, -0.0584671758, 0.0155760655, 0.0377537645, 0.0207332950, 0.0695599169, 0.0023408826, -0.0308508035, -0.0535830744, 0.0310578924, -0.0269485041, -0.0338861980, 0.0057621715, 0.0077694980, 0.0153456442, 0.0223185662, -0.1007789522, 0.0217774007, -0.0028978046, 0.0639483556, 0.0647357553, -0.0193885807, 0.0234865062, 0.0535105988, -0.1076190919, 0.0812276825, -0.0418908522, 0.0009408906, 0.0029975050, 0.0382642262, 0.0240896400, -0.0295626335, -0.0671904534, -0.0675055310, 0.0684498921, -0.0652162880, 0.0693251714, 0.0312777832, -0.0617121495, 0.0431983322, -0.0770697296, -0.0977388248, -0.0425572395, 0.0412401408, 0.0160303973, -0.0801384822, -0.0142032914, 0.0145292133, -0.0084509598, 0.0572074465, 0.0469894819, 0.0788550228, 0.0482619368, -0.0797122046, -0.0592597201, 0.0256954562, 0.0483777598, -0.0376766101, 0.0009034089, -0.0630977228, 0.0718534812, -0.0228450149, 0.0898179635, -0.0704652518, 0.0888746679, 0.0244750958, 0.0503484644, 0.0212939866, 0.0500958376, 0.0731890053, 0.1061104760, 0.0654004216, 0.0525482148, 0.0609178469, -0.0800894052, -0.0068232385, -0.0010446309, 0.0631798357, 0.0159828980, 0.0268518422, -0.0151312146, -0.0068925568, -0.0251723677, 0.0173835866, 0.0481577292, -0.1020283774, -0.0526040271, 0.0029174823, 0.0265051648, -0.0241113845, -0.0537722744, 0.0104002664, 0.0362147465, 0.0972564667, 0.0619893484, -0.0597434565, -0.0508517213, 0.0058375071, 0.0137285329, -0.0535238311, -0.0530626327, 0.0181018338, 0.0396065898, -0.0814286470, -0.0663679764, 0.0074414513, 0.0223141573, -0.0711380467, -0.0039216615, 0.0658991337, 0.1100510061, 0.0377955064, 0.0513911434, -0.0062932093, -0.0252558812, -0.0434325561, 0.0491162091, -0.0535101444, -0.0279792808, -0.0516692773, -0.0745329857, -0.0056090439, 0.0107273078, 0.0432808883, 0.0458319969, 0.0112339910, 0.0583268367, 0.0097691752, -0.0616477281, 0.0236899480, -0.0656057298, -0.0892644376, 0.0659692958, 0.0656715482, 0.0728507638, -0.0051575662, -0.0238817688, 0.0907415301, 0.0008069898, -0.0056885234, 0.0372554176, 0.0362430178, 0.0372762941, 0.0434762165, 0.0688583851, 0.0391258858, 0.0162835568, 0.0193548054, -0.0015045097, -0.0033379907, -0.0873035565, -0.0393795669, -0.0680161193, -0.0210052878, -0.0264569446, -0.0007828439, 0.0781661347, -0.0538541675, -0.0324346535, -0.0384671278, -0.0580120236, -0.0272648167, -0.0595180988, -0.0651196837, -0.0500645228, 0.0060261358, 0.0920145065, 0.0821403638, -0.0086703422, 0.0713090077, -0.0790830553, 0.0621878095, 0.0692751035, 0.0570573881, 0.0187050551, 0.0460337810, -0.0251746438, -0.0553977154, 0.1226837710, -0.0249748938, -0.0227012374, 0.0862532854, -0.0093876375, -0.0743045583, 0.0317263938, -0.0305384733, 0.0304314625, -0.0441973731, 0.0758909509, 0.0241156593, 0.0768525749, -0.0389337614, 0.0798583701, -0.0061833654, -0.0441619419, 0.0718006194, 0.0433005281, 0.0543841310, -0.0334503539, -0.0490458533, -0.0173175149, 0.1014038920, -0.0208908934, -0.0630664229, 0.0482367277, -0.0424170457, 0.0966470763, -0.0425744653, 0.0589009784, -0.0379002281, 0.0075847367, -0.0050805057, 0.0547114387, 0.0680547282, -0.0052289115, 0.0146514671, 0.0575927310, -0.0006894373, 0.0547585562, -0.0570858121, 0.0662268847, 0.0265286472, -0.0053033014, 0.0977546945, 0.0598955043, -0.0463969819, 0.0535162762, 0.0062147700, 0.0265758988, -0.0621204749, 0.0174364857, 0.1099203005, 0.0432502106, 0.0552554838, -0.0039436184, -0.0226598158, 0.0829107612, -0.0016096742, -0.0773590878, -0.0977625176, -0.0487633757, -0.0016589855, 0.0470301509, 0.0414609127, -0.1055708230, -0.0149259223, -0.0817264095, 0.0357774459, 0.0434580520, 0.0481825247, 0.0164993815, -0.0708895400, 0.0615358502, -0.0385309830, 0.0378083475, 0.0777429938, 0.0310244262, 0.0029424177, 0.0226688292, -0.0745355785, 0.0219430327, -0.0749156103, -0.0587317199, -0.0058456706, 0.0781232044, 0.0441749059, -0.0509698354, 0.0102746300, -0.0735854283, 0.0225222148, 0.1000204086, 0.0276358854, 0.1309773326, -0.0705626681, 0.0695560873, 0.0874112919, -0.0006311288, 0.0498384312, -0.0977029875, 0.0921764746, 0.0043534110, 0.0802769959, -0.0220335145, -0.0051549016, 0.0131464293, -0.0381887779, -0.0470191427, -0.0270920116, 0.0975941345, 0.0524166226, -0.1102453396, -0.0940094292, 0.0410519950, -0.0508594736, 0.0556056462, 0.0207618438, 0.0606401674, -0.0106467959, 0.0880993903, 0.0092895543, -0.0136206625, -0.0270671193, 0.0496932529, -0.0765353963, -0.0003757010, -0.0802473202, -0.0247061960, -0.0520462431, -0.0543361232, 0.0512237586, 0.0169800427, 0.0623323135, 0.0886240900, 0.0144636873, 0.0251250453, 0.0159806814, 0.0564019606, 0.0062205652, 0.0750657618, -0.0453207232, 0.0348037854, 0.0709495693, -0.0503269657, -0.0565769412, -0.0860059485, 0.0056724716, -0.0373013727, 0.0144629879, 0.0185665283, -0.0213685893, -0.0125880223, -0.0016642597, 0.0678763986, 0.0369553231, 0.0875095502, -0.0002815400, 0.1015486494, -0.1540312022, 0.0786839277, -0.0593674369, -0.0370647982, 0.1017114520, -0.0517526343, -0.0410525762, -0.0361271389, 0.1387802511, 0.0426794663, -0.1057767048, 0.0862041861, -0.1072530001, 0.1326212585, -0.0437807217, -0.0388565436, 0.0104201734, 0.0032629289, -0.0733259991, 0.0222508032, -0.0895837247, 0.0701012090, 0.0759796724, -0.0850114748, 0.0197543334, 0.0919927880, -0.0306133274, 0.1127269268, 0.0691269562, 0.0230713226, 0.0454267338, 0.0701080635, -0.1005757228, 0.0965733007, 0.0826045275, 0.0108094187, 0.0297245122, 0.0520769060, 0.0266828220, 0.0090349941, 0.0513313524, -0.1064789817, -0.0646207407, 0.0622753762, -0.0107721630, 0.0552099496, 0.0110478895, 0.0588628612, 0.0802513063, -0.0779502690, 0.0720282272, -0.0477987751, -0.0859422088, 0.0072561721, -0.0461648703, -0.0607776009, -0.0243990477, -0.0515122004, -0.0529670231, 0.0308196098, -0.0594317466, 0.0561689287, 0.0241389275, 0.0552913621, 0.0609398112, -0.0198954549, -0.0523980670, 0.0097710025, 0.0567414574, 0.0513043664, 0.0162780415, 0.0368963443, 0.0652502924, -0.0593641885, -0.0666593611, 0.0113526797, -0.0190569237, -0.0743363053, -0.0731664672, -0.0208407380, 0.0099153938, -0.0700606406, 0.0086422721, 0.0145045649, -0.0069748694, 0.0045551592, 0.1064051986, 0.0557180196, -0.0231022164, 0.0711904094, -0.0187881626, 0.0631421730, 0.0176939256, -0.0992076769, -0.0004242923, -0.0365213230, -0.0394963957, 0.0604525469, 0.0616160668, -0.0219945256, -0.0969918892, -0.0341139026, -0.0710005462, -0.0519468300, 0.0573924370, -0.0799888000, 0.0216042139, 0.0137828654, 0.0670498610, 0.0113606732, -0.0289212577, 0.0156482738, -0.0133713987, -0.0964021683, -0.0536835641, -0.0881926939, -0.0017935782, -0.0027566515, 0.0689114332, -0.0652774349, -0.0308096968, -0.0189537611, -0.0130803036, 0.0132404678, 0.0687336698, -0.0274778381, -0.0298554916, -0.0645195246, -0.0382522941, -0.0652211383, 0.0959499329, 0.0067044711, 0.0969095752, 0.0070613935, -0.0118974866, -0.0058714412, 0.0681953505, 0.0220009983, -0.0684593245, -0.0076602176, -0.0857287198, 0.0808725283, 0.0838678703, 0.0046887072, -0.0415208302, 0.0034231280, 0.0582398139, 0.0342063643, 0.0075654197, 0.0701882392, 0.0782395452, -0.0154838972, 0.0248393212, -0.0572256334, 0.0232979022, 0.0667874664, 0.0079498580, -0.0093300352, 0.0383787565, 0.0802179426, -0.0135066397, -0.0628951788, -0.0006205942, 0.0161137264, -0.0627841502, 0.0532418378, -0.0735328943, -0.0461119600, 0.0626250654, -0.0257557295, 0.0101302136, 0.0976468027, 0.0006507257, 0.0712514147, 0.0377094001, -0.0176478140, 0.0327611901, -0.0284303632, -0.0003993861, 0.0449260734, 0.0082636625, 0.0943337977, 0.0695051998, 0.0102510396, 0.0061731017, -0.0438289009, -0.0317126513, -0.0124911861, 0.0714358240, -0.0734696314, -0.0266346000, 0.0016398625, -0.0495297909, -0.0171450190, 0.0285788924, -0.0521777384, 0.0252685118, 0.0000955653, 0.1038250998, -0.0119998688, 0.0743820220, -0.0425994992, -0.1000124887, 0.0642294213, -0.0529133081, -0.0628611520, -0.0256282259, 0.0248095598, -0.0008629414, -0.0247078594, -0.0258638877, 0.1020326614, -0.0804274678, -0.0314625651, -0.0412695855, 0.0907326415, 0.0528430082, 0.0178180393, 0.0843409598, -0.0484002680, -0.0630530044, -0.0576664396, 0.0189348999, 0.0771821290, -0.0918311849, 0.0706638247, 0.0161085278, -0.0414808802, 0.0124856681, -0.0932220966, -0.0676209629, 0.0546824262, 0.0126143610, 0.0370678939, -0.0215198155, 0.0599248372, -0.0947795510, 0.0482685901, 0.0725510791, 0.0708709508, -0.0204928070, 0.0045602052, -0.0112883355, 0.0271486547, 0.0229504146, 0.0965845883, -0.0145945568, -0.0635783076, 0.1182982996, 0.0187447164, 0.0878998786, -0.0223567840, -0.1012719125, -0.0199531503, 0.0502003431, -0.0441087894, 0.0515088029, 0.0828599855, -0.0122703062, 0.0238235947, 0.0112486565, -0.0811346918, -0.0290405471, -0.0465618297, 0.0445292667, -0.0063594803, -0.0781191736, -0.0330071524, -0.0366036519, -0.0301392786, -0.0552884899, -0.0159229878, 0.0608403198, -0.0102327792, -0.0051295664, -0.0105431937, -0.0146975713, 0.0476127751, -0.0423564389, 0.0806958824, -0.0485251695, -0.0317817293, -0.0031528801, -0.0688491538, -0.0272656847, -0.1014906690, 0.0013201074, -0.0742204040, 0.0667651221, -0.0569137782, -0.0692989528, 0.0691624358, 0.0991169736, 0.0884454921, 0.0472330414, -0.0008773669, 0.0293991901, -0.0320961885, 0.0322706997, -0.0763734728, -0.0549554341, 0.0488184541, -0.0448626056, 0.0334640294, 0.0604677610, 0.0839158595, -0.0049488214, -0.0148310391, -0.0103179216, 0.0239269249, 0.0688495860, -0.0461257026, -0.0155769400, -0.0486274287, 0.0141462879, 0.0302886982, -0.0849051178, 0.0366649814, -0.0590357929, 0.0381369665, -0.0807580948, -0.0634193569, 0.0081418129, -0.0842277110, -0.0556688234, 0.0657530874, 0.0512557328, 0.0407065600, -0.0671436116, 0.0410837717, -0.0227868576, -0.0419186540, 0.0321927257, 0.0086585507, -0.0425272249, -0.0503158607, 0.0974741429, 0.0808554888, 0.0881130844, 0.0466818027, 0.0344440304, -0.0157949124, -0.0260027032, 0.0403264835, -0.0977387130, 0.0792894438, 0.0219707377, -0.0298968200, 0.0100678587, -0.0034393072, -0.0502983369, -0.0111544076, 0.0780520812, -0.0553481951, 0.0731891766, 0.0260551088, -0.0569700114, 0.0229486562, 0.0197660904, 0.0159555376, -0.0728346631, -0.0759446695, 0.0601419099, -0.0385929346, 0.0415953770, 0.0116216531, -0.0425089300, -0.0774131119, 0.0455604494, 0.0137673290, 0.0471715294, 0.0379832573, -0.0483289473, 0.0484818071, 0.0596440621, -0.0477705970, 0.0716246516, -0.0326203182, -0.1050947234, -0.0057064337, -0.0032634113, -0.0178467650, 0.0663305223, 0.0669440404, 0.0119257485, -0.0510032177, 0.1002528220, -0.0338325836, 0.0347402319, 0.0218796618, -0.0007034480, 0.0719865933, 0.0901659206, -0.0344701372, -0.0714014918, -0.0424349122, -0.0079540536, 0.0843792260, 0.0496495403, -0.0522063822, -0.0053842315, 0.0445574671, 0.0483611226, -0.0897281542, -0.0309850760, 0.0491484180, -0.0183715709, 0.0770161450, -0.0044850302, -0.0077693444, -0.0907397047, -0.0719019398, -0.0821078122, -0.0829989240, 0.0148507552, 0.0660319105, 0.0386940166, 0.0440795720, -0.0665419176, -0.0064935931, 0.0523031652, -0.0335111953, -0.0233517438, -0.0239316747, 0.0334301591, -0.0774360374, -0.0898317620, 0.0299224462, 0.0159920007, 0.0129415412, 0.0435046703, -0.0698653460, -0.0597311966, -0.0746490359, 0.0074538277, -0.0119548971, -0.0292453580, -0.0545586422, 0.0326674394, 0.0627195090, -0.0131176012, -0.0548445843, -0.0226497818, 0.0285932906, 0.0658999532, 0.0565954112, 0.0376876630, -0.0087230410, -0.0256450735, 0.0073829005, -0.0234163515, -0.0115006398, 0.0789152905, 0.0696190521, 0.0549947731, 0.0270268489, -0.0017171312, 0.0394058190, 0.0019891735, -0.0410170481, -0.0426747426, 0.0422068313, 0.0588472523, 0.0425306186, 0.0222698320, -0.0417793170, -0.0193345062, 0.0155505072, 0.0743428320, -0.0609353893, -0.0246198196, -0.0513275340, 0.0364474021, -0.0233966634, -0.0359537750, -0.0269458611, 0.0455012582, 0.0301536322, -0.0296705160, 0.0089581301, -0.0187869072, 0.0799059346, 0.0400704779, -0.0052272333, 0.0485313348, 0.0635592341, -0.0689264610, -0.0085940138, -0.0504999086, -0.0505907051, 0.0534072556, -0.0486300439, -0.0600609370, 0.0826685950, 0.0260253921, -0.0136451907, 0.0794514641, 0.0255404841, 0.0516975410, 0.0165370516, -0.0631964281, -0.0219983403, -0.0189995691, 0.0214803461, 0.0226894356, 0.0712505654, 0.0321358219, 0.0809759051, 0.0640257150, 0.0513286665, 0.0504368171, 0.0924099833, -0.0356145278, -0.0357736349, -0.0190042760, 0.0611073971, 0.0822315514, 0.0255948938, 0.0006217262, 0.0985398963, 0.0196492951, 0.0196140669, -0.0874154940, 0.0470271334, 0.0543143377, 0.0297077559, -0.0055683488, 0.0345776677, -0.0359160341, 0.0500060990, 0.0244497638, 0.0736882836, 0.0159489792, 0.0402849726, 0.0204582661, -0.0381494947, 0.0590995289, 0.0573859103, 0.0304399915, 0.0061417073, -0.0099705877, -0.1368993670, 0.0507185906, -0.0273191761, 0.0123042213, -0.0708405599, -0.0118915020, 0.0109338257, 0.0162487347, 0.0621489845, -0.0296445396, 0.0311576091, -0.0162960682, 0.0519785360, 0.0995696336, -0.0506395921, -0.0117923068, 0.0176765416, -0.0321018845, 0.0708773062, -0.0109930607, 0.0362681672, -0.0078844335, 0.0306749735, 0.0075980593, -0.0403345376, -0.0280745421, 0.0317284949, 0.0462220423, -0.0143796941, -0.0233862232, 0.0711340681, -0.0652432963, -0.0776443928, 0.0505991690, -0.0268694498, -0.0195489451, -0.0671620369, 0.0106068552, 0.0581447333, -0.0656693354, -0.0261791442, 0.0369961560, 0.0113861291, -0.0450594686, 0.0089036170, 0.0651080683, -0.0555235595, 0.0345058814, -0.0130580049, -0.0080959210, 0.0275677200, 0.0531780161, 0.0668640882, -0.0666683167, -0.0293511208, 0.0479387790, 0.0466476381, -0.0934623182, -0.0256468244, 0.0961134434, 0.0333962142, 0.0500231609, -0.0826806054, -0.0545620024, 0.0117556909, -0.0157711264, 0.0479555875, 0.0247272532, -0.1290893853, 0.0450000167, -0.0319573916, -0.0909592286, 0.0090901442, 0.0074860379, -0.0386133865, 0.0002144083, -0.0129285958, 0.0688096508, -0.0720279664, 0.0277616009, -0.0076275426, 0.0464994498, 0.0070151673, 0.0429575816, -0.0427369140, 0.0301713552, 0.0842030942, -0.0175205674, -0.0262330025, 0.0436023511, 0.1036125347, 0.0766974613, -0.0103223538, -0.0267820563, 0.0366245359, 0.0581770279, 0.0475502126, 0.1067112163, 0.0261142459, 0.0035148356, -0.0044916756, -0.0005204109, 0.0397519395, -0.0198143274, 0.0072564096, -0.0547808707, -0.0896626338, -0.0923268422, -0.0230199061, 0.0335784741, 0.0235470459, -0.0496611260, -0.0010418614, 0.0080945976, -0.0647024363, -0.0300934017, -0.0364294238, 0.0551614091, -0.0611081496, 0.0251745339, 0.0668660700, -0.0368400849, -0.0131456293, 0.0320964120, -0.0206674431, -0.0614314862, -0.0862048194, 0.0688565820, -0.1131574661, 0.0527791902, -0.0076611363, 0.0323468223, -0.0379180610, -0.0666863024, 0.0265811551, -0.0236869697, -0.0420924686, 0.0183485709, 0.0674955323, -0.0338927023, -0.0364717059, -0.0549664013, -0.0365766101, 0.0611869171, -0.0585210919, 0.0261811651, -0.0525673851, -0.0221183710, 0.0682273731, 0.0631298125, 0.0238224193, -0.0227658730, -0.0772728473, -0.0865311846, -0.0317275412, 0.0586480275, 0.0292888843, 0.0148282461, -0.0925802216, 0.0051257210, 0.0946132243, -0.0375422090, -0.0567362979, 0.0620716885, 0.0840579718, -0.0120263025, 0.0380436592, -0.0546461232, -0.0414557084, 0.0918327942, 0.0338102952, 0.0204768367, 0.1344250739, 0.0350905992, -0.1078876108, 0.0598509796, -0.0094698509, -0.0998523682, -0.1063552722, -0.1368052363, -0.0946208090, -0.0344150364, 0.0870912522, 0.0571342446, -0.0447140671, -0.0254891571, 0.0140172290, 0.0760777369, 0.0624144413, -0.0585529841, -0.0511355251, -0.0637983531, 0.0686990246, -0.0346608385, -0.0434723049, -0.0584326796, 0.0346227363, 0.0301370956, -0.0923937187, -0.0179488920, 0.0153428679, -0.0826268569, 0.0444883779, 0.0955409929, -0.0761637911, -0.0263234004, 0.0836199448, -0.0702951998, 0.1271014363, -0.0577081293, 0.0448718071, -0.0986514613, 0.0389878079, -0.1049695313, -0.0140398396, 0.0499074534, 0.0787163228, -0.0217337292, 0.0629799068, 0.0363136195, 0.0340900235, 0.0011362752, 0.0509814993, 0.0081963576, -0.0751012787, 0.0670414269, -0.0373584628, -0.0394850075, 0.0501752906, -0.0445246808, 0.0564284027, 0.0186610613, -0.0219072774, 0.0520421267, -0.0664390922, 0.0271180868, 0.0093234554, 0.0067385971, 0.0752281472, 0.0232608616, -0.0366111435, 0.0218645837, -0.0401167832, 0.0361690484, -0.0579253994, 0.0354836881, 0.1075880378, 0.1128781512, 0.0079230322, -0.0500356257, -0.0838471577, 0.0628112480, -0.0373112261, 0.0185820051, 0.1091590077, -0.0661971569, 0.0718382448, -0.0557051860, 0.0239713565, 0.0876954198, 0.0700486824, -0.0523546264, 0.0239687562, 0.0422790758, -0.0321071334, -0.0475318544, 0.0378498062, -0.0720294565, -0.0125894276, -0.1012543887, -0.0317424200, -0.0075109396, 0.0596465804, -0.0350402184, -0.0861148834, -0.0162899867, -0.0808514431, -0.0334001966, 0.0232555848, -0.0903670341, -0.0509537123, -0.0007436409, 0.0698159710, 0.0691219047, -0.0428071097, -0.0164888594, -0.0468616374, -0.0272848718, 0.1035122573, -0.0561133251, 0.0010717364, -0.0609439500, 0.0437258072, -0.0971824750, 0.0123899579, 0.0166248232, 0.0314571857, 0.0879387558, 0.0153681831, 0.0631500334, 0.0454797670, 0.0127629340, -0.0520640314, 0.0294730719, 0.0165828783, 0.0813419744, 0.0189436544, -0.0775961056, 0.0565524586, -0.0484657511, -0.0415490642, -0.0211330745, -0.0696069673, -0.0336302146, -0.0122655043, 0.0078585511, 0.0538719147, 0.0493037961, 0.0385884382, 0.0175926145, -0.0172528066, 0.0379448049, -0.0401252098, -0.0047287750, 0.0237208493, 0.0592326820, -0.0044845385, 0.0278495941, -0.0706112161, -0.0213382468, -0.0594782457, -0.0253365990, 0.1084292904, -0.0034186156, 0.0577318855, -0.0815431625, 0.0152827306, 0.0736228153, -0.0575197153, -0.0361190699, -0.0450567007, -0.0014184901, 0.0467382260, 0.0729733855, -0.0304837152, -0.0684167817, 0.0337529629, -0.0593894906, -0.0300656650, -0.0272028577, 0.0489828773, 0.0115235327, -0.0437892862, -0.0511422083, -0.0609443411, -0.0705350637, -0.0034931207, 0.0515916459, 0.0800569132, 0.0051470022, 0.0145409582, 0.1030191481, 0.0509001538, -0.0632508025, 0.0610505342, -0.0475332588, 0.0081772814, -0.0772520825, -0.0214492418, -0.0042103808, 0.0644811764, -0.0542097799, -0.0517343432, -0.0934174284, 0.0103558488, 0.0127558345, -0.0286444854, 0.0839834213, -0.0815525725, 0.0111505184, 0.0778236613, 0.0092852321, 0.1035258994, -0.0639744699, -0.0476940311, -0.0133968806, -0.0647520423, -0.0209622718, -0.0498810783, 0.0424565077, 0.0350550003, -0.0638197362, -0.0967311263, -0.0563485362, -0.0471512713, 0.0327361375, -0.0556806289, 0.0571295992, -0.0156775638, -0.0070692329, 0.0424551927, -0.0404162630, 0.0612829588, -0.0006515973, -0.0646975189, -0.0423859917, 0.0359278284, -0.0630979463, 0.0160971805, -0.0616020374, -0.0015262804, -0.0577459596, -0.0351190753, 0.0189132225, -0.0300258789, 0.0206179582, 0.0780955181, -0.0680090189, 0.0640379488, 0.0859092996, -0.0340298563, -0.0672283247, -0.0108148018, -0.0917941555, 0.0770612806, 0.0453900136, -0.0482786521, 0.0625094026, 0.0264460128, 0.0332458019, 0.0490108617, 0.0406608805, 0.0432946123, -0.0214102846, -0.0686133131, 0.0321186110, -0.0277446751, -0.0116768209, 0.0498744324, 0.0409979597, -0.0062683444, 0.0448385626, 0.0132268956, 0.0259315893, -0.0516970642, 0.0572991297, 0.0250893347, -0.0465981364, 0.0677105337, 0.0209144689, -0.1110757515, 0.0505181104, -0.0125770373, 0.0125388810, 0.0030589849, -0.0504411533, -0.0377475582, 0.0136001213, 0.0243763532, 0.0158268772, -0.0356452763, 0.0685455725, 0.0655341893, 0.0449047573, -0.0501374900, 0.0187924877, 0.0893416554, 0.0508667342, -0.0771863014, -0.0565607175, 0.0468382016, 0.0862050280, 0.0596719608, -0.0225372165, 0.0425869040, -0.0010246345, -0.0292629935, 0.0359526314, 0.0621567406, 0.0180940125, 0.0091972966, -0.0028900236, 0.0017478748, 0.0811761916, -0.0887464508, -0.0029254893, -0.0161641482, -0.0244563110, 0.0803293884, 0.0140949758, 0.0701379031, 0.0397167504, -0.0050042775, 0.0349897817, -0.0450910255, 0.0408838280, 0.0430077389, -0.0759879649, -0.0036776015, -0.0552649386, 0.0403665043, 0.0477019511, 0.0151913418, 0.0099682296, 0.0475739203, -0.0178664699, 0.0569032878, -0.0723228082, 0.0077367486, 0.0077799568, -0.0484302454, 0.0470897518, 0.0355073847, -0.0463510789, -0.0403069779, 0.0218571313, -0.0071351919, 0.0144365709, 0.0514151081, 0.0376090780, -0.0717724338, -0.1092714742, -0.0278653000, 0.0464842394, -0.0513579324, 0.0220583268, 0.0192053560, -0.0443876050, 0.0464169420, 0.0135450419, 0.0407928117, 0.0262800250, 0.0711238831, 0.0226698834, -0.0255220626, -0.0292159934, -0.0083893165, 0.0578366071, -0.0696260482, -0.0246183276, -0.0173219703, -0.0268406328, 0.0278430246, -0.0237827133, 0.0971199274, -0.0234724954, 0.0468971655, -0.0038387410, 0.0073664314, 0.0270933453, -0.0293612424, 0.0204176195, -0.0560105331, 0.0410260633, 0.0087364130, -0.0176865999, 0.0698703080, -0.0184013452, 0.0201409440, 0.0807460099, -0.0574144684, 0.0093146982, 0.0456510596, 0.0182397906, -0.0188928600, 0.0434815921, -0.0238244627, -0.0437055007, -0.0184786748, -0.0251973402, -0.0431271642, 0.0062546330, 0.0324404575, 0.0085822046, -0.0435069352, -0.1113805026, -0.0633646250, 0.0467285402, 0.0022946135, 0.0978300124, -0.0790031552, 0.0030353642, -0.0784239247, -0.0149427066, 0.0846172124, 0.0110120503, -0.0455028340, -0.0740411133, 0.0832002833, 0.0487929992, -0.0342988744, 0.0627895817, 0.0074916496, -0.0938964188, -0.0913651884, 0.0205161292, -0.0045757722, 0.0519996919, -0.0753869414, -0.0263494458, -0.0083350074, -0.0582194999, -0.0192312207, -0.0457405001, -0.0302768461, 0.0857215524, -0.0169450250, -0.0266135838, -0.0396816730, -0.0194411054, -0.0647407696, 0.0075784139, -0.0192575939, 0.0549131706, 0.0195734333, -0.0384785235, 0.0611935258, 0.0808877125, -0.0838714242, -0.0308543630, 0.0391853079, 0.0248323902, -0.0745583773, 0.0797585919, -0.0039557829, -0.0547160879, -0.0777580887, -0.0624661446, 0.0175921246, -0.0972044170, -0.0587687008, 0.0594301671, 0.0188092981, 0.0081633413, -0.0069619003, 0.0736846179, 0.0675351024, -0.0279390328, -0.0527098142, -0.0587510988, -0.0762571618, 0.0634979233, 0.0000304119, 0.0305079669, -0.0351835713, 0.0155209713, 0.0282147843, 0.0146016302, 0.1219006777, 0.0072965547, -0.0071910704, -0.0640707016, -0.1007560492, 0.0437677503, 0.0005653665, 0.0428802818, -0.0415742137, -0.0176753346, 0.0296378173, -0.0685914233, 0.0782564729, -0.0245004464, -0.0657527298, 0.0483138748, -0.0371166840, 0.0631465986, -0.0938038677, 0.0044131665, -0.0951197371, 0.0123803997, -0.0608498454, 0.0005843713, -0.0527451001, 0.0794117078, 0.0426428989, -0.0586611629, 0.0842785612, -0.0753818378, 0.0582579449, 0.0344776772, 0.0864994377, -0.0253924001, -0.0565299056, -0.0274694283, 0.0456774086, -0.0074422429, -0.0141806947, -0.0165640395, -0.0886566192, -0.0852082223, -0.0566423051, 0.0093606627, -0.0434514508, -0.0881259367, 0.1241577715, 0.0802536756, -0.0651885569, -0.0492139310, 0.0370543748, -0.1172203496, 0.0085840123, 0.0668455437, -0.0229287744, 0.0326617546, 0.0555482469, 0.0205060244, 0.0389070883, 0.0380547196, -0.0766694620, 0.0198936332, 0.0541187003, 0.0102163265, 0.0966322944, 0.0479908660, -0.0537331142, -0.0457192659, -0.0127808833, 0.0304035079, 0.0538528971, -0.0172432568, 0.0175907817, -0.0775126889, 0.0507174581, -0.0395655744, 0.0176669769, 0.0518982187, -0.0899371356, 0.0611846894, 0.0417415500, -0.0101253651, 0.0162515827, -0.0016884976, -0.0518880635, -0.0577986352, 0.0178150386, -0.0481893234, -0.0607996397, -0.0204469357, 0.0077428897, 0.0229883902, -0.0052290782, -0.0532457530, 0.0604495704, -0.0080551980, 0.0481934138, -0.0428391770, -0.0699471086, 0.0624134168, -0.0281638242, 0.1082357690, 0.0722721741, -0.0422830358, 0.0298382882, 0.0011916034, 0.0360629149, -0.0744390637, -0.0583684221, 0.0740102082, 0.0123050977, -0.0604767092, -0.1263231337, 0.0069584656, -0.0630599707, -0.0087829968, 0.0440105386, -0.0692159310, -0.0445144139, -0.0950911045, 0.0274205115, 0.0418847650, 0.0117661897, -0.0450531170, 0.0082251001, -0.0489693880, -0.0218123607, -0.1169591993, -0.0100978473, -0.0175523572, -0.0633795112, -0.0632353425, 0.0858877450, -0.0475533009, 0.0094020255, -0.0636333078, 0.0450382791, 0.0653867871, -0.0703393370, 0.0342147574, 0.0499326549, 0.0365791507, -0.0086758528, -0.0181354620, -0.0010459002, -0.0261749104, -0.0945665017, -0.0804066658, -0.1231093481, -0.0150834611, -0.0343219377, 0.0912162811, 0.0119891847, 0.0801727995, 0.0806417987, -0.0005546208, 0.0481092297, 0.0180564467, 0.0247241985, -0.0048881257, 0.0962796584, -0.0830935463, -0.0104241930, -0.0646664053, 0.0562746041, 0.0767676756, -0.1042389870, -0.0545477495, -0.0264624842, -0.0355523564, -0.0339850225, -0.0070505245, -0.0203065611, 0.0382241495, -0.0992808938, 0.0033612128, -0.0538646989, 0.0194496047, 0.0467323475, -0.0097409962, 0.0321530625, 0.0691612363, 0.0442213714, 0.0075022741, -0.0244788099, 0.0227113944, -0.0278015975, -0.0467666648, -0.0039017277, 0.0383271314, 0.0565300584, -0.0131075839, -0.0316870622, -0.0450045504, -0.0402912647, -0.0661331117, -0.0635706857, -0.0624528490, 0.0705548972, 0.0271346755, 0.0468141995, 0.0223413631, 0.0233903788, 0.0352930315, -0.0436482951, 0.0033529722, 0.0326805115, -0.0681691691, -0.1320796162, 0.0435734205, -0.0149730053, 0.0700285584, 0.0062151216, -0.0011915169, -0.0422008857, 0.0443446003, -0.0550772101, -0.0709869117, 0.0035166061, 0.0359955281, 0.0440442190, -0.0516825840, 0.0418352112, 0.0266746599, -0.0427641943, 0.0141055631, 0.0286913440, -0.0280645713, 0.0940140188, 0.0407089666, -0.0407091416, 0.0431707874, -0.0416681617, 0.0821303576, -0.0472535007, -0.1016769037, 0.0383951329, -0.0839152932, -0.0395711362, 0.0996870324, 0.1112114415, -0.0724486336, -0.0117092561, -0.0196884200, 0.1066583246, -0.0483780652, 0.0937900394, 0.0299479198, -0.0856375322, 0.0005908002, -0.1135300770, -0.0467272848, -0.0073861014, 0.0382446758, -0.0399042554, 0.0620600618, -0.0355792195, -0.0408315212, -0.0269472785, 0.0158490948, -0.0207985453, -0.0073334854, -0.0616098791, 0.0736996010, 0.0931702405, -0.0971681774, 0.0177640282, 0.0128681781, -0.0150363557, 0.0067516309, -0.0187889189, 0.0226126760, 0.0090497090, -0.0663501844, 0.0209988579, -0.0524178222, 0.0911140740, 0.0718056038, -0.0103543783, 0.0342949405, 0.1085455194, 0.0724620074, 0.0143227018, 0.0629864112, -0.0524259955, -0.0695256814, 0.0584521182, -0.0429601148, 0.0320165567, -0.0295032915, 0.0515120253, -0.0691079721, -0.0935463160, 0.0705519766, 0.0018851276, -0.0050656078, -0.0684837028, -0.0089390716, -0.0231317133, -0.0417587161, 0.0104047339, -0.0927239954, -0.0031662572, 0.0668860525, -0.0483453944, -0.1102601886, -0.0449126288, 0.0567592233, -0.0054275496, -0.0202938728, 0.0152548300, 0.0459500886, 0.0786925778, 0.0870953649, -0.0089179995, 0.1038981378, -0.0196340196, -0.0949511901, -0.0200547799, -0.0946431309, -0.0389329456, -0.1046754271, -0.0562830269, -0.0590541624, -0.0085925749, 0.0107934438, -0.0770855621, -0.0130238878, -0.0560502484, 0.0373975374, -0.0163414609, 0.0059418241, 0.0016573037, -0.0466401801, -0.0472410955, 0.0388432816, 0.0285642315, -0.0753882676, 0.0027262804, 0.0686315596, -0.0200712010, 0.0111772986, -0.0196544733, -0.0582451336, -0.0424865671, 0.0152764311, -0.0195121318, -0.0286381003, -0.0806701183, -0.0188647974, 0.0233861543, -0.0030430667, -0.0200721622, -0.0355844609, 0.0386458859, -0.0089417733, -0.0534065105, -0.0598672591, -0.0442885086, 0.0201019738, -0.0075707454, 0.0815547705, -0.0044287131, 0.0385189578, 0.0882018209, 0.0617999062, 0.0704011843, 0.0278412905, -0.0090770721, 0.0511510260, -0.0482534766, 0.0334970169, -0.0464352258, -0.0475742370, 0.0112363053, -0.0309997387, -0.1027748138, 0.0765452310, -0.1168999895, 0.0837492645, -0.0244134795, 0.0453356914, 0.1057826579, 0.0300504081, 0.0312933847, 0.0346575901, 0.0067572440, -0.0744857714, 0.0382872075, 0.0317286253, -0.0352217108, 0.1019449532, 0.0286907405, 0.0241940580, -0.0748899803, -0.0475421995, 0.0784966648, 0.0446574837, 0.0362506881, -0.0394586734, 0.0158945918, 0.0640951768, 0.0556883961, -0.0901536345, -0.0752544329, -0.0781823993, 0.0136455847, -0.0807934999, -0.1062682569, -0.0477387495, 0.0067657162, 0.0513201840, 0.0445262231, -0.0277017988, 0.0662650988, -0.0128779057, -0.0490230657, -0.0581128262, 0.0435579494, 0.0229744166, 0.0619360358, 0.0184487961, 0.0375609770, 0.0291304234, -0.0727165118, -0.0055699577, -0.0017803538, -0.0468951352, -0.0269123353, -0.0068453960, 0.0203149524, 0.0637205914, -0.0487274230, 0.0433482416, -0.0871033669, 0.0410819948, -0.0793876722, 0.0423978083, 0.0529960319, -0.0193831716, -0.0366516672, -0.0611255877, -0.0685838535, 0.0577190854, 0.0030311372, -0.0912687555, 0.0405899324, 0.0221197493, -0.0456303693, 0.0027335265, -0.0249875002, 0.0084118452, -0.0705314726, -0.0245683398, 0.0070609744, -0.0202289782, -0.1134290472, -0.0193684790, 0.0283968505, 0.0675994232, 0.0179941189, -0.0173628423, 0.0094698574, 0.0521579236, -0.0999353006, 0.0561514422, 0.0043197214, -0.0329687409, 0.0116345743, -0.0654166266, -0.0070643206, -0.0098854061, -0.0658051446, -0.0002597093, -0.0878915936, 0.0956753790, -0.0459828600, 0.0809955224, 0.0874168947, -0.0009166864, 0.0726572424, 0.0193017572, -0.0090195648, -0.0737738237, -0.0529891960, 0.0924749821, 0.0216355026, 0.0312330760, -0.0026383435, 0.0392228402, 0.0727424622, -0.0159540325, 0.0187592264, 0.0573137291, -0.0058614505, -0.0615067668, 0.0111094331, 0.0557473302, 0.0429019183, 0.0371880867, -0.0054494231, -0.1165785342, -0.0319685340, 0.0063394574, 0.0487307347, -0.0171338990, -0.0081979930, 0.0164546762, -0.1012937203, -0.0807802603, 0.0290670637, -0.0489047877, 0.0725890994, 0.0587242134, 0.0339140370, 0.0392362624, -0.0443024486, -0.0649544597, 0.0662072226, 0.0400243364, 0.0922429338, 0.0091204653, 0.0334708393, -0.0411175601, -0.0650162920, 0.0227654316, -0.0108907130, 0.0210865438, -0.0406586751, -0.0948974341, 0.0631415993, 0.0583333895, 0.0331713706, -0.0929403305, -0.0546195097, -0.0004453734, 0.0482033491, 0.1242811084, -0.0305425078, -0.0054801828, -0.0912421271, 0.0673923343, -0.0140783554, -0.0630106479, 0.0880644172, -0.0064855283, -0.0450394414, 0.0025971250, -0.0310317818, -0.0063807233, -0.0702895969, 0.0913009569, 0.0370520726, -0.0530544482, -0.0091269435, 0.0665723234, 0.0606174506, -0.0180569310, -0.0419501476, -0.0728137270, -0.0227875523, -0.0326041169, 0.1033002362, 0.0141171478, 0.0539286248, -0.0265470725, -0.0568867885, -0.0514086224, -0.0419889279, -0.0273815617, -0.0347794592, 0.0484423079, -0.0189176220, -0.0290566422, 0.0798710883, -0.0720758215, -0.0142438542, 0.0192314368, -0.0282237735, -0.1167704761, 0.0182371419, 0.0293261800, -0.0312189106, 0.0263425820, -0.0314140283, -0.0037693772, -0.0787522495, -0.0494405478, 0.0803791285, -0.0374571681, -0.0015194227, 0.0312034823, -0.0320267268, 0.0335951746, -0.0119955437, -0.0505926125, -0.0684285834, -0.0331697389, 0.0124531751, 0.0242395848, -0.0863832533, 0.0472776294, -0.0585381277, -0.0339128263, 0.0178381037, -0.0783070400, 0.0947160646, -0.0651237443, 0.0417780466, 0.0132954055, 0.0024329103, 0.0296264812, -0.0486384928, -0.0234073419, -0.0814268813, -0.0332675204, 0.0268426929, -0.0258006006, 0.0060324860, 0.0138631249, -0.0392873175, 0.0629895851, -0.0209556744, -0.0529365726, 0.0062828823, -0.0245266389, -0.0550526679, -0.0722452402, -0.0757207572, -0.0669900030, 0.0319832712, 0.0218806416, -0.0307518560, 0.0563208833, 0.0640043393, -0.0455211475, -0.0374137610, -0.1049712896, -0.0111793419, -0.0172308143, -0.0460040495, 0.0185952038, -0.0096894307, -0.1153427809, 0.0952402502, 0.0299468394, -0.0690490827, 0.0460108146, 0.0066782534, 0.0419691093, -0.0990116000, -0.0619534440, 0.0778122395, 0.0839506835, -0.0296060126, -0.0530040748, -0.0533046387, -0.0750399828, 0.0834488496, 0.0755916610, 0.0141875455, -0.0493605919, -0.0916268602, -0.0574415661, -0.0471893586, 0.0791037008, -0.0839682892, 0.0597445667, -0.0093482332, 0.0117559489, 0.0387670249, 0.0489423685, 0.0801441744, -0.0979672298, -0.0192974843, 0.0232158490, -0.0160044134, -0.0122337909, 0.0342871733, 0.0460131764, -0.0826790929, -0.0670132041, -0.0965217277, -0.0025129903, -0.0605333410, 0.0451409817, 0.0943691581, -0.0353224650, 0.0487655252, -0.0509990156, -0.1000786275, 0.0760439709, -0.0607647076, -0.0135052865, -0.0636125132, 0.0323087834, -0.0140095390, 0.0060948078, 0.0612241365, 0.0343343690, 0.0618557185, -0.0191161800, -0.0070720813, 0.0799179822, 0.0285927057, -0.0247860551, 0.0623891875, 0.0490220673, -0.0098726079, 0.0901656449, -0.0517424792, 0.0264877118, -0.0809480324, -0.0751837343, -0.0855533183, -0.0543893613, 0.0584297106, -0.0076961089, 0.0527487397, -0.0084151775, 0.0857734010, -0.0718160197, -0.0086384974, 0.0660850704, -0.0530403703, 0.0204086658, -0.0286893379, 0.0875088200, -0.1340195686, 0.0176448226, -0.0391539857, 0.1079802737, 0.0025590393, -0.0764714479, -0.0403536372, 0.0315489955, -0.0296204221, 0.0173620954, 0.0031368011, -0.0384797379, 0.0217724703, 0.0692078844, -0.0314922743, 0.0747445896, -0.1053905487, -0.0401313677, -0.0534914248, -0.0681419373, 0.0672112852, 0.0372074395, -0.0183585193, -0.0644447207, 0.0081948722, -0.0640152693, 0.0168410130, 0.0357269645, 0.0299785826, 0.0076532895, -0.0090504615, -0.0411625616, -0.0980293155, -0.0428470001, -0.0427383818, 0.0509173200, 0.0134348720, 0.0034040767, -0.0096425069, -0.1009798348, -0.0598027743, -0.0738093406, 0.0539691560, 0.0474868044, -0.0263984967, 0.0820184872, 0.0062483298, 0.0960483626, -0.0492861718, -0.0908759385, -0.0190034043, 0.0192457642, -0.0464157537, 0.0360585935, 0.0684731826, 0.0572751090, -0.0109122470, 0.0113932453, 0.0638316870, -0.0266126450, -0.0389935113, 0.0002981525, 0.0256468952, 0.0236636940, -0.0070025041, 0.0814315826, -0.0018197035, 0.0043973690, -0.1102549881, 0.0387328304, 0.1053907573, -0.1258085221, 0.0675702244, -0.0782774836, -0.0014036831, -0.1008424461, -0.0110811647, 0.0419712327, 0.0593557209, 0.0026708541, 0.0333915018, 0.0225215126, -0.0341655128, 0.0412660427, 0.0687685609, 0.0709504709, -0.0168659817, -0.0302297752, 0.0095196543, -0.0535803773, -0.0088731237, -0.0617031530, 0.0678007677, -0.0590577722, -0.0682938918, -0.0576875769, 0.0322235078, -0.0541046485, -0.0712206662, 0.0759248883, 0.0685639232, -0.0067832340, -0.0090264408, -0.0136767980, -0.0225501098, -0.0508586504, -0.0043425448, 0.0112537080, 0.0328419991, -0.0612137616, -0.0783420801, 0.0191212092, -0.0074064014, -0.0074492395, -0.0774977282, 0.0517058223, 0.0261511337, -0.0103626465, 0.0228291061, -0.0643076450, -0.0513541512, 0.0197547805, 0.0273484606, 0.0024878806, 0.0405012853, -0.0874374285, -0.0185671691, 0.0332237296, 0.0855339542, -0.0073003867, 0.0783619210, 0.1039865315, -0.0576286986, -0.0593037754, 0.0551124439, -0.0796509609, 0.0460273772, 0.0113270311, 0.0831875503, 0.0853904188, -0.0320808403, -0.0418316424, -0.0122169545, 0.0346280336, 0.0498560742, 0.0616389774, -0.0155047169, 0.0710693151, -0.0529765263, 0.0178445932, -0.0044411938, -0.0910187215, 0.0159671567, 0.0545973070, -0.0202265289, -0.0753677487, -0.0746001899, 0.0932964683, 0.0126150353, 0.0682650879, -0.0272502881, -0.1015963703, 0.0507260934, -0.0201765094, -0.0423499718, -0.0474197119, 0.0046626334, -0.0213874131, -0.0807419121, 0.0569501631, -0.0269942358, 0.0545489714, 0.0029249296, 0.0406245105, 0.0533181429, 0.0361464210, -0.0445311405, 0.0859302208, 0.0388456732, 0.0162137691, -0.0775269493, -0.0192028452, 0.1042141840, 0.0172425397, 0.0425910279, -0.0030727293, 0.0526241921, -0.0063177464, -0.0672742948, 0.0556124225, 0.0702540800, 0.0639773831, -0.0173907466, 0.0026551867, 0.0424278490, -0.0634287149, -0.0497049838, -0.0708050728, -0.0645367056, 0.0602659583, -0.1050041243, 0.0850464478, 0.1226056591, -0.0869738385, 0.0073196809, -0.0258536953, -0.0372046828, 0.0761502385, -0.0413719974, -0.0167449974, -0.0325916447, -0.0616366081, -0.0048463978, -0.0181289166, 0.0888768882, 0.0624667071, -0.0377001204, -0.0349980891, -0.0700026825, 0.0665959194, -0.0579759888, -0.0011870831, 0.0647128373, -0.0692155734, 0.0751882717, -0.0182750374, 0.0012218265, -0.0787796602, -0.0490441807, -0.0564228818, -0.0535166226, -0.0625951737, -0.1072165817, -0.0181566179, -0.0314581878, -0.0001766436, 0.0673999563, 0.0292226095, -0.0444391333, 0.0465805121, -0.0297844429, 0.0345498919, -0.0817926005, -0.0799801871, -0.0620284043, -0.0974197239, -0.0107314456, 0.0246502627, 0.0876051560, -0.0065903086, -0.0744576901, -0.0292508509, 0.0294519346, 0.1045566872, 0.0559673011, 0.0015080075, 0.0069028633, -0.0075379531, 0.0446091667, -0.0381253473, 0.0569518805, -0.0937014297, -0.0253538936, 0.0776123255, 0.0299013648, -0.0838031992, 0.0199887026, -0.0154761337, -0.0095276013, -0.0412339345, 0.0086064395, -0.0592367724, -0.0524190553, 0.0460886732, 0.0731199160, -0.0581477657, -0.0809078068, -0.1041684821, 0.0379553474, 0.0165447481, 0.0980705246, -0.0684135780, 0.0349942073, -0.0537738577, 0.0341153741, 0.0321187451, -0.0196773969, 0.1005256772, 0.0495184921, -0.1086711064, 0.0261159129, -0.0373283252, 0.0598505847, 0.0428739190, 0.0469530597, 0.0857185423, -0.0978741944, -0.0783884525, -0.0355202109, 0.0284813289, 0.0658533126, -0.0345211476, -0.0156721529, 0.0544163920, 0.0427739471, 0.0276813377, 0.0770309642, -0.0509358011, -0.0406666286, -0.1072955653, 0.0060987053, -0.0314481035, 0.0165261663, -0.0385022424, -0.0640731454, 0.0631092489, 0.0278190486, 0.0562796146, -0.0092184488, -0.0233343579, 0.0593788885, 0.0157371312, 0.0156754237, -0.0288002566, 0.0552827530, -0.0078284545, -0.0231869817, -0.0214908384, -0.0071462402, -0.0217550900, 0.0115529420, -0.0255634785, -0.0317263715, 0.0729837641, -0.0376720503, 0.0339453816, 0.0554059856, 0.0736208484, -0.0064898813, -0.0134110600, 0.0506726354, 0.0435840040, 0.0454262421, -0.0823948085, 0.0575976670, -0.0226575155, -0.0557672195, 0.0072103497, -0.0468155742, 0.0448060557, -0.0072028222, 0.0573376343, -0.0010665812, -0.0744598806, -0.0175620839, -0.0388079993, -0.0235444698, 0.0434396304, -0.0775578395, 0.0514719859, -0.0222887509, -0.0009214387, 0.0626671538, 0.0426121950, 0.0199426413, 0.0693571717, 0.0661376342, 0.0430095308, -0.0454866588, 0.0134142302, 0.0292144362, -0.0319372378, -0.0734730735, 0.0496993475, 0.0502003655, 0.0305773914, 0.0649904311, 0.0485829003, -0.0638841316, -0.0017880832, 0.0587659553, 0.0510459468, 0.0449243821, -0.0939020216, -0.0621204749, -0.0501953997, 0.0032281266, -0.0459357575, 0.0938901529, -0.0225707088, 0.0149196014, 0.0316394120, -0.0582478940, 0.0486581214, -0.0102431653, 0.0771507546, 0.0711099654, -0.0394536480, 0.0214256328, 0.0387109593, 0.0796285942, -0.0015607375, 0.0342226177, -0.0647621229, 0.0217127893, -0.0292069893, 0.0092334663, 0.0421453565, 0.0237085838, -0.0804734156, -0.0283175986, 0.0358469747, -0.0313949510, -0.0267575867, -0.0670356378, 0.0221343506, 0.0516375750, -0.0645825043, 0.0689507946, 0.0199184902, 0.0723137707, 0.0703164116, 0.0788925886, -0.0482620113, -0.0395638831, -0.0717984587, -0.0464771204, 0.0422927514, -0.0867610276, -0.0731109157, -0.0353679359, -0.0439272523, 0.0696093738, -0.0546742715, -0.0229299944, 0.0150476247, -0.0008708977, -0.0282667447, -0.0620033368, 0.0679142773, 0.0461465493, 0.0415316224, 0.0601112731, 0.0084206685, 0.0053467965, -0.0437947810, -0.0002189409, -0.0468843356, 0.0214648247, 0.0485845283, -0.0413961709, 0.0377422646, 0.0141518116, 0.0281349625, -0.0470379591, 0.0114583401, -0.0552169420, 0.0143368738, -0.0393812470, 0.0283103082, 0.0162791926, 0.0079137553, -0.0319455713, 0.0435399637, -0.0320562720, 0.0560009442, 0.0414340533, 0.0458348691, 0.0724851936, -0.0319387503, 0.0760929734, -0.0260223970, 0.0150371380, 0.0699088797, 0.0115541955, -0.0462511517, -0.0167091265, 0.0039669415, 0.0357193872, 0.0206443779, -0.0564308763, -0.0755352154, 0.0561633483, -0.0898808613, 0.0095562879, 0.0092787948, -0.1116423681, -0.0608012527, 0.0107128425, 0.0387749560, -0.0845795646, -0.0392261706, 0.0629259795, 0.0177593846, 0.0732280388, 0.0213647168, -0.0696299747, 0.0049608303, -0.0834959522, -0.0137188109, 0.0517456830, -0.1007851660, 0.0872379094, -0.0414443612, 0.0272084530, 0.0559246317, 0.0774721578, 0.0533407070, -0.0139797451, -0.0053970744, -0.1153181493, 0.0639227480, 0.0124350209, -0.0697866529, 0.0475004241, -0.0498433188, -0.0655213371, 0.0218679886, -0.0328346603, 0.0941050798, -0.0941572860, -0.0509904325, 0.0328037776, -0.0331719741, 0.0038285712, -0.0655361488, 0.0055625173, -0.0311558750, 0.1115570143, -0.0747124627, -0.0748964250, -0.0481343195, -0.0357912630, 0.0543604977, 0.0055655502, -0.0248463266, 0.0468773358, -0.0593602732, -0.0646806583, -0.0138634108, 0.0529872589, -0.0030905923, -0.0677905232, -0.0414378643, -0.0099438252, -0.1134035215, 0.0604877509, 0.0140817836, 0.0698923767, -0.0279349051, -0.0957166329, 0.0171963964, -0.0296539813, 0.0413893014, 0.0528788492, 0.0286971126, 0.0739943236, -0.0097879069, 0.0327758081, -0.0866297185, 0.0794432685, 0.0187762491, -0.0071456395, 0.0530487932, 0.0424329191, 0.0218441412, 0.1085181311, 0.0097882515, 0.0130327391, -0.0511170067, -0.0531309657, 0.0133984676, -0.0153939752, -0.0406565852, -0.0779463425, -0.0608849935, 0.0368889421, -0.0424851552, -0.0137532046, 0.0621743761, -0.0668571517, -0.0870960951, 0.0719702914, 0.0038252186, -0.0279066693, -0.0001880291, -0.0285669565, -0.0655141249, -0.0034939696, -0.0251331050, -0.0612419471, -0.0526376441, 0.0277009141, -0.0220451746, -0.0165086016, 0.0260279514, 0.0251672976, -0.0280288253, 0.0197273344, 0.0635767505, -0.0170282647, 0.0051250118, -0.0767205507, 0.0918758139, 0.0970709398, -0.0374665447, 0.0082414504, -0.0176066719, -0.0190369040, 0.0064944681, -0.0328949764, -0.0336357318, -0.0572566614, -0.0110383872, 0.0752135068, 0.0354225188, -0.0263498332, -0.0591939948, 0.0414854176, 0.0508392602, -0.0272428691, 0.0170895085, 0.0797888115, -0.0225107558, 0.0828130469, 0.0660151318, -0.0338827372, -0.0360291712, 0.0024340886, 0.0149575025, 0.0464481115, 0.0360001139, -0.0437176675, 0.0791879892, 0.0739590302, 0.0541822501, -0.0101814810, -0.0332630910, 0.0579987876, -0.0546223111, 0.0749589652, 0.0769797713, 0.0123117277, 0.0523993671, -0.0338807143, -0.0673692897, 0.0876903385, 0.0869811550, 0.0385082029, 0.0536620319, -0.0857360810, 0.0408812538, 0.0579142608, -0.0917163268, 0.1060993671, 0.0836103410, 0.0044633481, -0.0249446388, 0.0189792141, -0.0718487203, -0.0179363284, -0.0136217223, 0.0526480414, 0.0905452669, 0.0487330332, -0.0385565422, 0.0107451072, -0.0597040169, 0.0350720473, -0.0516094081, 0.0009214994, 0.0646375790, 0.0446741842, -0.0662259385, -0.0254918728, -0.0657816008, 0.0169348214, 0.0085051199, 0.0442098044, 0.0319498330, 0.0657293200, -0.0001202443, 0.0621946119, -0.0512636229, 0.0368107222, 0.0114101097, -0.0671692938, 0.0281745605, 0.0843759850, -0.0714589432, 0.0162501223, -0.0248250347, 0.0794022977, -0.0449991226, 0.0616302453, -0.0831724033, 0.0376032330, 0.0086786915, 0.0107141901, 0.0457660779, 0.0810280070, 0.1116413176, -0.0058809095, -0.0262580961, -0.0571679957, -0.0415237471, 0.0844544619, 0.0690715909, 0.0275625065, -0.0441069975, 0.0763682202, 0.0668285266, 0.0091732983, 0.0832126662, 0.0261655115, 0.0487557314, -0.0048369868, -0.0570707619, -0.0647181869, -0.0605657026, -0.0299021285, 0.0671531782, -0.0174633637, 0.0442628115, -0.0519587323, -0.0108314482, 0.0868570879, -0.0606265813, 0.0880018771, -0.0639708266, 0.0699883625, 0.0884593949, 0.0680765063, -0.0379180983, 0.0120783634, -0.0536481440, -0.0433138572, 0.0081192814, -0.0069159050, 0.0527217761, -0.0633420646, -0.0215366017, 0.0289469901, 0.0678072646, 0.0531343706, -0.0663230568, -0.0987481102, 0.0417900905, 0.0493585095, 0.0538440011, -0.0463786088, 0.0265676212, -0.0306183733, -0.0647268444, 0.0416533127, 0.0341087915, -0.0034718830, 0.0270325374, 0.0480711348, 0.0118822772, -0.0577703528, 0.0272113625, -0.0287013799, 0.0318237841, -0.0677121431, -0.0802268237, -0.0033998832, 0.0000681199, 0.0644644797, 0.0707940310, -0.0567876287, 0.0197128523, 0.0461872295, -0.0052699614, -0.0796101615, 0.0116784424, 0.0517551564, 0.0993606299, -0.0578969643, -0.0732828379, 0.0774800554, -0.0571923405, -0.0520769842, -0.0666960701, -0.0732880905, 0.0680428296, 0.0877077729, -0.0468055643, -0.0853250027, 0.0230684131, 0.0715111494, -0.0124270115, -0.0872119516, -0.0475158878, -0.0750328675, -0.0572591797, -0.0275733694, 0.0344787128, 0.0504925363, 0.0376154110, 0.1064340845, 0.0236377791, -0.0234513674, -0.0421560481, -0.0134266978, -0.0665743649, -0.0337545983, -0.0033854840, 0.0202589780, 0.0065892776, 0.0180080179, -0.0365233943, 0.0154890604, -0.0010554818, -0.0400012285, -0.0712268203, 0.0181494635, -0.0416912027, -0.0265320577, -0.0942134559, -0.0704575479, -0.0448804349, 0.1206400692, -0.0010438456, 0.0658029914, -0.0802185982, -0.0103645520, 0.0300126318, -0.0106900232, -0.0007687417, -0.0704760551, 0.0326898061, 0.0020625524, 0.0676234066, -0.0357118398, -0.0326083228, -0.0242136288, 0.0790981054, 0.0094716176, -0.0876364782, -0.0530529842, -0.0043126070, -0.0629183203, 0.0008251050, 0.0032147823, -0.0713190436, 0.0978869423, 0.0454249121, 0.0638143495, 0.0109481625, 0.0890733898, 0.0869576856, -0.0242595598, 0.0494414233, 0.0401909091, 0.0244627465, 0.0001771038, 0.0638437867, -0.0081932861, 0.1108195186, 0.0784814954, -0.0573680922, -0.0380246527, 0.0177795328, 0.0818316713, 0.0200798884, -0.0098461928, -0.0052567506, -0.0690007210, -0.0183953997, 0.0043544327, 0.0272223204, 0.0529919229, -0.0168409441, -0.0229592510, 0.0185126644, 0.0325875767, -0.0119080590, -0.0497292988, 0.0422375761, 0.0239184313, 0.0416392609, 0.0108213108, 0.0678120255, 0.0705993250, 0.0128227696, -0.0760046467, 0.0644503757, -0.0798112452, -0.0331143029, 0.0200615972, 0.0034324750, -0.0846170709, 0.0217297021, -0.0265854131, -0.0678516999, -0.0140568689, -0.0026121780, -0.0539541878, 0.0349291861, 0.0303989835, -0.0727293640, 0.0871502981, 0.0488504358, -0.0105376607, -0.0397175327, 0.0262136236, -0.0453323871, 0.0745888054, 0.0475863554, -0.0510620438, -0.0780318081, 0.0146290157, 0.0758424178, -0.0856835023, -0.0787235722, -0.0528195538, -0.0316203795, 0.0142820207, -0.0696052536, -0.0234302245, -0.0134042297, -0.0368272364, -0.0454715528, 0.0217436124, -0.0551605932, -0.0696970746, 0.0639434159, -0.0242970530, 0.0060438444, -0.0184583757, 0.0893260762, -0.0235150196, 0.0122051165, 0.0411833897, 0.0387008153, -0.0121927187, -0.1157745868, 0.0533956103, 0.0298690703, 0.0556892268, 0.0126431640, 0.0314482898, -0.0751722753, -0.0138622848, -0.0973604620, -0.0078188498, -0.0311873183, -0.0955529660, -0.1009253487, -0.0157155432, 0.0728313923, 0.0176215619, 0.0242238138, -0.1200757325, -0.0052281963, -0.0847875625, 0.0689538047, -0.0640044510, -0.0707935095, 0.0790366307, 0.0036524010, -0.0365299247, -0.0598784015, 0.0326237902, 0.0291132387, 0.0322077088, 0.0405409783, 0.0223240405, -0.0068110353, 0.0520521142, 0.0573397130, 0.0894670188, 0.0373509526, -0.0227720961, 0.0365224220, 0.0534219183, 0.0752007365, 0.0144342612, -0.0180395488, -0.0786799937, -0.0479072221, 0.0044931355, 0.0986081436, 0.0245955102, 0.0499830805, 0.0509828217, 0.0752547532, -0.0094146961, -0.0131825935, 0.0999496728, -0.0238177478, 0.0180293862, -0.0320006907, 0.0325625464, -0.0021347436, 0.0607101433, -0.0614370331, 0.0062375893, -0.0435550660, 0.0161829386, -0.0032230329, -0.0113038933, 0.0405820571, 0.0117051341, -0.0067931730, -0.0336791910, -0.0695622861, 0.0730791986, 0.0856038481, 0.0653175861, 0.0032438552, -0.0657172278, -0.0243291110, 0.0063451040, 0.0963689908, 0.0492968820, -0.0307229366, 0.0148794679, 0.0902776122, 0.0546112545, 0.0520531908, 0.0143410051, -0.0311460197, 0.0168134738, 0.0465112031, -0.0214014612, 0.0713753179, 0.0136453556, 0.0559140742, -0.0381371528, -0.0413654372, -0.0750835985, 0.1018353477, -0.0224361066, -0.0598868616, -0.0084040640, 0.0026568146, -0.0601804741, 0.0130912801, 0.0611166023, -0.0780122653, 0.0018191142, 0.0546894521, 0.0064405319, -0.0597103573, 0.0689685419, -0.0498253927, 0.0529652908, -0.0326932706, 0.0539541990, -0.0010532518, -0.0090838475, 0.0195653103, -0.0399606228, -0.0085106110, 0.0023330953, 0.0595780350, 0.0066408678, 0.0539115109, -0.0186537877, 0.0044804425, 0.0293579567, -0.0521319397, 0.0994533002, -0.0800367668, 0.0393720679, 0.0537877716, 0.0407784432, 0.0725052804, -0.0601943880, -0.0272317380, -0.0170989055, 0.0462230071, 0.0359728783, 0.0409974493, 0.0224895589, 0.0469391532, 0.0430090055, -0.0234416574, -0.0599957407, -0.0585438311, -0.1129137501, -0.0136840865, 0.0350328945, 0.0398963168, 0.0116473865, -0.0388613045, 0.0855640322, 0.0143445125, -0.0253685601, -0.0326228924, -0.0532775149, -0.0382724963, 0.0797727779, -0.0523877516, 0.0347411595, 0.0609138422, -0.0907626674, 0.0622363612, 0.0424136184, -0.0262474976, 0.0735518560, -0.0474072360, 0.0390350781, -0.0102142598, -0.0127707999, -0.0766503140, 0.0171599984, -0.0391358212, -0.0243141446, -0.0734450147, 0.0213143975, 0.0560342371, 0.0889825001, -0.0238482393, 0.0162959769, -0.0526624434, 0.0427327529, -0.0483879410, 0.0327990726, -0.0576952323, -0.0182117373, 0.0426591747, 0.0727101862, 0.0897317901, -0.0583821982, 0.0326353833, 0.0825377181, -0.0637571588, -0.0254263636, 0.0079740230, -0.0773675069, 0.0461806543, 0.0273889862, -0.0310835037, 0.0198715758, -0.0774855912, 0.0290042553, 0.0278845150, 0.0187737290, -0.0162552372, 0.0017876718, -0.0280020386, -0.0563059002, -0.0769267827, -0.0706836432, 0.0878984481, -0.0651883185, -0.0151581923, -0.0731232241, -0.0774554685, -0.0682662278, 0.0549100377, -0.0971088111, 0.0414504409, -0.0379359014, -0.0565104932, 0.0485811681, -0.0535344444, 0.0610967800, -0.0715391263, -0.0769709051, 0.0539293773, -0.0196741931, 0.0176248141, 0.0806935281, -0.0178021546, -0.0745670870, 0.0229066741, 0.0247019120, -0.0445580706, 0.0900930986, 0.1109868586, -0.0986838713, 0.0739167035, -0.0377724208, -0.0391795263, -0.0413024649, -0.0040319995, 0.0155122839, -0.0769945979, -0.0061206403, -0.0656881258, -0.0811985806, 0.0145993670, -0.0804935321, 0.0932780579, 0.0172946211, -0.0051504048, -0.0562865213, 0.0145511171, 0.0661287010, -0.0326576978, -0.1003344953, -0.0619033538, -0.0377139598, 0.0614610426, 0.0875332430, 0.0110403290, 0.0862742439, -0.0515769236, -0.0100286212, 0.0179331079, 0.0075677657, 0.1024327353, -0.0183520876, 0.0356705785, 0.0111216987, -0.0811468139, 0.0580801181, -0.0624344759, -0.0138199907, -0.0120138815, 0.0015675832, 0.0992209911, -0.0183840413, 0.0006314976, -0.0820842087, 0.0656702369, -0.1187577769, 0.0481623933, 0.0914447233, 0.0695568025, 0.0978698656, -0.0358526073, -0.0483438745, -0.0080404943, -0.0097791366, 0.0448995009, -0.0529295020, -0.0319821909, 0.0328326076, 0.0659739673, -0.1230882332, -0.0386668965, 0.0058809281, -0.0302764438, -0.0541451760, -0.0003033222, 0.0192916989, -0.0519664176, -0.0423162021, 0.0228600577, 0.0888713673, 0.0372620039, 0.0174683817, 0.0705990940, 0.0475245416, -0.1004596204, 0.0286982600, 0.0369898416, -0.0873924345, 0.0968592912, 0.0768902525, -0.0437992029, 0.0607019030, 0.0321930386, -0.0176553372, -0.0875411928, 0.0225040801, 0.0809403434, -0.0418785252, 0.0345890895, 0.0037462611, -0.0050952076, -0.0549138486, -0.0402692184, 0.0850877091, -0.0004658578, 0.0661578923, -0.0408322737, -0.0731453449, 0.0343541838, 0.0010700519, -0.0196753461, 0.0125034358, 0.1099502742, 0.0667541921, -0.0286962874, -0.0138901398, 0.0249309763, -0.0504240356, 0.0650966018, -0.0051166289, -0.0035395143, -0.0754805878, 0.0196930245, 0.0427059010, 0.0340610221, -0.0266936645, -0.0462631099, -0.0668142587, -0.0619268902, -0.0779317021, -0.0878185183, 0.0277689900, 0.0404378250, -0.0604079664, 0.0109702675, 0.0106500098, -0.0055749188, 0.0495829955, -0.0452110879, 0.0470118783, -0.0193536822, 0.0455168188, -0.0461517312, 0.1008121893, 0.0571833514, 0.0501181260, 0.0856750384, -0.0006786401, 0.0467700511, -0.0051479866, 0.0750049353, -0.0382493436, -0.0416088626, 0.0220902283, -0.0726740062, 0.0196053367, -0.0020944662, -0.0006981966, 0.0069942623, -0.1024985164, -0.0041073775, -0.0032954933, 0.0112059684, 0.0614869334, -0.1087571084, 0.0156739373, -0.1048187017, -0.0522810817, -0.0712783784, 0.0390020944, 0.0819999203, 0.0640403777, -0.0412050560, 0.0113002164, 0.0012867003, -0.0362799242, 0.0515153445, 0.0540758707, -0.0518422723, 0.0627926961, 0.0265317932, -0.0621748455, -0.0161994342, -0.0148588652, -0.0231970232, -0.0199197382, -0.0160184912, 0.0162203386, 0.0574782342, 0.0498879850, -0.0905799270, -0.0142344479, -0.0565920807, 0.0716150403, -0.0108346222, -0.0565621369, 0.0070771798, -0.0727956221, 0.0527078807, -0.0141433617, 0.0452803709, -0.0302558858, 0.0120449290, 0.0317584909, 0.0104071870, 0.0200930368, -0.0327418000, 0.0250811838, 0.0251097791, 0.0062369392, -0.0473810285, 0.0033637942, -0.0212349612, -0.0921714902, 0.0185676906, -0.0589887425, -0.0373461619, 0.1068289056, -0.0579387359, 0.0024732621, -0.0376593843, -0.0316709466, 0.0103642233, -0.0566912666, -0.0199068803, -0.0595009588, -0.0369240604, -0.0288024656, 0.0094160531, 0.0289081894, -0.0311685428, 0.0483430587, 0.0030410038, -0.0236813724, 0.0925974473, -0.0394818522, -0.0582988001, 0.1002336964, 0.0780931562, 0.0694883242, -0.0654860809, -0.0519849323, 0.0264791884, 0.0041092015, 0.0428412631, -0.1260401160, 0.1167197302, -0.1221363395, -0.0567935184, -0.0184706878, -0.1139921322, 0.0581628308, -0.0572740473, 0.0457124896, -0.0063541848, 0.0388016999, -0.0238049477, 0.0289219674, -0.0057144989, -0.0175218899, -0.0602187030, -0.1084227711, -0.0006706128, -0.0222288184, 0.0326283723, 0.0664501414, 0.0063483017, -0.1048964560, -0.0837191120, -0.0287164915, -0.0065009464, -0.0327675678, 0.0317338295, -0.0981563404, -0.0756311640, -0.0561001375, 0.0843831748, 0.0269114058, 0.1473197639, -0.0374649353, -0.0952018052, -0.0137594240, -0.0541110188, 0.1011410654, -0.0574656576, -0.0740722939, -0.1070262045, 0.0597058944, -0.0223701540, -0.0251394827, 0.0703603253, -0.0173551757, -0.0941617414, -0.1192603633, -0.0167363975, -0.0419868529, -0.0567835644, 0.0208559651, 0.1099364460, -0.0506708175, 0.0628559291, 0.0768986493, 0.0146705890, 0.0244907979, 0.0274809245, 0.0672606155, 0.0517594032, -0.1179546192, -0.0517715700, 0.0443708375, 0.0884529352, 0.0343722366, 0.0061644558, 0.0549309365, -0.0111765862, 0.0705924109, -0.0457145199, -0.0049978336, -0.0736692473, 0.0141653018, -0.0135235032, -0.0388378985, -0.0671976730, -0.0696201324, -0.0334591828, 0.0708865300, -0.0011055638, 0.0149526354, 0.0307474397, -0.0337857567, 0.0141360424, -0.0623022504, -0.0630378351, 0.0423450358, 0.0188728478, 0.0167297777, 0.0240323208, 0.0357157886, 0.0233318973, -0.0034886529, 0.0201205928, 0.0035541770, -0.0498989671, 0.0402831510, -0.0742297247, -0.0537989959, 0.0155783044, -0.0405438319, -0.0167055167, -0.0277142413, -0.0996505916, 0.0530590825, 0.0934074372, 0.0467931814, 0.0077198320, -0.0067335591, -0.0081938133, -0.0638731346, 0.0631964281, 0.0231837761, -0.0514438637, -0.0085112732, -0.0041316268, -0.0933519602, -0.0246175863, 0.0433230810, -0.0562207028, -0.0649784207, 0.0574588776, -0.0888648778, -0.0498441942, 0.0193980280, -0.0531785078, 0.0571105592, 0.0350879431, 0.0188776087, 0.0803610235, 0.0645249113, 0.0644649342, -0.0524863340, 0.0840456039, -0.0425469726, 0.0047072419, 0.0042803246, 0.0860996097, 0.0466646850, -0.0147530613, -0.0663259104, 0.0306706578, -0.0185229219, -0.0738393739, 0.0899053812, 0.0785105750, -0.0441180207, 0.0169721954, 0.0387243219, 0.0439678021, -0.0338140763, -0.0179100242, -0.0035875610, -0.0024231495, -0.0662360713, -0.0011499379, 0.0337648131, -0.0146712158, -0.0695893839, -0.0198104810, 0.0465607308, 0.0334589481, 0.0607647710, 0.0453107096, 0.0573441200, -0.0098857805, -0.0443951562, 0.0684863627, 0.0133315874, 0.0849100724, 0.0262610503, 0.0092017148, -0.0521683171, 0.0136861550, -0.0003236019, 0.0352001637, 0.0687986612, -0.0410411581, 0.0560144372, 0.0546026714, -0.0286180116, 0.0372494496, 0.0712037683, -0.0073927571, -0.0200062301, -0.1071217880, -0.0882837921, 0.0080050938, -0.1071234941, 0.0038842889, -0.0001451910, 0.0442140549, -0.1039277762, 0.0605921336, 0.0516907200, -0.0750101134, 0.0641383752, -0.0732468069, -0.0418560691, 0.0216829143, -0.0617114827, -0.0113375057, 0.0186607521, 0.0874029845, 0.0393888541, -0.0114128962, 0.0446654633, -0.0718072802, -0.0401280336, 0.0726218522, -0.0245658383, -0.0443583727, -0.1040541232, -0.0308220722, 0.0044841692, -0.0586056188, -0.0237360913, -0.0220417846, 0.0270628594, -0.0400012583, -0.0153786223, -0.0319902077, -0.0572622977, -0.0494609810, -0.0205506142, -0.0217926279, 0.0604327172, -0.0453784354, -0.0284498539, 0.0209392011, 0.0718474388, -0.0533778965, 0.0617345721, 0.0978918746, -0.0734420866, 0.0681109279, -0.0237466842, 0.0884757340, -0.0869042054, 0.0594698414, 0.0377694406, 0.0016748231, -0.0559290089, -0.0673540831, -0.0484174527, 0.0684009492, -0.0367870443, -0.0994984135, -0.0438081138, 0.0113043254, 0.0168561283, -0.0864579901, -0.0659003630, 0.0510979369, -0.0743006095, 0.0017889932, -0.0968866125, -0.0139075750, -0.0030926198, 0.0301650595, 0.0843010545, -0.0754335672, -0.0611832067, 0.0516513661, 0.0056170863, 0.1326393783, -0.0920241997, 0.0682449862, 0.0023090595, -0.0742289796, -0.0965282097, -0.0210129395, -0.0305179823, 0.0665024891, -0.1112552956, 0.0386525206, 0.0522794500, -0.0167861115, 0.0049752137, -0.0388814062, -0.0654924437, -0.0054216199, -0.0446828604, -0.0591199361, -0.0530224219, -0.0528483689, 0.0050747134, -0.0237337407, -0.0000085199, 0.0229142830, -0.0286644287, 0.0534011498, -0.0314511992, 0.0672992915, 0.0996342599, 0.0133251436, -0.0135926688, -0.0475325212, 0.0537165329, -0.0619890802, 0.0305499006, 0.0852541104, -0.0944413543, 0.0098366840, -0.0558538064, 0.0934285820, 0.0178887434, -0.0366209559, 0.0137397666, -0.0489089973, 0.0301630609, -0.0863136500, -0.0109781642, -0.0224755630, 0.0163373519, -0.0232924186, -0.0131313782, -0.0539185442, -0.0766918659, 0.0601144321, 0.0083458936, -0.0943553597, -0.0673811585, 0.0934743956, 0.0635883212, 0.0545761511, 0.0377008580, -0.0372802764, -0.0017777150, -0.0562782921, 0.0241065081, -0.0228975955, -0.0956214741, -0.0364435166, -0.1311795563, -0.0681008175, 0.0564209558, -0.0894720405, -0.0524880365, 0.0506056659, -0.0172698740, 0.0772264376, 0.0399620682, 0.0670377016, -0.0634884536, 0.0556381941, -0.0825206190, 0.1064877138, 0.0064900373, -0.0540506355, 0.0903542563, -0.0763587654, -0.0314292237, 0.0457735434, 0.0276473667, -0.0404600538, 0.0614563562, -0.0571675301, -0.0259905700, -0.0779186934, -0.0440634042, 0.0044138683, -0.0151011404, -0.0556708872, -0.0611641183, 0.0632184893, -0.0338283516, 0.0362279974, -0.0511485524, -0.0245517008, -0.0743156970, -0.0206537321, -0.0749312416, 0.0177482702, 0.0391924269, -0.0234748777, -0.0828231573, 0.0024357589, 0.0864189789, -0.0092044473, 0.0527593791, -0.0301663205, -0.0184845496, -0.0049944515, 0.0521099865, -0.0723673403, 0.0217997357, -0.0008660200, 0.0598713048, 0.0014075069, -0.0435922593, -0.0041598147, -0.0135831973, 0.0000830742, -0.0118206125, -0.0015728149, -0.0969058275, 0.0573560968, 0.1196737811, 0.0343896933, 0.0280057322, -0.0863312632, 0.0785001665, 0.0647954866, -0.0416069068, 0.0421882495, 0.0314915553, 0.1008806154, -0.0015864213, 0.0643570870, -0.0442448668, 0.0694106817, -0.0343022496, -0.0542501174, 0.0619012006, 0.0199683420, 0.0510055274, -0.0452453159, -0.0201838184, -0.0741981342, -0.0928585604, 0.0953401253, 0.0035230394, 0.0749447346, -0.0894441456, -0.0452432036, -0.0667815059, -0.0152369663, -0.0295761377, -0.0175174121, -0.0082652075, -0.0386863016, 0.0500000007, -0.0231109392, 0.0245561637, -0.0500217974, -0.0333949775, 0.0404929854, 0.0952760279, 0.0347134173, -0.0184856672, -0.0753094628, -0.0133137926, -0.0139202690, 0.0477861650, -0.0085707633, 0.0391687043, 0.0499430262, 0.0018575243, 0.0589865819, 0.0948606357, -0.0616783611, 0.0871583745, -0.0386081450, 0.0336626507, -0.0209923051, -0.0509805083, 0.0771421492, -0.0165036321, -0.0780919865, -0.0205278359, 0.0505764745, -0.0489082374, -0.0006339868, 0.0413988829, 0.0201669317, -0.0322979912, 0.0757543743, 0.0199384894, 0.1060836762, 0.0458986014, -0.0659902617, -0.0572591946, 0.0513294004, -0.0321389772, 0.0380169079, -0.0101593053, -0.0776675865, 0.0561421290, -0.0922767222, 0.0097489012, 0.0425946042, -0.0580291077, -0.0630271435, -0.0193615593, 0.0221305061, -0.0543753058, 0.0843821168, -0.0404119752, 0.0257620532, -0.0546577424, -0.0567989424, 0.0100906137, -0.0384115689, 0.0553749055, -0.0376614518, -0.0347854309, -0.0950834602, -0.0386126526, 0.0512349531, 0.0360892043, -0.0001955403, -0.0159439463, -0.0694561750, -0.0649045557, 0.0642454252, 0.0368109308, -0.0418054201, 0.0259932876, -0.0274419785, 0.0605768263, -0.0647982657, 0.0454070903, -0.0164773669, -0.0318193436, 0.0783608705, -0.0364938006, -0.0318980440, -0.0274327863, 0.0340974629, -0.0161281507, -0.0626900047, -0.0473175794, 0.0293474346, 0.0807583183, -0.0464429073, -0.0184536781, -0.0215954371, 0.0494935103, -0.0243099928, 0.0264229309, 0.0363999307, -0.0651169941, 0.0070852749, -0.0007164918, -0.0024001487, 0.0238312110, -0.0103190485, -0.0396373831, 0.1173831597, -0.0055343141, -0.0878950134, 0.0356840193, -0.0321128219, 0.0254013482, 0.0554090068, -0.0881265029, 0.0343270786, -0.0316386819, 0.0291502848, 0.0870528147, 0.0179969482, 0.1199324206, -0.0923429951, 0.0999764800, -0.0118787661, -0.0781633183, 0.0560259894, -0.0639641806, 0.0641858503, 0.0383121483, 0.0046003428, 0.0112197986, -0.0744619966, 0.0853698254, 0.0504234396, 0.0723685771, 0.0090834498, 0.0074778781, -0.0516578257, 0.0013034588, 0.0391588546, 0.0453968942, 0.0061588949, 0.0450230353, 0.0544581003, 0.0863642767, -0.0805306211, -0.0902523324, 0.0393035784, -0.0179939829, -0.0376326293, 0.0655334666, 0.0282271374, -0.0100671416, -0.0087404558, 0.0422508195, 0.0066767680, 0.0618485063, -0.0104555171, -0.0156789739, -0.0085102031, 0.0664879307, 0.0414043441, 0.0492681935, 0.0357958265, 0.0251154192, 0.0111107454, 0.0243029986, 0.0766879469, 0.0287288036, -0.0219414998, 0.0956504643, 0.0444392376, 0.0234573968, -0.0849413872, 0.0235300194, -0.0700071231, -0.0097999964, 0.0095623918, -0.0339982398, 0.0943941772, -0.0210923143, -0.0168233402, 0.0790360495, 0.0855144411, 0.0058190059, 0.0139571214, 0.0366969556, -0.0006505358, 0.0503368899, 0.1013127193, 0.0550321750, 0.0741514191, -0.0906095579, 0.0586236455, 0.1117357463, 0.0333474651, 0.0731972754, 0.0613003559, 0.0685272142, 0.0756196156, 0.0579088852, 0.0243615396, 0.0796638429, 0.0208514649, 0.1003647521, -0.0668701902, 0.0038950108, -0.0294294655, 0.0194784068, 0.0245554224, -0.0328035429, 0.0071180831, -0.0564302355, -0.0144530386, -0.0396323875, 0.0315131284, -0.0167173781, -0.0752794668, -0.0552949235, 0.0290356856, 0.0661833584, 0.0740858912, 0.0818134397, 0.0459282510, 0.0030089903, 0.0557397455, 0.0331020243, -0.0558984131, -0.0433822908, -0.0597350262, 0.0169463884, 0.0602632239, -0.0155685432, -0.0171811152, 0.0683559701, 0.0366759561, 0.0874240175, -0.0338286795, -0.0194547940, -0.0459857844, -0.0339254960, -0.0712882504, 0.0678945705, -0.0395834073, 0.0008872647, 0.0078796316, -0.0226583574, -0.0027745804, -0.0002934946, 0.0331479572, -0.0509796739, -0.0773810744, 0.0463147089, -0.0584947430, -0.0040973932, -0.0681114793, -0.0261164084, -0.0067179087, -0.0275245775, 0.0508845374, 0.0211539380, 0.0200943593, -0.0645395666, -0.0118221967, -0.0160882417, -0.0311001614, -0.0130343130, -0.0353607759, 0.0819839612, -0.0036937604, -0.0439058542, -0.0770178065, 0.0021832243, 0.0984016880, -0.0903642997, 0.0923578665, 0.0557127967, -0.0157066751, 0.0433142819, -0.0298644174, -0.0011912016, -0.0552276596, 0.0432850756, -0.0395879932, 0.0557527393, -0.0214389022, -0.0065349420, -0.0170141347, -0.0637250394, -0.0096594123, -0.0281965770, 0.0764335394, -0.0243989080, 0.0892636552, -0.0433811918, -0.0892542750, -0.0213685166, -0.0365725420, -0.0042391848, 0.0553551652, 0.0720088780, 0.0582475252, 0.0423218943, -0.1011707261, 0.0598802119, -0.0286313277, -0.0964791104, 0.0009740684, -0.0234660041, 0.0345758423, -0.0085205818, -0.0336296409, 0.0381354056, -0.0655707866, 0.0772739276, -0.0107801044, -0.0210242625, -0.0454606526, 0.0855644494, 0.0171826649, 0.0219311472, -0.0398114137, 0.0173852667, -0.0151845170, -0.0417555757, 0.0743216872, -0.0910138786, -0.0764382184, -0.0285481159, 0.0118721556, -0.0724200308, 0.0281527620, 0.0475246198, -0.0989353955, 0.0822644979, -0.0693215430, 0.0388190262, 0.0174402650, -0.0753995925, -0.0802291557, 0.0009129384, 0.0046629133, 0.0013244495, 0.0597910993, -0.0391240194, -0.0570709072, 0.0801970884, 0.0554546304, -0.0703393370, -0.0455362201, 0.0683036521, 0.1030614898, -0.0868554637, -0.0624098852, -0.0132804448, -0.0703981221, -0.0256886724, -0.0454820879, -0.0307963863, -0.0765619874, -0.0774016082, 0.0554653890, -0.0153830927, 0.0416506641, 0.0649449080, 0.0512752123, 0.0951510668, -0.0692751929, -0.0338025875, 0.0066638398, -0.0363708287, 0.0209982730, -0.0338135771, -0.0561912879, 0.0224481430, 0.1249165162, -0.0591034070, -0.0686986893, 0.0009110756, -0.0678410083, 0.0731543750, 0.0599747859, 0.0843949765, 0.0026392241, -0.0386054777, -0.0625216365, 0.0215685572, -0.0208954811, 0.0675131083, -0.0712223426, 0.0491417721, 0.0454494022, -0.0541892014, -0.0850660503, -0.0446277745, -0.0677518696, 0.0789068937, 0.0670267045, 0.0286684278, 0.0118170623, 0.0380423591, -0.0266094152, -0.0292246621, -0.0847590640, -0.0378046706, -0.0024279936, 0.0429178961, 0.0750030801, 0.0326767154, -0.0687044635, -0.0103027094, -0.0587078109, 0.0847494006, 0.0022722562, -0.0534968413, 0.0059590307, 0.0049505136, 0.0762564614, 0.0828911290, -0.0030256028, 0.0549568050, -0.0015954871, -0.0186477769, -0.0217640232, 0.0770449713, 0.0708134994, 0.0028033501, -0.0111012598, 0.0787302405, -0.0628477558, 0.1032115072, -0.0379449762, 0.0827412978, -0.0400512330, -0.1153564081, -0.0186399315, -0.0913211182, -0.0375087485, 0.0716646686, 0.0296949316, -0.0114088189, -0.1017551273, 0.0099021560, -0.0843612477, 0.1127540916, -0.0295511987, 0.0768863410, 0.0242221765, -0.0221330151, -0.0678479448, 0.0205860119, 0.0494018234, 0.0482824892, 0.0263982471, -0.0323238671, -0.0592495874, -0.0186126269, -0.0539557822, 0.0180009101, 0.0293202661, 0.0331819430, -0.1137661487, 0.0991066322, 0.0012903808, 0.0416786373, 0.0391400829, 0.0785013363, 0.0259613376, -0.0968756974, -0.0411629267, 0.1058216691, -0.0639596060, -0.0200695824, 0.0500735231, 0.0459831059, -0.0611718334, -0.0246487800, 0.0725602359, -0.0701849088, 0.0268052127, -0.0236411951, -0.0440956540, 0.0358544067, -0.0597818047, 0.0409395322, -0.0208180416, -0.0305572953, -0.0161257740, -0.0889888927, 0.0554716848, 0.0144412015, 0.0400027893, 0.0698467791, -0.0959077254, 0.0442357883, -0.1129975840, 0.0221521426, 0.0491114110, -0.0208803806, 0.0788395256, -0.0367001258, 0.0258491840, 0.0354103781, 0.0099006100, -0.0193409696, -0.0470344834, 0.0064083785, 0.0322636515, 0.0462386906, -0.0261603910, -0.0518192649, -0.0225509666, -0.0871490389, 0.0011268032, 0.0616862848, -0.0456391089, 0.0218064692, -0.0716070831, 0.0367930308, 0.0065604085, 0.0623978861, -0.0668943077, -0.1358570158, 0.0616390295, -0.0253726281, -0.0142444456, -0.0757483095, 0.0339246653, 0.0073415269, 0.0053512719, 0.0631577447, -0.0197004899, 0.0942279696, -0.0078320205, 0.0073960684, -0.0186346918, -0.0388238467, 0.0595627129, -0.1043009982, 0.0860784575, -0.0775748566, -0.0959566087, -0.0446389355, -0.1219899803, -0.0595544539, -0.0071544517, -0.0162247755, -0.0221049115, -0.0858455524, -0.0103841126, 0.0123206144, 0.0013345656, 0.0393052027, -0.0455992855, 0.0105820587, -0.1121737584, 0.0042313621, 0.0883744955, 0.0139347063, 0.0239979792, -0.0184429325, -0.0542963967, 0.1389431506, 0.0372035243, 0.0708453134, 0.0069280472, -0.0049572177, -0.0241171345, -0.0386607870, 0.1006553248, -0.0835625231, 0.0468814932, -0.0186559297, -0.0299350824, -0.0131886480, 0.0021858048, 0.0827684999, 0.0249048751, -0.0947319642, -0.0211961102, -0.0174313225, 0.0723894611, 0.0120139569, 0.0540517084, -0.0726846308, 0.0345521197, -0.0434004702, -0.0213401094, -0.0732669979, -0.0132811712, -0.1001467481, 0.0544000342, -0.0049174307, -0.0402825326, 0.0129672065, -0.0121059809, 0.0086819632, 0.0186624676, 0.0331100821, -0.0618661866, -0.0185186565, 0.0670395941, -0.0384097658, -0.0002172569, -0.0424930602, -0.0433753878, -0.0650239214, -0.1069373563, -0.0528888814, 0.0518348292, 0.0508825555, -0.0069736149, 0.0035840492, -0.0879210830, -0.0881812200, -0.0102378950, -0.0941880345, -0.1060474813, 0.0427403823, 0.0495877564, 0.0504998080, -0.0519750454, -0.0461075269, -0.0010097536, -0.0935202539, -0.0719351396, -0.0375057198, -0.0058360891, 0.0794751048, -0.0681238919, -0.0177932102, -0.0394831263, -0.0381792150, 0.0188883096, 0.0233734082, 0.0177586358, 0.0695301890, 0.0273005292, -0.0283245239, 0.0047541843, 0.0696755648, -0.0554784201, 0.0712257847, 0.0243380889, 0.0447326824, -0.0392614417, -0.0839330778, -0.0554369688, -0.0291283410, 0.0479394607, -0.0227646995, -0.0332628600, 0.0289383326, 0.0693472698, -0.0249010194, 0.1386018991, -0.0469598249, -0.0724299625, -0.0085262312, -0.0452051573, 0.0711506307, -0.0582961552, -0.0268659350, -0.0082942722, -0.0298586115, -0.0159947854, 0.0489678085, 0.0837514326, -0.0478560813, -0.0599326082, -0.0756848380, -0.0767502859, -0.0353780612, -0.0432756506, 0.0556706637, 0.0979047418, -0.0575757846, 0.0155394282, -0.0522017963, 0.0085267285, -0.0549801029, 0.0714371055, -0.0014620308, 0.0224269815, 0.0288570188, 0.0597026646, -0.0013477076, -0.0082397833, 0.0763339996, -0.0066985600, 0.0258380882, -0.0038054381, 0.0364205241, -0.0518796481, 0.0027898068, -0.0781848729, -0.0102864075, 0.0313938148, 0.0147942062, 0.0676541179, -0.0483148433, -0.0392561816, 0.0063363076, 0.0108184200, -0.0356937274, 0.0669416562, -0.0342701375, -0.0588120706, 0.0733523890, -0.0141583178, 0.0070916251, -0.0427360684, -0.0002873499, 0.0193743724, 0.0223576762, -0.0574696362, -0.0018153214, -0.0141254161, -0.0153031731, -0.0134930201, -0.0763727278, -0.0668840930, 0.0178015456, 0.0457074121, 0.0025487030, -0.0294278450, 0.0436321348, -0.0673645437, -0.0256965011, 0.0330589712, -0.0499325804, 0.0602915958, -0.0889950544, 0.0061774454, -0.0699948967, 0.0447003432, -0.0023227441, -0.0570535734, 0.0814387649, -0.0484284312, -0.0892530158, -0.0181301888, -0.0505878031, 0.0548341982, 0.0554423481, 0.0624991432, -0.0460976996, 0.0281682145, -0.0780547932, -0.0625899434, -0.0528463982, 0.0230539553, -0.0471705869, -0.0118094757, -0.0349848419, -0.0437918790, 0.0357542410, 0.0501838550, 0.0087323561, -0.0781918913, 0.0709987730, -0.0669814795, 0.0203855671, -0.0317525901, -0.0344242975, 0.0265109204, -0.0068869819, -0.0081716049, 0.0323541835, -0.0372611843, 0.0668605566, -0.0216443818, 0.0375676788, 0.0084879501, -0.0448600203, 0.0371361151, 0.0187284462, -0.0730621368, -0.0265598577, 0.0287324805, 0.0449888557, 0.0108782547, -0.0491274968, 0.0058944812, -0.0522802249, 0.0710554346, 0.0843744725, 0.0393222272, 0.0156311747, -0.0362315215, -0.0410554744, 0.0371529125, -0.0674018040, 0.0575787351, 0.0829013065, 0.0541611388, 0.0095099797, 0.0426698178, 0.0225607865, -0.0353869312, -0.0022328317, 0.0103684133, 0.0288765058, -0.0637598708, -0.0144463023, -0.0072381301, -0.0115335472, 0.0160401054, -0.0630764663, 0.0176155567, 0.0350185372, -0.0439583398, -0.0386889577, -0.0692238957, -0.0276361182, 0.0630308911, 0.0827319697, -0.0582667924, 0.0609217733, 0.0117105376, -0.0075000869, 0.0405741818, -0.0563857630, 0.0231896527, 0.0771748871, 0.0469451658, -0.0198586248, 0.0062002661, -0.0721849725, -0.0519684330, -0.0523313209, -0.0324315540, 0.0424297489, -0.0500820354, 0.0803506300, 0.0753145963, -0.0640502498, -0.0116729103, -0.0856134072, -0.0477000400, 0.0189309660, 0.0489675254, -0.0070864223, -0.0574440174, -0.0507298708, -0.0154829649, -0.0762682110, -0.0194732696, -0.0396507084, -0.0437472761, 0.0609259792, 0.0325172991, -0.0350531004, 0.0555665977, -0.0639480129, -0.0824672505, -0.0613041446, -0.0560690425, -0.0358939804, 0.0266059265, -0.0536917262, 0.0578975938, 0.0198283568, -0.0060849702, 0.0300377887, 0.0213095639, -0.0853840113, -0.0981111452, -0.0537410267, -0.0680219159, 0.0166427363, -0.0081296852, 0.0419388078, 0.0557735004, -0.0912054405, 0.1167059392, 0.0039008362, -0.0272693783, 0.0327839293, 0.0515926778, -0.0193027034, -0.0226807017, 0.1208535507, -0.0256137289, 0.0547450073, -0.0593582354, -0.0044474392, 0.0805550516, -0.0197219942, -0.0423163772, -0.0090064295, 0.0378770120, 0.0008286606, -0.0271608718, -0.0324527733, 0.0004887074, -0.0272413865, 0.0152704269, 0.0745330378, 0.0340338722, -0.0522011556, -0.0341915525, -0.0237437505, -0.0934622288, -0.0331237167, 0.0705279559, -0.0302455295, 0.0606619790, 0.0258488897, 0.0012309416, -0.1082090214, 0.0285269767, -0.0982523710, -0.0220347084, -0.0139918942, -0.0109819053, 0.0722478479, -0.0856711939, 0.0183560010, -0.0478225201, 0.0535411127, 0.0864500701, -0.0263966992, -0.0057582390, -0.0174101330, -0.0032883852, 0.0285371952, -0.0497594848, -0.0028413634, -0.0275596026, -0.0112077957, 0.0287891328, 0.0273967665, -0.0312706865, -0.0076161115, -0.0246653594, 0.0367330238, -0.0613911599, -0.0581333078, -0.0054692710, -0.0923648551, 0.0801276416, -0.0696960837, 0.0657678396, 0.0730697587, -0.0371011458, 0.0350866094, 0.0504549518, -0.0319113359, -0.0832426399, 0.0073761526, -0.0622438304, -0.0295599438, 0.0732328594, 0.0681524202, 0.0778913721, 0.0579589568, 0.0284737702, 0.0198891610, -0.0129450923, 0.0967826247, 0.0246795118, 0.0739561170, 0.0270277001, -0.0999298990, 0.0265681874, -0.0084334174, -0.0049199909, 0.0008887165, -0.0407458320, -0.0422836542, 0.0150259351, -0.0292718187, 0.0739750788, 0.0154089062, 0.1200041920, -0.0414072387, -0.0445035622, -0.0391825214, -0.0235126615, 0.0940457433, -0.0264915768, -0.0721020699, 0.0793477744, -0.0210612044, 0.0501754358, -0.0337155871, 0.0358506553, 0.0839951783, -0.1044638008, -0.0926883221, 0.0351854265, -0.0213322304, 0.0710772648, 0.0917653963, 0.0876782760, -0.0616076626, -0.0553403683, -0.0487423241, -0.0904670730, -0.0053636096, -0.0069001080, 0.0348851345, 0.0371008031, 0.0130388644, -0.0375286192, -0.0799493119, -0.0735618100, 0.0569023229, -0.0792049319, 0.0756027550, -0.0447692610, -0.0432259887, -0.0301483516, 0.0310126636, -0.0487596244, 0.1084678248, -0.0082814870, -0.0158518981, 0.0238694511, 0.0063071568, 0.0109420940, -0.0097733755, -0.0147858169, 0.0675112009, -0.0919307992, 0.0054976018, -0.0219982453, 0.0848869011, 0.0057368916, 0.0570293479, -0.0068896762, 0.0567142367, -0.0253446437, 0.0724115670, -0.0441402644, 0.0776825845, -0.0050125979, 0.0369414911, 0.0395461991, -0.0280822739, 0.0494059287, 0.0699864030, 0.0539363697, 0.0685688928, -0.0849051625, 0.0266530290, 0.0776313990, 0.0065532620, 0.0828059092, -0.0703898147, 0.0517802685, -0.0391405635, 0.0412250981, -0.0315858237, -0.0733557567, 0.0481433049, -0.1102056354, 0.0896994844, -0.0155653320, 0.0567632690, 0.0463146754, 0.0500846505, -0.0443372764, -0.0485450998, -0.0557922497, -0.0156240510, -0.1103556156, -0.0718378648, -0.0805043653, -0.0471842661, 0.0615365505, -0.0020731972, -0.0912516713, 0.0542782471, -0.0138389468, -0.0114264507, -0.0458818115, -0.0368746109, 0.0432071313, -0.0222105999, 0.0144061735, -0.0108744344, 0.0513515063, -0.0118853161, -0.0748039111, -0.0742977485, 0.0409889296, 0.0548372567, -0.0001101288, 0.0784817860, 0.0447412953, 0.0768472254, -0.0278140828, -0.0997234508, -0.0592706241, -0.0185945239, 0.0084031336, 0.0395107195, -0.0368623398, 0.0225582886, 0.0092992987, -0.0312008206, 0.0253983922, -0.0994084030, 0.0478742830, 0.0021735833, 0.0352007896, 0.0437652618, 0.0076410822, -0.0446652584, -0.0795152932, 0.0631302521, -0.0220039301, 0.0488177687, -0.0457755625, -0.0242090896, -0.0497936606, -0.0642320365, -0.0078455703, -0.0250686668, -0.0095241126, 0.0416701697, -0.0042680157, -0.0435467474, -0.0115632517, 0.0039690072, -0.0159057286, 0.0428311788, 0.0759202018, -0.0043805460, -0.0728439838, -0.0198439192, 0.0691681653, 0.0034960976, 0.0574981570, 0.0327424183, -0.0807196647, -0.0305312723, 0.0301135387, -0.0064436081, -0.0579823069, -0.0468257889, 0.0101229474, 0.0369170010, -0.0655652136, -0.0762211904, -0.0241147522, 0.0679824501, 0.0339697599, 0.0099175293, -0.0438688099, 0.0572849289, -0.0364321657, 0.0809552595, -0.0024152100, -0.0403201170, -0.0526715256, 0.0655883849, -0.0101570711, -0.0565710962, 0.0271182638, 0.0603547171, 0.0626949370, -0.0379227325, -0.0296074692, -0.0410708524, -0.0129170511, 0.0518854819, -0.0024680560, 0.0716129169, -0.0368341394, -0.0355991349, -0.0246508513, 0.0730077848, 0.0344433486, -0.0566174425, -0.0253532641, -0.0399234854, 0.0644669309, 0.0289732069, -0.0557301119, -0.0821196064, -0.0904793069, -0.0076975063, 0.0278228819, 0.0298181195, -0.0198585205, 0.0218758173, -0.0241619963, 0.0809875652, -0.0592288449, 0.0302412454, 0.0447323546, 0.0346236005, 0.0111151235, -0.0772329122, -0.0371455848, 0.0520895161, 0.0181038678, -0.0360531360, 0.0256229565, 0.0594985373, 0.0093924971, -0.0819981322, -0.0415469892, 0.0762246698, 0.0047300053, 0.0678077266, -0.0470022410, 0.0104880286, -0.0785415024, -0.0263598226, -0.0499605015, 0.0085146576, -0.0575162545, -0.0408884287, -0.0379739627, -0.0753119886, 0.0277718194, -0.0460089743, -0.0438446812, 0.0126226908, -0.0779057518, -0.0269639976, -0.0389525406, -0.0620535612, -0.0930346325, 0.0486407392, 0.0182562489, -0.0424416773, -0.0578939728, -0.0366499536, -0.0648675263, 0.0442316532, -0.0546179637, 0.0112073896, -0.0342487656, 0.0356882513, -0.0707762837, 0.0330131501, -0.0551264472, -0.0305196792, 0.0176666323, -0.0719194412, -0.0075789797, 0.0067831934, -0.0389002226, -0.0756468177, 0.0586853735, -0.0165355932, -0.0742861629, -0.0556054600, -0.0128358873, -0.0585029610, 0.0125222513, 0.0371683575, 0.0890111849, -0.0645149052, -0.0698528364, -0.0179890469, 0.0593934357, -0.0130168842, 0.0390347652, -0.0615630113, -0.0621070527, 0.0570915155, -0.0693151578, 0.0305870920, -0.0068522473, -0.0794428438, -0.0391760804, -0.0035199039, 0.0319487154, -0.0519074947, -0.0555826239, -0.0321099535, -0.0233857185, 0.0420163572, -0.0711128786, 0.0296443515, -0.0373162553, 0.0546965338, 0.0791003034, -0.0045958678, -0.0131498715, 0.0204111319, 0.0700206086, 0.0372060537, -0.0139337787, 0.0381502323, 0.0106992563, 0.0045070215, 0.0600147620, -0.0293569881, -0.0549956672, -0.0902861655, -0.0645107105, 0.0702297464, -0.0279027484, 0.0474049300, 0.0212746728, 0.0546488464, 0.0423788093, -0.0029252821, -0.0275594350, -0.0074120001, 0.0636014417, 0.0702180937, 0.0187662542, 0.0199207254, 0.0271003488, 0.0658725724, 0.0494163074, 0.0573640577, -0.0776437819, -0.0243224874, -0.0441419221, -0.0142909838, -0.0839980096, -0.0062718955, 0.0147287371, -0.0432117544, -0.0784030557, 0.0383564420, -0.0088402955, 0.0588643327, 0.0868013427, -0.0308022778, 0.0189697295, 0.0171357412, 0.0384846516, -0.0500113331, 0.0612459369, -0.0700443909, -0.0418307222, 0.0177304782, -0.0219760351, 0.0297536924, 0.0274758637, -0.0478356816, -0.0499829650, -0.0290201679, -0.0449195802, 0.0506013744, -0.0674390867, 0.0784496143, 0.0426308438, 0.0084240539, -0.1032953560, -0.0196025204, 0.0162040219, -0.0208594557, -0.0551190041, -0.1077884957, 0.0764530674, -0.0022397779, -0.0322086625, -0.0103764366, 0.0959192216, -0.0297849346, -0.0736830533, 0.0729371905, -0.0737599432, 0.0167336781, 0.0581276417, -0.0020076903, -0.0918575972, -0.0185122825, 0.0852901265, -0.0984243304, 0.0338247381, -0.0053610029, 0.0360221304, -0.1001846567, 0.0343860276, -0.0032869871, -0.0212207269, 0.0241345838, -0.0457192212, 0.0268874876, -0.0417420156, -0.0699643940, -0.0569255352, -0.0081174988, -0.0032949161, 0.0727735162, 0.0644389763, -0.0192459915, 0.0683392435, -0.0000120168, -0.0568251051, 0.0314721689, 0.0720906854, 0.0598510280, 0.0161498580, -0.0569470786, 0.0270667728, 0.0400791243, 0.0457987823, -0.0320050158, 0.0421840437, -0.0720167905, 0.0337769687, 0.0497152619, 0.0628511757, 0.0159462132, -0.0896370932, 0.0039737248, 0.0013684923, -0.0070103919, -0.0597334392, 0.0335661508, 0.0225375313, 0.0169154909, -0.0294259414, -0.0081190253, -0.0150853610, 0.0275842343, -0.0537039824, -0.0174981691, -0.0265284572, -0.0561656468, -0.0225493927, -0.1039523035, -0.0003266088, -0.0324448869, 0.0206247587, -0.0728528351, -0.0082449699, -0.0345042460, -0.0974239632, -0.0226807259, 0.1101965085, -0.0764337704, -0.0542202666, -0.0852002650, 0.0535846651, -0.0316198356, -0.0445000716, 0.0619823784, 0.0725176707, 0.0023040664, 0.0714055598, -0.0762335509, 0.0351825692, 0.0000706236, -0.0699123889, 0.0054387799, 0.0122471116, -0.0478797704, 0.0139324684, -0.1016504243, -0.0242314823, -0.0971733183, 0.0600157045, -0.0593930520, -0.0230363198, 0.0314430371, -0.1117930561, 0.0935580358, -0.0015692231, 0.0163424592, -0.0126719829, 0.0058359494, -0.0324680470, 0.0594011806, 0.0897565186, -0.0454725511, -0.0423256531, -0.0411444232, -0.0740319490, 0.0104476996, -0.0344184302, -0.0250955895, 0.0040739854, 0.0426607653, -0.0179218519, 0.0443136916, -0.0260283649, 0.0641192794, -0.0935996845, -0.0120195458, -0.0556980073, 0.0446627811, -0.0505778603, 0.0029155214, 0.0048961309, -0.0844158232, -0.0542323887, -0.0288903359, 0.0623563044, 0.0213609766, -0.0402204394, 0.0101319831, 0.0050196773, -0.0534135140, 0.0782076418, -0.0592788421, 0.0798538402, -0.0500650294, 0.0547272153, -0.0152356997, -0.0343581848, 0.0267003365, 0.0626439229, 0.0396079943, -0.0676712319, -0.0399530306, 0.0050636674, -0.0691509247, -0.0008865791, 0.0405567326, 0.0294500105, -0.0408817716, -0.0342069380, 0.0414543189, -0.0258695502, 0.0425003767, -0.0092262961, -0.0589388758, -0.0225204565, 0.0275268666, -0.0145818545, 0.0356979668, -0.0557154939, 0.0227088444, -0.0858187079, 0.0270534419, -0.0390029661, 0.0433604866, 0.0754722133, -0.0267341435, 0.0681445226, -0.0685469285, 0.0198709387, -0.0061988002, -0.0626129061, -0.0468651354, -0.0008779557, -0.0568773672, -0.0649287254, -0.0070616156, 0.0190689843, -0.0319800861, 0.0265394747, -0.0847009197, 0.0486169122, -0.0870258361, 0.0129754879, -0.0357134640, 0.0075645512, 0.0064725196, -0.0965082347, -0.0198000018, 0.0013955588, 0.0867216736, 0.0160824005, 0.0067595383, -0.0790184736, 0.0179057252, 0.0142644802, -0.0648264661, 0.0713764876, -0.0515254363, -0.0454016253, -0.0902969465, 0.0497766510, 0.0721221715, -0.0285392813, -0.0238351561, 0.0895446092, -0.0737933218, -0.0659008548, -0.0336177312, -0.0067328638, 0.0202358272, -0.0496179014, -0.0003156654, 0.0388253182, -0.0415426381, 0.0906196311, -0.0609053634, 0.0026871678, 0.0610024482, -0.0240665302, 0.0479017422, -0.0271122307, 0.0385135151, -0.0157293305, 0.0323713012, 0.0402024388, 0.0706893429, 0.0789178759, 0.0009028607, 0.0004251194, -0.0152218472, -0.0554494038, 0.0169862099, -0.0719196871, 0.0107247569, 0.0441868044, -0.0066105910, 0.0722911507, -0.0371346250, -0.0161169469, 0.0071815462, -0.0712102428, 0.0543747321, 0.0081700291, -0.0444030203, -0.0419662185, 0.0445810594, 0.0633193180, 0.0534771867, -0.0242213514, 0.0253847744, -0.0784692317, 0.0963375270, 0.0154521968, -0.0031315612, 0.0109019540, -0.1019983888, -0.0069613042, -0.0156100653, 0.0934162810, 0.0211260077, 0.0904464945, -0.0768903866, -0.0289928913, -0.0469482690, 0.0081388392, 0.0635947064, -0.0150912609, -0.0369813070, -0.0692028999, -0.0128761539, -0.0196902733, -0.0721977055, -0.1029868498, -0.0892287567, -0.0628859922, 0.0146911070, 0.0260039344, -0.0243929960, -0.0677960441, -0.0087109189, 0.0266159959, 0.0233222917, -0.0548330173, 0.0085164187, 0.0037276612, 0.0467479937, -0.0621695034, -0.0412997529, 0.0593620427, -0.0307183843, 0.0827504545, -0.0011085623, -0.0056554573, -0.0495776869, -0.0452015437, -0.0499259084, -0.0071406914, 0.0406109318, 0.0126399584, -0.0725661889, -0.0479767174, -0.0949945822, 0.0069816168, 0.0493005738, -0.0587527342, 0.0158849414, -0.0825394690, -0.0694478527, 0.0306378584, 0.0157516971, 0.0652455762, -0.0801784992, 0.0711722299, -0.0467435680, -0.0998863280, 0.0789934397, 0.0144785056, -0.0468629487, -0.0543123186, -0.0203174520, -0.0973250270, 0.0370425954, 0.0057843118, -0.0387578793, 0.0569692850, 0.0194849726, -0.0477710664, -0.0712651834, 0.0505073555, 0.0334301144, 0.0015485976, 0.0308750141, -0.0784652159, 0.0554160364, 0.0333168767, -0.0618326850, 0.0379829779, -0.0226519872, 0.0479561910, 0.0531583540, -0.0342108384, 0.0913672745, 0.0569208637, 0.0429470874, -0.0203671455, -0.0502775349, -0.0439739078, -0.0288136527, 0.0370557792, -0.0054709995, 0.0065055606, 0.0275162701, -0.0217903629, -0.0448997989, -0.0037277008, 0.0111622158, 0.0189260207, 0.0704075173, -0.0534821264, 0.0602304935, 0.0359589309, -0.0106540807, -0.0257193055, 0.0725658685, 0.0760212839, -0.0124679189, -0.0575099364, -0.0249742977, 0.0274547953, -0.0104243681, -0.0595092252, -0.0014492992, 0.0657575205, -0.0669324622, -0.0379223078, -0.0514580533, 0.0690458342, 0.0450852253, -0.0967218950, 0.0580738820, 0.0285820793, 0.0032741185, 0.0548531115, 0.0276376456, 0.0387114920, 0.0287304856, -0.0329851173, -0.1075926200, 0.0974677876, 0.0125517389, 0.0344778672, -0.0238722246, -0.0615122840, 0.0911299884, -0.0951564535, -0.0083630178, 0.0392349809, -0.0578678586, 0.0245117676, -0.0067866608, -0.0703589097, 0.0892956704, 0.0614512302, 0.0932145417, 0.0871661827, -0.0119901784, -0.0733959749, -0.0073789661, 0.0627588257, -0.0319197513, 0.0376040712, -0.0685730577, -0.0944870859, -0.0695543438, -0.0191280376, 0.0566643178, 0.0388707332, -0.0520912372, 0.0784783438, -0.0775454864, 0.0556481518, 0.0499834120, -0.1015940607, -0.0225389581, -0.0458425172, 0.0195646863, -0.1054804996, -0.0213547628, -0.0147218863, -0.0772374570, -0.1195589155, 0.0302857962, 0.0703628212, -0.0583880618, 0.0428439789, -0.0308328755, -0.0592810139, 0.0398121923, 0.0855352730, -0.0448594280, -0.0261624325, -0.0398395695, -0.0142532531, -0.0283337012, 0.0163879804, 0.1094168425, -0.0011702791, -0.0181104746, -0.0287632905, 0.0620701350, -0.0400492214, 0.0193854738, 0.0118297404, -0.0179862976, 0.0713455603, -0.0131479846, -0.0797578320, -0.0498420037, 0.0095195686, 0.0066320840, -0.0457420275, 0.0621470325, -0.0023098870, 0.0283944495, -0.0331115723, -0.1101817563, 0.0301029086, -0.0366475806, -0.0631501824, -0.0139260842, 0.0374819078, -0.0339628421, 0.0527157821, -0.0769541562, -0.0263974629, 0.0806929618, 0.0096239336, 0.0625940412, -0.0024253170, 0.0470324717, 0.0188191719, 0.1016986892, -0.0202712640, 0.0751483440, -0.0693619624, 0.0358063914, -0.0079871174, -0.0084759807, 0.0157258715, -0.0558860078, 0.0291255694, -0.0306787249, -0.0509417839, 0.0127801821, -0.0418856218, 0.0316128656, -0.0006034227, 0.0443922319, -0.0229423679, -0.1246169582, -0.0155242411, 0.0365661196, 0.0114481552, 0.0322340578, -0.0046404609, 0.0029147065, -0.0333680809, -0.0298784450, -0.0772723109, 0.0848585144, -0.0546374545, -0.0887992829, 0.0299960189, 0.1192808002, 0.0948301554, -0.0657570213, 0.0517408773, 0.0391966030, 0.0159427561, -0.1355288327, -0.0347749777, 0.0377439037, -0.0026336978, -0.0330354981, -0.0690013841, -0.0909855291, -0.0314580388, -0.0092748888, 0.0194088910, 0.0303409193, -0.0308290776, 0.0302501898, 0.0917918757, 0.0160696525, -0.0161236078, 0.0883677825, -0.0380897857, -0.0680239871, -0.0474566594, 0.0138239823, -0.0450471081, -0.0573598668, -0.0167387184, 0.0976987258, 0.0171539634, 0.0090994053, -0.0259819049, -0.0394521058, -0.0676544458, -0.0411818959, -0.0453483015, -0.0351105481, -0.0731339008, 0.0846362263, 0.0394997969, -0.0129380655, 0.0086036706, -0.0554789081, 0.0441896506, -0.0165096074, 0.0782319233, -0.0407444872, 0.0774441138, -0.0712245852, -0.0651743487, 0.0862354115, 0.0564587861, 0.0049694204, 0.0797263980, -0.0120043447, -0.0698167235, 0.0424863547, 0.0071896133, 0.0377570912, 0.0888988897, 0.0503425226, -0.0832405984, 0.0379429311, -0.0307752509, -0.0166217498, 0.0911268070, -0.0660962313, 0.0174048375, 0.0372520201, -0.0942144245, 0.0300726015, -0.0926022083, -0.0497880876, 0.0405019745, -0.0283303931, -0.0507445522, -0.0524445698, -0.0568007007, 0.0096940836, -0.0468582213, 0.0281575248, -0.0222554561, -0.0206564963, 0.0286571030, 0.0493778214, 0.0028876178, 0.0522065982, 0.0151103027, 0.0097280052, 0.0656695962, -0.0199724417, 0.0858772174, 0.0398469605, -0.0166100562, 0.1056774184, 0.0078669628, 0.0464723296, 0.0045002997, 0.0246571954, -0.0485481545, 0.0097726220, -0.0095887845, 0.0718178600, -0.0660659820, 0.0008154796, 0.0104325460, 0.0029558460, -0.0889591947, -0.0075682150, -0.0794155076, 0.0682990253, 0.0765858591, -0.0542972907, 0.0559045821, -0.0499537773, -0.0034360171, 0.0763798729, -0.0317279622, -0.0223481264, -0.0927855894, 0.1162762940, -0.0626422092, -0.0688513964, 0.0426145978, -0.0786903873, -0.0913694501, 0.0966871157, 0.0518883765, -0.0760877430, 0.0577707812, -0.0572405979, -0.0577088483, 0.0283938069, -0.0186925419, 0.0553374290, -0.0466783158, 