//Numpy array shape [3, 3, 1, 32]
//Min -0.153499737382
//Max 0.152326419950
//Number of zeros 0

#ifndef W3_H_
#define W3_H_

#ifndef __SYNTHESIS__
conv2d_weight_t w3[288];
#else
conv2d_weight_t w3[288] = {0.080881, -0.152919, 0.030382, 0.051629, -0.103027, -0.134962, -0.015998, -0.054711, 0.012013, 0.127945, 0.088693, -0.038326, -0.094023, -0.120795, 0.139710, -0.113137, 0.096348, 0.137888, -0.032461, 0.108317, 0.144356, -0.099143, -0.042992, -0.004493, 0.046148, -0.034898, 0.014632, -0.014621, 0.046425, -0.068908, -0.105048, -0.039928, -0.027726, 0.119370, 0.058041, 0.115861, 0.129013, -0.078565, 0.074514, -0.087978, 0.145842, -0.033064, 0.063062, 0.058751, -0.070900, 0.118853, 0.006492, -0.063120, 0.063895, -0.048934, -0.056195, 0.001113, -0.012990, -0.122366, -0.050317, 0.120917, 0.065142, 0.140515, -0.029263, 0.083051, 0.028076, -0.039389, 0.044739, -0.051837, -0.030814, -0.041212, -0.060876, 0.075949, 0.051037, -0.010693, 0.032442, 0.051782, -0.048486, 0.113733, 0.056004, 0.106510, 0.121015, 0.098391, -0.016413, 0.025861, -0.037053, 0.118610, 0.005734, 0.062594, -0.049923, 0.149955, -0.036118, 0.012924, 0.152326, 0.049508, 0.100758, -0.015317, 0.015530, -0.076705, -0.029463, -0.041002, 0.119431, 0.065245, -0.110848, 0.047538, -0.030242, 0.116435, -0.027265, -0.086530, -0.111332, 0.046050, -0.077106, 0.026378, 0.091903, -0.106430, 0.020438, -0.017518, -0.116567, -0.114703, 0.067968, -0.128110, 0.092764, -0.105221, -0.067689, 0.125798, -0.086990, 0.028178, 0.125203, -0.068998, 0.149101, 0.065326, 0.058468, 0.111927, 0.014180, 0.136793, 0.034936, -0.012333, 0.061690, -0.099456, 0.062510, -0.104631, -0.067567, 0.124150, 0.022793, 0.082350, 0.096220, 0.123989, -0.077637, 0.152282, -0.081669, -0.106482, -0.121222, -0.074226, -0.137683, -0.112360, -0.061318, -0.094150, 0.053319, -0.073467, -0.140006, 0.110570, 0.128148, -0.153500, -0.074705, 0.120781, -0.083257, -0.095773, 0.069197, -0.123687, -0.055185, -0.017342, -0.034651, 0.020886, -0.028038, 0.077057, 0.023253, -0.025884, 0.033966, -0.110916, -0.019539, -0.010738, 0.116994, -0.129616, -0.072724, -0.122170, 0.021142, -0.143396, -0.026145, 0.075814, 0.042825, -0.136336, 0.095980, 0.079659, -0.115299, -0.078472, 0.122141, -0.142967, -0.136247, 0.082814, 0.061120, -0.081274, 0.102648, -0.102497, 0.018823, -0.125577, -0.139241, 0.073213, -0.055576, -0.075318, 0.005721, -0.129792, 0.094523, -0.049749, 0.114406, 0.026505, -0.045866, 0.092976, -0.073541, -0.133150, 0.018699, 0.083883, -0.043544, 0.083346, -0.104332, -0.076489, -0.129541, 0.051161, 0.118891, 0.035221, 0.126538, 0.038971, -0.015690, 0.072857, 0.071719, 0.145369, 0.000918, -0.103262, 0.087313, 0.053946, -0.033722, 0.100753, -0.063765, 0.081977, 0.002058, 0.065762, 0.073966, -0.091720, -0.001401, -0.024694, 0.016341, 0.060352, -0.022744, -0.000858, 0.098073, 0.038907, -0.007452, -0.053329, 0.073319, -0.135904, -0.096418, 0.094454, 0.091638, 0.027272, -0.120551, 0.029486, -0.046876, -0.009661, 0.150412, 0.031234, -0.122735, -0.018828, -0.119041, 0.148445, -0.058688, -0.074374, -0.017545, -0.007491, 0.066937, 0.124933, -0.009930, 0.006188, 0.080135, 0.090528, -0.049159, -0.010011, 0.061669, 0.108254, -0.113026, -0.100491, 0.095103, 0.025529, 0.110645, 0.136934};
#endif

#endif
