//Numpy array shape [3, 3, 64, 64]
//Min -0.127019122243
//Max 0.139328286052
//Number of zeros 0

#ifndef W9_H_
#define W9_H_

#ifndef __SYNTHESIS__
conv2d_2_weight_t w9[36864];
#else
conv2d_2_weight_t w9[36864] = {-0.079850, 0.013921, -0.051775, -0.019789, 0.043548, -0.019066, 0.029785, -0.071504, 0.012280, 0.042443, 0.028616, 0.029145, 0.012625, -0.059191, 0.038399, 0.030606, -0.043700, -0.021761, -0.035226, -0.068820, -0.038264, 0.029091, 0.061050, 0.004540, 0.027980, 0.044432, -0.014810, -0.034948, 0.073490, 0.031531, -0.038400, 0.014563, -0.066177, -0.005165, -0.059167, 0.057705, 0.003806, -0.024806, -0.000385, -0.051376, -0.037902, -0.012346, 0.012662, -0.024399, -0.075906, 0.030254, -0.001503, -0.016176, -0.048047, 0.027422, -0.050694, 0.027565, 0.045637, -0.039386, 0.015810, 0.003954, -0.061047, 0.003160, 0.013181, 0.003688, 0.073557, 0.017498, -0.011591, 0.003698, 0.068346, -0.075535, 0.045579, 0.011371, -0.029870, -0.000256, 0.006764, -0.053320, -0.076164, -0.061444, 0.019599, -0.000075, 0.045002, -0.038714, 0.064715, 0.051980, 0.075221, 0.001033, 0.056248, -0.049958, -0.020287, -0.052109, -0.049156, -0.017533, 0.064571, 0.025313, 0.073338, 0.000115, -0.048738, 0.045728, -0.015399, -0.011852, -0.032294, -0.056431, -0.056752, 0.003010, -0.055215, -0.036797, 0.006814, 0.014132, 0.022646, 0.003853, 0.000095, 0.001759, -0.055942, -0.053455, 0.003777, 0.059749, -0.044992, -0.006718, 0.006843, 0.007057, -0.071824, 0.068329, 0.059310, -0.048323, -0.064120, 0.028993, -0.002059, 0.082432, 0.027332, -0.050263, -0.003739, 0.035076, 0.084349, -0.032496, 0.037645, 0.057145, 0.010328, 0.042352, 0.004124, -0.045469, 0.050900, 0.022128, -0.073402, 0.013361, 0.040001, -0.046300, 0.036763, -0.019211, -0.027439, 0.033203, 0.070279, -0.054521, 0.001574, -0.089919, -0.080994, -0.041435, 0.055708, 0.030223, 0.006052, -0.018500, -0.073314, -0.060956, -0.030488, 0.090770, -0.017658, -0.064981, 0.055661, 0.049519, 0.066262, 0.010573, 0.029690, 0.040301, 0.022569, -0.028022, -0.012242, -0.019284, -0.002297, -0.067263, 0.064618, -0.063434, -0.036714, -0.062968, 0.011297, -0.050474, 0.036550, -0.050269, -0.078349, 0.057093, 0.041071, -0.027026, -0.036975, -0.050865, 0.049775, -0.008682, -0.011110, 0.037020, 0.042165, -0.020306, -0.047207, -0.095485, -0.041558, 0.053840, 0.024168, -0.002688, -0.039958, -0.063081, -0.078536, 0.010804, -0.055171, -0.005648, 0.071502, 0.047784, 0.027383, 0.043507, -0.021314, 0.035939, 0.023835, 0.019042, 0.069234, 0.033539, 0.005701, -0.009813, 0.031255, 0.012626, -0.038412, 0.005399, -0.065839, -0.041585, -0.048124, 0.019998, 0.078328, 0.054477, 0.035421, 0.051457, -0.060601, -0.073728, 0.077350, 0.048447, 0.014935, 0.021401, -0.016175, 0.021685, -0.044067, 0.044822, -0.013937, -0.044364, 0.005830, 0.005534, -0.039918, 0.040501, 0.041776, -0.028375, -0.025690, 0.017990, 0.014199, 0.016290, -0.045804, 0.058761, 0.018025, 0.050010, 0.044407, 0.000466, -0.030345, 0.048192, 0.044995, -0.023993, -0.054725, 0.020861, 0.018642, 0.037952, -0.034603, 0.016804, -0.012364, -0.005753, -0.071057, -0.059431, -0.060460, 0.010232, -0.035300, 0.068417, -0.032972, -0.017489, 0.010662, 0.034957, 0.003657, 0.004618, 0.060751, -0.004752, -0.049183, 0.070760, 0.046370, 0.002473, -0.005731, -0.028559, -0.025634, -0.056481, 0.069831, -0.041384, 0.055705, -0.008749, -0.028197, 0.026133, -0.009469, 0.035834, 0.058515, 0.002374, -0.017254, -0.031606, 0.015832, 0.051850, 0.025782, 0.005981, -0.065541, -0.049518, 0.058486, 0.075518, 0.022570, -0.051883, 0.033081, 0.002433, -0.051884, 0.037592, 0.047588, 0.007640, 0.080580, 0.016212, -0.027189, 0.017643, -0.056023, 0.059020, -0.059100, 0.009132, -0.042230, 0.018471, -0.031318, -0.065445, 0.005406, 0.054235, 0.057628, -0.004477, 0.094643, 0.064544, 0.042477, -0.046164, 0.100230, -0.045489, 0.050658, 0.002125, -0.077508, -0.035832, -0.006539, -0.061170, -0.076013, -0.013580, 0.017339, 0.015902, 0.031341, -0.038056, 0.003865, -0.064123, 0.057247, 0.058051, 0.004601, 0.015498, -0.023202, -0.038933, -0.036781, 0.032976, 0.049899, 0.018393, -0.022401, 0.037047, 0.084636, -0.003836, 0.036380, 0.023184, 0.021558, -0.040235, -0.036159, 0.068571, -0.001928, 0.011208, -0.070014, -0.001278, 0.009590, -0.039170, 0.000163, 0.052137, -0.005858, 0.066397, 0.017021, -0.065008, -0.024893, 0.068200, 0.020334, -0.065136, 0.063780, 0.047675, 0.041551, 0.043167, 0.012209, 0.005856, -0.020338, -0.019824, 0.006534, 0.066675, 0.073578, 0.002471, 0.003409, 0.036824, -0.069739, -0.045864, -0.072948, -0.030541, -0.051913, -0.072904, 0.005594, -0.022210, -0.057928, 0.043475, -0.064803, 0.008570, -0.047656, 0.002565, -0.001046, -0.080833, -0.040659, -0.042684, -0.058233, -0.017702, 0.023525, 0.074498, 0.058679, -0.061628, 0.022647, -0.002786, -0.041356, 0.036717, -0.061028, 0.002134, 0.069375, 0.049925, -0.013942, -0.036194, 0.034134, -0.025664, 0.018737, 0.006716, 0.059914, -0.084172, -0.050183, -0.003967, -0.010297, 0.046697, -0.002080, 0.034615, 0.076180, 0.070893, -0.006970, 0.029112, -0.031322, -0.001679, 0.028074, 0.060962, 0.041655, 0.037790, 0.017840, -0.046888, -0.032910, 0.085583, 0.015893, 0.050411, -0.009945, -0.018804, -0.078225, 0.033863, -0.017942, 0.055595, 0.080221, 0.033031, 0.051081, -0.029180, 0.013618, -0.041803, -0.022226, -0.001542, 0.078981, -0.002033, 0.010644, -0.082794, 0.049790, -0.043308, -0.078850, 0.026544, 0.057405, -0.034952, -0.073944, -0.020194, 0.017731, 0.055812, 0.005783, 0.039785, -0.000971, 0.057747, -0.012903, -0.009422, -0.011443, -0.026232, 0.001548, 0.038433, -0.035212, -0.036617, 0.043203, -0.046918, -0.017768, 0.029076, 0.083347, 0.104381, 0.033634, -0.019876, 0.074432, 0.034737, -0.013232, -0.009601, -0.001221, 0.034729, -0.003466, -0.065297, 0.004183, -0.049120, -0.008720, 0.019888, -0.004039, 0.091146, -0.031208, 0.032620, 0.092608, -0.089245, 0.035287, 0.042674, 0.005128, -0.047719, 0.058165, -0.067679, -0.017120, -0.054799, -0.007855, 0.083754, 0.001226, -0.079902, -0.008385, 0.005691, 0.014524, -0.045419, 0.030763, 0.044674, -0.014214, -0.012732, -0.031124, 0.081948, -0.027671, -0.009243, 0.013542, 0.050386, -0.026968, 0.078969, 0.064333, -0.026647, -0.029772, -0.009889, 0.037751, 0.047240, -0.046003, 0.069236, 0.062089, 0.037157, 0.007425, -0.030570, 0.057632, 0.015646, -0.042406, 0.026051, -0.006055, 0.066281, -0.000210, 0.035026, 0.034799, -0.005749, 0.070054, 0.045027, 0.022449, 0.043079, 0.042613, 0.031300, 0.049146, -0.048802, -0.039821, -0.033286, 0.044079, -0.033533, 0.078494, -0.032566, -0.020827, -0.033829, 0.045496, -0.021604, 0.005672, 0.043020, -0.004608, -0.061661, 0.010212, 0.026807, 0.058002, -0.056520, 0.073090, -0.093720, -0.015136, 0.007372, 0.090241, -0.019183, -0.044828, -0.052528, 0.038969, 0.047386, 0.009597, 0.031927, -0.030850, 0.033862, 0.059473, -0.069473, -0.062883, 0.017368, -0.049808, 0.021611, -0.088565, 0.063764, -0.060229, -0.034591, -0.036127, 0.018020, 0.013788, -0.046235, -0.067369, 0.001795, 0.030295, 0.041621, -0.075074, -0.012264, 0.050898, -0.038939, 0.015688, 0.027577, 0.056632, 0.002815, 0.062828, 0.077968, -0.006063, 0.023664, -0.018008, -0.014508, 0.070134, -0.033277, 0.021558, 0.063646, 0.060019, 0.023726, -0.015255, -0.064315, -0.044858, 0.039942, 0.006885, -0.057441, 0.027416, -0.008907, 0.061419, 0.012343, 0.016672, 0.057022, -0.046113, -0.057205, -0.027803, 0.076350, 0.002236, 0.022503, 0.072942, 0.039123, -0.021443, -0.004335, 0.046759, -0.043864, -0.024921, -0.026731, -0.067114, -0.067087, -0.041309, 0.002310, 0.065855, 0.024159, 0.069391, 0.045487, 0.034330, -0.012706, -0.013023, -0.001961, 0.076531, -0.048673, -0.060159, -0.041093, -0.030461, -0.028827, 0.017869, -0.045838, 0.040840, -0.070095, 0.019433, -0.053753, -0.011515, -0.056720, -0.048269, 0.012023, -0.076738, 0.000908, 0.023605, 0.044411, -0.006045, 0.020125, 0.032251, -0.018921, 0.055643, 0.055426, -0.018395, 0.057839, -0.063530, 0.004698, -0.021393, 0.045768, 0.078775, 0.004593, -0.001953, -0.056284, -0.042790, 0.028579, -0.080603, 0.038416, 0.029433, 0.081482, -0.023392, 0.032617, -0.011415, -0.023632, 0.029630, 0.050406, 0.016424, -0.029832, -0.029407, 0.039809, -0.026019, -0.015373, -0.008025, 0.060126, -0.006363, 0.015469, 0.012756, 0.056860, 0.080146, 0.021233, -0.021385, -0.022130, -0.063253, -0.050053, 0.040470, 0.013111, -0.005106, 0.010218, -0.050409, -0.030222, 0.002181, 0.058063, 0.020488, 0.043971, 0.061044, 0.057484, -0.021528, 0.049498, 0.091890, -0.046371, 0.051741, 0.002538, 0.054931, 0.060277, -0.048753, -0.008875, -0.033082, 0.012990, 0.036011, 0.018303, -0.023816, -0.037515, 0.056226, -0.053906, -0.020084, 0.009798, -0.057203, -0.034252, 0.048955, 0.045030, -0.024908, 0.011615, -0.017032, -0.000477, 0.099470, 0.057705, -0.026161, -0.051781, -0.081140, -0.028732, -0.038490, -0.103339, -0.012511, -0.029836, -0.066811, -0.015766, -0.065567, -0.003813, -0.053145, -0.003487, -0.014957, 0.066360, -0.091419, 0.032527, 0.063197, -0.056549, -0.076029, -0.028381, 0.063437, -0.078900, -0.000351, 0.026115, -0.068754, 0.039011, 0.018447, 0.025713, 0.035617, -0.026667, -0.019349, -0.046569, 0.042015, 0.079563, -0.065982, 0.074114, 0.025880, -0.005074, 0.030362, -0.051643, -0.002923, -0.052517, 0.039573, -0.029558, -0.036865, 0.058081, 0.058303, 0.081828, 0.025772, -0.009869, -0.010124, -0.011582, 0.035899, 0.003814, 0.046471, -0.017907, -0.019539, -0.061002, 0.008887, -0.010464, 0.089660, 0.069412, -0.018135, 0.046715, -0.025353, -0.054503, 0.051934, 0.020219, -0.085307, 0.054857, 0.065605, -0.008648, -0.029853, -0.034380, -0.043379, 0.049762, -0.023601, 0.004131, 0.016288, 0.022940, -0.027131, -0.049451, 0.038980, 0.079476, -0.050409, -0.021212, 0.030109, -0.006811, 0.028516, 0.004474, 0.019343, -0.000080, 0.039323, -0.027496, 0.030710, -0.071068, 0.008149, 0.040558, 0.029594, 0.036473, 0.034835, 0.048042, 0.046601, 0.030279, 0.037621, 0.073423, -0.027533, 0.020503, 0.009995, 0.049947, -0.014369, 0.029435, 0.030913, 0.017144, 0.082248, 0.026492, 0.004488, -0.013348, 0.015625, 0.000424, 0.023950, 0.002066, -0.004445, -0.034054, -0.033041, 0.060892, -0.054346, -0.032587, -0.055858, -0.040108, 0.061655, -0.041275, -0.071086, 0.038216, -0.058587, 0.007729, -0.049792, -0.016054, -0.060300, 0.040718, -0.025764, 0.017267, -0.051287, 0.028950, -0.062124, -0.025793, -0.044998, 0.053737, -0.033426, -0.051708, 0.050385, 0.061298, 0.035428, -0.012338, -0.067793, -0.046783, 0.046492, 0.071531, 0.025973, -0.020396, -0.062375, 0.020299, 0.065584, 0.002814, -0.020837, -0.009636, 0.047840, 0.027438, -0.042821, -0.026913, 0.050533, 0.035073, -0.040133, -0.012965, -0.058957, 0.053889, 0.064800, 0.012788, -0.033991, -0.064678, -0.034021, 0.031499, -0.010885, 0.064242, -0.033805, 0.068093, 0.032360, -0.022584, 0.074432, -0.050577, 0.026632, 0.019627, -0.050531, 0.047295, 0.051159, -0.037123, -0.003540, 0.094953, -0.007022, -0.050025, -0.020501, -0.050030, -0.006435, 0.033247, 0.051209, -0.004968, 0.037307, -0.032442, 0.014157, -0.070515, -0.056823, -0.049951, 0.057178, 0.010160, 0.023965, -0.072764, 0.005305, -0.058153, -0.006909, -0.039483, 0.061758, 0.046149, 0.039364, 0.022820, -0.024884, 0.082476, 0.032426, 0.027154, -0.048208, -0.020856, 0.013870, 0.052692, -0.006514, -0.049612, 0.023370, -0.053413, 0.068622, 0.005402, -0.065307, 0.024178, -0.018981, 0.021891, -0.010752, 0.047202, 0.069114, -0.070678, 0.031377, 0.080317, -0.002704, 0.014459, 0.041594, -0.031517, 0.035736, -0.033362, -0.014642, 0.044574, -0.017961, -0.004014, 0.063095, -0.038211, -0.002548, 0.078522, 0.017468, -0.013758, -0.021801, -0.010390, -0.017337, -0.010450, 0.067588, 0.014955, -0.009618, -0.040062, -0.035798, -0.007397, -0.065458, 0.064728, -0.044299, -0.024354, -0.079477, 0.017619, -0.023553, 0.032132, -0.002426, 0.040934, -0.059571, -0.001717, 0.033919, 0.040891, -0.022507, 0.041808, -0.062720, 0.041921, 0.027369, 0.053887, -0.005457, 0.027744, -0.008678, 0.065036, 0.034171, 0.005687, -0.025015, -0.065333, -0.064241, 0.028117, 0.046596, 0.013983, 0.057538, 0.021357, 0.067852, -0.075538, -0.056274, 0.004428, -0.072054, 0.072480, 0.078942, 0.005947, 0.003866, -0.026616, -0.000320, -0.013102, 0.016499, -0.010996, -0.058338, 0.052250, 0.021466, 0.073031, 0.025674, 0.056477, 0.039886, -0.015682, 0.022130, -0.043374, -0.015310, -0.065811, 0.026333, -0.070651, -0.048699, 0.041876, -0.013036, -0.029159, -0.002808, 0.032256, -0.091134, -0.027553, 0.049536, -0.065529, -0.028258, 0.055387, -0.042542, -0.064323, -0.043909, -0.082945, 0.037809, 0.049572, -0.013304, -0.010663, -0.041315, 0.058670, -0.062784, 0.026647, -0.031111, 0.013084, 0.011213, 0.017388, -0.037676, -0.051932, -0.000563, 0.024846, 0.003503, 0.043981, 0.019557, 0.007442, -0.051162, 0.051105, 0.046130, 0.036550, 0.039253, 0.024478, 0.045887, 0.032934, 0.038211, -0.037438, 0.012213, -0.005640, 0.023293, -0.057468, -0.080988, 0.099571, 0.001393, -0.071090, -0.043896, -0.008608, -0.027883, 0.021670, 0.027561, -0.003184, 0.000106, -0.030110, 0.071271, 0.041556, 0.001709, 0.074934, -0.021986, 0.048191, 0.069764, 0.081196, -0.082623, -0.016278, 0.040891, 0.000483, -0.059849, -0.026971, 0.021516, -0.002334, 0.031405, -0.052363, 0.040130, -0.039321, -0.046445, -0.036837, -0.057065, 0.080516, -0.007789, -0.014258, 0.048050, 0.064372, 0.022287, 0.049403, 0.041838, -0.057487, 0.020897, 0.036378, -0.003140, 0.080905, -0.027440, 0.027077, -0.015512, -0.081075, -0.005768, 0.036011, 0.051055, 0.006868, 0.040577, -0.022285, 0.018172, -0.041584, -0.020771, 0.049765, 0.022215, -0.005970, 0.003718, 0.017893, 0.004186, 0.016054, 0.003007, -0.050664, -0.030793, 0.007298, 0.028143, -0.061669, -0.067057, -0.035900, 0.036065, 0.008840, 0.000317, -0.066691, 0.044427, 0.048332, 0.007173, 0.005195, -0.032849, 0.063478, 0.045058, -0.007732, 0.019985, -0.042944, 0.041069, -0.023865, 0.052336, 0.023966, -0.026028, 0.058258, 0.043610, -0.048285, 0.066771, -0.034408, -0.068078, 0.012862, -0.044442, 0.018330, -0.052866, -0.024427, 0.035466, -0.042912, 0.008650, -0.014539, -0.076856, -0.005671, 0.060501, 0.041888, -0.029615, 0.000230, -0.042788, 0.001037, -0.055757, -0.040765, -0.002514, -0.022734, -0.059994, -0.071238, 0.044389, -0.018139, 0.026230, -0.038065, -0.088012, 0.013148, -0.048445, 0.004434, -0.084095, -0.030543, 0.010539, 0.047153, 0.038094, 0.029609, 0.057199, 0.031604, -0.022208, 0.083757, -0.054617, 0.060192, -0.030998, 0.081015, -0.052705, 0.055925, -0.071018, 0.018676, -0.041009, -0.077047, 0.053364, -0.066895, -0.010721, 0.006967, -0.003071, 0.027189, 0.005304, 0.044539, -0.088563, 0.046069, 0.038974, -0.005550, -0.076094, 0.043031, -0.041960, 0.055722, -0.096049, 0.076633, -0.019383, -0.013160, -0.040810, -0.017621, 0.008358, -0.026641, 0.029047, -0.012626, 0.060967, -0.077884, -0.032073, 0.012785, 0.018430, 0.095559, 0.053793, 0.029381, -0.077888, -0.033103, 0.010116, -0.040065, -0.024404, -0.048812, 0.036671, 0.068014, -0.033066, 0.033230, 0.034163, -0.021439, 0.057465, -0.045145, -0.032162, -0.030885, -0.056189, 0.017417, -0.058122, 0.019720, -0.014603, 0.069094, -0.018539, 0.060463, 0.042267, 0.076700, 0.028301, 0.031202, -0.008578, -0.056344, 0.022474, -0.000071, -0.011435, 0.048397, -0.028579, -0.052434, 0.018002, 0.025017, -0.087199, -0.014667, 0.018602, -0.034779, 0.041669, -0.070083, -0.065965, 0.021036, 0.033180, -0.038001, 0.049702, -0.056524, 0.019630, -0.034509, -0.028980, 0.072071, 0.015617, -0.016448, 0.021662, -0.066689, 0.017418, -0.041322, -0.042609, 0.068127, 0.022838, 0.057876, 0.052570, -0.033962, 0.027877, -0.005171, 0.046417, -0.031712, 0.051103, 0.039114, 0.028438, -0.059909, 0.021895, 0.034659, 0.064803, -0.073560, 0.026591, 0.011636, 0.083459, -0.055984, 0.064140, -0.055503, 0.032845, -0.007297, -0.008124, 0.004851, 0.013560, 0.051091, 0.023830, 0.053660, 0.051853, 0.003500, -0.024129, 0.060622, 0.046333, -0.041526, 0.002899, 0.053199, -0.037441, 0.053294, 0.014535, 0.029766, -0.070047, 0.046753, 0.039519, -0.037328, 0.061167, 0.007927, -0.020085, 0.068879, -0.001978, -0.031979, -0.006195, -0.040125, 0.012716, 0.008322, 0.008947, -0.032249, -0.029974, -0.072091, -0.050700, -0.011425, -0.064352, 0.073311, 0.070486, 0.039018, -0.001243, 0.047470, -0.022401, -0.021358, 0.005929, -0.079679, 0.020768, 0.031857, -0.055147, -0.042934, -0.023602, 0.045648, 0.049988, 0.013936, -0.045284, -0.032270, -0.033870, -0.066652, -0.047248, -0.049099, 0.042310, -0.018993, -0.066604, 0.026333, 0.038722, 0.017623, -0.030601, -0.039574, 0.061945, -0.060819, -0.051780, -0.019594, 0.031452, 0.042587, 0.052421, -0.048193, 0.014485, -0.007501, 0.003127, 0.048289, 0.003667, 0.037379, -0.039919, 0.000924, 0.006291, -0.011599, 0.051823, -0.017560, 0.002359, 0.018537, 0.082862, 0.045516, 0.030797, 0.040182, -0.027341, 0.021740, 0.029106, -0.049137, 0.064781, 0.060911, 0.036421, -0.027695, 0.001406, 0.013593, 0.043435, -0.020093, 0.035778, -0.027095, 0.058334, -0.044806, 0.017391, -0.030190, 0.041844, -0.009791, -0.058576, -0.001281, 0.043238, -0.058044, 0.058520, 0.020491, -0.017929, -0.051980, -0.037757, 0.031742, -0.025589, 0.023541, 0.020705, 0.010783, -0.070050, 0.040738, -0.078649, -0.071554, 0.036609, 0.026439, 0.060594, -0.062772, 0.029667, -0.006888, 0.077946, -0.034761, -0.045992, -0.072323, 0.026334, -0.078219, 0.052319, -0.042449, 0.019752, -0.044151, -0.028646, -0.011892, -0.015624, 0.020521, 0.009773, -0.076514, -0.034565, 0.031697, -0.049015, 0.055777, 0.055993, -0.006151, -0.072140, 0.013034, 0.021144, 0.050500, 0.026506, 0.020254, -0.007646, -0.035390, -0.037168, 0.004386, -0.027463, -0.019561, 0.025881, 0.002736, 0.030971, -0.041397, -0.036618, -0.028974, 0.011881, -0.045885, -0.069275, 0.029768, 0.050189, 0.020511, -0.020411, 0.019900, -0.025317, 0.020838, 0.027071, 0.010243, 0.058696, -0.026927, -0.070999, 0.030711, -0.033578, -0.069333, -0.017119, -0.020896, 0.010784, -0.068420, 0.021540, 0.074453, 0.054505, -0.050940, 0.039632, 0.045828, 0.060159, 0.016781, -0.062549, -0.046440, -0.026079, -0.036676, -0.014317, 0.033581, -0.055136, 0.009855, -0.062304, -0.045617, 0.064150, 0.053438, -0.062618, 0.026493, 0.041460, -0.014505, -0.052548, 0.046102, 0.039198, -0.008729, 0.052212, 0.006319, -0.078199, -0.050821, -0.035823, 0.026995, 0.034219, -0.041762, 0.022767, 0.018963, -0.051002, 0.028678, 0.020469, -0.078608, -0.000379, 0.029011, 0.010150, -0.026153, 0.018047, -0.009445, 0.001143, -0.084818, -0.040928, -0.019455, -0.031922, 0.079441, 0.025159, 0.023791, -0.076014, -0.008141, 0.024061, 0.070417, 0.040251, 0.028060, -0.032080, -0.057465, -0.063532, -0.050322, -0.017311, 0.056273, -0.054385, -0.022052, 0.006854, 0.071913, 0.076615, 0.004749, -0.055595, 0.006245, 0.009423, 0.030142, 0.016558, -0.054601, 0.047165, -0.041706, 0.051741, 0.060821, 0.001545, 0.031770, 0.034269, 0.039159, -0.019395, 0.065769, -0.060853, -0.031171, 0.052050, -0.052768, -0.047973, 0.007123, -0.014396, 0.065882, -0.040728, -0.052189, -0.029464, -0.011204, 0.012164, 0.048407, 0.058187, -0.016024, 0.012270, -0.061261, -0.005936, 0.069913, -0.020623, 0.039162, -0.070491, 0.047926, 0.002540, -0.058155, -0.029646, 0.071120, -0.022688, 0.028285, 0.005209, -0.016642, 0.071659, 0.098249, -0.033302, 0.015035, 0.070845, -0.060125, 0.008405, -0.058890, -0.026961, -0.050179, 0.014670, -0.049105, -0.000475, 0.049103, 0.007830, -0.050160, 0.054871, -0.024256, 0.040601, -0.034437, 0.075045, -0.052663, 0.014927, 0.066897, 0.014927, -0.039770, 0.057565, 0.033200, 0.034682, 0.046988, 0.037511, -0.051956, 0.064355, -0.019336, 0.015294, 0.049344, 0.041584, 0.031857, 0.034727, 0.072109, -0.002900, -0.008705, -0.003101, 0.005848, -0.007528, -0.078953, -0.017379, 0.012825, 0.011557, -0.012147, -0.073905, -0.014915, 0.006742, -0.045298, -0.014010, -0.002188, 0.046058, -0.063392, -0.046434, 0.006385, -0.066051, -0.012656, -0.057479, 0.016009, 0.012457, 0.067795, -0.074187, 0.035582, -0.011892, 0.052713, 0.038710, 0.017895, 0.057971, 0.007020, -0.011679, -0.057023, 0.104222, 0.046725, -0.015201, -0.072506, 0.021452, -0.020259, 0.074722, 0.082133, 0.063377, -0.079023, -0.094557, 0.080504, -0.037227, 0.003435, 0.025332, -0.070751, -0.012896, 0.013584, -0.037510, -0.033609, 0.015429, -0.056672, 0.051441, -0.034059, -0.054774, 0.030597, -0.038537, -0.003259, 0.006758, -0.002070, -0.023198, 0.054801, 0.041010, -0.018909, 0.000795, 0.000562, -0.064590, 0.078121, 0.006909, 0.047757, 0.032079, -0.093095, -0.079460, -0.001615, -0.028128, -0.068906, 0.002608, -0.051866, -0.065297, 0.026017, 0.005499, 0.006038, 0.061813, 0.022222, -0.056873, 0.029448, -0.006340, 0.017315, -0.022915, 0.000650, 0.053895, 0.075346, 0.003342, -0.056764, -0.050916, -0.002580, 0.018761, -0.055753, 0.085238, 0.008193, -0.044747, -0.072083, -0.008296, -0.050324, -0.065256, 0.048049, -0.027451, -0.071738, 0.059516, -0.058142, -0.030673, 0.054828, -0.056073, 0.036447, -0.047970, 0.050508, 0.053073, -0.023553, -0.022005, -0.043751, -0.045007, 0.029133, -0.041230, 0.028866, 0.076189, 0.031855, -0.041132, -0.023606, -0.009622, 0.019042, 0.080516, 0.008418, -0.044705, 0.057378, 0.065231, -0.043884, -0.038047, -0.060250, 0.035282, 0.039128, -0.040153, 0.014147, 0.063486, 0.046430, -0.040852, 0.010699, -0.055114, 0.065682, -0.039266, 0.025356, -0.012220, 0.055867, 0.031183, 0.032560, 0.003474, 0.008451, 0.008135, 0.010693, 0.080716, -0.037103, 0.010569, 0.044601, -0.009725, 0.088003, -0.010058, 0.025619, -0.044981, 0.035706, -0.066214, 0.036908, -0.001560, 0.052337, 0.029389, -0.064133, 0.014320, -0.069281, 0.000646, 0.082612, -0.066415, 0.016361, 0.091175, 0.051241, 0.000837, 0.044562, 0.020146, -0.045794, -0.074543, 0.044764, 0.027611, 0.082618, 0.029814, -0.058138, 0.005518, 0.054763, 0.035746, -0.027681, -0.066208, 0.004497, -0.074575, 0.041783, 0.005422, 0.059655, -0.018027, 0.039860, 0.058683, -0.062186, -0.043595, -0.058814, -0.079818, -0.010592, 0.018269, -0.038867, 0.014531, 0.017870, -0.059642, 0.028260, 0.028949, -0.065541, 0.072397, 0.001629, 0.008805, 0.041727, 0.063020, -0.020587, 0.036364, -0.075125, -0.019410, 0.036161, 0.033466, -0.025785, -0.013749, -0.019747, -0.040663, -0.060783, -0.052671, 0.018302, 0.065686, 0.060722, -0.036879, -0.002975, 0.050806, -0.052555, -0.061087, -0.012116, 0.017267, -0.062898, 0.045400, -0.054392, -0.027668, 0.041101, -0.077418, -0.016367, -0.076842, 0.006847, 0.048410, -0.075579, -0.058541, 0.065268, 0.055605, -0.041633, -0.076145, 0.052546, -0.003017, -0.003228, 0.010841, -0.044158, 0.011408, 0.038539, 0.047776, 0.019544, 0.047916, -0.008325, 0.004540, -0.015044, 0.037362, -0.047477, 0.049622, 0.071198, 0.011722, 0.067805, 0.049462, -0.033121, 0.052147, 0.042108, 0.046947, 0.019696, -0.055081, -0.051745, 0.046221, -0.033617, -0.033873, 0.056622, 0.007751, 0.039693, 0.023910, -0.078353, -0.075492, 0.064042, -0.035882, 0.045382, -0.014927, 0.063105, -0.048752, 0.045821, 0.048068, 0.058687, -0.017289, -0.049111, -0.018915, -0.019199, -0.040023, -0.047932, 0.039801, 0.055710, 0.034208, 0.081821, 0.031472, -0.042853, 0.046974, -0.020228, 0.022947, 0.069919, -0.042675, -0.074356, -0.069537, -0.005505, -0.018981, -0.035378, -0.031282, -0.020581, 0.015869, 0.036077, -0.072295, 0.004732, 0.024576, -0.013354, -0.050183, 0.027963, 0.011911, -0.035649, 0.067000, -0.026013, 0.074082, 0.050594, 0.079412, 0.022749, 0.073602, 0.086278, -0.073402, 0.023160, 0.043354, -0.068204, -0.036773, -0.086601, 0.016765, 0.086005, -0.000619, 0.015231, 0.018125, -0.001199, -0.098514, 0.055371, -0.064206, -0.042207, -0.048264, -0.034209, 0.037920, -0.097209, -0.018116, 0.068318, -0.030308, 0.030263, -0.021270, -0.049313, 0.067780, 0.004503, -0.056261, -0.025379, 0.000046, -0.055387, 0.057134, 0.010959, 0.057868, -0.055820, 0.036554, -0.057259, -0.045495, -0.035943, -0.037778, -0.042371, -0.060200, 0.020302, 0.017906, -0.035899, 0.007454, 0.037913, -0.029794, -0.053027, -0.027860, 0.005445, -0.054130, 0.077158, -0.009736, -0.010636, 0.064825, 0.067024, 0.055320, -0.039640, -0.058784, 0.045970, -0.043329, -0.005442, -0.055260, -0.034108, -0.008716, -0.039774, 0.069203, -0.014271, 0.030439, 0.093419, -0.010084, -0.073547, 0.078684, -0.039441, -0.092666, -0.003394, 0.023903, -0.078976, -0.032184, 0.002991, -0.040363, -0.050917, -0.033872, -0.010540, 0.002390, -0.041102, 0.074221, -0.014460, 0.021707, -0.006916, 0.058355, 0.016568, -0.079117, -0.019859, 0.022452, -0.022004, -0.035388, -0.067407, 0.022870, 0.071449, -0.016402, -0.068873, 0.002968, 0.004101, 0.004800, 0.005556, -0.077737, -0.041733, 0.039873, -0.044284, -0.047894, 0.053038, 0.061368, -0.042044, 0.045398, -0.028020, -0.028840, 0.017906, 0.082221, 0.060848, 0.061030, 0.027962, -0.007823, 0.036515, -0.062505, 0.062284, 0.054182, 0.005579, 0.048312, -0.049946, 0.058857, 0.029501, -0.045930, -0.009667, -0.006983, -0.083571, -0.049544, -0.018806, -0.001800, 0.064550, -0.045582, -0.018374, -0.032421, 0.037338, 0.059929, -0.042695, 0.034393, 0.011834, -0.032829, -0.016816, -0.014402, 0.044739, -0.025604, -0.015756, -0.056326, 0.020061, -0.013858, 0.005034, 0.007684, 0.026102, 0.012355, -0.031676, -0.005422, -0.088964, -0.035001, 0.002440, 0.010354, -0.002572, 0.041116, -0.074716, 0.012040, 0.055922, 0.047852, 0.038442, -0.032141, 0.068224, -0.000131, -0.039504, 0.035973, 0.077028, -0.009539, 0.022610, 0.073617, 0.057953, 0.033262, 0.010769, -0.062054, -0.064697, 0.014747, 0.076956, 0.039200, 0.064044, 0.004701, -0.040932, -0.016972, 0.037307, -0.061261, -0.055125, 0.067530, -0.054853, 0.000821, 0.036819, 0.038272, -0.031253, -0.059357, 0.044313, 0.010510, -0.059492, -0.053184, 0.009700, -0.003221, 0.000737, 0.033304, 0.055617, 0.006122, -0.030412, 0.052091, 0.004934, -0.040331, 0.004139, 0.017049, 0.014753, 0.001995, -0.031942, 0.003757, -0.014094, -0.074013, -0.032486, -0.050942, 0.045517, -0.015097, -0.052526, 0.045636, -0.005885, -0.060370, 0.062833, 0.065162, -0.044384, -0.067718, -0.073308, 0.063114, -0.007700, -0.061768, 0.005913, 0.052536, 0.079286, -0.013856, 0.050860, 0.045427, 0.030056, -0.044252, -0.015085, 0.005869, -0.005063, 0.033880, -0.027529, 0.067800, 0.055491, -0.018681, -0.065181, 0.011323, 0.022964, -0.024262, -0.050777, -0.058508, -0.074057, 0.012739, 0.049174, -0.057829, -0.037921, -0.006046, 0.023389, 0.058527, 0.050031, 0.037177, -0.000852, -0.044826, 0.018816, -0.033439, 0.001106, 0.014902, 0.009646, 0.018039, 0.063800, 0.040987, -0.062571, 0.033717, 0.043526, 0.053709, 0.002066, -0.079350, 0.038899, -0.010661, 0.029847, 0.005238, -0.059706, -0.047460, 0.044106, -0.072609, 0.061058, 0.053499, 0.029561, 0.053539, 0.054438, -0.023184, 0.001276, 0.011020, -0.001332, -0.064267, -0.051417, -0.057227, 0.021126, -0.037530, -0.067153, 0.027917, 0.059387, -0.012012, 0.039201, 0.083886, 0.024351, -0.055390, 0.047816, 0.023308, 0.049162, -0.051384, 0.059588, 0.004002, -0.013406, -0.036010, 0.055229, -0.058702, 0.009672, 0.021108, 0.015726, 0.027525, 0.051596, -0.022896, 0.020166, 0.042999, -0.048137, 0.045617, 0.035277, -0.045114, 0.029933, -0.020389, -0.073427, 0.003077, -0.021927, 0.058475, -0.021196, 0.020746, 0.028174, -0.065383, 0.057684, -0.066428, -0.045104, 0.080665, -0.026219, 0.034508, 0.045466, 0.058060, -0.054976, -0.060523, -0.016283, -0.059692, 0.009981, 0.059820, -0.024468, -0.058811, 0.062648, -0.054765, 0.025849, -0.009506, -0.002223, 0.032866, -0.016471, 0.034104, -0.068063, 0.041224, -0.022899, -0.047469, -0.057026, -0.060831, -0.007770, -0.037046, -0.049762, 0.059525, 0.050949, 0.027410, -0.036892, 0.043930, 0.009133, 0.052073, 0.050409, -0.005427, 0.005830, -0.049483, -0.019044, 0.046811, 0.043634, -0.014207, -0.025553, -0.032414, -0.022588, -0.004482, 0.059485, 0.044910, 0.013117, -0.071578, -0.038857, 0.072048, 0.050379, 0.015937, -0.009962, -0.066706, -0.030337, 0.059723, 0.003609, -0.022231, 0.041254, -0.049629, 0.072384, 0.062118, 0.071501, -0.009457, 0.006245, -0.022391, 0.057271, -0.046003, 0.031513, -0.031945, 0.013333, 0.018754, 0.050907, 0.046146, 0.055806, -0.026521, -0.056213, -0.034153, 0.049320, -0.014590, -0.071476, 0.058678, -0.048552, -0.048261, 0.071899, -0.038825, -0.043569, 0.010683, -0.002802, -0.035159, 0.066889, -0.014754, 0.007367, 0.042760, -0.038323, -0.059425, -0.036008, 0.042433, 0.041732, -0.045339, 0.048371, 0.026462, 0.021829, -0.058244, -0.051914, 0.004612, -0.033872, 0.058581, 0.048836, -0.048733, 0.060602, 0.033970, 0.029827, 0.063718, -0.064552, -0.072707, 0.050133, 0.045737, 0.012382, 0.004763, 0.008729, 0.017254, -0.038223, -0.054054, 0.070309, -0.011907, 0.061483, -0.071929, 0.037222, 0.005662, -0.006626, 0.003473, -0.073136, 0.018460, -0.057987, 0.048716, -0.058632, -0.010183, 0.028033, 0.061902, -0.054315, 0.074285, -0.008808, 0.025805, -0.058333, 0.043193, -0.005660, -0.006815, 0.030847, 0.048425, -0.070608, -0.056614, -0.081332, 0.061281, -0.013509, -0.007290, 0.042418, 0.039499, -0.020380, 0.026175, -0.018838, -0.048220, 0.043712, 0.002954, -0.054367, -0.028820, -0.049128, -0.014425, -0.009517, -0.006652, -0.069811, 0.069061, -0.059825, 0.073347, 0.027264, -0.010196, 0.030559, 0.059258, -0.015778, -0.026911, -0.065376, 0.080095, 0.073577, -0.016681, 0.019000, -0.075865, -0.089253, 0.017435, 0.030249, 0.054626, -0.007370, -0.074251, 0.027092, -0.073438, -0.050106, 0.058363, 0.085171, 0.017039, -0.043207, 0.009525, -0.063863, -0.003490, 0.073406, -0.030894, 0.051392, 0.035545, -0.037827, 0.013366, 0.018428, 0.027709, 0.021899, -0.014588, 0.016274, -0.046183, -0.027987, 0.060534, 0.063635, -0.023466, 0.029753, 0.069768, -0.018486, 0.034364, -0.032110, -0.042755, -0.073191, 0.042796, 0.025902, -0.006051, 0.000302, 0.006588, 0.035542, -0.072445, 0.052226, -0.065466, 0.025129, 0.012022, 0.044621, 0.014737, -0.029608, -0.068358, -0.056864, 0.061120, 0.053236, 0.018239, 0.053086, 0.042352, -0.037422, 0.005398, -0.061557, -0.046656, -0.034340, -0.009035, -0.013390, -0.019001, -0.033025, 0.031051, -0.000373, -0.009279, -0.001505, -0.056050, -0.073664, -0.054974, 0.044589, -0.064997, -0.034446, -0.062369, -0.027874, -0.023396, 0.067588, -0.055624, 0.069739, 0.030368, 0.025186, -0.012552, 0.022278, 0.030619, -0.017693, -0.055252, 0.028675, -0.037294, -0.022648, 0.059151, -0.054153, -0.030447, 0.026900, -0.014314, 0.071548, 0.034082, 0.020272, -0.016378, 0.085095, -0.023396, 0.061405, 0.002950, 0.043471, -0.015638, -0.025771, -0.063244, 0.064905, 0.060508, -0.005013, 0.019483, 0.049875, 0.007116, -0.019828, 0.085984, -0.047140, -0.014535, -0.011882, -0.036502, -0.049458, -0.041681, 0.041173, 0.050775, 0.053521, -0.020694, 0.023671, -0.042760, 0.019282, 0.020455, -0.072132, -0.030807, 0.070386, -0.029323, 0.015271, 0.000758, 0.040002, -0.028698, -0.087180, -0.042840, -0.022764, 0.000528, -0.077596, 0.066752, 0.035031, 0.035198, 0.033460, 0.016815, 0.012131, -0.021142, 0.038172, 0.018458, 0.025529, 0.015957, 0.058377, -0.002687, -0.026449, 0.043233, -0.034066, 0.030300, -0.071520, 0.049591, -0.043285, -0.047657, 0.050718, -0.039556, -0.079196, 0.050587, -0.022358, 0.058793, 0.077275, 0.060116, -0.046620, -0.063184, -0.028971, 0.001942, 0.044447, 0.019400, 0.011064, -0.003325, 0.028992, -0.014027, -0.052090, 0.083120, -0.001869, -0.002226, 0.096862, -0.064808, -0.021018, -0.006133, 0.014075, 0.079293, 0.035999, 0.009732, 0.046032, -0.084661, 0.035713, -0.010593, -0.013936, -0.012699, -0.050331, 0.018484, -0.018409, 0.026979, 0.079154, -0.006228, 0.062897, 0.075611, -0.034108, -0.026913, 0.046599, -0.064170, 0.029534, 0.053690, -0.012439, 0.051600, 0.000129, 0.041609, -0.045426, 0.063676, -0.034281, -0.002947, -0.016543, -0.015688, 0.048673, -0.073475, -0.011523, -0.018974, 0.028629, -0.025343, -0.025757, 0.043243, -0.057818, 0.033496, 0.007818, -0.073427, 0.089294, 0.009936, 0.071158, -0.021213, -0.034503, 0.043308, -0.045233, -0.037107, -0.078948, 0.034672, -0.052041, -0.050764, -0.062829, -0.075119, 0.061827, 0.074223, -0.042401, -0.037735, 0.001389, -0.031340, 0.052295, -0.048713, 0.004284, -0.003619, 0.003677, 0.019357, -0.001340, 0.023330, -0.052877, 0.014311, -0.050689, -0.047530, 0.011725, -0.040141, 0.006058, 0.018531, -0.017578, -0.058364, -0.006351, -0.031412, -0.063541, -0.001917, -0.033243, -0.041831, 0.024027, 0.029900, 0.042410, 0.043431, -0.036455, 0.014187, 0.056941, 0.048464, -0.048901, 0.004280, 0.023135, 0.017724, -0.055733, -0.083968, -0.027208, -0.049583, 0.021161, -0.016236, 0.010201, -0.060111, 0.014861, 0.015575, -0.010719, -0.050460, 0.036064, -0.037950, -0.011487, -0.001273, -0.049666, 0.036335, -0.062953, -0.035105, -0.031690, 0.018827, 0.038840, 0.040703, -0.037743, 0.028077, 0.009957, 0.051195, 0.016947, 0.026065, -0.036303, 0.043354, 0.006763, 0.055635, 0.073245, 0.060311, 0.043210, 0.029867, -0.059282, -0.063031, -0.003283, 0.039500, -0.076214, -0.044201, 0.048775, -0.000846, -0.028409, -0.051701, -0.060821, 0.014307, -0.013413, -0.066354, 0.061173, -0.035625, 0.067033, 0.009597, -0.041937, 0.067516, 0.003106, -0.039930, -0.082683, -0.070283, 0.009081, 0.060675, -0.055372, 0.027959, -0.029872, 0.033053, -0.053230, 0.061435, 0.048631, -0.034372, 0.004231, 0.010779, 0.028977, -0.053159, -0.011873, -0.033970, 0.041888, -0.068556, 0.039100, -0.026003, -0.019269, 0.019139, 0.065339, 0.048354, 0.060235, -0.015614, -0.000809, 0.031232, -0.047767, 0.050129, 0.040812, -0.043332, 0.071612, 0.011090, -0.073272, 0.050201, -0.037762, 0.039196, -0.013361, 0.030108, 0.054668, 0.029222, 0.060168, 0.026207, -0.007015, 0.007515, -0.034066, 0.009402, -0.061982, -0.052259, -0.013661, -0.063762, -0.030978, 0.018949, -0.016367, -0.048815, 0.014807, -0.062221, 0.025164, 0.063245, -0.057085, 0.023134, -0.049055, 0.028078, 0.001885, 0.024483, -0.041885, 0.066584, 0.020508, -0.012368, 0.037652, 0.025683, -0.024149, -0.061059, -0.000645, 0.072413, 0.048383, -0.036509, -0.066174, 0.016739, 0.005100, 0.066897, -0.026335, 0.030049, 0.028360, -0.051381, 0.057438, 0.029028, -0.007066, 0.025017, -0.044869, 0.028475, 0.050528, 0.060036, 0.046328, -0.024568, -0.054985, -0.034220, -0.044948, 0.060397, 0.065009, 0.060622, 0.056421, -0.007677, -0.051911, -0.033829, 0.009758, 0.036625, -0.050104, 0.057502, 0.028959, -0.062494, -0.043097, -0.039170, -0.004902, 0.039248, 0.007193, 0.054035, -0.083506, -0.027166, -0.008881, -0.025971, -0.015796, -0.051065, 0.033531, -0.017120, -0.001107, -0.066581, -0.018630, -0.037896, 0.031696, -0.019431, -0.069452, -0.039018, 0.049761, 0.060548, 0.024434, 0.026224, 0.011956, 0.018982, -0.003006, 0.008274, -0.069283, 0.044592, -0.031499, -0.048643, 0.035337, -0.071503, -0.057333, -0.066067, 0.029619, -0.034413, 0.035161, -0.063448, 0.028701, -0.048740, 0.055930, 0.047575, 0.055527, 0.015729, 0.031245, -0.081355, -0.016969, 0.007973, -0.021954, -0.012070, 0.006604, -0.052736, 0.048253, 0.011124, -0.001553, 0.048035, 0.080752, 0.031392, -0.043053, 0.027564, -0.076383, -0.049024, 0.048959, -0.061449, -0.075585, 0.044139, -0.049645, 0.035253, -0.033838, -0.023142, -0.020291, -0.053601, -0.019235, 0.048055, -0.047679, 0.007656, 0.073243, 0.048194, -0.048941, -0.037689, -0.005604, -0.024537, 0.011705, 0.022561, 0.032374, 0.061400, 0.020735, 0.004588, -0.040082, -0.036631, 0.053332, -0.029315, 0.013013, 0.066138, -0.025464, -0.030292, -0.050381, 0.024588, 0.039345, -0.054680, -0.068503, -0.061747, -0.022598, 0.010593, 0.000159, -0.011838, -0.063977, -0.060154, -0.002448, 0.034151, 0.019875, -0.033324, 0.013939, 0.040916, -0.001897, 0.054248, 0.059160, 0.002508, -0.022617, -0.028581, -0.070908, -0.070651, -0.072365, 0.041275, 0.008378, 0.037892, 0.038305, 0.035969, -0.032653, -0.062929, 0.051754, -0.052717, 0.046898, 0.035452, 0.001713, -0.083029, -0.060447, 0.024632, -0.034707, -0.015018, 0.062334, -0.008400, -0.006034, -0.000527, -0.000748, -0.012842, 0.015964, 0.059339, -0.045366, -0.029669, -0.038534, 0.004533, -0.005390, 0.009585, 0.032642, 0.039952, -0.029675, 0.029373, -0.015538, -0.031993, -0.056392, 0.038329, -0.059905, 0.007923, 0.019695, -0.028626, -0.004163, -0.062798, -0.049563, -0.025595, -0.026181, 0.068609, 0.044771, 0.056194, 0.068303, -0.032413, -0.063298, -0.024410, -0.012745, -0.055240, 0.046683, -0.008016, -0.061787, -0.060465, -0.039530, -0.051427, 0.020042, -0.062253, -0.009649, 0.037629, 0.001016, 0.015060, 0.049410, 0.056879, -0.024010, 0.017012, -0.024987, -0.015952, 0.042176, 0.016825, -0.029582, 0.026630, 0.066188, 0.041751, 0.043229, 0.018945, -0.015643, -0.056004, -0.039929, 0.011933, 0.072419, -0.050806, 0.018435, -0.024006, -0.032816, -0.053066, 0.009629, 0.058516, 0.052359, -0.055435, 0.018762, -0.028871, -0.032928, -0.055855, -0.054147, 0.021640, -0.063346, 0.060906, 0.009487, 0.036353, -0.010198, -0.072274, -0.037848, 0.006007, -0.080411, -0.043889, 0.062571, 0.049029, -0.022010, -0.053141, -0.026204, 0.001941, -0.070969, -0.076297, -0.049810, -0.070496, -0.012876, -0.017817, -0.003533, -0.013391, 0.009703, 0.032093, 0.054502, -0.043928, -0.043409, 0.043138, 0.026573, 0.066214, 0.017288, 0.072656, 0.006980, 0.038584, 0.007300, -0.069985, 0.019235, -0.042030, 0.063342, -0.050139, 0.004567, -0.042195, 0.048645, 0.005820, -0.048619, 0.044515, -0.016256, 0.044125, 0.065950, 0.029402, -0.052816, 0.041095, -0.000535, -0.074966, 0.060563, -0.052145, -0.014650, 0.035286, 0.029741, 0.010726, 0.024289, 0.048435, -0.035680, 0.025505, 0.077718, -0.030542, 0.026264, -0.055623, 0.021942, -0.033018, 0.034530, -0.040766, -0.046979, -0.000375, -0.052065, -0.066582, 0.059204, 0.049084, -0.005969, 0.027588, 0.048223, -0.070214, 0.024973, 0.056208, 0.071284, -0.080786, -0.029689, 0.074285, -0.039933, 0.056057, -0.011473, -0.021473, 0.022137, 0.021802, 0.020681, 0.060514, -0.046186, 0.004753, 0.004079, -0.011922, 0.019676, -0.052514, 0.046476, -0.029949, 0.016638, 0.031123, -0.013603, -0.061045, 0.062402, 0.062994, -0.031299, 0.054643, -0.029385, 0.018807, -0.013717, -0.002067, -0.006384, 0.048439, -0.043666, 0.080742, 0.001541, 0.013322, -0.004064, -0.046368, 0.018553, -0.054500, -0.007705, -0.011179, 0.044978, -0.068584, 0.038150, -0.083415, -0.003619, 0.076964, 0.037394, -0.015056, -0.075598, -0.013769, 0.076987, -0.075243, 0.071324, 0.037686, -0.009711, 0.046365, 0.040289, -0.068870, 0.047721, 0.069206, 0.065929, -0.019676, 0.016160, -0.026131, 0.028120, 0.026641, 0.073174, -0.011180, 0.043812, -0.044968, 0.067305, 0.027124, -0.004355, 0.061584, 0.007300, 0.030168, 0.059030, -0.006932, 0.034594, 0.063085, 0.010211, 0.053487, 0.079275, 0.001456, -0.055709, 0.014149, 0.013604, -0.026076, 0.033866, 0.016532, -0.011313, 0.046170, -0.026509, -0.027851, -0.075146, 0.061765, -0.026276, 0.055569, 0.039767, -0.020197, -0.071656, -0.039265, -0.006099, 0.015139, -0.026217, 0.019829, -0.030251, -0.011559, -0.007498, -0.037651, 0.017539, -0.019368, -0.016405, -0.054086, 0.054544, 0.037278, -0.047533, -0.006859, -0.043230, -0.053425, 0.022382, 0.042465, -0.066403, -0.040682, 0.023841, 0.029243, -0.026254, 0.017109, 0.028738, 0.052205, -0.042732, 0.001318, -0.044369, 0.012526, -0.085288, -0.030737, 0.025361, 0.000301, 0.027999, -0.001110, -0.044854, -0.012735, 0.032950, 0.016969, 0.061963, -0.040345, 0.058676, -0.004228, 0.041961, -0.076717, 0.010531, -0.023607, 0.081885, -0.013857, -0.025870, 0.014883, -0.010900, 0.025696, -0.033754, 0.058488, 0.012310, -0.051232, -0.039259, -0.027466, 0.058747, -0.040666, -0.028974, 0.027626, 0.024477, -0.015602, 0.025764, -0.004682, -0.009150, 0.065036, 0.064207, 0.081609, -0.023174, 0.033760, -0.000813, 0.027495, 0.070791, 0.071118, 0.064591, -0.000127, -0.004879, 0.029407, -0.009382, -0.002737, -0.054712, 0.007032, -0.068560, -0.054111, 0.041569, 0.033082, -0.043451, -0.061796, 0.070181, 0.057836, -0.040632, 0.050246, -0.052579, -0.044113, 0.011972, 0.037007, -0.046838, -0.046520, 0.056239, -0.059062, -0.003611, -0.063199, -0.048532, -0.075377, -0.000403, -0.044593, 0.077628, -0.036683, -0.041612, -0.038204, -0.029358, 0.004612, -0.000761, -0.003054, -0.052034, -0.021245, 0.041459, 0.047472, -0.001921, 0.049505, 0.011646, -0.006806, 0.025708, -0.058108, 0.034174, -0.034098, -0.038085, 0.053245, 0.030930, -0.009728, 0.073117, -0.024085, -0.049247, -0.013433, -0.066034, -0.023858, 0.007007, 0.029187, 0.021177, -0.011273, -0.000057, 0.006040, -0.001894, -0.048153, -0.025977, -0.003042, 0.043533, 0.034660, -0.029969, 0.067133, 0.038190, 0.031046, 0.061218, -0.031265, 0.003038, -0.037609, -0.007927, 0.075546, 0.066954, -0.044734, -0.059575, -0.055044, -0.005959, -0.018921, -0.029187, 0.000484, -0.054109, 0.050216, -0.044001, -0.043382, 0.036720, -0.004106, 0.014558, 0.062307, 0.013950, -0.037093, 0.026289, 0.084576, 0.011511, 0.028460, 0.000160, -0.011116, -0.019650, -0.019844, 0.040519, 0.036765, 0.002042, 0.014472, -0.042543, 0.050997, 0.074863, 0.020354, 0.041321, -0.057243, 0.058982, 0.008480, 0.039112, 0.042137, 0.066595, -0.078938, -0.027706, -0.017362, 0.079483, 0.035078, 0.026047, -0.043231, 0.012300, -0.079017, 0.001130, -0.074150, 0.037567, -0.065647, 0.024752, -0.067136, 0.079562, -0.003778, 0.021860, 0.010531, 0.003528, -0.013738, 0.009399, -0.062082, -0.000868, -0.034986, 0.041629, -0.067586, 0.067956, -0.013951, 0.027843, -0.027724, 0.007952, 0.049079, 0.038422, 0.011626, 0.053750, -0.009353, 0.046537, -0.062814, 0.005849, -0.045809, -0.009145, -0.052824, 0.043944, 0.020050, -0.048497, -0.049737, 0.037227, -0.018331, 0.071582, 0.062951, -0.041599, -0.039143, -0.017026, 0.084005, 0.004904, 0.036492, 0.013911, 0.026661, 0.028907, -0.022458, 0.018915, 0.035005, -0.015996, -0.014462, 0.024258, -0.048577, -0.003812, -0.046977, -0.024593, 0.048904, -0.028388, 0.040999, -0.025535, 0.064546, -0.055977, -0.056497, -0.057862, 0.025203, -0.012068, 0.045485, -0.052352, 0.001097, 0.001668, -0.009363, -0.019049, 0.064934, -0.031440, -0.000415, 0.073895, 0.016417, -0.015317, -0.021081, 0.057159, 0.042011, 0.002244, -0.048257, -0.000713, 0.043679, 0.038473, 0.043346, -0.004150, -0.066531, 0.080736, -0.077086, -0.051226, 0.061052, -0.017591, -0.014712, 0.014597, 0.018870, 0.033546, 0.020814, -0.035617, -0.031713, -0.042988, 0.074239, 0.078758, -0.022724, 0.019943, -0.004650, 0.039102, -0.001309, 0.007414, 0.056402, -0.037811, -0.062458, -0.038839, 0.034249, -0.048182, 0.042564, -0.067449, 0.026628, 0.041494, 0.013638, -0.059367, -0.037610, 0.065350, 0.044190, -0.001394, 0.044434, 0.007213, -0.022597, -0.025973, 0.032159, -0.020164, -0.060552, -0.049447, -0.046036, -0.040368, 0.074405, 0.054554, 0.045118, -0.053900, -0.003653, 0.040967, 0.065769, -0.069947, 0.027642, 0.034286, 0.054648, 0.010777, -0.016731, 0.038702, -0.012678, -0.076598, 0.054550, 0.037216, 0.026604, -0.010960, -0.028304, -0.053275, -0.005712, -0.069275, -0.023526, -0.033067, -0.064306, 0.036849, 0.061235, -0.037069, 0.037039, -0.083837, 0.022859, -0.036789, 0.042995, 0.015515, -0.066329, 0.019463, -0.054450, -0.031427, -0.033420, 0.033947, -0.060298, 0.011640, -0.039982, -0.037249, -0.006214, -0.026756, -0.073110, -0.008849, -0.042182, -0.010918, -0.069275, 0.055344, -0.006169, 0.044853, -0.038366, -0.011399, 0.034096, 0.081321, -0.060344, 0.034584, -0.019500, -0.066995, 0.024834, -0.051606, -0.040556, 0.017636, -0.027702, 0.045129, 0.018230, -0.079626, -0.023821, -0.046952, 0.010863, 0.053943, -0.017267, -0.031642, 0.044054, -0.002594, -0.077966, 0.020425, -0.047775, -0.058345, 0.035967, 0.025089, -0.064457, 0.029284, 0.030119, 0.013186, 0.006454, -0.048345, 0.010092, -0.025126, 0.054938, -0.043213, -0.028387, 0.082930, 0.047956, 0.040435, -0.042912, -0.013654, 0.046954, -0.005285, -0.022702, 0.087682, -0.037939, -0.069187, -0.029247, 0.001306, -0.044364, -0.052274, -0.059700, -0.061009, 0.041393, -0.014892, 0.025543, -0.022620, 0.039941, -0.056697, -0.034335, -0.031464, 0.043049, -0.007278, -0.032797, 0.001985, 0.071749, 0.048749, 0.032983, 0.043879, 0.079709, 0.046391, 0.067626, 0.043729, 0.017821, -0.061706, -0.006771, -0.058164, -0.003637, -0.037836, 0.018662, -0.083340, -0.081496, -0.030106, 0.061108, -0.009259, 0.075984, 0.010094, 0.059416, 0.001363, -0.072827, 0.040200, 0.041034, 0.073871, -0.098902, 0.012454, 0.006796, 0.081998, -0.023709, 0.009163, -0.047639, 0.095495, -0.043510, 0.038740, -0.065997, -0.039378, 0.011713, 0.023899, -0.036116, 0.087535, -0.083235, -0.026470, 0.065437, 0.005656, 0.040422, -0.029785, 0.064440, -0.034423, 0.091390, 0.030345, 0.006932, 0.086279, 0.076469, 0.002702, 0.077450, 0.036267, -0.045673, 0.017959, 0.016953, 0.010054, 0.054567, 0.027243, 0.045560, -0.024184, 0.050016, 0.024792, 0.039860, -0.025415, 0.067925, -0.050907, 0.009167, 0.065837, -0.037236, 0.005278, -0.047778, -0.008169, 0.014685, 0.037014, -0.005404, 0.073814, -0.014532, -0.002708, 0.064022, -0.026763, -0.023132, -0.018745, -0.002143, 0.056483, -0.072832, 0.029020, -0.092185, 0.046314, 0.031920, -0.092919, 0.001234, 0.013098, -0.043827, 0.044997, -0.040891, -0.009743, -0.014041, -0.019181, -0.066764, 0.050146, 0.042154, -0.049332, -0.054117, -0.095323, 0.048861, -0.036552, 0.051014, -0.038918, -0.013824, -0.037871, 0.034673, -0.027210, 0.088244, -0.020356, 0.017396, 0.053631, 0.005436, 0.058131, 0.014560, -0.062709, 0.094157, -0.069797, -0.035133, 0.032102, 0.073304, 0.051605, 0.063702, 0.052765, 0.055815, -0.082028, 0.026321, 0.035526, 0.027629, -0.047541, 0.071562, 0.052443, 0.021851, -0.027212, -0.012196, 0.023269, 0.034779, -0.067937, 0.001095, -0.074707, -0.061723, -0.076808, 0.061586, -0.002699, 0.004771, 0.060216, 0.063685, 0.071786, -0.027751, 0.049186, 0.078914, -0.018679, -0.034604, -0.084269, 0.009519, 0.031675, 0.011991, -0.071002, 0.045100, -0.042432, -0.085379, -0.046873, 0.027719, -0.018919, -0.003390, 0.027517, -0.022649, -0.013241, 0.009167, 0.076917, 0.027017, -0.043159, 0.008745, -0.025204, 0.009722, -0.058024, 0.003082, 0.020417, -0.003403, -0.071020, -0.033777, -0.011025, -0.029578, -0.043503, 0.024460, 0.033540, -0.016608, 0.043719, -0.039491, -0.073610, -0.086673, -0.005742, 0.052804, 0.007662, 0.008789, 0.001301, -0.085128, 0.010819, -0.023368, 0.028570, -0.023366, 0.055496, -0.033461, -0.069965, -0.073111, -0.054064, 0.059890, 0.041717, -0.095372, 0.077134, -0.055292, 0.099854, 0.054687, 0.000327, -0.055404, 0.077608, -0.001129, -0.020586, -0.064005, -0.004794, -0.069280, -0.023954, -0.032465, 0.055027, -0.056230, -0.041673, -0.043450, -0.002035, -0.039555, 0.021459, 0.015261, 0.037203, 0.067159, 0.040909, 0.035917, -0.000623, -0.032282, -0.014711, 0.062440, 0.047257, -0.041551, 0.062767, -0.027946, -0.035045, 0.064066, 0.059121, -0.005493, -0.013869, -0.054406, 0.025447, -0.047782, -0.007339, -0.027049, 0.008951, -0.005690, -0.011907, 0.059559, -0.056616, 0.027943, -0.088028, -0.078836, -0.037261, 0.002126, 0.010282, -0.008620, 0.040191, 0.080653, 0.028799, 0.024803, -0.008439, -0.047504, 0.071978, -0.057459, -0.032775, -0.008724, -0.028438, 0.031925, -0.040633, 0.013900, 0.013075, 0.006509, 0.033576, 0.023058, -0.066091, -0.016369, -0.044609, -0.054158, 0.043787, -0.033920, -0.043302, 0.003597, 0.006063, 0.067567, -0.002100, -0.036412, -0.091378, 0.004767, -0.037603, -0.061375, 0.035456, -0.015707, -0.025635, -0.035550, -0.052676, 0.009012, 0.050135, -0.054716, -0.013757, 0.098336, -0.072974, 0.000187, -0.034540, 0.090931, -0.018173, -0.032053, 0.006378, 0.029054, 0.003891, -0.073646, -0.003971, 0.046840, 0.021711, -0.005076, -0.065456, -0.059631, 0.006947, -0.026719, 0.008565, -0.038122, -0.080588, 0.058953, 0.025829, -0.005279, -0.086817, -0.057990, -0.056433, -0.095780, 0.078261, -0.061037, -0.011467, 0.004414, 0.043576, -0.012678, -0.017866, -0.041966, 0.027688, -0.046608, 0.011196, 0.020385, -0.084899, 0.006799, 0.089583, 0.019359, 0.062358, -0.037809, -0.016542, -0.060840, -0.033415, -0.037210, 0.068165, 0.054337, 0.035130, -0.064726, 0.021999, -0.003931, -0.006934, 0.033345, 0.060901, 0.082464, -0.017767, -0.025766, 0.031014, -0.023626, -0.005962, -0.034491, -0.084659, 0.075937, 0.072383, -0.003363, 0.056176, 0.084579, -0.095475, -0.025655, 0.069016, -0.006109, -0.028127, 0.065709, -0.004596, -0.089094, -0.081691, -0.053899, 0.000939, -0.067474, 0.030146, 0.002476, -0.002452, 0.022052, 0.027423, -0.029037, -0.040205, 0.015311, -0.021821, 0.032396, -0.004223, -0.028140, 0.030322, -0.042355, 0.016868, 0.083076, -0.054707, -0.064942, -0.045861, -0.030861, 0.007383, -0.056438, -0.044781, 0.033288, 0.047481, -0.033813, 0.041913, -0.053539, -0.028381, -0.002186, 0.059061, 0.003306, 0.086199, 0.043954, 0.061284, 0.008707, 0.070908, -0.034801, -0.052158, 0.038852, -0.016424, 0.016794, 0.042301, -0.028434, -0.010503, -0.033753, 0.021499, 0.057203, 0.060479, -0.045481, -0.007294, 0.101014, 0.002676, 0.033386, 0.005843, -0.077236, -0.055996, 0.058513, 0.014779, -0.063578, 0.022917, -0.083431, 0.034498, 0.027460, -0.076694, 0.042689, 0.021016, -0.071939, 0.062862, 0.003609, 0.073830, -0.073476, -0.001441, 0.041828, 0.098082, 0.048134, 0.030193, -0.031645, 0.049680, 0.030802, -0.001210, 0.051671, -0.043922, -0.011027, -0.024720, 0.034244, 0.045628, -0.040878, -0.059578, -0.020521, 0.019216, -0.048679, -0.048595, -0.025434, -0.040663, 0.006647, 0.041785, -0.070965, 0.042881, -0.017048, -0.022047, 0.029260, -0.039497, -0.011593, -0.029000, -0.030418, 0.010481, 0.028299, 0.014955, -0.052317, 0.055453, 0.037610, 0.054248, 0.047789, 0.081468, 0.033548, -0.020204, 0.058086, -0.016259, 0.056334, 0.002247, -0.073733, 0.019970, -0.052998, -0.029601, 0.067943, -0.027484, 0.011574, 0.063574, 0.036780, 0.059904, 0.031025, 0.012629, 0.043653, 0.029468, -0.059122, -0.000142, 0.020448, -0.051415, 0.046273, -0.057103, -0.062455, 0.032193, 0.051100, -0.000868, -0.042012, 0.046415, 0.063580, 0.066430, 0.048462, -0.055662, -0.011577, -0.076405, 0.039964, 0.029043, 0.014973, -0.008109, 0.001966, -0.041023, -0.019020, -0.036797, -0.037840, 0.016312, 0.048860, 0.054280, 0.076158, 0.080704, -0.044582, -0.003556, -0.063223, -0.057828, 0.007230, -0.043778, 0.041643, 0.050312, -0.000408, -0.005385, 0.024233, 0.054865, -0.032246, -0.020857, 0.045095, -0.075833, 0.011709, 0.061824, 0.066448, 0.026426, -0.048703, -0.030588, 0.065308, -0.024723, 0.030029, 0.058193, -0.042689, 0.035243, 0.027130, 0.022619, 0.040535, -0.031416, 0.032728, 0.019522, 0.024760, 0.003036, 0.074245, -0.005384, 0.014965, 0.006165, 0.001821, 0.022488, -0.012358, -0.041471, -0.059996, 0.013439, 0.071310, 0.007773, 0.048985, -0.068744, -0.069608, 0.054085, -0.004349, -0.053768, 0.055580, -0.027068, -0.060523, -0.060235, -0.045513, 0.002768, -0.044010, -0.042427, 0.035751, -0.048501, 0.042135, 0.004909, 0.059611, 0.054414, -0.001771, -0.024154, 0.059464, 0.042206, 0.010851, -0.057108, 0.009740, 0.002542, 0.075254, 0.067601, 0.033942, 0.048719, -0.045068, -0.030062, -0.056829, 0.025366, -0.020939, 0.046680, 0.061193, 0.019809, 0.035710, 0.005309, -0.045787, 0.021919, 0.015418, 0.064916, -0.065692, -0.070774, 0.073784, 0.028839, -0.069838, -0.043365, 0.073125, -0.014132, 0.035955, 0.000483, 0.034265, 0.004577, -0.039594, -0.005333, -0.036048, 0.082138, -0.066846, 0.047613, -0.004465, -0.043598, 0.062082, 0.016888, -0.049075, -0.058026, -0.039261, -0.030538, 0.012604, -0.041467, 0.038757, 0.021513, -0.033908, -0.033129, 0.048566, -0.001909, -0.030044, -0.060944, -0.020936, 0.013333, -0.067365, 0.032190, 0.009553, 0.001788, 0.025573, -0.042075, 0.037844, -0.010116, 0.076049, 0.042597, -0.037711, 0.007092, 0.065151, 0.030722, -0.064283, -0.007152, -0.061510, 0.053059, -0.025324, -0.070809, -0.066093, -0.033967, -0.024852, 0.030237, -0.053675, -0.017768, -0.023743, -0.048285, 0.051138, 0.036736, -0.060586, 0.024784, 0.056699, 0.054491, 0.024868, 0.031833, -0.018261, 0.036791, -0.044208, 0.005247, -0.055747, 0.068106, -0.004748, -0.038332, -0.030625, -0.037314, -0.045988, -0.037058, -0.063106, 0.045868, -0.016952, 0.055720, -0.074562, -0.008639, -0.050569, -0.080075, 0.015495, 0.016675, -0.013410, -0.015274, 0.051529, 0.052007, 0.012998, -0.066312, 0.014197, -0.020790, -0.009829, 0.097405, -0.056388, -0.022829, -0.045219, 0.067052, 0.039886, 0.048628, 0.005299, -0.002236, -0.056146, -0.047660, 0.028933, 0.039820, 0.013636, 0.002045, 0.008958, 0.004386, 0.056518, 0.023085, 0.019367, 0.037400, 0.041167, -0.046001, 0.003097, -0.053820, -0.026541, -0.067811, 0.027475, 0.010125, 0.035746, -0.066986, -0.037778, 0.014260, -0.060320, 0.015924, 0.014825, 0.008067, -0.046110, 0.035119, 0.015599, 0.015837, -0.037569, 0.036578, -0.050356, -0.014509, 0.024433, 0.026895, -0.025411, -0.076983, 0.053933, -0.010578, -0.050660, 0.022639, -0.003594, -0.016396, 0.069723, 0.006894, -0.074188, -0.048687, -0.040488, -0.017699, 0.037342, 0.041565, 0.035388, -0.038883, 0.026909, 0.023302, -0.038588, -0.007445, -0.007990, 0.066084, -0.055046, -0.060763, -0.039701, 0.051642, -0.015764, -0.055781, 0.036101, 0.038868, -0.004276, 0.029316, 0.051740, 0.046648, 0.026378, 0.002475, -0.072878, -0.057377, 0.057977, 0.057575, 0.005825, 0.024790, -0.067106, -0.051232, 0.044672, 0.049393, -0.073629, 0.017176, -0.066657, 0.057522, -0.049679, -0.019080, 0.013854, 0.005420, -0.013625, -0.016936, -0.071665, -0.025847, 0.074046, 0.050251, -0.050836, 0.024279, 0.014740, -0.053556, 0.002478, 0.016872, 0.029965, -0.019945, -0.063455, -0.003330, 0.067537, -0.050307, -0.081082, -0.042704, 0.064288, -0.001022, 0.043890, -0.018343, 0.055592, -0.019653, -0.015397, -0.059648, -0.032176, 0.034105, -0.014006, -0.052483, 0.053969, 0.021068, -0.043651, 0.037111, -0.035189, 0.041595, 0.082068, -0.055085, -0.037649, 0.022602, -0.056982, 0.043088, 0.035467, 0.046482, -0.020698, 0.041002, -0.077501, -0.081884, 0.030536, -0.037609, 0.024200, -0.020126, -0.020130, -0.021886, -0.032405, 0.010467, -0.084153, -0.060485, -0.001735, -0.057483, -0.059159, -0.005091, 0.012814, -0.044906, 0.039632, 0.071481, -0.048259, -0.026920, 0.043616, 0.049117, 0.048920, -0.009087, 0.025996, 0.022402, -0.031739, 0.041634, -0.001748, -0.064248, -0.011564, 0.057538, -0.005871, -0.029156, 0.075375, -0.005697, -0.060255, 0.044681, 0.070883, 0.037961, -0.055051, -0.070613, 0.036638, -0.082925, -0.012752, 0.033561, 0.060556, 0.010871, 0.001964, 0.012735, -0.058932, 0.020679, 0.003575, -0.065440, 0.058542, 0.001015, -0.023396, -0.021027, -0.018190, -0.010543, -0.009139, 0.062492, -0.072719, -0.079253, 0.062800, 0.027489, 0.083292, -0.071136, -0.010487, 0.022033, -0.049475, -0.002232, -0.024760, 0.065484, -0.006645, -0.010482, -0.034926, 0.059186, -0.073585, -0.009485, 0.036487, -0.014068, -0.006360, -0.034094, 0.017834, -0.019240, 0.062768, 0.054369, -0.026101, -0.059449, 0.068691, -0.022164, 0.051678, 0.003996, 0.032036, 0.042945, 0.046190, 0.021904, 0.031289, 0.041754, 0.054109, -0.014747, 0.049949, 0.054567, -0.052955, -0.010792, -0.019098, 0.052538, 0.031532, -0.055865, 0.065425, 0.075187, 0.079121, -0.070156, 0.044164, -0.004282, 0.068832, 0.055380, -0.047600, 0.000264, 0.013315, 0.061512, -0.066770, -0.004944, 0.037723, 0.033845, 0.002983, -0.058759, -0.051496, -0.078247, 0.034871, 0.054711, 0.057092, 0.012775, -0.071640, -0.045012, -0.062619, -0.048891, 0.022869, 0.067932, 0.025225, 0.056329, -0.025512, -0.057482, -0.021685, -0.020069, 0.013029, 0.048335, 0.012984, 0.049275, 0.057996, -0.025466, 0.039343, -0.084249, 0.020439, -0.058986, -0.060118, 0.009930, -0.016877, -0.013431, -0.024256, -0.024511, 0.033457, 0.074311, 0.006537, -0.033086, -0.086113, 0.044960, -0.079660, -0.018069, -0.087963, 0.018957, 0.038904, 0.059946, -0.020155, 0.045020, 0.070394, 0.048933, 0.020501, 0.014723, 0.030282, 0.089020, 0.088037, 0.003466, 0.006122, 0.090454, -0.006622, -0.017770, 0.045479, -0.001887, 0.052710, -0.001692, 0.048462, 0.025944, -0.059905, -0.073329, 0.050447, -0.060807, -0.075709, 0.064757, 0.004343, 0.005502, 0.020174, -0.007864, 0.061229, 0.061760, -0.035933, -0.003052, 0.012229, -0.077111, 0.040916, 0.076076, 0.008046, -0.010943, 0.001457, -0.047496, 0.046608, -0.076495, -0.020006, 0.059067, -0.005465, 0.033644, 0.028813, 0.034082, -0.042579, -0.006772, 0.025077, 0.007430, -0.076016, -0.035099, 0.002879, 0.062716, -0.061858, 0.040578, -0.018073, 0.023842, -0.074440, -0.020487, 0.064519, -0.001180, -0.018265, -0.022463, -0.078024, 0.069451, -0.013970, 0.035431, -0.009290, -0.013041, 0.018368, -0.014114, -0.000336, -0.046118, -0.001636, 0.069709, -0.019242, -0.054727, -0.025062, -0.070262, -0.005664, 0.009688, -0.010954, -0.042497, 0.021460, 0.037953, 0.063682, 0.082889, -0.053372, -0.066032, 0.009441, -0.032768, 0.043675, -0.101256, 0.066996, -0.062060, 0.030554, -0.056310, -0.059475, -0.025743, -0.050878, 0.047862, -0.100429, -0.011165, -0.038209, -0.079074, -0.039392, -0.015330, 0.020640, -0.031476, -0.017878, -0.093422, 0.034589, 0.035523, -0.063766, -0.004245, -0.006883, 0.067823, -0.059264, 0.001068, -0.044169, -0.056292, -0.098819, 0.069232, 0.087139, 0.054915, 0.035133, 0.045354, -0.020839, -0.046300, 0.047018, -0.014686, 0.054884, -0.091455, 0.061029, -0.030001, -0.033359, -0.055908, -0.059044, -0.010660, -0.070788, 0.007032, 0.041329, -0.026848, 0.018041, -0.049550, 0.018392, 0.082710, 0.033798, 0.043170, 0.077568, 0.010979, -0.034935, -0.072035, -0.016308, 0.035913, 0.011322, 0.020646, 0.041269, -0.041949, 0.016386, 0.052991, 0.042335, 0.064987, 0.055318, 0.039780, 0.002060, -0.041858, -0.004572, -0.030970, -0.018833, -0.028397, 0.020366, -0.044135, -0.025780, 0.039335, 0.060269, 0.079519, -0.020863, -0.025321, -0.119101, 0.005021, -0.052482, -0.045932, -0.065183, 0.055165, 0.008528, 0.033101, 0.025261, 0.013408, -0.060942, -0.000570, -0.045036, -0.002349, 0.030073, 0.082782, 0.001765, -0.064303, 0.079554, 0.050710, -0.069436, 0.077466, -0.048364, -0.010855, 0.077799, 0.052119, 0.058869, -0.033224, 0.018179, -0.069823, 0.008155, 0.052869, -0.031285, -0.009308, -0.003709, -0.017826, -0.069346, -0.052168, -0.056942, -0.040297, 0.094029, -0.016722, 0.041733, 0.001047, -0.034753, 0.068731, -0.000410, 0.075598, -0.012647, 0.018733, -0.070881, -0.056372, -0.072292, -0.028899, -0.058786, -0.068109, 0.053311, 0.002639, -0.021011, 0.039125, -0.035060, -0.018753, -0.016132, 0.088463, -0.041603, -0.017582, -0.012662, -0.061475, 0.015782, -0.040485, -0.104381, -0.031476, -0.031279, -0.028519, -0.058112, -0.047773, 0.018378, -0.038605, -0.035774, -0.001655, 0.030377, -0.009270, 0.030220, -0.011269, -0.086631, 0.016451, -0.014463, 0.095473, 0.006862, 0.032154, 0.079334, 0.039236, -0.051991, -0.082140, 0.024723, -0.021564, -0.021952, -0.059970, 0.040745, 0.062727, 0.004309, -0.044701, 0.070501, 0.052750, -0.023008, -0.080738, 0.065735, -0.012181, 0.047525, -0.047382, -0.010922, 0.077827, 0.101238, 0.024549, -0.024855, -0.034266, -0.019420, -0.011311, -0.073955, -0.078448, -0.075348, 0.074507, -0.013518, -0.026560, 0.031147, 0.033926, -0.107643, 0.066335, -0.107528, 0.013567, -0.077353, -0.012949, -0.055322, 0.005130, -0.083366, 0.071090, 0.026175, -0.037486, 0.067597, -0.047384, -0.045880, -0.007920, 0.102354, 0.015669, -0.031152, -0.035836, 0.023368, 0.099092, -0.112440, -0.027675, 0.060455, -0.033663, -0.011014, -0.023501, 0.050732, -0.003409, 0.017494, -0.059956, 0.057068, -0.050926, -0.069482, -0.075114, -0.020631, -0.034196, -0.022140, 0.014967, 0.030676, 0.055718, 0.072343, -0.060452, -0.043901, -0.010988, 0.015871, 0.090184, -0.013664, 0.101964, 0.103331, 0.005458, -0.078422, -0.036083, -0.078416, -0.049292, -0.029741, 0.041856, 0.046396, -0.022281, -0.027139, 0.023373, -0.056103, 0.107832, -0.093580, 0.096269, -0.022103, 0.100870, -0.034031, 0.018374, -0.106290, -0.057018, -0.118119, 0.029494, 0.025578, -0.084601, 0.018557, -0.021938, -0.009536, 0.028691, 0.010413, 0.111522, -0.007990, -0.101762, -0.038397, 0.067197, 0.009354, 0.009566, 0.044333, 0.025722, -0.041050, -0.031118, 0.119019, -0.066136, 0.035828, -0.110701, 0.040859, 0.007478, -0.026240, 0.014618, -0.015683, -0.028444, -0.076710, 0.016688, -0.017146, 0.031530, 0.026542, -0.078306, 0.026486, -0.101727, 0.047076, 0.026609, -0.022636, 0.008132, 0.075398, 0.030627, -0.013132, -0.089475, -0.080969, -0.051330, 0.029490, -0.011928, -0.053528, -0.034466, 0.004738, -0.064398, 0.091537, 0.100295, -0.052794, -0.019135, 0.002589, 0.039330, -0.006097, -0.081242, -0.093564, 0.042737, -0.028466, 0.083598, 0.021392, 0.017821, 0.070764, -0.025021, 0.019271, -0.055441, -0.000519, 0.082099, -0.018452, -0.072519, 0.059547, 0.024693, -0.066266, 0.014571, 0.076948, 0.019125, -0.039610, 0.022248, 0.004627, 0.036645, 0.014095, -0.111442, 0.060649, -0.030744, 0.036698, 0.025210, -0.046487, -0.059359, -0.081783, -0.085537, -0.015792, 0.047713, 0.080529, -0.040594, -0.008855, -0.078330, 0.039701, 0.055669, -0.049855, 0.026635, 0.053794, -0.055743, -0.029763, -0.023002, 0.023341, -0.083423, -0.033365, -0.044913, -0.055902, 0.076307, -0.010011, -0.001122, -0.017401, 0.045180, -0.073111, -0.050875, -0.036161, 0.125787, 0.001734, -0.009774, -0.075782, -0.035529, -0.071770, 0.102319, 0.014182, -0.116257, 0.072632, 0.065100, -0.098319, 0.077722, 0.055584, 0.005882, 0.052403, -0.098786, -0.006781, 0.004532, -0.080914, 0.101958, 0.005470, 0.000840, -0.043272, -0.015478, 0.139328, -0.055651, -0.006520, -0.096148, -0.056628, 0.057162, 0.016403, -0.059996, -0.036829, 0.036349, -0.088112, -0.060420, -0.062468, 0.054116, 0.091123, -0.015075, 0.019123, 0.025249, 0.031125, 0.000409, 0.012916, 0.032527, 0.083676, 0.001905, 0.026848, 0.050905, 0.008477, 0.003168, -0.052013, -0.008680, 0.010920, -0.054279, -0.045392, 0.052228, 0.068619, 0.045837, -0.006004, -0.051071, 0.023231, -0.064320, 0.049061, -0.019263, -0.004411, 0.010543, 0.059784, -0.038164, -0.011164, 0.055613, -0.020355, 0.015547, -0.041838, 0.049999, 0.046838, 0.004512, 0.016384, -0.053734, -0.054607, 0.006032, -0.038109, -0.021247, -0.036707, -0.020940, 0.024398, -0.017071, 0.053844, 0.064971, -0.017810, 0.066320, 0.046337, -0.035538, 0.008398, 0.040261, 0.038631, -0.009143, -0.055456, 0.019202, 0.001535, 0.051657, -0.015898, 0.021127, -0.064381, 0.061126, -0.039371, -0.038849, 0.046510, 0.054637, 0.002701, 0.013375, 0.060910, 0.033720, 0.071718, 0.054563, -0.012628, -0.036142, 0.058466, -0.010856, 0.029309, -0.054338, -0.042058, 0.020297, -0.068912, 0.042927, -0.065765, 0.074535, -0.052776, -0.020139, 0.036111, -0.044318, -0.003281, -0.018299, 0.052465, 0.049055, 0.010252, -0.017765, 0.003543, 0.035097, -0.049002, 0.039941, -0.064117, -0.012690, -0.001261, -0.012573, -0.016239, 0.034370, -0.018438, -0.028621, -0.009323, -0.009169, 0.020300, -0.020070, -0.033544, 0.064461, -0.023662, -0.044521, -0.052638, -0.023026, -0.031096, 0.018846, 0.001472, 0.005818, -0.063218, -0.043602, 0.019895, 0.034046, 0.066500, -0.056081, -0.011502, -0.056626, -0.026485, 0.054350, -0.070573, 0.012590, 0.030865, -0.011766, -0.035585, -0.070627, -0.010228, 0.025157, 0.051232, -0.004971, 0.042532, 0.049626, -0.061560, 0.027598, 0.053693, -0.004524, -0.009554, 0.007553, -0.027313, -0.031390, -0.005583, 0.026201, -0.012567, -0.012405, -0.042384, -0.037981, 0.058479, 0.013233, -0.056213, -0.006342, 0.060240, -0.021492, -0.028305, -0.069476, -0.020151, 0.012240, -0.062550, 0.034124, -0.018875, -0.055780, -0.056035, 0.014627, 0.021117, 0.016409, 0.036476, -0.000456, -0.010946, -0.053021, -0.036597, 0.041619, -0.073782, 0.024690, 0.011920, -0.020105, -0.003838, -0.019522, 0.026501, -0.024031, 0.056403, 0.040658, 0.058983, -0.043609, 0.074592, -0.021583, 0.026698, 0.074023, -0.043078, -0.037899, -0.063462, 0.016844, -0.038737, -0.062438, -0.062143, 0.063024, -0.029043, -0.083329, -0.023793, 0.027018, 0.012797, 0.030247, -0.109210, 0.026253, 0.025438, -0.074870, -0.070828, 0.004086, 0.017849, 0.084244, 0.087755, -0.074784, 0.024982, -0.031148, 0.002769, -0.056663, 0.060029, 0.085472, 0.015183, 0.022710, 0.059358, 0.073538, 0.006623, 0.049339, -0.061180, -0.004957, -0.044092, -0.008665, 0.059925, 0.000271, -0.035750, -0.057052, 0.057666, 0.054943, -0.003680, -0.012062, -0.038861, -0.036243, -0.059486, -0.047661, 0.042968, -0.033556, 0.077658, -0.045924, 0.062085, 0.000098, -0.029329, 0.053387, 0.043470, 0.067302, -0.013471, -0.081796, -0.093086, -0.060471, 0.001696, -0.013229, -0.012306, 0.047569, -0.072936, -0.019161, -0.017304, -0.081920, -0.016843, 0.031333, -0.095010, -0.009698, 0.032751, 0.104919, -0.038259, -0.027297, -0.015161, -0.065956, -0.022366, -0.026108, 0.099020, -0.094328, 0.059532, 0.081375, -0.044457, 0.029985, 0.070754, 0.059951, 0.094110, -0.059093, 0.028407, -0.034267, 0.017048, -0.023423, -0.019750, 0.096595, -0.000396, 0.052487, 0.085911, 0.061000, -0.022160, -0.042700, -0.002031, -0.060714, 0.041541, 0.043814, 0.025304, 0.045279, 0.010743, -0.025849, 0.061682, -0.003178, 0.073762, -0.026914, 0.054391, -0.043275, -0.046545, 0.066428, 0.012764, 0.095776, -0.018969, -0.031796, -0.073653, -0.067208, -0.045737, 0.031924, 0.025175, 0.038053, 0.007095, 0.026088, 0.045892, -0.019744, 0.051794, -0.025446, -0.071696, -0.010396, 0.032954, 0.069972, -0.007668, 0.043455, -0.008168, -0.004631, -0.074194, 0.065445, 0.056173, -0.045993, -0.038427, 0.007163, 0.033348, 0.096206, 0.070298, 0.081732, 0.061773, -0.044808, 0.067430, 0.084020, -0.068205, 0.010180, 0.070875, -0.019947, 0.009352, 0.041295, 0.063634, 0.035754, -0.019787, -0.019038, -0.006895, -0.002592, -0.012030, -0.009775, -0.044111, -0.016635, 0.071250, -0.059220, -0.006273, -0.059181, 0.070600, -0.050205, 0.018892, 0.018311, -0.000759, -0.045340, 0.019934, 0.020469, -0.061677, 0.060101, -0.041885, -0.075920, -0.039078, -0.082700, -0.053002, -0.056867, 0.023291, -0.002364, -0.020527, -0.083834, -0.001387, 0.006484, -0.016013, -0.036421, -0.106395, 0.101209, -0.028114, -0.047896, -0.020626, 0.036281, -0.076763, -0.034559, 0.032778, -0.001123, 0.037540, -0.046564, -0.074919, 0.031784, -0.006284, 0.065808, 0.055338, -0.046103, 0.030482, 0.095781, -0.044581, 0.049316, 0.040715, 0.037108, -0.053919, 0.075359, -0.002218, 0.063722, -0.004437, 0.008176, -0.034228, 0.005139, 0.039995, 0.007199, 0.026311, -0.030444, -0.090256, -0.015958, 0.019326, 0.089412, 0.001035, -0.057284, 0.078670, -0.032179, -0.001002, 0.024012, -0.011749, 0.047912, -0.006540, 0.026765, -0.029881, 0.028784, 0.086736, 0.025160, -0.059269, 0.022655, 0.054656, 0.026826, 0.011494, -0.057098, -0.071766, 0.021820, 0.015633, 0.052627, -0.064961, 0.062672, 0.022957, -0.014032, -0.104966, -0.070607, 0.000218, 0.093142, -0.046937, -0.016985, 0.028426, 0.059734, -0.040946, 0.001149, 0.005308, -0.014844, 0.048737, 0.023401, 0.066562, -0.012082, -0.006195, -0.022415, -0.024597, 0.006192, -0.074633, -0.036879, -0.003202, 0.048907, 0.028370, -0.077799, 0.060232, -0.035452, 0.022736, -0.027015, 0.018367, -0.025977, -0.031933, 0.003908, 0.000989, 0.091444, -0.009024, -0.035375, -0.050780, -0.028455, 0.046936, 0.063742, -0.029899, 0.054257, 0.060617, 0.011001, -0.045218, -0.090757, -0.011951, -0.096003, 0.016408, -0.053407, -0.066303, -0.059808, -0.081543, 0.007972, 0.028575, -0.001947, -0.082315, -0.057377, -0.028276, 0.062636, -0.067267, 0.012799, -0.015615, -0.055296, -0.027503, 0.046630, 0.050620, 0.040437, 0.074479, -0.056793, -0.049337, 0.029188, -0.005978, 0.122644, 0.016921, -0.018846, -0.014124, 0.035989, -0.034813, -0.030848, 0.073616, -0.005339, -0.042813, 0.015533, 0.093892, 0.064436, -0.017689, -0.019346, -0.014542, 0.056096, -0.011441, -0.004591, -0.021745, -0.063455, 0.069601, 0.018913, 0.028908, -0.000368, 0.056272, -0.015325, 0.096630, -0.041144, 0.046864, 0.000783, -0.008497, 0.016416, -0.053509, 0.043676, 0.016125, -0.025179, 0.049681, 0.000733, -0.063331, 0.004764, -0.030506, 0.044860, -0.046564, 0.005439, -0.032504, 0.073400, 0.051243, 0.031227, 0.037345, 0.035755, -0.002744, -0.051086, 0.043828, 0.006502, -0.019268, -0.026415, 0.038638, -0.062498, 0.059714, 0.044605, 0.004135, -0.001698, -0.073576, 0.061711, 0.040176, 0.029350, 0.006344, -0.006246, -0.024314, 0.055458, 0.055406, -0.040216, -0.032257, -0.040517, -0.026039, 0.024200, 0.008676, -0.031356, 0.034142, -0.025796, -0.012893, 0.039928, -0.070951, -0.026939, 0.004943, 0.077827, -0.035528, 0.000164, -0.061281, -0.049786, -0.050648, -0.022618, -0.077669, 0.058012, 0.048653, -0.044422, -0.064822, -0.027121, -0.021563, -0.038728, -0.028066, -0.063578, -0.039801, 0.007872, 0.051977, -0.034225, 0.064429, 0.006089, -0.034494, 0.005670, 0.024021, -0.053857, -0.055180, 0.002100, -0.067083, -0.015477, 0.059145, 0.056784, -0.081158, 0.050619, -0.061036, 0.011823, 0.008230, -0.019619, 0.056138, 0.029787, -0.030586, -0.019536, 0.049615, -0.003102, -0.040201, -0.040939, -0.004456, -0.001652, 0.063460, 0.019641, 0.053826, -0.056809, -0.039479, -0.079947, 0.057229, -0.007638, -0.057014, 0.031964, 0.026863, -0.043373, -0.016786, 0.013989, -0.008674, 0.018120, 0.053483, -0.034551, 0.022854, -0.080268, 0.064929, -0.028133, 0.022807, -0.058431, -0.003823, -0.021643, 0.026541, 0.024028, -0.083721, -0.112046, 0.035554, -0.064586, -0.073126, 0.022277, -0.068821, 0.053969, -0.005226, -0.019491, -0.039898, 0.053769, -0.040367, -0.067764, -0.036658, 0.083544, -0.064850, -0.047511, -0.025143, -0.015944, -0.086871, 0.000439, -0.016997, -0.041539, 0.087308, -0.012133, -0.032325, 0.004460, -0.002724, 0.045420, -0.025300, -0.078769, -0.050805, 0.005695, -0.053639, -0.022708, 0.022332, -0.028507, -0.060669, -0.034498, 0.016672, 0.041132, -0.048172, -0.036984, -0.019050, 0.071625, 0.049990, 0.046318, -0.020431, 0.023828, -0.000300, 0.051866, 0.028139, 0.006777, 0.045114, -0.039046, -0.029005, -0.001730, 0.028920, 0.025773, 0.051270, 0.079386, 0.062903, -0.002643, 0.042487, 0.015155, -0.006174, 0.024061, 0.007520, 0.044049, -0.016961, -0.030167, -0.071606, 0.051695, -0.024440, -0.047093, 0.033246, 0.003048, -0.089361, -0.046583, 0.014381, -0.015605, -0.011796, 0.049834, 0.023514, -0.016872, -0.012680, -0.055191, -0.034374, 0.062532, 0.059945, -0.006035, 0.049156, 0.083232, 0.028224, -0.054534, -0.044446, -0.040536, 0.032630, -0.028997, -0.062509, 0.077697, 0.078539, 0.028733, 0.057853, 0.055295, -0.090090, -0.073002, 0.042656, -0.038833, 0.012089, 0.034946, 0.044108, 0.006473, -0.065813, -0.066547, 0.017257, -0.006365, 0.001758, 0.014462, 0.027969, -0.079708, 0.045516, -0.057482, -0.046144, 0.034972, 0.023331, 0.009970, -0.056265, -0.055951, -0.074870, -0.054928, -0.038185, -0.014369, 0.022932, 0.043024, -0.020578, -0.027763, -0.011502, 0.040603, -0.115103, 0.011651, -0.005592, -0.003946, -0.006810, -0.015361, -0.061892, 0.003784, -0.016609, 0.057065, -0.012015, 0.007438, -0.020016, 0.051757, -0.011802, 0.044475, 0.029494, 0.085580, -0.006125, 0.000700, -0.043590, 0.037578, -0.108158, 0.021016, 0.043883, 0.068640, -0.058559, 0.057718, 0.002117, -0.032387, 0.050627, -0.078990, 0.040018, 0.008373, -0.049290, 0.029298, -0.048363, -0.020917, -0.045821, 0.045605, 0.044423, 0.015054, -0.008774, 0.023047, -0.050146, 0.000502, -0.001773, 0.021189, -0.019533, 0.018377, 0.056665, 0.018966, 0.018570, -0.099346, -0.012157, 0.028726, -0.033771, 0.007047, 0.060600, -0.065113, -0.007323, -0.031136, 0.032369, 0.070400, -0.116025, 0.041819, -0.024434, 0.027877, -0.118326, -0.009245, -0.093887, -0.039003, -0.087649, -0.018940, 0.018026, -0.075567, 0.002527, -0.037563, -0.046315, -0.035684, 0.056256, 0.103342, 0.002015, -0.103213, 0.064526, 0.099534, -0.003741, 0.099116, 0.063951, 0.105519, -0.024237, -0.045069, 0.051278, 0.069312, -0.012177, -0.086728, 0.022990, 0.003803, -0.033400, 0.060862, 0.050724, 0.027047, -0.058254, -0.028362, 0.072898, 0.065752, -0.016377, 0.033188, -0.025736, -0.035995, -0.012142, -0.043529, 0.004059, 0.088937, 0.020413, -0.026946, 0.029879, -0.009266, 0.033998, -0.038101, -0.062716, 0.002791, 0.059554, 0.053621, 0.009252, -0.024914, -0.012157, -0.000362, 0.002598, 0.030968, -0.055714, 0.087527, -0.081638, -0.042259, -0.054345, -0.037217, -0.039151, -0.013555, 0.007057, -0.033286, -0.033747, -0.007644, 0.001840, -0.045158, 0.094250, 0.083156, 0.008595, -0.019895, -0.026093, 0.093302, -0.080692, 0.039652, 0.025365, 0.050475, 0.001961, 0.031756, 0.055470, -0.032536, -0.032886, -0.004111, -0.044386, -0.073987, 0.055317, -0.048872, -0.041576, 0.058522, -0.018976, -0.073939, 0.026356, 0.098712, 0.075531, -0.035720, -0.034403, 0.039727, -0.055207, 0.047540, -0.036185, 0.025487, 0.089694, -0.074536, -0.099804, -0.103730, 0.053613, -0.076995, 0.004841, -0.067842, 0.025411, 0.076365, 0.060358, 0.024419, 0.027965, 0.014291, -0.090609, 0.019826, -0.023788, -0.023859, -0.038429, -0.061574, 0.036075, 0.006944, -0.026851, 0.060113, 0.058803, 0.009731, -0.011965, 0.047650, 0.015482, 0.023304, 0.024408, 0.035641, 0.038716, -0.036148, 0.007405, 0.030300, -0.071617, 0.071133, 0.031494, 0.093758, 0.041966, -0.014629, 0.017275, 0.028698, -0.026004, -0.028259, 0.023144, 0.061580, 0.011669, 0.023388, -0.019173, -0.008231, -0.017304, 0.039886, 0.044686, 0.017499, 0.077253, 0.009198, 0.014214, -0.017400, 0.054060, 0.047353, 0.073301, 0.061519, 0.091704, 0.010303, -0.045193, -0.053690, 0.011757, -0.089200, -0.063146, -0.080393, 0.054445, 0.067855, -0.093311, -0.062015, 0.080325, 0.078289, -0.010884, -0.014003, 0.015154, 0.020650, -0.017284, -0.109498, -0.092661, -0.008341, -0.050125, 0.077040, 0.079008, -0.023631, 0.095394, 0.003106, -0.084792, 0.020887, -0.016394, -0.002191, 0.044557, -0.086688, -0.010941, 0.059411, -0.051885, 0.022689, 0.044907, 0.102856, 0.001535, -0.075437, 0.076900, 0.048851, 0.035787, -0.009166, 0.025350, -0.003270, -0.001171, -0.055090, -0.076916, 0.062806, -0.024776, -0.064356, 0.007186, 0.027417, -0.015170, -0.106960, -0.015223, -0.047653, 0.059747, -0.017952, -0.041477, 0.020623, 0.021543, 0.015438, -0.039634, -0.010130, 0.014192, -0.054411, -0.027984, 0.031137, 0.053600, 0.062982, -0.017737, 0.024207, 0.062596, 0.073811, 0.010552, -0.037017, 0.011405, 0.044766, 0.023566, 0.000620, 0.025079, 0.025688, 0.032393, -0.038087, -0.067839, 0.061255, -0.027480, -0.024356, -0.013379, 0.009448, -0.051939, -0.014510, -0.017881, -0.014757, 0.014774, 0.029490, 0.051718, -0.047190, 0.032655, 0.035264, 0.014821, -0.027266, -0.010898, 0.002828, -0.047666, 0.029748, -0.020103, -0.040209, 0.006760, -0.076257, -0.043507, 0.061871, 0.029168, -0.061786, 0.014711, -0.033516, 0.023348, -0.075158, 0.070690, 0.008560, -0.005123, -0.028523, 0.019169, -0.073333, -0.055061, 0.039712, -0.015171, -0.063577, -0.069782, -0.059830, -0.007047, 0.031979, -0.036522, 0.053183, -0.029220, 0.048812, 0.032379, -0.040692, 0.010726, -0.006861, 0.061664, -0.000209, 0.063674, -0.047758, -0.004376, -0.031669, 0.042150, -0.029158, -0.028256, -0.019192, 0.028916, -0.030923, 0.018870, 0.017514, -0.064300, -0.054316, 0.040381, -0.043325, 0.020088, 0.059594, -0.042727, -0.068669, -0.036571, 0.021293, -0.027046, 0.036997, 0.032377, -0.017003, 0.031578, 0.037820, 0.044034, 0.003302, 0.032344, -0.000194, -0.071878, -0.037235, 0.086931, 0.049384, -0.046441, -0.010281, -0.058037, 0.069661, -0.026732, -0.041625, 0.030727, 0.077637, 0.044879, -0.004683, -0.064806, -0.054110, 0.002704, 0.067678, 0.050304, 0.008826, 0.027118, 0.068758, 0.056874, -0.053299, 0.071041, -0.062453, 0.010068, 0.019736, 0.004116, 0.003095, 0.054101, -0.036325, 0.011303, -0.015913, 0.061922, -0.003574, 0.003977, 0.007753, 0.009528, 0.016765, 0.023189, 0.029991, 0.059328, -0.075195, 0.058113, -0.040302, 0.054299, -0.059952, 0.037010, -0.013198, -0.047651, 0.017267, -0.044830, -0.071347, 0.024453, 0.017509, -0.030693, -0.027402, -0.036387, -0.059621, -0.057196, 0.042221, -0.040757, 0.018890, -0.014075, 0.059024, 0.021385, -0.056300, -0.040338, -0.059679, 0.011264, -0.030006, 0.009934, -0.070145, 0.038665, -0.062631, 0.008074, 0.030277, -0.032547, 0.027833, 0.025088, -0.024757, 0.062290, 0.046199, -0.038349, 0.049425, 0.012236, -0.003304, 0.010129, -0.071824, 0.008287, -0.016992, -0.030879, -0.069664, -0.053748, -0.007194, 0.008659, -0.056820, 0.056725, -0.008890, 0.013487, 0.002754, -0.007345, -0.068819, 0.014713, 0.014022, 0.035331, -0.024361, 0.035904, -0.034109, -0.029581, 0.026433, -0.054860, 0.050018, 0.032231, -0.064130, 0.029287, 0.054922, -0.045730, 0.036640, -0.022201, -0.044732, -0.028942, -0.006603, -0.044641, 0.007974, 0.045792, 0.022075, -0.021897, -0.053011, 0.029975, -0.013142, -0.021418, 0.005186, 0.050546, 0.027679, -0.016551, 0.019325, -0.025759, 0.022731, 0.017928, 0.036653, 0.059473, 0.032162, 0.014651, 0.000594, -0.046496, 0.071132, 0.006779, 0.065161, 0.023873, 0.035897, -0.032014, -0.057462, -0.000767, -0.022859, 0.029729, -0.056781, -0.039221, -0.041171, -0.052180, 0.029227, -0.047949, -0.060466, 0.028770, -0.011257, -0.029756, 0.032740, 0.059232, 0.060872, -0.013843, -0.069826, 0.013739, -0.046266, -0.041101, -0.001990, 0.065379, 0.050973, -0.018919, -0.037852, 0.010904, -0.058777, -0.063493, 0.011500, -0.041327, -0.046128, -0.070379, 0.009959, -0.029784, -0.059981, 0.016393, 0.023409, 0.038709, 0.017354, -0.004754, 0.013760, 0.057573, -0.056629, 0.075302, 0.067879, -0.045927, -0.006329, -0.059043, -0.066990, -0.064004, 0.026666, 0.052488, -0.038154, -0.001497, 0.076380, 0.038007, -0.008997, -0.038914, 0.056920, 0.050038, -0.021537, -0.022644, -0.000490, 0.074554, 0.026050, -0.004598, 0.015811, 0.024920, 0.004571, -0.053094, 0.001946, 0.058077, 0.015519, -0.047596, 0.059980, 0.017528, -0.026883, 0.015274, 0.010103, -0.018260, 0.053125, -0.009007, 0.047117, -0.073541, -0.026068, 0.040463, -0.028013, -0.011892, 0.042402, -0.062659, -0.068025, -0.047109, 0.066028, -0.024557, -0.054188, 0.071699, 0.019566, 0.019279, -0.030722, 0.032744, -0.080956, 0.014403, 0.047701, 0.007450, -0.040480, -0.034465, -0.041047, 0.073335, -0.001961, -0.041741, -0.042504, -0.024707, -0.018711, -0.029672, -0.068686, -0.061056, 0.041961, -0.012755, -0.043293, 0.041516, -0.069297, 0.063177, 0.010955, 0.016296, -0.007200, -0.060158, 0.008255, 0.023365, 0.021256, 0.055000, 0.054930, -0.038375, 0.047364, -0.049585, 0.041721, 0.028333, 0.023217, -0.012439, 0.039660, 0.012308, 0.070939, 0.032065, 0.048660, -0.042865, -0.030406, 0.053224, 0.003905, 0.025585, -0.037131, -0.003316, -0.030026, 0.032251, -0.047612, 0.007968, -0.074165, 0.000334, -0.060960, 0.021397, 0.036674, 0.053845, -0.056899, -0.064346, -0.047977, -0.024414, -0.090443, 0.011231, 0.031306, 0.071776, 0.079511, 0.035870, -0.035503, -0.004158, 0.034001, -0.035832, 0.028098, -0.015422, -0.050014, -0.044957, -0.061889, 0.009489, 0.094239, 0.052711, 0.053875, -0.039231, 0.024774, 0.004217, -0.007908, -0.032092, 0.020757, -0.074179, 0.038404, -0.039274, -0.016539, 0.026090, -0.055321, 0.066711, 0.061265, -0.070795, -0.005197, -0.001753, 0.037376, -0.032313, -0.027348, -0.000292, 0.018170, 0.055413, -0.005731, 0.042626, 0.024731, 0.057062, -0.041005, 0.004295, -0.003589, -0.061928, 0.006786, -0.035732, 0.009503, -0.000142, 0.001586, -0.002152, -0.053900, -0.003600, -0.061380, -0.051628, 0.047595, 0.045167, -0.033888, 0.058045, -0.085195, -0.004186, 0.048098, 0.073751, -0.011672, -0.003359, 0.048051, -0.038327, 0.009069, -0.002029, 0.008276, 0.020834, 0.054419, -0.052384, -0.053264, 0.016484, -0.016799, 0.067878, 0.005926, 0.037253, 0.001704, -0.009554, 0.054402, -0.002851, 0.065499, 0.009791, 0.043883, 0.040931, 0.007525, 0.029698, -0.007612, -0.025117, 0.050286, -0.049686, -0.069436, -0.057937, -0.029294, 0.052245, 0.068529, 0.060695, -0.038685, 0.046790, 0.054621, 0.059749, -0.042274, -0.071905, -0.048069, 0.034160, -0.064516, 0.053639, 0.014446, 0.074872, 0.012430, -0.048496, 0.020573, 0.058029, -0.000797, 0.009672, 0.037668, 0.049867, 0.064882, -0.011083, 0.019300, 0.040281, -0.071397, 0.013785, -0.004617, 0.026837, 0.039541, -0.000398, 0.063385, 0.043071, 0.015616, -0.025637, 0.044286, -0.003923, -0.025335, 0.057081, 0.065580, 0.014249, 0.025557, -0.036884, -0.049323, -0.009026, -0.087454, 0.034775, -0.000988, -0.014815, 0.037742, 0.021590, -0.069522, 0.031062, 0.031889, -0.102047, 0.022785, -0.078812, 0.009353, -0.093914, 0.034297, -0.101202, -0.092752, -0.046675, 0.077824, 0.082366, -0.073129, 0.034437, 0.042608, -0.073009, -0.054722, 0.056701, 0.023335, 0.010535, -0.045130, -0.061963, 0.051842, -0.055523, 0.089037, -0.053196, -0.003446, -0.002363, 0.009652, 0.091738, 0.037185, 0.072446, -0.021343, -0.060781, 0.028582, -0.008856, 0.004693, -0.014306, 0.049285, -0.005486, -0.064770, 0.001080, 0.059351, -0.031048, 0.006580, 0.056256, 0.059857, -0.040878, -0.025045, -0.041960, -0.044281, 0.062283, -0.013428, -0.009123, -0.060482, 0.079199, -0.084621, -0.058743, -0.037561, 0.029122, 0.041119, 0.009741, -0.031098, 0.060357, 0.030734, -0.048159, 0.015280, 0.045823, -0.018074, 0.027309, -0.008234, -0.052684, 0.040593, 0.000908, -0.012218, -0.016956, 0.003016, 0.037097, -0.106766, 0.050314, -0.051592, 0.002377, -0.025720, -0.036327, -0.068797, -0.031498, 0.009808, -0.000589, 0.021785, 0.074585, -0.025564, -0.069854, -0.079330, 0.079211, 0.017616, 0.021434, -0.069728, -0.016489, 0.084564, -0.003371, -0.038101, -0.046913, -0.039819, -0.067241, -0.041157, 0.018918, 0.029646, -0.081535, -0.027384, 0.019877, 0.036547, 0.003199, -0.032255, 0.029300, 0.057346, -0.015734, 0.063950, -0.049234, 0.003460, 0.016485, -0.002118, 0.014956, 0.039469, -0.022813, 0.060393, 0.028007, 0.029502, 0.020393, -0.056645, -0.060424, -0.009374, 0.075382, -0.021909, -0.013384, 0.066227, 0.054661, -0.079020, 0.020874, 0.015573, 0.039142, 0.045786, -0.024421, 0.013679, 0.052632, -0.011327, 0.040192, -0.001377, 0.007476, 0.053736, -0.048624, 0.023498, 0.010963, 0.002821, -0.031095, -0.020672, 0.013195, -0.058642, -0.048549, -0.071411, -0.002410, -0.003704, -0.048378, -0.014296, -0.024085, -0.076283, 0.026951, 0.002439, 0.039471, -0.019077, -0.009395, 0.062249, -0.064112, -0.061600, -0.048256, 0.091446, 0.051787, 0.078131, 0.046301, -0.050889, -0.009876, 0.076347, -0.030963, -0.052183, -0.001154, 0.009709, -0.025958, -0.029952, -0.070585, -0.052614, 0.033718, -0.083338, -0.003809, 0.049794, 0.007192, -0.053433, -0.063833, 0.036784, -0.099852, -0.045431, -0.074701, -0.007832, -0.086223, -0.008784, 0.052259, -0.049934, 0.053963, 0.040287, -0.001382, 0.039627, 0.028316, 0.080538, -0.028181, 0.012306, -0.037101, 0.070890, 0.018286, -0.005123, 0.022831, -0.000954, -0.002865, 0.010551, 0.037169, 0.058718, 0.053154, -0.022441, -0.022336, 0.024305, 0.026592, 0.019850, -0.023704, -0.016392, 0.032896, -0.014987, -0.042270, 0.068767, -0.008254, 0.035643, 0.042225, -0.045698, -0.018862, 0.066419, 0.016324, 0.000377, 0.070232, 0.080905, 0.033660, -0.062077, 0.018748, -0.014111, -0.074926, 0.054502, -0.076394, 0.020763, -0.025774, -0.078375, -0.033004, 0.043593, 0.032022, 0.019325, 0.036217, 0.049010, -0.041958, 0.044400, 0.048803, 0.021540, -0.064647, -0.064428, 0.012915, -0.022198, -0.020184, -0.005834, -0.026198, 0.032482, 0.023163, 0.015108, 0.030980, -0.065866, -0.029328, 0.070558, 0.015657, 0.066492, -0.043658, 0.024929, -0.045167, -0.027404, 0.016784, -0.063279, -0.028123, -0.051202, -0.070564, -0.012581, -0.064198, -0.055930, -0.001677, -0.064450, 0.058190, -0.078554, 0.053487, -0.004790, 0.002017, -0.028633, -0.025524, 0.051907, -0.050148, 0.002511, -0.015534, 0.050718, -0.007492, 0.027050, 0.043222, 0.070210, -0.026146, 0.081613, 0.001830, -0.029909, -0.074315, -0.062314, -0.072800, -0.040436, -0.052785, -0.055725, -0.045594, -0.061305, 0.010000, 0.000511, 0.071600, 0.012007, 0.041674, -0.068319, -0.044133, -0.033975, 0.056654, 0.006484, 0.047764, -0.003012, 0.044585, 0.039361, -0.028940, 0.022004, -0.017489, -0.022186, 0.038393, -0.067917, -0.038163, 0.058174, -0.066135, 0.048399, 0.033451, 0.019426, -0.011972, 0.004409, -0.022815, 0.035434, 0.069013, -0.074055, 0.009245, -0.029596, -0.018282, 0.041652, 0.067039, 0.013789, -0.041805, -0.040162, -0.042518, 0.015841, -0.062565, -0.009952, 0.020405, -0.021182, 0.034116, -0.047293, 0.054598, -0.035782, -0.104531, -0.104526, -0.036887, 0.013560, -0.065634, -0.048695, -0.070618, 0.031441, 0.043619, 0.041287, -0.045048, -0.011516, 0.029401, 0.062417, -0.015987, 0.015068, -0.104979, -0.095414, -0.041132, 0.013937, -0.056236, 0.027546, -0.029525, -0.000507, -0.050662, -0.047102, -0.015868, -0.062020, 0.051864, 0.021074, 0.069018, -0.066517, 0.013467, 0.096297, 0.028139, 0.069356, 0.071230, 0.058384, 0.050265, -0.021704, -0.002067, 0.065713, -0.000381, 0.013600, -0.059920, -0.061435, 0.021708, -0.049853, 0.006745, 0.018801, 0.001418, -0.052146, -0.005170, -0.013736, -0.043031, -0.065826, -0.010357, 0.010254, 0.034280, 0.040873, -0.027313, -0.049517, 0.093959, 0.071788, 0.016221, 0.023692, 0.062397, -0.017785, -0.025093, -0.003129, 0.026696, 0.037228, -0.008623, 0.023085, -0.028718, 0.025334, -0.033252, -0.028501, -0.077182, 0.063254, -0.016964, 0.031342, -0.022769, 0.062765, -0.027013, -0.028979, 0.051185, -0.037054, -0.005463, -0.055094, -0.068612, -0.009168, -0.016898, 0.066777, 0.074995, -0.043753, -0.024302, 0.012035, 0.036039, 0.065269, 0.043445, -0.018625, -0.072732, 0.051112, -0.024871, 0.041361, -0.027908, -0.087022, 0.067205, -0.038551, -0.062647, -0.015873, -0.043968, 0.073032, -0.049928, 0.029672, -0.036654, -0.016124, 0.055146, 0.018188, 0.039057, -0.064434, -0.049399, -0.016775, -0.012566, 0.003918, -0.022026, 0.068956, 0.009639, 0.058924, -0.055227, -0.011964, -0.036381, -0.005908, 0.055187, -0.005648, 0.009066, -0.001060, 0.033243, 0.052664, 0.029391, 0.003864, 0.019603, 0.034708, 0.040804, 0.057813, 0.018043, -0.023488, -0.036442, -0.019250, 0.054235, 0.021327, 0.017207, 0.010003, -0.002270, -0.092292, 0.041996, 0.018702, -0.044943, 0.045530, 0.002684, 0.011564, -0.033388, 0.011998, 0.001496, -0.054168, 0.063554, -0.018808, 0.040940, 0.024496, 0.035810, -0.050309, 0.044767, -0.034108, -0.051128, 0.066114, -0.005579, -0.018571, -0.032481, 0.003032, -0.009770, -0.082842, -0.017003, -0.021999, 0.056179, 0.021766, -0.036014, -0.018796, 0.034984, 0.025153, -0.023995, 0.030056, -0.043272, 0.027817, 0.051628, 0.055592, -0.019932, -0.069195, -0.002571, 0.056498, 0.034359, -0.057679, 0.022325, 0.014739, 0.042843, 0.032807, -0.019559, 0.002803, -0.013720, -0.009016, -0.044837, 0.022561, -0.024115, 0.047897, 0.015443, 0.015816, 0.055913, -0.041822, -0.050058, -0.029553, 0.045360, -0.031722, 0.009710, -0.050248, -0.019067, 0.039274, 0.074598, 0.001574, 0.021190, 0.064415, 0.017329, 0.016842, 0.009514, 0.072675, 0.016659, -0.025500, -0.079763, 0.012907, 0.052656, 0.056036, -0.045567, -0.008057, 0.037240, -0.030592, -0.028201, -0.021758, -0.044635, -0.027804, 0.020833, 0.051016, 0.045842, -0.013232, -0.053362, 0.034086, 0.029227, -0.051291, -0.061966, 0.025422, -0.030752, -0.010025, -0.034961, -0.034440, 0.039786, 0.036397, -0.030680, -0.073224, -0.060143, 0.072850, 0.012495, -0.021813, -0.019188, 0.060106, 0.045541, -0.050724, -0.005760, 0.002696, -0.012229, 0.010266, 0.000946, 0.078125, 0.053418, -0.004417, 0.025129, 0.040416, 0.043796, 0.008178, 0.069445, 0.063562, 0.000605, -0.032302, -0.046622, 0.065139, -0.084960, -0.063030, -0.033527, 0.025339, -0.007272, -0.010270, 0.045468, -0.065388, -0.026696, 0.060930, -0.040896, 0.058748, -0.018149, 0.073718, 0.012142, 0.054565, -0.049107, 0.045855, -0.051025, -0.040527, -0.037389, 0.052242, -0.045646, -0.051577, -0.080296, 0.053160, -0.012717, 0.048929, -0.073027, -0.015726, 0.030781, -0.011792, -0.048830, 0.040070, 0.051540, -0.039314, -0.007345, -0.000039, -0.022811, -0.023376, -0.047770, -0.033288, 0.035783, 0.078223, 0.024519, 0.024247, -0.026449, -0.049479, -0.067513, 0.055626, 0.023052, 0.001190, -0.053068, 0.009093, -0.065711, 0.089506, -0.033049, 0.066250, 0.071086, -0.090866, -0.038171, 0.069710, -0.012152, 0.045694, 0.045731, -0.009593, 0.031313, 0.049850, -0.004584, 0.042752, -0.008567, -0.036547, -0.010020, 0.039830, -0.016302, -0.060839, 0.031918, 0.048282, -0.016482, 0.031502, -0.032280, 0.051634, 0.076961, -0.059329, -0.054860, 0.078342, 0.005925, 0.074928, 0.031130, 0.086554, -0.060178, 0.048649, -0.067242, 0.066008, -0.010110, -0.048735, 0.049855, -0.028098, -0.028718, -0.069025, 0.008399, 0.030579, 0.039643, -0.036763, 0.044053, -0.050097, 0.006170, 0.012847, 0.061997, 0.066157, 0.028178, 0.007690, -0.020593, 0.065038, -0.066744, -0.000838, 0.024901, 0.078206, -0.053187, -0.020782, -0.028681, -0.035002, -0.018838, -0.055953, 0.041483, 0.030039, -0.056141, -0.054182, -0.058216, -0.023797, 0.060323, 0.025044, 0.070477, -0.022302, -0.039917, -0.042995, -0.005533, -0.015710, 0.057344, -0.066695, -0.007048, -0.031329, 0.044102, -0.016327, 0.051444, 0.027490, -0.005977, -0.041599, 0.064186, 0.001315, -0.030644, 0.045125, -0.064868, -0.052588, 0.068289, -0.058054, -0.074970, -0.005033, 0.064257, -0.051895, 0.056152, -0.022484, -0.048885, 0.051093, -0.004851, 0.035682, 0.032829, -0.006295, -0.061158, 0.063310, -0.007258, 0.031386, 0.043784, -0.032941, 0.047075, -0.049530, 0.045558, 0.020741, 0.044225, -0.010734, 0.063209, -0.005351, -0.023365, -0.029008, -0.049529, 0.037429, -0.065871, -0.016143, 0.070602, -0.023194, -0.057593, -0.038203, -0.026573, 0.042934, -0.036971, -0.012096, -0.009844, 0.064738, 0.009947, -0.002260, 0.012173, 0.040725, 0.047316, -0.057335, 0.041936, -0.025302, 0.024511, -0.010565, 0.062331, -0.060269, 0.016306, -0.050193, 0.067823, 0.032064, 0.047480, -0.036860, -0.020913, -0.036012, 0.008753, -0.021999, -0.013594, -0.094462, 0.041350, -0.038673, -0.047567, 0.026522, -0.035299, -0.055264, 0.052098, -0.005143, 0.071445, -0.014076, -0.032358, -0.073267, -0.035281, 0.000684, -0.000435, -0.054570, -0.033579, 0.039597, -0.045827, 0.039837, 0.069563, -0.053409, 0.008973, -0.079894, 0.008447, -0.007379, -0.011295, -0.000223, 0.028346, -0.019628, -0.055290, 0.005258, -0.024975, 0.085767, 0.075713, 0.003978, -0.006589, 0.054178, -0.030494, 0.059858, -0.044627, -0.073034, 0.017815, 0.044590, -0.009773, 0.020305, -0.066164, -0.024572, 0.040683, 0.004156, 0.048974, 0.058357, -0.059865, -0.023323, -0.034021, -0.038888, -0.029625, -0.025928, -0.039421, -0.029770, -0.037844, 0.061017, -0.044470, -0.026994, -0.080643, -0.046613, -0.077402, -0.021255, -0.060057, -0.046188, 0.000067, 0.042506, 0.016948, 0.011715, -0.066536, -0.005642, -0.054110, -0.023417, 0.044547, 0.051442, 0.053314, -0.036367, 0.001561, -0.015754, 0.048835, 0.061722, 0.054950, -0.025983, -0.012120, 0.014458, 0.041013, -0.057944, -0.006630, 0.063969, 0.062934, 0.019191, -0.054797, 0.059986, -0.021070, 0.054342, 0.039366, -0.044130, 0.023968, 0.033008, -0.012457, -0.019927, -0.008141, -0.067365, -0.052571, -0.079661, -0.001868, -0.030627, -0.060858, -0.064591, 0.005710, -0.058583, -0.058383, 0.042617, -0.061894, -0.090236, -0.017823, 0.026445, -0.000620, -0.039790, 0.056303, 0.062342, -0.001199, -0.065050, -0.025799, -0.071149, 0.049598, 0.054923, -0.018982, 0.021115, 0.055707, 0.014839, -0.044495, 0.055462, 0.029414, -0.015127, -0.025779, -0.025742, -0.036382, 0.043881, -0.022937, -0.001324, 0.015030, 0.036301, 0.029804, 0.001517, 0.000683, -0.040586, 0.003524, 0.043197, 0.041656, 0.025742, 0.063774, 0.039025, 0.015942, 0.078709, -0.073532, 0.037526, 0.074496, 0.033474, -0.064976, 0.024482, 0.084645, 0.069366, 0.029427, -0.084099, 0.053450, 0.053335, 0.071059, 0.010706, -0.017665, -0.022211, 0.004762, -0.081019, 0.047197, -0.040104, -0.034406, -0.003593, -0.030849, -0.064125, 0.016463, -0.027473, -0.000283, 0.061264, 0.049286, -0.046749, -0.086263, -0.026004, 0.053224, 0.026749, -0.052986, 0.038127, 0.054019, -0.041639, -0.025878, -0.020255, 0.046746, 0.036302, 0.012320, 0.025009, -0.035530, 0.093394, 0.016136, -0.054996, -0.107420, -0.033356, -0.043441, -0.011640, -0.053130, -0.056137, 0.014598, -0.056669, -0.078481, -0.016104, 0.028716, 0.048036, 0.039987, 0.018183, 0.012218, 0.078960, -0.039346, -0.031991, -0.013049, 0.023095, -0.001040, 0.060980, 0.004736, -0.031000, 0.041002, -0.068210, 0.041599, 0.014520, -0.048722, -0.007290, -0.001745, -0.081046, -0.083215, 0.010623, 0.060286, -0.028027, 0.002518, -0.023361, 0.045310, 0.023932, 0.068783, -0.044087, 0.047665, 0.034270, -0.056842, -0.019510, -0.015080, 0.029404, 0.028763, 0.009273, 0.021923, -0.013161, 0.020953, -0.032900, 0.061718, -0.063789, -0.035122, -0.005829, -0.010710, 0.004405, -0.030098, 0.048242, -0.016397, -0.019138, 0.043416, 0.024214, 0.020292, -0.052291, -0.013736, -0.050629, -0.075530, 0.028295, -0.013000, 0.056180, -0.001992, -0.041177, -0.029743, 0.031258, -0.002029, 0.019307, -0.045962, -0.066924, -0.002644, 0.048303, 0.001246, 0.071903, 0.003145, 0.031112, -0.033819, -0.057745, 0.035434, 0.005473, -0.009488, 0.033378, 0.012780, -0.078640, 0.055968, -0.033258, -0.055915, 0.029492, -0.044445, 0.002110, -0.050152, 0.040509, -0.069869, 0.050718, 0.030210, -0.004963, 0.029551, -0.032413, 0.053069, -0.009672, -0.066762, -0.060725, -0.054714, 0.011747, 0.086938, 0.011898, -0.034801, 0.076547, 0.094247, -0.003329, 0.066213, -0.009165, -0.046272, -0.065460, 0.065051, 0.033926, -0.061008, -0.038329, 0.008638, 0.021092, -0.050121, 0.001557, -0.006017, 0.055753, 0.064480, 0.025386, 0.061614, -0.052291, -0.034035, 0.002966, -0.023252, -0.029089, 0.032507, -0.038182, -0.003735, -0.007542, -0.017609, 0.010141, 0.030214, 0.039760, -0.028777, 0.064305, -0.004561, -0.017658, -0.025724, 0.056729, -0.028575, 0.019645, 0.050755, -0.041669, 0.043630, 0.048422, -0.027707, -0.012406, -0.052745, -0.009706, -0.002808, -0.066176, -0.057171, 0.022445, -0.022363, -0.018465, 0.027909, -0.010044, 0.037794, 0.055527, -0.006738, -0.044777, 0.061555, 0.043134, 0.063269, 0.066940, 0.054495, 0.068965, -0.053174, -0.048993, 0.039276, 0.001928, 0.032118, 0.050445, 0.046101, -0.006457, 0.076032, 0.011413, -0.007915, -0.034617, 0.008376, -0.042815, 0.027718, 0.032858, -0.041144, -0.025800, 0.018357, 0.032270, -0.042640, 0.010376, 0.017444, -0.017168, 0.015323, 0.007271, 0.065375, 0.074488, 0.032911, -0.042620, -0.041325, -0.023495, -0.009096, -0.082050, -0.076946, -0.010183, 0.034121, 0.000649, 0.054753, 0.017122, 0.027068, -0.033300, 0.075296, -0.037507, 0.049416, -0.007477, -0.061863, -0.061828, 0.010715, 0.075306, 0.028595, 0.015647, 0.044892, 0.074028, 0.022398, 0.039172, 0.058387, -0.034459, -0.002735, 0.059746, 0.059741, 0.085691, -0.080942, -0.054791, -0.042049, -0.078146, 0.034843, -0.040435, 0.086229, -0.058299, 0.051800, -0.045025, 0.036912, -0.061854, -0.016385, 0.089220, -0.066780, 0.051399, 0.074797, 0.051227, -0.041427, -0.007427, 0.024882, 0.061548, 0.034469, -0.007225, -0.037759, 0.050574, 0.013772, 0.026614, -0.032732, 0.024002, 0.048757, 0.007510, 0.023090, 0.019143, -0.063846, 0.002603, 0.050181, -0.065446, -0.060538, -0.066753, 0.055954, -0.020968, 0.039309, 0.066177, 0.023006, 0.054636, 0.058493, -0.005458, 0.034985, -0.027938, 0.084794, -0.082174, -0.042596, 0.014331, 0.075792, 0.015729, -0.063048, -0.012741, -0.023381, -0.016680, 0.031715, 0.069324, 0.018003, 0.031335, -0.069613, 0.015990, -0.033726, 0.026301, 0.035048, -0.047305, 0.036944, -0.040542, 0.025216, -0.005399, 0.005498, 0.018504, 0.012751, -0.062779, 0.068925, -0.034637, -0.021385, 0.056430, 0.055937, 0.013526, -0.058932, -0.010028, 0.047370, 0.063945, 0.020079, -0.004049, -0.013837, -0.030660, 0.068044, -0.036505, 0.028741, 0.055000, -0.030463, 0.076497, 0.004034, 0.057335, 0.006826, 0.048930, -0.008510, 0.028281, -0.031261, 0.042384, -0.050803, -0.023387, 0.004678, 0.058880, 0.068534, -0.038481, -0.009116, 0.007299, 0.007644, -0.048817, 0.015989, 0.029612, 0.052292, -0.039375, -0.052520, 0.054463, -0.009038, -0.026635, -0.031271, 0.003318, 0.042567, -0.044956, -0.056717, -0.035085, -0.028042, 0.032781, 0.027579, 0.004830, 0.060495, 0.054411, -0.044163, -0.015110, -0.061582, -0.024365, 0.032212, 0.040690, -0.010030, 0.032049, 0.073914, -0.064532, -0.070463, 0.012904, 0.005602, -0.041795, 0.000297, -0.064411, 0.034392, 0.067725, 0.036465, 0.035983, 0.041706, 0.031665, 0.003827, -0.049547, 0.053521, 0.016239, -0.026898, 0.064297, -0.041259, -0.042278, -0.045264, -0.021527, 0.057961, 0.028618, 0.001086, 0.035260, 0.023850, 0.028098, -0.040224, 0.012393, 0.060112, 0.018224, 0.052890, -0.032111, 0.046806, -0.072060, 0.037022, 0.075206, 0.066317, 0.060924, 0.005786, -0.038188, -0.021784, 0.014439, -0.036187, -0.016641, 0.034459, 0.035164, -0.006777, -0.004952, 0.086675, -0.008281, -0.008043, 0.041004, 0.060837, 0.006630, 0.087425, -0.088246, -0.085509, 0.052988, -0.034207, -0.041424, -0.002822, -0.061491, -0.009499, -0.077965, -0.089178, 0.113261, 0.032859, -0.107387, 0.004187, -0.112982, -0.080119, -0.066973, 0.043940, -0.029851, -0.002151, 0.031787, 0.052949, 0.084622, -0.025084, 0.028792, 0.076879, 0.052976, 0.012181, -0.065752, -0.063756, 0.060271, -0.004021, -0.003225, 0.017899, 0.093815, -0.060073, -0.023240, -0.000577, -0.011135, -0.019960, -0.092577, -0.002702, 0.032599, 0.035561, 0.091065, -0.054511, 0.081863, 0.070527, 0.005648, -0.064254, 0.020332, 0.038245, -0.002422, -0.046039, -0.039453, 0.084718, 0.024720, -0.051653, -0.108353, 0.000553, -0.035796, 0.096478, -0.045833, 0.078410, -0.077614, -0.039233, -0.048039, -0.085039, 0.006561, 0.066759, -0.025783, -0.062756, 0.018994, -0.005221, 0.012127, -0.033165, 0.002304, 0.053751, -0.055926, -0.004955, -0.022017, 0.064690, 0.029504, -0.051677, 0.013862, -0.052191, 0.072125, -0.064738, 0.003874, 0.080402, 0.101232, -0.037697, -0.077009, -0.014988, 0.004650, 0.009087, -0.070646, 0.011000, -0.043827, 0.043658, 0.045046, -0.067575, -0.014152, 0.010421, -0.059817, -0.011765, -0.036654, -0.036527, 0.022133, -0.012057, -0.065301, 0.009901, 0.070058, 0.046232, 0.062697, 0.015596, 0.001212, -0.032398, 0.007293, 0.047949, -0.009599, -0.033723, -0.009329, 0.047709, 0.046535, 0.049666, -0.009821, 0.090287, 0.051007, -0.002982, 0.080589, 0.017518, 0.019263, 0.020192, 0.002778, 0.026613, -0.055995, 0.038991, 0.089366, 0.004422, -0.003196, 0.072391, -0.072610, -0.018445, -0.033237, 0.059188, -0.046815, -0.074088, -0.068055, 0.069992, 0.095922, 0.041711, 0.001713, -0.006885, -0.011468, 0.008380, -0.030356, -0.031460, 0.052443, 0.046398, -0.079694, 0.056591, 0.003862, -0.043565, -0.012981, -0.055433, 0.067657, -0.045180, -0.050295, 0.026228, 0.019310, -0.033105, -0.038191, 0.037830, -0.048128, -0.042855, -0.041883, 0.010532, -0.004535, -0.045701, -0.024403, 0.003340, 0.084195, 0.041875, -0.022399, -0.028341, -0.034272, -0.045990, -0.033906, 0.005683, -0.048406, -0.016317, 0.043066, 0.040372, -0.028579, 0.057392, 0.075154, -0.029484, -0.001640, 0.069965, -0.011137, 0.081248, -0.071112, 0.070885, 0.056917, 0.045188, 0.055587, 0.068418, -0.039651, -0.072186, 0.072385, -0.051853, -0.053811, -0.013111, -0.013123, -0.027318, 0.041134, 0.022136, 0.031962, 0.081922, 0.023951, -0.007474, -0.022197, 0.060111, 0.000945, 0.037413, 0.018606, -0.016839, -0.068885, 0.072454, 0.020077, -0.070087, 0.036933, 0.062341, -0.010231, -0.053575, 0.031941, 0.013859, -0.066555, 0.040822, 0.055620, -0.007023, -0.037231, -0.002821, -0.001649, -0.028166, 0.050083, -0.029082, 0.067360, -0.070205, -0.006976, 0.041427, 0.014898, 0.016478, 0.053492, 0.021738, 0.094508, 0.048296, 0.034696, -0.002790, -0.035474, -0.078353, -0.034344, -0.032506, 0.012275, 0.059946, -0.010042, -0.023305, -0.030300, -0.015880, 0.055372, 0.003943, -0.048970, 0.063764, 0.014333, 0.043013, -0.007960, -0.023163, -0.060692, 0.024641, -0.051659, -0.028442, 0.062403, -0.003323, -0.004175, -0.054030, -0.062276, -0.028166, 0.028908, -0.028414, 0.014143, 0.049977, -0.014227, -0.044989, 0.016165, 0.025831, -0.051055, 0.045867, -0.012294, 0.036765, 0.042077, 0.053084, 0.061825, -0.063410, -0.060113, 0.057505, -0.044411, -0.031244, 0.031293, 0.021749, -0.005160, 0.030782, 0.061281, 0.004677, -0.043774, -0.054518, -0.063032, 0.036516, 0.050737, 0.032319, 0.028762, -0.049093, -0.020295, -0.031186, 0.018496, 0.019785, 0.066876, -0.056709, -0.074895, 0.063994, -0.023132, 0.054501, -0.013649, 0.056563, -0.011318, 0.041843, -0.063948, -0.033221, -0.010380, -0.033380, 0.008972, 0.009494, 0.061073, -0.019730, -0.026250, 0.020046, -0.023654, 0.034088, 0.060244, 0.045427, -0.051349, -0.086436, -0.006600, -0.052961, -0.010751, 0.042912, -0.001546, 0.033835, -0.049766, 0.005900, 0.050382, -0.028390, 0.013084, -0.047072, -0.071917, 0.056141, 0.016330, 0.068334, -0.070837, -0.070076, 0.060200, 0.055966, 0.016741, 0.039927, 0.009417, 0.017934, 0.051862, 0.066650, 0.031489, 0.034403, -0.030266, -0.009659, -0.054739, 0.006544, 0.009506, 0.066643, -0.054540, 0.037994, 0.023461, 0.011281, -0.052705, 0.006310, -0.051840, 0.016292, -0.012944, -0.003078, 0.050463, -0.010566, -0.007487, 0.045777, 0.052222, 0.052402, -0.001065, 0.071379, -0.047728, -0.026604, 0.008737, -0.012231, 0.016494, 0.032190, -0.039406, -0.028609, 0.040420, 0.026376, 0.013209, 0.017368, 0.007357, 0.023907, -0.033709, -0.052654, -0.014574, 0.024061, 0.047466, 0.001508, -0.059698, 0.017532, -0.029977, -0.038528, -0.052600, 0.038850, 0.042151, -0.021610, 0.067535, 0.061657, 0.016371, -0.050169, -0.020683, 0.024055, 0.031328, -0.023055, -0.046355, -0.056275, 0.030773, 0.055130, -0.070900, 0.059470, -0.026966, -0.071478, -0.048750, 0.021062, 0.039640, 0.025437, 0.011448, 0.068871, -0.056984, 0.025040, 0.005068, 0.053156, -0.007879, 0.036708, 0.028337, -0.002534, -0.008799,